{
  "Layers": [
    {
      "Activation": "Sigmoid",
      "Biases": [
        2.6840085246084411,
        2.4285327897204296,
        1.1955522058980939,
        0.807026205335866,
        -1.2742321409945332,
        -1.9838211772941392,
        1.6110402320243233,
        0.93674905274317755,
        -0.320957902622084,
        -0.70137572636236822,
        -0.932727158262277,
        -0.32221987615193082,
        -1.0376866616780971,
        0.78851698987964736,
        0.842475067217756,
        -3.5172489445659076,
        1.7494800251087095,
        -0.45514358847147784,
        -0.73105416627177577,
        -1.235305953490053,
        -1.2857057492117894,
        0.63290412684745156,
        1.1051337866874371,
        0.73411173220160364,
        -3.05904269788844,
        -0.25918786909656688,
        -1.3995811094496051,
        -0.0494542358711904,
        -1.419245131548905,
        -0.86535979989517053,
        -0.79997578401457869,
        -1.6658304653729263,
        -2.5548979255364013,
        -1.0363326963285842,
        1.2400891199148643,
        0.023718484316451755,
        -1.1560339723743243,
        -0.018661415107700571,
        2.3768414781966021,
        0.082813017106766515,
        -0.20117799156672092,
        1.0291588310048063,
        -0.33689963359172931,
        1.2188434252672089,
        -3.3025406754914779,
        -1.753756524075675,
        0.31552235000969853,
        0.726023783556855,
        2.5220800664926335,
        0.96794442196438069
      ],
      "InputWeights": [
        [
          0.47945640151974639,
          -0.772235876969725,
          0.78408172302248491,
          0.51251808255844944,
          0.67069887301094522,
          0.36424927772961579,
          0.556788772252897,
          0.26929840558521578,
          0.92136213814859946,
          -0.39437314887028235,
          0.55657794717343889,
          -0.85784646162972289,
          0.57477699840602192,
          0.64556424720132444,
          -0.70225195073266911,
          0.82747500548348363,
          0.16860911852115756,
          -0.16507868384166305,
          0.22572740761647506,
          -0.64328820963614453,
          0.63453437205815744,
          -0.80656863963522341,
          0.21029167626430734,
          0.5494644951708,
          -0.52286659344887421,
          0.8786728360942252,
          0.52717532040925363,
          -0.318450709848126,
          -0.22960523889231824,
          -0.7150852972200511,
          -0.31198668953620812,
          -0.27883885435506861,
          0.59766976391848214,
          -0.035215598352993475,
          0.68370157707425061,
          -0.71235078801100937,
          0.79249178094244788,
          0.67902448392783354,
          -0.42751139842996838,
          -0.16390889187737956,
          -0.72348818302333118,
          -0.21156823406101261,
          -0.59480986927180257,
          0.393636506628739,
          -0.26422278180562908,
          0.62552941141486307,
          -0.36011851368110209,
          0.72533563821219049,
          0.21968288049921433,
          0.61237677971783555
        ],
        [
          0.18888596337873709,
          0.9343256635165661,
          0.11624058936078913,
          -0.6467660539324469,
          -0.63129043508179794,
          0.61517952229829942,
          0.36509627956114571,
          -0.70148337705673214,
          0.29970421877718523,
          -0.64789664042614159,
          -0.6031023180613444,
          -0.11171329549731764,
          0.44451114503836514,
          0.64511861796410475,
          -0.28851940574800972,
          -0.2410417341606578,
          -0.06384776116913321,
          0.62557453607052993,
          -0.21979274029759185,
          -0.004818604395040226,
          -0.71273348080513943,
          -0.57932140752964045,
          0.98151060547117785,
          -0.65586961687734913,
          -0.1306213338472085,
          -0.57354777704266235,
          0.055549070801525643,
          0.55926787872196282,
          0.30043238773176784,
          0.95632905061110873,
          -0.4326639457944127,
          -0.31862106227994125,
          -0.39374842032828855,
          0.35805000289460392,
          -0.0682515518838408,
          0.90411536773035439,
          -0.86845521291331162,
          -0.42299589243414576,
          0.45251742938441691,
          0.61413925603589825,
          0.30115484513161789,
          -0.81079722269537069,
          -0.55253322698651519,
          0.530001457427231,
          0.24392408465195845,
          0.2225344820678056,
          0.48639614113036961,
          0.047030091691975529,
          0.042547747081893572,
          -0.15305219969760794
        ],
        [
          0.82623500572176989,
          -0.07988938721414035,
          -0.069596714160322481,
          0.67665077331409984,
          0.050537469341567144,
          -0.93285145740022446,
          0.81574474428924382,
          0.40086609866783152,
          0.79758580520769318,
          -0.98327202485374865,
          -0.96062099798937894,
          -0.025217189148389475,
          0.25734065301886083,
          -0.0179193538620245,
          0.83972905530850006,
          -0.78750877179927592,
          -0.84873700145265252,
          -0.73537378277785648,
          -0.76825060077857976,
          0.66809218533112835,
          -0.63919143910108078,
          0.506284720913392,
          0.59558101607856051,
          -0.51115738319425474,
          0.49488443298415363,
          -0.7372145264157407,
          0.014532552896010855,
          0.9940236759870581,
          0.54310279455200561,
          0.022848967134304041,
          0.072427495069463235,
          -0.72331601272090185,
          0.16188222515357426,
          0.052807422998551228,
          0.82342385425174836,
          0.51874277233446153,
          -0.4670951947344934,
          0.8123839336105908,
          -0.087108429736463,
          0.20837308463245974,
          -0.97687712733812393,
          -0.64486012145975746,
          -0.632593688522565,
          -0.5186824562302107,
          -0.82815396965341093,
          0.025169638151655523,
          -0.66573971578480162,
          0.15023940981944309,
          0.31782163871340746,
          0.85380124992642081
        ],
        [
          0.49972707810466033,
          0.32309217369595444,
          -0.79324638662559377,
          0.920472332787972,
          0.55626801984525909,
          0.18635012987999924,
          0.38551645414121311,
          0.66497706502063636,
          -0.714120168443567,
          -0.86803032313905415,
          -0.724997720731251,
          0.65708221758506757,
          0.74347001445640537,
          -0.88812973997636047,
          0.79157186393881751,
          -0.30436398046816215,
          -0.28470043049756344,
          -0.64939373926415611,
          -0.65879219385710364,
          0.72257516526392829,
          0.76343456194216441,
          0.2368847601553907,
          0.02887881644451689,
          0.18833017793287762,
          -0.17272279668451027,
          -0.55949913176981136,
          0.77587839970739225,
          -0.39341869675221069,
          0.76826024706640073,
          -0.9779583090940861,
          -0.42953615853221139,
          -0.15470214963639081,
          -0.18463329602072248,
          0.49335618008976739,
          0.54324485681893531,
          -0.88566978177687017,
          0.26063826528764317,
          0.28355958956596677,
          -0.13570888385270202,
          0.22501588889003144,
          -0.83182818655103208,
          0.72320650048455082,
          -0.89121926945178476,
          -0.35686733259770059,
          0.69451582438452719,
          -0.36262623879277478,
          -0.36456289001378744,
          0.25981119269161584,
          -0.82659140247031926,
          -0.2906474632402205
        ],
        [
          -0.23677558908585239,
          -0.90802331696796423,
          -0.79717679280487286,
          -0.36708686309930366,
          0.31549944007892983,
          0.32942519440323137,
          -0.17952301013128966,
          0.42759907963998744,
          -0.86766691852340738,
          0.49995538224040986,
          0.048639912806790218,
          -0.2475114741105125,
          0.79027091144744965,
          0.99988727159704049,
          -0.32069750874048475,
          0.10170132080301164,
          -0.43053250646781083,
          -0.2176546299286807,
          0.49523853452960759,
          0.89736697466819715,
          -0.041001623455129775,
          -0.82055007065937247,
          -0.93462690334397658,
          0.10330583436217777,
          0.33854847493730245,
          -0.15161260941340682,
          -0.7924043307043459,
          -0.0540009993561354,
          0.50672778719269462,
          -0.57646421864874642,
          0.67716456150042859,
          0.032612480151194577,
          0.80506203017149158,
          0.399394912823343,
          0.33349451137647673,
          -0.89174235025120763,
          -0.75606259622224381,
          0.14104310904000483,
          -0.40192217704000416,
          0.11016507117611964,
          -0.85978301990024508,
          -0.97511160843173184,
          0.96578413763539228,
          0.089499665536453332,
          -0.92386803024308206,
          0.39752762385493745,
          0.75049780520050369,
          0.80211659491636,
          -0.61240285606235145,
          0.56495756416532672
        ],
        [
          -0.69254909702917222,
          -0.19464451642294497,
          -0.32355953362475753,
          0.023955682571376632,
          0.28995178920340614,
          -0.11080029759558388,
          -0.0829292846362391,
          0.29678159343391786,
          -0.95749992525184791,
          -0.37999570854436654,
          0.27205405844957248,
          -0.61989468375429946,
          0.53734884030346486,
          -0.853841567599087,
          0.28190961760723587,
          -0.72073478814936642,
          0.79373839238094,
          0.25792173520508516,
          0.098507942520915076,
          0.81413949972725641,
          -0.10902967416278545,
          -0.65254825800948169,
          0.74566428367417947,
          -0.19270855722213856,
          -0.84423696250511393,
          -0.89275918181327507,
          0.19987812927361381,
          -0.21226249616263559,
          0.60812259162009485,
          -0.26160395783618107,
          -0.24451686566357803,
          0.88901079834685814,
          -0.70407855444636158,
          -0.65737452945553443,
          0.73188754840696457,
          0.56309465021195026,
          0.18529389856768591,
          -0.78915995157944907,
          -0.44329345317649188,
          0.45972259805150534,
          -0.12408190898776079,
          0.21187291779450085,
          -0.25922452049808253,
          -0.0050874886843470827,
          0.20126099122852195,
          0.27740530802718033,
          0.96435120772941552,
          0.524340435803087,
          0.88445653422623993,
          -0.63499931089628958
        ],
        [
          -0.18321570977914858,
          0.64231107002523535,
          -0.60044823196416186,
          0.59442744012856119,
          -0.94694922537401627,
          -0.39835261333726324,
          0.92655162713634431,
          -0.26931679880864789,
          -0.675796437281913,
          0.48824412240218323,
          -0.76407418358495094,
          -0.7602611907499327,
          0.69209634620857152,
          -0.25748306391838749,
          -0.4591557092380375,
          -0.12052655573726179,
          0.8460656143389067,
          0.12873063437485452,
          -0.64135720056396728,
          0.48942580020769355,
          0.12842097836017138,
          0.128138798938181,
          -0.81875403477440878,
          -0.13942636780637077,
          0.84777024177977756,
          0.39501040380170749,
          0.42226776467068916,
          -0.26918880412953122,
          -0.74759104755542449,
          -0.73730952581636588,
          -0.9540620558768228,
          -0.19339034899817706,
          -0.87142359306152872,
          -0.073967788656035482,
          -0.30415641359112516,
          0.030611387037869777,
          0.92261984443678746,
          0.522791975329938,
          0.29810592394230423,
          0.34698057334482874,
          -0.74672861237257482,
          0.84813837447104834,
          0.20596872692454693,
          -0.0945950256469647,
          -0.51400277547398188,
          0.34103522210231652,
          0.084355758981636289,
          0.45520062086760166,
          0.90934601408317806,
          0.35901997045564715
        ],
        [
          0.50850745346057213,
          -0.32580097913330519,
          0.94035313901791884,
          -0.92843298749132819,
          -0.98074377699613879,
          -0.42635955232188083,
          -0.7867187502313906,
          0.77236484569816355,
          -0.29567563461110935,
          0.10649992506525734,
          0.49129826174699381,
          -0.50925169388972658,
          -0.57175879165369359,
          -0.53027704050844815,
          -0.90502718765032875,
          -0.68585791326850121,
          -0.64630641605338246,
          0.93509793855093848,
          0.45247832791033,
          0.3636589627039325,
          0.563840887084995,
          0.85836406023882006,
          0.689406793838336,
          0.98365384993882288,
          0.88007446889908925,
          -0.90501836200517938,
          -0.44836944169000859,
          0.82243223111474062,
          0.86325179062948354,
          0.70611561825253089,
          0.32992754239930788,
          -0.15641595034608544,
          -0.20808883992994437,
          -0.57361758296259424,
          -0.46527824440098658,
          0.99762318171860787,
          -0.15319378452921467,
          0.8041799442501093,
          0.32346532309336123,
          0.010979029085206466,
          -0.26753513587819328,
          0.073007634336954466,
          0.98184237096914384,
          0.32112011906740284,
          0.3146252551317853,
          0.39009580149165024,
          -0.89380937301182606,
          -0.826724204992725,
          -0.19156186812669,
          0.12357093596779734
        ],
        [
          0.20760558321725797,
          -0.6760912654881478,
          -0.21233874425003951,
          0.1473989426617785,
          -0.25793166271287271,
          -0.77479212208648707,
          0.59941581138553679,
          0.07257191158210495,
          0.27001973896316245,
          0.741414741655218,
          0.04008455662649487,
          0.032636307485084469,
          0.055733439430610154,
          0.5357377182684252,
          -0.40737672800874714,
          0.56944724749982889,
          -0.416537819463796,
          0.98995743147872817,
          -0.78702723897908633,
          0.8285722452472819,
          0.91117363287547659,
          -0.36885171458408694,
          -0.70983365802656218,
          0.12578444114690707,
          0.031597225220487954,
          -0.98300495676038191,
          -0.16205432931523967,
          -0.010626564544145472,
          0.93404693970621355,
          0.75704996883623321,
          -0.81119542739947292,
          -0.57780726191340792,
          0.41227818183562231,
          -0.49070586083339779,
          0.16797192575355466,
          0.39383843662515905,
          -0.71602269110814443,
          0.20614213674631499,
          0.85703859037628594,
          -0.4414881919828782,
          -0.90662674748517336,
          0.54123335607251011,
          -0.25265943348886122,
          -0.43125023146110558,
          -0.79833815798954488,
          -0.87787697447627644,
          -0.50447941989266731,
          -0.98155027703739561,
          0.90291138813719274,
          -0.037629126403985927
        ],
        [
          -0.98513146294621412,
          0.15701052188354461,
          0.9324208630185814,
          0.52578645646506184,
          0.66560698674201657,
          -0.91926620052193786,
          -0.71923807831337094,
          -0.27497749359965196,
          -0.781887537538803,
          -0.12634891244076038,
          -0.1098039018024177,
          -0.069791321803201758,
          0.074537023587139511,
          -0.1487841337926322,
          -0.46888307131572071,
          0.681085956936931,
          0.24419579488592214,
          0.36366552548329639,
          -0.59789504284885531,
          -0.31533652015247526,
          -0.50041191927683137,
          0.29783582519456286,
          0.75462596658055381,
          -0.50567622318124961,
          0.61790434689404383,
          -0.17568146812073049,
          0.86039526700416247,
          0.88290690859177257,
          -0.516171124538623,
          -0.29797822106875493,
          0.29916772215037624,
          -0.010939145765540956,
          0.14949496272912016,
          0.83955145854621449,
          0.53494590561779443,
          0.859922947877293,
          -0.95496685628392508,
          0.15146915722940646,
          -0.17202572639193797,
          -0.091570819759986807,
          0.66080278131932257,
          0.38835244621984272,
          -0.47793172948540796,
          0.99486562597618755,
          0.891446374889003,
          -0.648181397534682,
          -0.95365105358512559,
          0.92922861961290382,
          0.659549982807414,
          -0.75583003630910539
        ],
        [
          0.31223074867975792,
          -0.0728510642382813,
          0.57681800559463514,
          0.21870765048016744,
          -0.052236985404828205,
          -0.80512911722993041,
          0.33319903877712648,
          0.8117023983163989,
          -0.90390218186171989,
          0.94199249827802423,
          0.0049074007630022726,
          0.27142774809865944,
          -0.91891365087430266,
          0.018549544084154358,
          -0.572272737498632,
          -0.99731999593577747,
          -0.99635682002278336,
          -0.062310472914659312,
          -0.32512975099411995,
          0.26424339267208097,
          -0.71569979256538618,
          -0.12759464332177131,
          0.60115561475415424,
          0.23578860146728584,
          -0.388121778153258,
          0.50365678242134526,
          -0.49053100766250068,
          0.86798266060979212,
          -0.51997439121662847,
          0.53181719514295478,
          0.78859126722778228,
          0.18638368618926107,
          0.45484050638935042,
          0.9103694464464418,
          0.25251274270877949,
          -0.77653343248812345,
          0.066727714961543422,
          -0.31247077215160007,
          0.52698848724274161,
          0.14153139080457733,
          0.28585588090872477,
          0.399335972460877,
          -0.38252461884649147,
          -0.91981950926541034,
          0.26240304095825973,
          0.51295981922023137,
          0.83530301066486679,
          0.77791440341264151,
          0.88070243602506937,
          0.81402494705233253
        ],
        [
          -0.35306720473217884,
          0.36158095291295922,
          0.3752267574362117,
          0.89740991317601138,
          -0.51421580998085747,
          -0.24880379335024647,
          -0.92424051775453031,
          -0.87176668437810179,
          -0.12945424483129445,
          -0.17578159338287677,
          0.48233841308043018,
          -0.52187782122962612,
          0.37797255386768164,
          0.92454999107787106,
          -0.73727782651526319,
          -0.30710065904798434,
          -0.31559751116301771,
          0.784466098442976,
          0.23298921238715334,
          -0.3664477626535404,
          0.095696642104839053,
          -0.60200101211957957,
          -0.90923572211156889,
          -0.72711345295614194,
          0.00021456786579272214,
          0.682717161930228,
          -0.15250856652487266,
          -0.263351514280235,
          0.95824984320604034,
          0.37046925876975045,
          -6.861340845732218E-05,
          0.23935448580673038,
          0.654336469443031,
          -0.90936586825058541,
          0.98612523562217358,
          0.4244784373354229,
          -0.75097672676280847,
          0.87415651806009065,
          -0.57249354126954255,
          0.37290992701038922,
          0.77427421856493,
          -0.92670879563415565,
          0.6649354149446759,
          -0.099769848053808008,
          -0.38738088303090212,
          0.9460653531628116,
          0.64235509421116255,
          -0.80348117119990148,
          -0.37111730705126827,
          -0.28111163626474078
        ],
        [
          -0.071097257023642668,
          0.61488073994864056,
          0.80968052278378877,
          -0.035170779468393976,
          0.43324647425165758,
          -0.66676109257154248,
          0.4315702737962343,
          0.92864657141482376,
          -0.87342281503666452,
          -0.077068200373833537,
          0.83826093092149823,
          0.57744585911574009,
          0.043214283543128472,
          -0.12473844238738037,
          -0.89588028744034109,
          -0.77267467364917675,
          -0.5135294121377072,
          -0.4111171319637596,
          -0.514456370647361,
          0.1970457684708041,
          -0.44221045324238978,
          -0.62093433195798808,
          -0.6992069979516089,
          0.14956114338967985,
          -0.8727150500494143,
          0.49201936208708258,
          0.33002020106958996,
          0.88053588689122686,
          -0.00075965061444758532,
          -0.46399729155222191,
          -0.054097500701578913,
          0.74543525823028645,
          0.88671993845617147,
          -0.018037827091566309,
          0.34575784410248955,
          0.6714120567042775,
          -0.453832993256565,
          -0.76863517797815317,
          -0.74356094955645657,
          -0.83516780411974034,
          0.22886096710224682,
          -0.15289441795564607,
          -0.82170469831659076,
          0.18035508909335768,
          0.51217538283504493,
          0.070573280853255357,
          -0.69872992576353088,
          -0.62882641332257339,
          0.53955962828222959,
          0.66678732353650427
        ],
        [
          0.768509469159791,
          -0.34617293546987904,
          0.36155652981533332,
          -0.73214602359734537,
          0.59809985746581917,
          0.57337412198748394,
          -0.87798535378898612,
          0.53662105226960821,
          -0.054817569466077083,
          0.53011003087673914,
          0.50087684271614352,
          -0.48273799447001026,
          -0.7449838949161931,
          0.13030393342581051,
          0.037477273858748113,
          0.64410601768575393,
          0.94155399847287291,
          -0.69173799835392635,
          -0.57003338759463451,
          0.55089634351738292,
          0.63482101314896411,
          0.5307061681403733,
          -0.29379876586668818,
          -0.082209369448669356,
          -0.2510718109474423,
          -0.3701664093272567,
          0.6805168549493732,
          -0.8274943712640761,
          0.77111223655709327,
          0.78617744818371815,
          0.40391020463846927,
          0.98483228406254886,
          0.18315060866245381,
          -0.34984816370465238,
          -0.839491587668088,
          -0.1974297005041975,
          0.41245428345460688,
          0.93369949183003031,
          0.91526714791577657,
          -0.9273156671216255,
          0.82483498808268241,
          -0.29318889891033661,
          -0.99251510119870856,
          0.81327053622776069,
          0.83576228437007072,
          0.40244753104248648,
          0.76445625454150745,
          -0.5629965239195005,
          -0.31511094322964484,
          0.739218445647266
        ],
        [
          0.035022873952547114,
          -0.041623963060628842,
          -0.55806545956658216,
          -0.14635634130058908,
          -0.58680565907320525,
          -0.68311947403282525,
          0.17575345970582823,
          0.8547815835372401,
          -0.093458481405621491,
          0.25215159805015858,
          -0.557862862307383,
          0.16876804642639448,
          -0.33183525914495865,
          -0.11180759505287118,
          -0.33644213309905752,
          0.95371578343926267,
          0.10701411110482295,
          0.61743631115133146,
          0.74827176058674738,
          -0.9859651247986968,
          0.59843525835918021,
          -0.55927114075221573,
          -0.46161990423711285,
          0.74377545768173636,
          -0.43352289104851094,
          -0.65389003655810851,
          -0.016264156706597366,
          0.4321149102510437,
          -0.23121777370770935,
          -0.050741891592435327,
          -0.10978523265662918,
          -0.086228002026311978,
          -1.0157479185602691,
          0.73346037424554678,
          0.78033803019262193,
          -0.80717246019300892,
          0.40909878447368486,
          0.095901095574437309,
          -0.503338413557933,
          0.52479123841964959,
          0.22620446130650521,
          -0.050181594585631567,
          0.20637365299190119,
          -0.954001721053252,
          0.32985538608077353,
          -0.77817100230051706,
          -0.79278895770519386,
          0.65850336092483575,
          0.84719315776970427,
          0.811707829387247
        ],
        [
          -0.084992971911585252,
          0.62573059425460686,
          -0.34802323390742945,
          0.57294019814120167,
          -0.58195493837670642,
          -0.2281089753777199,
          -0.14667931365400638,
          -0.41823455809233878,
          -0.0596327003032376,
          0.51481915077558837,
          0.48075990723042666,
          0.53301482266410671,
          -0.020635177517014967,
          0.0071728689784912487,
          0.046170157869222489,
          0.94367893425720228,
          0.28221987279435845,
          -0.090605206542921174,
          -0.460130419598531,
          0.522561074179554,
          -0.13145549849041668,
          -0.53564594609782068,
          0.0520391596381785,
          0.29213990329411288,
          0.7469113809296094,
          0.43219512673624977,
          -0.43883609622856828,
          0.33962168990502578,
          -0.47524221948779272,
          -0.37848934147485458,
          0.523071260474261,
          -0.37318564890962252,
          -0.94656845677353785,
          -0.4148409613239768,
          -0.36606035760949024,
          0.44813590976747741,
          0.97371970003916664,
          -0.62499198689089186,
          0.75485135271978887,
          0.021446387410619831,
          -0.08418792664115575,
          -0.059466537101628913,
          0.42344339308875589,
          -0.22413103619800773,
          -0.306277449609292,
          0.17224821393161968,
          0.1979695519133057,
          0.015539982245822669,
          -0.7203014163603062,
          -0.825016213311831
        ],
        [
          0.062566281385020128,
          -0.7036834122456157,
          0.0071634802976521745,
          0.2426443950348231,
          0.63059548848449876,
          -0.4174413689318297,
          0.50200603241247932,
          -0.9263276937144338,
          -0.93176064864875052,
          0.79575131065578431,
          0.19776685414485828,
          0.59331440835680194,
          0.8545325674477543,
          0.061494309035473205,
          0.521204644601624,
          0.029438558914187611,
          -0.27834499741008778,
          0.10019094739589807,
          0.493565909259802,
          -0.94013899175674487,
          -0.20042537730716639,
          -0.77839732195801714,
          -0.94304988668862166,
          0.68161175794749018,
          -0.17529920298876661,
          0.95576056005526622,
          0.86152058863113778,
          0.93528001651547865,
          0.29558543743731769,
          -0.67161743282672137,
          0.95191434202953729,
          0.81983946384770912,
          0.79529631622536034,
          -0.27187471212815156,
          -0.62788288882990972,
          -0.1514891429229675,
          -0.82022950724845678,
          -0.7515768163671831,
          -0.38302882313848841,
          0.035722047990112374,
          -0.0733660577879044,
          0.25645662165149852,
          0.7898143548843386,
          -0.837068007676825,
          0.11769374070856559,
          -0.8065818116649649,
          -0.82092197466646644,
          0.6119379428553845,
          -0.5285423984799662,
          -0.90299126947905217
        ],
        [
          -0.57783005983073843,
          -0.18272654952761733,
          -0.94383682343069886,
          0.0693331747856788,
          -0.86532905440636287,
          -0.75133539493193413,
          -0.96243955390380309,
          0.089557446566654444,
          -0.32678722255997328,
          -0.9594277364630881,
          0.74779218476834264,
          -0.96503632046793275,
          -0.67361767809954032,
          -0.37139513595099649,
          -0.33474662455561588,
          -0.21507548150192452,
          0.39152775125542383,
          0.51698468169679823,
          -0.10796708760519982,
          0.455623343985219,
          -0.07550382284044746,
          -0.66560484122104624,
          0.28433610200327408,
          0.44926295800907634,
          0.12543178911981684,
          -0.533509185713713,
          0.63900882122139591,
          -0.368887540060908,
          0.54661724063732431,
          -0.79938100125040978,
          0.63487654892034384,
          -0.98586953589783866,
          -0.21762666366584937,
          0.55626071426091628,
          -0.23443451133611107,
          -0.039798186987925789,
          -0.83616868868617267,
          0.69808327412958049,
          1.0027680758375288,
          0.4652817456201187,
          0.50550895304524046,
          0.39007118759579762,
          -0.44164847090387405,
          0.47378471831325142,
          0.3280072925348414,
          0.50309773985076334,
          0.93625845300028709,
          0.83137416903520778,
          -0.9265499450314918,
          0.47690771706726842
        ],
        [
          -0.10033262721704786,
          -0.695461111919164,
          0.12983446070088328,
          0.99122817121262674,
          -0.32438026763375027,
          0.392271241508499,
          0.32026624274592513,
          -0.64763013433725525,
          0.46852439277671309,
          -0.065874360265207835,
          0.41288004344903667,
          0.13420816583969397,
          0.76355785749736682,
          0.17803504764970959,
          -0.79721075760031168,
          0.086096715130347737,
          0.02945572908930652,
          -0.44104203083067384,
          0.53579229621481372,
          0.928030936911322,
          0.030990649521655134,
          -0.67453348662323931,
          -0.13873731876345907,
          0.076468490751774365,
          0.5031643025922049,
          -0.20637087471691351,
          0.36432934599019928,
          -0.92223426663868113,
          0.18351561063137489,
          -0.12578420420511896,
          0.1158335256879789,
          0.78279445278367144,
          0.33419219004400413,
          -0.12457388807087366,
          -0.910235980814897,
          0.45172494078212422,
          -0.08575894028094766,
          -0.805176952557836,
          0.505315796750342,
          -0.2351566255409534,
          0.36361349796979237,
          0.572064440659192,
          -0.10680719322067597,
          -0.087369209970377587,
          -0.0817305128352816,
          0.037468279560817878,
          0.75616317131551591,
          0.39754179882490809,
          -0.13543129852527247,
          0.087812535235157169
        ],
        [
          0.618868749678455,
          0.014614927260622619,
          0.55707385083029581,
          -0.84279958317122228,
          0.28460883909028845,
          -0.60177932064046646,
          -0.46106777419187267,
          -0.11568622969711555,
          -0.81189476765672008,
          0.29239635290149552,
          0.95443328767659508,
          0.67877411197661919,
          0.80372868865889224,
          0.67421010071331355,
          -0.43674861429004375,
          0.58127835854165788,
          0.69492283343704253,
          -0.30738254272532356,
          -0.4318664075053224,
          -0.37612720888325157,
          0.35514546608955849,
          -0.98006736748211409,
          -0.1727028786725785,
          -0.43461453540450867,
          0.68586277076186553,
          0.47449810893928812,
          0.9321410207580928,
          0.76599400625893022,
          0.25313519359732384,
          -0.78243710203342121,
          0.71707625097001937,
          -0.78784769617705452,
          0.19626545576339355,
          0.54951117554798046,
          0.48776022083067044,
          -0.41858945456034813,
          -0.41136133635961464,
          -0.76896321059825767,
          -0.00925244435761404,
          -0.29167248800784146,
          0.84437620892942189,
          0.43087398955501227,
          0.12752851521123287,
          -0.17124159250361756,
          -0.21827443449593972,
          -0.94699185813940923,
          -0.19763388786104472,
          -0.79444648168407239,
          0.39611734571755225,
          -0.15596744471278209
        ],
        [
          -0.85075064204042439,
          0.2577621256042435,
          0.75625466829466237,
          -0.83277699742532141,
          -0.26337123242083116,
          0.21547659031114289,
          0.38038239851742844,
          -0.096103069872282218,
          0.061169395484326532,
          -0.89452357050463316,
          0.88763478044065081,
          0.21119512857650363,
          0.76865165183481488,
          0.31492076166827421,
          0.699250687624091,
          -0.78208251814148788,
          -0.63884632479032666,
          -0.40578785174679649,
          0.5303185113062262,
          0.94523177452161145,
          0.62295546712765526,
          -0.1637198676382641,
          0.47268624444869012,
          0.36623812841051284,
          -0.43625480286628249,
          0.96454411067726686,
          -0.38274878323645467,
          0.7949184246394142,
          -0.86962243170312814,
          -0.630224570494741,
          0.88311168450268951,
          0.70329131551333857,
          -0.86124640311162881,
          0.75162682350843468,
          0.60442668799253407,
          0.65931385900193962,
          -0.14128400699781435,
          1.0014868824866954,
          0.8098716016570312,
          0.836079321537156,
          -0.927512794064281,
          -0.42458131307833286,
          -0.31595930151188423,
          0.96431012439594921,
          0.43550805451503816,
          -0.18359654706122272,
          0.05951622618721681,
          0.094586476391386051,
          0.91654368705004574,
          -0.0958001586334315
        ],
        [
          -0.70504829464820806,
          0.3647434338037101,
          0.26121423434760749,
          -0.68983626174806423,
          -0.89367230235457729,
          0.78653576025741612,
          0.79370373501586378,
          -0.28698689424119761,
          0.11832950476586483,
          -0.31625321433376569,
          -0.6956174863072262,
          -0.047518017396648037,
          -0.322791838169263,
          -0.9946034538567653,
          0.87223658665339066,
          -0.62027066042437617,
          -0.96856860796554178,
          0.80780366310693752,
          -0.77820727030661707,
          -0.66305751034282912,
          -0.067674021893810443,
          -0.033670571681931022,
          -0.65914391489330038,
          0.62075993094400872,
          0.087279073886193811,
          -0.60931488314916715,
          0.21220712047438872,
          -0.87306321952163135,
          0.54504403541029223,
          0.22796381138949132,
          0.60932244142855552,
          0.66454444422633541,
          0.949685387974121,
          0.68828710652075031,
          0.46160870784834668,
          -0.35597317078783486,
          0.072809338685273867,
          0.550122741296264,
          0.67067532080134573,
          -0.88340056946874745,
          0.3869100755248786,
          -0.67580497827479757,
          0.038955493629824513,
          0.82946709903941807,
          0.37369436032294157,
          -0.25890515937620218,
          0.52895600117182873,
          -0.11228668206723426,
          -0.88013322063833355,
          0.042974186995492866
        ],
        [
          0.9522454150452685,
          0.38486607596689737,
          1.0035902284491445,
          -0.503752746107716,
          -0.20778174883573927,
          0.62493754304947768,
          -0.63789491271456122,
          0.75817732369846169,
          -0.14523814476067234,
          0.66930310385801139,
          0.28433274705544725,
          -0.5088863956483497,
          0.23853152772594946,
          -0.97881240183567908,
          -0.5688316437762736,
          -0.34024184667299018,
          -0.57682326811930329,
          -0.70391447594545353,
          0.9861196001348197,
          -0.8491770562924521,
          -0.86417194009346832,
          -0.43931280919634264,
          0.90657462882247464,
          -0.84656452967977713,
          0.62139015713849977,
          0.098301829981658151,
          -0.80220239786057135,
          0.97931428179473723,
          0.585650287793733,
          -0.33631891696959748,
          -0.76342897288163158,
          -0.87325189223266053,
          0.61676960551131554,
          -0.24848101177140192,
          0.73714472091699246,
          0.79000960784332963,
          0.74323525570719728,
          -0.85649740587609757,
          0.19506971586402094,
          0.5676401178035777,
          -0.36024517894903113,
          -0.023181217760886379,
          -0.93690973074651029,
          0.67802897735552248,
          0.860669274881022,
          -0.19481611933709972,
          0.7339098700452461,
          -0.95133252052016415,
          0.7123707559041691,
          -0.041558709294109056
        ],
        [
          -0.83405360756782476,
          -0.23144954614860089,
          0.39958918811116695,
          -0.43014988391723913,
          -0.374379418546959,
          -0.38758322376750387,
          0.078423540947650985,
          0.30052921614922712,
          -0.84760200904662053,
          -0.24464207068510022,
          -0.87559385486302532,
          -0.84384958671614962,
          -0.36506410929204641,
          0.31228638095703165,
          -0.60515403071162688,
          0.25725010428783968,
          0.18278565650241441,
          -0.29683791528609288,
          0.40257499216208964,
          -0.36002801854380551,
          -0.80942713558262158,
          -0.57750509358302082,
          -0.044222942978061112,
          -0.34090370380519863,
          0.35873314970321712,
          0.51289313005010262,
          -0.33169770883032257,
          -0.76426084483644818,
          0.46933253038840705,
          -0.46312981015317156,
          0.86620031568559852,
          -0.18941451034257115,
          -0.46094201439098942,
          -0.38926478271255521,
          -0.10599376872236455,
          0.59324836549649151,
          -0.82679156784512808,
          -0.6126274481291597,
          0.45406342415978668,
          -0.85207616145164855,
          0.15622217740684688,
          -0.94704792838642515,
          0.14626823019694624,
          0.21369003213057383,
          0.079879275357160356,
          0.065120111618546334,
          -0.11214215656384217,
          -0.11855091672742758,
          -0.85291949514411269,
          0.5923052187352208
        ],
        [
          -0.043420105384400852,
          -0.88715247772234684,
          0.71714355954269482,
          -0.84929636628432936,
          -0.67399224474884878,
          0.066684996578819072,
          -0.72646208070074558,
          -0.51416439473310049,
          -0.8328495972974066,
          -0.85916113080888745,
          -0.71380522433092453,
          -0.96206470315553683,
          0.4036405425628859,
          -0.53040412156923022,
          0.35752924672582742,
          -0.99216530942148928,
          -0.78858752482203931,
          0.51312684375636708,
          0.045346723292870678,
          0.73801320411971938,
          -0.29001268647207629,
          -0.92439707466692056,
          0.37336943302680403,
          -0.55672878863482367,
          0.18304099025353118,
          0.31933624202108191,
          -0.13801825106706667,
          -0.25419921152891817,
          -0.10008658399635591,
          0.914180030019358,
          -0.023746788349327228,
          -0.74819708552895892,
          0.7390768895479668,
          -0.71352983993359587,
          -0.029026628528341019,
          -0.19790807570962909,
          0.16357922216331405,
          -0.6352514811667328,
          -0.70097121059054313,
          0.87559101354888491,
          -0.81097998473040522,
          -0.073016009797447809,
          0.34088388298159789,
          0.68808147694968935,
          -0.89149536372022153,
          0.27909409434384336,
          0.7454111999962344,
          0.09606675983985867,
          -0.61725286598428963,
          -0.73028348066892945
        ],
        [
          0.63699728236193176,
          0.62401073696491116,
          -0.682831240637949,
          0.065615791407737434,
          -0.53263127011105726,
          -0.10466919270346412,
          0.70140679474132717,
          -0.90574726326072152,
          0.10815610809281161,
          0.47367598888967138,
          0.45852058166288451,
          0.31131336658975772,
          -0.45343772330151616,
          0.27190799456943016,
          0.76273607882926775,
          -0.36066051064784155,
          -0.16564648252544933,
          -0.39849493567985189,
          0.13850665779868646,
          -0.44718676439703586,
          -0.98176792306413818,
          -0.7143197905301335,
          -0.45893607284496873,
          -0.70001390109031092,
          -0.30391026801280918,
          -0.34684754677394225,
          0.77119194260241131,
          -0.38263089051136895,
          0.74767967894837983,
          0.54353980920031686,
          0.31568487190051953,
          -0.3065384291832165,
          -0.22730959210584173,
          -0.064906337818860738,
          0.27160859009192034,
          0.8879135344673148,
          -0.59359344060146024,
          -0.59217330239403,
          -0.29297909534628036,
          0.43155796426892484,
          0.57120346088715135,
          0.82916780394403122,
          -0.76550473944759634,
          0.39487054163639462,
          -0.68494951927894177,
          0.62529332719579478,
          -0.54255828190223732,
          0.40437275910406473,
          -0.94545950153022884,
          -0.094288647706201378
        ],
        [
          0.3443461308221229,
          0.4048864922061739,
          0.65154973598497523,
          0.84936909428731733,
          -0.075350071293125681,
          -0.2598463356401024,
          0.40087295849956434,
          0.58359386000169877,
          -0.39299810395547197,
          0.14295784993604158,
          0.0946207188035875,
          -0.40495291158774205,
          -0.180721809005395,
          -0.83508130554190185,
          -0.089799512398656758,
          -0.62493369430094425,
          0.2812338559552664,
          -0.18243308420448248,
          -0.7000237159608752,
          0.24035788809665021,
          -0.792015317320432,
          -0.94874879466660644,
          0.40301079865921885,
          0.36710169005007509,
          0.85755602153161481,
          0.77125122163171544,
          -0.12041375590121048,
          0.90303125367828752,
          0.86256144311443694,
          -0.43838608903124943,
          -0.80281904045154306,
          -0.4626764627893285,
          -0.68840593406047634,
          -0.908445458448238,
          0.49790325056702539,
          -0.4900789644539294,
          -0.76736538193733206,
          -0.83073465557458748,
          -0.079803086799574666,
          -0.31454696206763183,
          -0.76931542044684054,
          0.56913516783056639,
          -0.9173637574679282,
          0.92832868347929176,
          0.88581855811318932,
          -0.63761661650776724,
          0.89150020737572155,
          0.018166410211687075,
          -0.59121616458631931,
          0.35172861901062791
        ],
        [
          0.75210223542185839,
          0.28329830980339921,
          -0.2947470099263233,
          -0.6720122140373177,
          0.46154590394471662,
          0.94697054648774182,
          0.6375642951126641,
          0.60337241246683959,
          -0.729891641270167,
          -0.59199569253682849,
          -0.48145629051491007,
          -0.76004714697808462,
          0.46457635346969844,
          -0.17281069555390713,
          -0.63122205644590246,
          -0.14697025138678757,
          0.0069546622354008,
          0.16971583376483376,
          -0.61825334175404911,
          -0.5948263386473136,
          0.07932094721526381,
          0.6511961528536645,
          -0.53986526905189558,
          0.7988184595181923,
          0.30195101466178653,
          0.26874486634230421,
          -0.8836261121518757,
          0.94452280686565782,
          0.7415762692613227,
          0.71833856487400849,
          -0.54915559602563235,
          -0.947037823104624,
          -0.0795493396375573,
          -0.78587102522955021,
          -0.3686837729165639,
          0.84824893162885817,
          0.27260757016404519,
          0.821348363452899,
          -0.34508061826320829,
          -0.55528598212079294,
          0.87623020281836628,
          0.535376120320464,
          0.15083429709535179,
          -0.566553019573378,
          -0.023629426423623225,
          -0.4345693609878547,
          0.83392961184865377,
          -0.038403124607886141,
          0.3140721007332235,
          0.63282453797708726
        ],
        [
          -0.5214713466387767,
          -0.025419384562925643,
          0.22258112620850379,
          -0.86677225604719288,
          -0.4404734668682061,
          -0.017280848361575993,
          -0.28981156027726968,
          0.39003708349853883,
          -0.44834439104394064,
          -0.03213483510031994,
          -0.52039358024840809,
          -0.48556619153575309,
          0.532719940330579,
          0.82923980946572218,
          -0.303937919426024,
          0.043089425612442625,
          -0.35241971866790112,
          -0.57893531312390734,
          -0.56424061476168041,
          -0.056817228041846267,
          0.19192810779839284,
          -0.31197163979806464,
          0.31314470832612962,
          0.79796962488250245,
          -0.24381774059348479,
          0.45479483667483733,
          -0.43653642492936129,
          -0.94124677572070514,
          -0.50365318358710709,
          0.69145360020674784,
          0.686226598838,
          -0.42778436031870704,
          0.42658744492529405,
          -0.30066046729566781,
          0.073553438474809885,
          0.74615824972579392,
          -0.16874297044785874,
          0.32486339091626232,
          0.57338843449859145,
          -0.94062935168297179,
          0.05858553966328859,
          0.61499856431869648,
          -0.015534283095124344,
          0.89859342446604129,
          -0.77038196118408264,
          -0.1744171679686933,
          -0.6097395315170423,
          0.065141913654484893,
          -0.096643194268642554,
          0.09960316371121436
        ],
        [
          0.089341868037623173,
          0.30547427144313133,
          0.264365943794291,
          -0.052598489868128422,
          -0.12372945387736969,
          -0.29671777984119929,
          -0.96347123603192508,
          0.47543623132012913,
          0.80219037367982526,
          -0.74517357787549254,
          -0.16976145636632964,
          -0.099777954791058623,
          0.61507610991758022,
          0.029111763741158293,
          0.69156007167207612,
          -0.071209178816306257,
          0.10509075779834626,
          0.59330098182738256,
          0.09467853920617561,
          0.051225234687071332,
          -0.78937516916131545,
          -0.73914172458753313,
          -0.34644620838198215,
          0.59664220737100948,
          -0.92256323644748017,
          -0.35185435300038947,
          -0.873673429848611,
          0.59308991530307675,
          -0.94377280516385309,
          -0.12598109534258958,
          0.045124622447089577,
          -0.82663410559980977,
          0.24498860836922581,
          0.71057113650373438,
          -0.32338310807070986,
          0.37207159404941526,
          0.39613082713833997,
          -0.69085462492580463,
          0.51819492598904493,
          -0.31361104877121543,
          -0.97315459608278931,
          0.5468788295601853,
          -0.99503001846848693,
          -0.66203265556080881,
          -0.14380615989513587,
          -0.65019020957104723,
          -0.00094051541401685146,
          0.18002127687094019,
          0.28012521104775662,
          0.83457363320465661
        ],
        [
          0.68469067485662516,
          0.087724656708954518,
          -0.30759442160542727,
          -0.59694390785946316,
          0.97443231103151728,
          -0.59457856359889294,
          -0.51499538156059921,
          -0.1532162106937314,
          0.76314067238030692,
          0.19568214243784879,
          0.4356302613823177,
          -0.90155179698229271,
          0.55427888050836238,
          -0.27350437240753134,
          -0.53106843050313579,
          0.15404119966757687,
          0.52716064356634229,
          0.46510295770909,
          0.86326111306521292,
          0.95389465794674289,
          -0.30748041901333939,
          -0.27469986705393057,
          0.18007854609196528,
          0.073601483616872354,
          0.14193052122517749,
          0.791818697449813,
          -0.19896407974515307,
          -0.38016335833484455,
          -0.30100618117322808,
          -0.48445548871777966,
          -0.14355061094870161,
          0.5206191562327106,
          0.50073858952101358,
          0.42681582289864989,
          0.35757948731944605,
          0.34583962923214462,
          -0.47204096277789226,
          -0.61831123878869165,
          0.71604060779234591,
          -0.82661045229436048,
          0.91744963612228869,
          -0.419551877343137,
          0.42463496889440666,
          0.43341183603790617,
          -0.99868233611666979,
          0.92879445704467734,
          0.79999339861235164,
          0.088094855366479416,
          -0.00272304559238331,
          -0.039509631759060929
        ],
        [
          -0.1945642071345054,
          -0.55521133550974733,
          0.94629470649475766,
          0.75303822597422831,
          -0.2168590158585427,
          -0.40147330648258306,
          -0.80824789926265717,
          0.35368432124458382,
          0.46112901790096417,
          0.649684365415352,
          -0.52695852429961421,
          -0.7221168267282142,
          0.32358183913102628,
          0.47975591155622344,
          -0.038295861321734209,
          0.68461653096810515,
          0.77262869986140936,
          0.28427947723153341,
          -0.055778486532242738,
          0.070742505069556941,
          -0.56195765985695589,
          0.17839003139832219,
          0.045662834582932917,
          -0.40178073452054497,
          -0.21079178993441836,
          -0.52916762304765508,
          0.58822510331311861,
          0.09994845413929361,
          -0.60938774515710048,
          0.256146355203688,
          0.82563382309268263,
          -0.28669812723741095,
          -0.49477468574458289,
          -0.33373624720493583,
          -0.5495759801106691,
          0.24623084678613838,
          0.40830643579750309,
          -0.15144074809435226,
          -0.29896955655979457,
          -0.44450809413954412,
          -0.089789386169908683,
          0.34044589773654549,
          0.025482334229079379,
          0.012976497058282211,
          0.031606057027183873,
          -0.93301276543341438,
          -0.037308543674779364,
          0.59887670347109578,
          0.21702113846205215,
          -0.79058505531449341
        ],
        [
          0.7586441208569551,
          -0.87314840120740123,
          0.56205324018702385,
          0.60927015291550968,
          0.060704460850333673,
          -0.4285685890690763,
          -0.39240045727816358,
          -0.980683672166283,
          -0.722354691036486,
          -0.3990346192582328,
          0.70799302625895566,
          0.35148649041308444,
          -0.98334910314876023,
          -0.20927938221088979,
          0.061520862645288776,
          0.0054353072137879842,
          0.44190359159857445,
          0.72638944052010068,
          0.964367691341861,
          0.95119308918006074,
          -0.96091281653823279,
          0.3111551586919189,
          -0.5733510923956201,
          0.29438754506085679,
          0.52106122507425656,
          -0.13643810954460639,
          0.57934692038494662,
          0.13339929371807932,
          -0.23817962320130284,
          0.006958499749966424,
          0.64411337278975289,
          -0.79716624996983387,
          0.5295085883581564,
          -0.792356008066705,
          -0.40006968051511416,
          -0.64272253649703548,
          0.040378018288126795,
          -0.77428789334016024,
          0.25721931587314673,
          -0.23387504698137368,
          -0.23928594359301583,
          -0.75426299440888911,
          -0.30821425057854157,
          -0.59544470664317017,
          -0.72344055893778481,
          -0.95660971308453857,
          -0.26118131831015418,
          -0.99404335981658609,
          -0.92196520358663059,
          0.68439826315110419
        ],
        [
          0.68820590346136823,
          0.16831226488566847,
          0.039826741208076173,
          -0.99662643821968022,
          -0.67895820246981653,
          0.71036830676608176,
          0.95534423613405983,
          0.16392982351128507,
          -0.76375277268419539,
          0.72227408007653215,
          0.62289786013827619,
          -0.29307477797906345,
          -0.42938927378826885,
          0.90273338976612116,
          -0.15194518241961275,
          -0.14971800210388123,
          -0.70600960391688738,
          -0.61996164558033307,
          0.55575390270969349,
          -0.76443801818893942,
          -0.9552130950635177,
          -0.43860373876026726,
          -0.54790783313743574,
          -0.59611682557736678,
          -0.60864914980072848,
          0.15793342050416276,
          0.74319833184548989,
          -0.043743616684990078,
          -0.832898051757308,
          -0.0098973587933161734,
          0.19750381971551315,
          0.71887474857307165,
          0.42207899337620869,
          -0.2984995130319803,
          -0.98730839811313353,
          0.938352765492394,
          -0.60870260824606426,
          -0.3797497343590453,
          0.8320034697778228,
          0.51809857350218291,
          -0.83605153074404559,
          -0.5148534004016101,
          -0.6789305027056014,
          0.47566695755453592,
          -0.17086335617254489,
          -0.07265204787296145,
          -0.81939728675963119,
          -0.90551657049134482,
          0.231583673338941,
          0.31885394577562565
        ],
        [
          0.61023930531211412,
          -0.31585820691598965,
          0.87579354518450159,
          -0.98603310762142737,
          0.2951623307728089,
          0.53466506174138506,
          -0.41971950088603044,
          -0.90503180691841567,
          -0.74095402073260841,
          -0.050022278632960278,
          -0.8974083445715284,
          -0.19491501677175141,
          -0.26075838427581477,
          -0.33832016328239167,
          -0.65828166313623038,
          0.3098808065170896,
          -0.32587252752686163,
          0.1687774815543093,
          0.91622891917531246,
          0.82078613536927947,
          -0.98974439025409389,
          0.94877747486831465,
          0.62269759872521258,
          0.38326135480749751,
          -0.46439356647321572,
          0.44909847474594938,
          -0.930002918647843,
          -0.89789033706497978,
          0.41868443449508058,
          0.78943162146755652,
          -0.4385511749343643,
          -0.78609664014724456,
          0.25596637773319586,
          -0.65257515154897239,
          0.76458047985367228,
          -0.1158708272942893,
          -0.94651883921085311,
          0.89834585955298718,
          0.78353786300341621,
          0.30057516623992836,
          0.95383434930886479,
          0.34382552634123226,
          0.60646003086829836,
          -0.92747206124506942,
          -0.44810439811799124,
          0.35904389750832821,
          -0.45452912638616649,
          -0.6045436343062921,
          0.83160390182320143,
          0.673166597300215
        ],
        [
          0.28115014908724767,
          0.14823230484259278,
          0.97807061254071614,
          0.12277211699492666,
          0.65639236304073645,
          0.21297804439456838,
          0.80212883601918716,
          -0.7615206819557,
          -0.37030710171769354,
          -0.2544723206334521,
          0.39246757725359632,
          0.35031506869204471,
          0.68388606335533841,
          -0.54620346586803792,
          0.64502590755264921,
          -0.23703843996182356,
          0.70850700216904983,
          -0.28320604652017728,
          -0.15305624011071561,
          0.749657988295122,
          0.699847419678112,
          0.12285435977135494,
          0.69945235097753911,
          -0.32550497837791204,
          -0.8636292926755631,
          -0.608007890376448,
          -0.42475902257538256,
          0.99445362722891983,
          -0.75107141570266034,
          0.27816008698618538,
          0.87737663877394112,
          0.10316518572660731,
          -0.38091867627150805,
          -0.42791928670288681,
          -0.4600982695675972,
          0.63880223496452426,
          -0.56197658385765625,
          -0.80472085380311142,
          0.95153046203359293,
          -0.43124400112149275,
          -0.33867403671118257,
          -0.63618701514964693,
          0.784267060853368,
          -0.946558109825005,
          -0.00827606342555814,
          0.37607295949330966,
          0.94526794082260746,
          0.4720456773661017,
          0.55781906304532847,
          -0.27139904873932585
        ],
        [
          -0.35871730673342817,
          0.995335393649813,
          0.54439458662195739,
          -0.6914210776433094,
          -0.13290933880966513,
          0.1136105758677305,
          0.50479783558545233,
          0.35163943148701937,
          -0.39189969093161126,
          0.98401267719416774,
          -0.84272223392417189,
          0.32928790829281868,
          -0.0094522365132532673,
          -0.1900408680738421,
          0.094509692216365723,
          -0.53190323867574418,
          -0.43402906615373205,
          -0.35122857329945845,
          0.20107188045997276,
          0.20930823998634551,
          0.58128071035723261,
          0.89503408215349123,
          -0.93492011628826432,
          -0.44427383773102719,
          0.23410539970496855,
          -0.3479553303554101,
          -0.94891367667335,
          -0.083229575120515084,
          -0.79162649426904008,
          0.010200247216883685,
          0.96602093484222862,
          0.58071282010786329,
          0.47413161176422214,
          -0.29091562055191911,
          -0.34030917622462209,
          0.21881049343844716,
          -0.14104730179956554,
          0.83807256865542779,
          -0.54702818495204775,
          0.55768344718173279,
          0.62034673020039854,
          -0.68500342560422023,
          0.80452812451679234,
          0.62843570509520286,
          -0.566454362548425,
          -0.39581047510325668,
          -0.68960431100247233,
          0.65736862956625752,
          -0.48247958368717453,
          -0.098310599568469131
        ],
        [
          -0.26495576471020976,
          0.91366210532912506,
          0.51922197482303123,
          0.17865531388906905,
          -0.19542353223930273,
          0.4790563055071973,
          -0.14044832543611138,
          0.11427309713522339,
          0.58023389760325883,
          -0.021025500793010608,
          -0.97460274957871451,
          -0.14709956507415289,
          -0.32287549817634292,
          0.68227708316282687,
          -0.1194980789091917,
          -0.2991845605272101,
          0.09198705854059408,
          -0.31484484740729285,
          0.3398159440559218,
          -0.99963686104163729,
          0.30837250926056642,
          0.4831348223088785,
          -0.71217337524904456,
          -0.58956279991163252,
          -0.076375656493644584,
          0.81913408458184411,
          0.58853378861991013,
          0.42998813276304354,
          0.63589672516952078,
          -0.12420408955502495,
          0.54719460312860668,
          0.57424849845899284,
          -0.92592584150307988,
          0.74433359281453781,
          -0.45607427844156462,
          -0.038934053517357251,
          0.58338439506812789,
          -0.46106245448358935,
          0.40574450988785388,
          0.50552897089590965,
          0.19492128799616085,
          0.73658365138165083,
          -0.47017252382923097,
          0.85298516513620415,
          0.66877886642273832,
          0.71649461638619927,
          -0.042361510694999951,
          -0.16859206539136526,
          0.8316950422568582,
          -0.825784436298631
        ],
        [
          -0.619033912657497,
          -0.21821852423859803,
          0.24817614892225029,
          0.5302215458665599,
          -0.69364500505747817,
          -0.73031363122616844,
          0.055533095203812013,
          -0.42878499416841759,
          -0.64833749737641888,
          -0.49816793007408539,
          -0.67577831722271731,
          -0.035741957627261838,
          0.96196274992699438,
          0.63970415274829151,
          0.456777271507864,
          -0.073126564752784881,
          0.49222167660916505,
          0.050445080724011125,
          -0.80049117962671856,
          0.92199034021592785,
          -0.5670498178656499,
          -0.19885082041870075,
          0.42452530680394668,
          -0.2944444149834321,
          0.39887692450237705,
          -0.154774325066946,
          0.42497992363529463,
          0.026930628865147015,
          -0.9335286989975986,
          -0.65997079609254,
          -0.46563356338280915,
          -0.10711013469976122,
          -0.883021923408889,
          0.940790193429561,
          -0.088173669682249212,
          -0.21634042197800771,
          -0.73309576243301189,
          -0.086005262767557836,
          -0.82426896232577707,
          0.63979380444260836,
          -0.99892409514996383,
          -0.37334873259547674,
          0.20169984052820061,
          0.13091830354707021,
          0.1893657942753631,
          1.0057683012419691,
          -0.756000025125923,
          -0.253311040217327,
          -0.15417593442036659,
          -0.04607954780158479
        ],
        [
          -0.81714268481984564,
          -0.53200146000888981,
          0.94688668931424724,
          -0.70690409564948054,
          -0.33938384555401296,
          -0.36742293973604667,
          0.50767187377278822,
          -0.65336095484608636,
          -0.81116844566978263,
          0.52470945639973365,
          0.46730264610296895,
          -0.46341591294569057,
          -0.19360219481220439,
          0.77173792745315151,
          0.12816771406076261,
          -0.8111723479641304,
          -0.53161871539387173,
          -0.098701353131274427,
          0.30605103092970187,
          0.1756731825851639,
          -0.66903556826101618,
          -0.45752667218352783,
          0.4538480190674713,
          -0.23837454220319612,
          -0.636171681282162,
          0.76982653956180358,
          0.464273693823868,
          0.81526086750185789,
          -0.38549314759427117,
          0.41873338348170974,
          0.053673898518960157,
          -0.348410116781419,
          0.9546002480150112,
          0.42987736117241693,
          0.35953525043006174,
          0.092252154923757,
          0.81030309490732044,
          0.68183357849186987,
          0.34302784504776329,
          0.20097835084167512,
          0.30179474242753929,
          0.77021015268242343,
          -0.89814302535655655,
          0.037380786239597855,
          0.831395588336942,
          0.826438143750962,
          -0.52936129781974706,
          -0.901035013981442,
          -0.24306695336831524,
          0.26976402546045469
        ],
        [
          0.38700637952864064,
          -0.011001053680429073,
          0.33275384335777553,
          0.36091635263269323,
          0.82687062253130539,
          -0.69904024441189716,
          -0.31830717030498767,
          0.2919792724450882,
          -0.83704629428670851,
          -0.36792209007888504,
          -0.51770619837062515,
          -0.61233546809370942,
          -0.61433169593197245,
          -0.73695543559513044,
          -0.24375038222801015,
          0.010068264183988164,
          0.29066691108350606,
          -0.17852385616681538,
          0.41586290254222513,
          0.1152128102122351,
          -0.94702850181077036,
          0.83539399508961087,
          0.01407255331951361,
          -0.47020919084147744,
          0.011257229177753488,
          -0.73501991305829451,
          -0.098230461014790091,
          0.644544547174043,
          -0.09350824653669744,
          0.37300495708237369,
          0.0875737961277311,
          -0.3843540616213344,
          0.43222850157305,
          0.44875533607487511,
          0.21527590178711664,
          0.86770312347919021,
          0.7826246972990476,
          -0.53868338483428957,
          0.25519500921003796,
          0.65459218346670522,
          0.64012329202043283,
          0.69121308231964362,
          0.9581339752224256,
          -0.61703286732608587,
          -0.90516082279288412,
          -0.0789474128134171,
          -0.772499792061062,
          0.58677764492571416,
          0.16377522649528431,
          0.750025240806688
        ],
        [
          0.83868297862929464,
          -0.61125774015879686,
          -0.42005950834636929,
          0.658484609757526,
          -0.93159755790146548,
          0.63973112634997387,
          0.39705508410499812,
          -0.8234073452440972,
          -0.0036769363369339547,
          -0.21349659877976282,
          0.362262295530137,
          -0.65155276309568388,
          0.45760838014165528,
          0.94128871635154188,
          0.77712540749905568,
          0.23611301258743325,
          -0.019771449099860255,
          0.098109701857325884,
          0.89547192776374385,
          -0.90112953650698169,
          -0.88499714782313621,
          0.095070747592475677,
          0.67545081851160538,
          -0.0018914805011253017,
          0.6808569503516062,
          0.52518829285046065,
          0.014163817561695376,
          0.655825957104958,
          -0.50186329401243945,
          -0.88512238965172474,
          -0.26201216697539542,
          0.14217187225580433,
          0.80870997583997117,
          -0.45542960862666754,
          -0.12401426100931165,
          0.17013279120190633,
          -0.59818697810680321,
          -0.069375695569618853,
          -0.98868515182396388,
          -0.93422534513279643,
          -0.084197950618171355,
          -0.67473669336531628,
          -0.9025730969796103,
          -0.02878575357953023,
          0.21845824584561002,
          -0.48504860117028109,
          0.082476821634972941,
          -0.59731352693682427,
          -0.73503024471459588,
          -0.78022677552070085
        ],
        [
          0.56061135311981,
          -0.51664127086503864,
          -0.44049293139411494,
          0.68619509279920243,
          0.12752639634118762,
          0.831220665614308,
          -0.04784226770925442,
          -0.72505333032203823,
          -0.38213651942255494,
          -0.33258364515313366,
          -0.71137385776137352,
          -0.87799974289657556,
          0.4479519520416404,
          0.81448289459607537,
          0.4184245900477998,
          0.96486019062501782,
          -0.31149959402168831,
          0.40197689186115554,
          -0.43166356336101575,
          0.044534137388148737,
          -0.87672004231629375,
          -0.70857145735617733,
          -0.39794025492134144,
          1.0061149083334151,
          0.59862900647922657,
          0.057046300987680064,
          0.67711172515198936,
          -0.77496056166662752,
          -0.74524408009726262,
          -0.31524916340927006,
          -0.46640867920395263,
          -0.5872994594775186,
          -0.18755258983041012,
          -1.08555910442119,
          0.30651209114323741,
          0.403446054081449,
          -0.50584274136321883,
          0.59374156190504113,
          0.074619675022797538,
          -0.70582103326533963,
          0.60306365145950136,
          -0.91469661132493485,
          -0.1586556834368314,
          0.3412664641266257,
          -0.61570301864743948,
          -0.04588984704838895,
          -0.86302898094457015,
          0.68842423110676232,
          -0.58490094963620154,
          -0.63293870358174054
        ],
        [
          0.34814631604306978,
          -0.59764807081417659,
          0.89848650566772825,
          1.0950111459280449,
          0.51206392095389863,
          -0.0054029182274569088,
          -0.4991034932645394,
          -0.36262461228604076,
          0.59773301826836922,
          0.61014161615211249,
          0.80314678023788832,
          -0.98996808553961357,
          0.64128639019736,
          -0.10057796224880623,
          0.049064473303680578,
          0.271078666127347,
          -0.21331836771602764,
          -0.55548336241928331,
          0.16415979145490112,
          -0.33462907481716775,
          0.35283828890566815,
          0.47227908903385374,
          -0.8169604914778229,
          -0.45032690314184137,
          -0.92509649660422355,
          0.3578655159152011,
          0.49304188814542727,
          -0.81793313106789478,
          -0.89973662276456512,
          0.031672952745383877,
          -0.21784612127096967,
          0.43747907097933186,
          0.62018622961551584,
          -0.20804764604422332,
          0.75963796661864647,
          -0.19316283176109997,
          0.83561786420792383,
          0.11430676716666105,
          0.35307435487612882,
          -0.473432536173516,
          0.29376026083115581,
          0.44091489591143179,
          0.42053793095441866,
          -0.44614911051790024,
          -0.32956212809190971,
          -0.26592137280377315,
          0.4724461432668805,
          -0.83077730356731216,
          0.64044309781574271,
          -0.63213029692313638
        ],
        [
          0.76326558041829051,
          0.4202359870278618,
          0.73650124070723377,
          0.023354672652265391,
          0.89618516278210358,
          0.056292890282066035,
          -0.80494069769206367,
          0.87428904856092748,
          -0.058610865365689518,
          -0.29124692514882189,
          0.7511191500127109,
          0.09300570570458766,
          -0.73744957105763875,
          -0.72505750890842091,
          0.58121594922093822,
          -0.55131865050993778,
          0.95209344458316758,
          -0.803227286834465,
          -0.77981787265174385,
          0.025517846609947641,
          -0.1597096155441812,
          -0.53570811774990057,
          -0.50215254570239864,
          0.50872209371231081,
          0.50215772083650945,
          0.56752402255151913,
          -0.55341284388263867,
          0.45057952411527791,
          0.0091143956573176074,
          0.89252372317469253,
          0.46542547585386196,
          -0.44812660409419125,
          -0.14621279076144159,
          -0.20742866949933506,
          0.7322055038947255,
          0.17591501516109709,
          0.69836649974205045,
          -0.08015950233371226,
          -0.11294983513867409,
          0.70185573329471818,
          0.053246313530822938,
          0.15742281877957548,
          -0.083867768812274077,
          0.21774413595264083,
          -0.16952124290646559,
          0.96152848566282723,
          -0.51211253844397553,
          0.26386043169296836,
          0.79992402619613412,
          0.27912087865668467
        ],
        [
          0.8076732988425982,
          -0.38774635184714112,
          -0.42884349688070161,
          -0.077708182680255256,
          0.43839651958764481,
          0.64182282067996732,
          0.065825111613632442,
          -0.80615812847297408,
          -0.23974705308409325,
          -0.22228694957966394,
          0.83403874544653833,
          -0.49244170118905467,
          0.14992698034805504,
          -0.6094045286050036,
          -0.83017981059249757,
          -0.31287416657639128,
          -0.61342239315613023,
          0.71805604618956609,
          -0.77720643159748148,
          0.31218438403215143,
          -0.34051578822896095,
          -0.35488527332695391,
          -0.21144749566456988,
          -0.76789703792450892,
          0.4884985261412258,
          -0.032044811577522467,
          0.8295068676669628,
          0.75201521587888187,
          -0.80525143913978181,
          -0.5594917490537874,
          0.64468615237998617,
          0.54999444138407039,
          -0.36368181547874812,
          0.60253637708092311,
          0.13835867692442308,
          -0.57764911785888839,
          0.92500634433149664,
          -0.13712846192066508,
          -0.72664189150123493,
          -0.18967657750571115,
          0.81669326850560908,
          0.84383495063517466,
          0.5373852059634403,
          0.35233787342807604,
          -0.83260598745283276,
          0.11791801560113269,
          -0.27458560677237354,
          0.59917449446716309,
          0.13099548068051115,
          0.77438212713650156
        ],
        [
          -0.95527928872288781,
          0.29791745812786991,
          0.9950433475147088,
          -0.73055337178300417,
          0.3596002034410663,
          0.60649179562004407,
          0.397248163632661,
          0.11415223590227411,
          0.22674271488074527,
          0.088292524364372987,
          -0.40891988349888519,
          0.26913188081765493,
          0.799776155310491,
          -0.39284301344570255,
          0.18989651474680425,
          0.26146501192760607,
          0.73192886081247577,
          0.91054462734259622,
          -0.78015203396141275,
          -0.022803385259883069,
          0.46711212919759132,
          0.011534378963865376,
          0.86339947776756487,
          0.64788859222628192,
          -0.2159040394104719,
          -0.11599450997301863,
          0.415689911158667,
          -0.40183467069467127,
          0.21610413106453247,
          -0.73764139874713275,
          -0.400647065828216,
          0.59674766548706581,
          0.44673057175539255,
          -0.54136597870785375,
          -0.84388825521341893,
          0.84439513769809049,
          -0.66187717696308568,
          0.347511123989676,
          0.49802693987816815,
          -0.24549303429863184,
          -0.023148927949452898,
          -0.98544889644517331,
          -0.26669601988509978,
          -0.009223962572167399,
          -0.88040079322109921,
          -0.13273269366561424,
          -0.95593113464174828,
          -0.70876604144303312,
          -0.16051668034263183,
          0.97759229481099774
        ],
        [
          -0.944245460654565,
          -0.016845925355916971,
          0.13749389430905523,
          0.14577970805521143,
          0.183399652406806,
          0.093871090872793328,
          -0.066644268996372741,
          0.35439677245976303,
          0.85521011772428868,
          0.41285526551391222,
          -0.92423139949771049,
          0.72502483130839013,
          -0.7808836941688494,
          0.39452264480487487,
          0.22771513672699642,
          0.67766569949089217,
          -0.886906336407124,
          0.63245429241279627,
          0.37751645625645491,
          -0.68518844361439479,
          -0.34996165910294397,
          -0.52165553268698461,
          0.017831155841304097,
          -0.167658909120935,
          -0.13854245523339445,
          -0.71998541965463181,
          0.3108160032991738,
          0.70103448286171988,
          -0.48769810398221658,
          0.788198077096074,
          -0.82788942824738376,
          -0.79200781120699471,
          -0.80295082056908473,
          0.78363649150962122,
          -0.14185801158922032,
          -0.26747247891699677,
          -0.11478937225890282,
          -0.29313390207515838,
          -0.57754543951745341,
          -0.74589191350090223,
          -0.36316808813640455,
          0.33223984180705629,
          -0.12795252310829006,
          0.5712342847638826,
          -0.20985503253646617,
          -0.34425464174002746,
          -0.61773593675138116,
          0.038107432146866613,
          -0.68864030983607927,
          0.539434282699241
        ],
        [
          0.60636566325428642,
          0.63080248243873471,
          -0.533378159058089,
          0.820316602519971,
          0.45475298494928285,
          -0.36212550691322248,
          0.62139304642944038,
          0.786565134059296,
          -0.9833107961235118,
          0.95382492919404793,
          -0.43606984262910331,
          0.748543834278569,
          0.34333055619445729,
          -0.91460462059840286,
          -0.030234076168327462,
          0.56361539141548367,
          -0.82636779784690539,
          -0.74408399554832749,
          -0.021192725165056409,
          -0.98628820175776644,
          0.16010962266177542,
          0.19940591047256631,
          -0.22642400408955468,
          -0.59163786096889892,
          -0.57088520643119434,
          0.25482665889740475,
          0.99505725842968118,
          0.67779322559008,
          -0.2752880248674241,
          0.040017718068580274,
          -0.71683879743559975,
          -0.41196973133486431,
          -0.87334459226057715,
          -0.30471568081927586,
          -0.59513570127538962,
          0.4024985075176884,
          0.12420590775907825,
          -0.75366094851617582,
          0.06565401015379084,
          -0.12596088400778432,
          -0.064195721168991512,
          -0.92306200927419335,
          0.36228919757940886,
          -0.68066829163861953,
          0.073035181078465142,
          -0.42419322319272396,
          -0.19628574600037912,
          0.0965069195887972,
          -0.27585436996237,
          -0.3915699733356468
        ],
        [
          0.31617297328305638,
          0.8653493064754858,
          -0.64816006035797646,
          -0.011111858494606086,
          0.22934073982021366,
          0.88700338133348033,
          -0.2442774312939231,
          0.96394120559602059,
          -0.52938489939641475,
          0.51413290215956486,
          0.37855859160468786,
          0.46947912955736121,
          -0.46643683052086182,
          -0.3144005225041645,
          0.3479871634440494,
          0.75319304717256519,
          0.36281164561259238,
          0.060685032060345569,
          0.90131783370754459,
          -0.91841022003568318,
          0.75236577638680979,
          0.20482959312224527,
          -0.23251039817753411,
          -0.78172777819302064,
          0.32025749597549658,
          0.1514397019215567,
          0.2627362559215653,
          -0.99878554488392668,
          0.13777915292780624,
          -0.001756231135499754,
          -0.25865254512632974,
          0.86106258515868028,
          0.081306668331264931,
          0.72910068175438036,
          0.9812117551280799,
          -0.59112481584198717,
          -0.48789760118142422,
          -0.96533281163338591,
          -0.0954791700372076,
          -0.34259796169033951,
          -0.30524986045712793,
          0.93201072839452348,
          0.54817574465599528,
          0.57826844582173409,
          -0.07906541338382872,
          0.68191240733610792,
          -0.57249540161238444,
          0.7640209685456647,
          -0.59341691881397585,
          -0.75605281188405971
        ],
        [
          0.16838373431603321,
          -0.14660431107606403,
          -0.44564006909804943,
          -0.81383764999803865,
          -0.11404814868551837,
          0.61588571757046251,
          -0.748020029983648,
          -0.76797313620623253,
          -0.46599031181809381,
          0.1275400771728907,
          -0.766013436202485,
          -0.80179939444456794,
          0.88701556161858575,
          0.56924303751479677,
          0.466061040609786,
          0.38664280165131126,
          -0.44872950984414683,
          -0.60017000343722915,
          -0.92995611100594622,
          -0.15329640472309544,
          0.53392737098516851,
          -0.29174218250345413,
          -0.8341771242685676,
          0.70182502883079312,
          -0.30680892281000161,
          0.63823710410325252,
          0.54255283335880566,
          -0.3794189857546193,
          0.71533912737716554,
          -0.97978436608742514,
          -0.500109203205944,
          0.515606165596893,
          0.80339033851839226,
          -0.96016077478132844,
          0.47906937829493573,
          0.45033845879717843,
          0.71521510950637157,
          0.91458057302148643,
          -0.69170953955559555,
          0.077756497911548345,
          -0.61744693144846874,
          -0.85908175016246247,
          -0.26212138770983046,
          -0.85006196342292784,
          0.75157116534134361,
          -0.72563190800559763,
          0.89329411760724553,
          0.15690201376540555,
          0.84645774373511917,
          -0.51553088363457789
        ],
        [
          -0.52335078894482412,
          -0.714746745336915,
          0.23728913072135416,
          -0.49076087679270758,
          -0.56000877472162713,
          -0.24773073296385803,
          0.69168288024317381,
          0.026956788731709123,
          0.64666509864022814,
          -0.53713149486364808,
          0.57932537936131256,
          0.99401034827740642,
          -0.50962829262476173,
          -0.070557176402630067,
          -0.97011512123785915,
          0.9709394338628059,
          0.42633840720558164,
          0.89965164037272083,
          -0.58705403558312019,
          -0.19243476010070185,
          -0.30210794601230012,
          0.2627973022899191,
          0.67540273554507757,
          -0.40296602582368851,
          0.8132377621224417,
          0.817775698695153,
          -0.6821436799233136,
          -0.70120947005811274,
          -0.74792831734576715,
          0.70617966062488147,
          0.448241213954107,
          0.71877637519156756,
          0.97568329257564523,
          -0.85544980275021076,
          -0.077091153578704941,
          0.73498336166119782,
          -0.5580186731312029,
          0.75121859979798777,
          0.16411454652385837,
          0.88391503642115643,
          0.046105577478127192,
          -0.23496677469690536,
          -0.11890760140751398,
          -0.72794152588743166,
          0.9730451099032873,
          0.44533824303706843,
          0.020629727066375829,
          -0.82283248027338152,
          -0.44577639045686074,
          -0.00059656639186079087
        ],
        [
          0.71956361396829,
          -0.075107635553510244,
          0.28162824962582766,
          -0.64465540037556357,
          0.85590581573687186,
          0.24565090249292373,
          0.93681203238810062,
          -0.25700394533261528,
          0.67455584768226107,
          0.26260425643566948,
          0.20700645651325658,
          -0.87744940973096031,
          0.99560222044747981,
          -0.67141088815486338,
          -0.04727798582729878,
          -0.20535198789815215,
          0.340683946818077,
          0.82483000043623578,
          0.70454365166920419,
          0.96581519458218645,
          -0.89519568412152994,
          -0.055520260522961357,
          -0.71658852482776447,
          -0.68756214155076634,
          -0.77211038419833466,
          0.090035976587835242,
          -0.59136524740232488,
          -0.061432753965705307,
          -0.10866949964144863,
          -0.61926397201850991,
          -0.68048158808273229,
          -0.4500333397437648,
          -0.81468825744513385,
          -0.80770853167281231,
          -0.61127285990921554,
          0.41396192466207471,
          0.728166474610709,
          -0.86912835863108684,
          0.42068894884457347,
          0.45625367175400461,
          -0.40206965597527017,
          -0.744610147356113,
          0.73990904263676438,
          -0.56513820204830412,
          0.019582412505359855,
          0.89142392988152941,
          -0.97810821652972557,
          -0.51704001199811556,
          0.58931381563544394,
          -0.94439575851012492
        ],
        [
          -0.84966271105562929,
          -0.40190546293331408,
          -0.411749805842374,
          -0.27810351522703153,
          0.30645609461826162,
          -0.7063697440456369,
          0.81155677130589843,
          -0.9258083983199441,
          -0.97445332605371515,
          0.25731368599962395,
          -0.12031659791585511,
          -0.40114658784338542,
          -0.92502082240606931,
          -0.88975976961745229,
          0.61803731300192488,
          -0.43537792335058079,
          -0.045305305892651686,
          -0.030972705075228636,
          0.19473937352272255,
          0.96852460264004,
          0.53306343876237106,
          0.90089242225221966,
          0.23209864557167037,
          -0.76453491065843593,
          0.48677831561452845,
          -0.60325333827448413,
          -0.97029268871618768,
          -0.03686914806857685,
          -0.7831859297661411,
          -0.084832861649510108,
          0.98674491063098457,
          0.403612620358093,
          0.60067093787666448,
          0.901867177282714,
          0.65540503099503222,
          0.500870354057481,
          -0.32083943660915842,
          -0.50935042727428426,
          0.5866229352718425,
          0.21160672694981442,
          -0.13295231739237964,
          0.21951515340140965,
          0.79304179226504,
          0.61899009684154149,
          0.48686708772710374,
          0.81185495753608783,
          -0.031194289434832764,
          -0.95214403822444238,
          0.41292647301107938,
          0.19205927725832742
        ],
        [
          0.4604810367769458,
          -0.83894886644157773,
          -0.5396373719505726,
          0.35872611501190382,
          0.94722536253884126,
          -0.35628690606906988,
          -0.081971274081925435,
          0.203633603372932,
          -0.51037129291313033,
          -0.041885080239324766,
          0.11784674385223085,
          0.71777930653444988,
          0.38401237610897304,
          -0.77301363386294153,
          -0.0043033356659553709,
          0.95595260681793626,
          0.075961894554960108,
          -0.89615572950958777,
          -0.71432337082837527,
          0.37224425950801787,
          0.078120861942251291,
          -0.84488422568247046,
          0.25098560917567114,
          0.943732499627335,
          -0.83855859842939362,
          0.39029753392284916,
          0.079081438578612634,
          0.49863453600882873,
          -0.13965509902517639,
          0.20229571279822325,
          0.37696427075534145,
          0.67467711788849127,
          -0.74644770639996938,
          0.48121848953073593,
          -0.41707620216592506,
          -0.31453565782568726,
          -0.80565644975364914,
          0.8037662363269652,
          -0.4203503606663877,
          0.61508179336412661,
          0.33022174026636492,
          -0.44637524945758672,
          -0.028051367695527778,
          0.20305167103232905,
          0.83884790569684087,
          0.84466736687183519,
          -0.85479773183913388,
          0.36448944680049183,
          -0.087526855935527573,
          -0.85462072428364777
        ],
        [
          0.87752792131746526,
          -0.034024442402233554,
          -0.65904397802126991,
          0.59016573550113671,
          0.63742249203987111,
          -0.48133245426222659,
          -0.92959166630027235,
          0.075262662920482684,
          0.37312282415135756,
          -0.74126352784655747,
          0.96708898730220638,
          -0.50601454840250748,
          -0.884253873339177,
          0.93969995858998689,
          0.96857374698179377,
          0.13267229306717607,
          0.61042899844603449,
          0.081436756912902725,
          -0.23821568965827542,
          -0.50924122526534665,
          0.18521763388469345,
          -0.13899475317722956,
          -0.93099753554540976,
          0.18269905426343211,
          -0.19788017101437525,
          0.093428856904658963,
          -0.3606448815167802,
          -0.47221482013950272,
          0.80642968252465852,
          0.20803801356567478,
          0.096597855364565235,
          -0.783578262736414,
          -0.68502696700442545,
          -0.733497227829627,
          0.0058955924486840255,
          -0.22584303742906753,
          -0.34227269806512645,
          -0.65040916608336319,
          0.18346521865482962,
          -0.65278858415224739,
          -0.010336138104934403,
          0.717971235242615,
          -0.1468520939490563,
          0.46252104651232279,
          -0.50502485635553,
          0.47780679345911969,
          0.24668730424146204,
          0.11371625371856596,
          -0.868809919516741,
          0.47484004537525837
        ],
        [
          -0.720871377646603,
          0.29210579246694124,
          -0.025356420601659158,
          -0.89384700656003124,
          -0.81835733376302133,
          -0.9260101124085256,
          -0.91425459934254527,
          -0.94444574791619118,
          -0.54622081827352087,
          0.70603713723398986,
          -0.27731701154611393,
          0.63795880305371744,
          -0.93936084312225965,
          0.30619487613361518,
          0.9146415761325003,
          -1.0129727260653896,
          -0.82721929465053767,
          0.55079940884218048,
          -0.14632568961856382,
          -0.30164290016734185,
          0.21773470173991746,
          -0.96859104493923809,
          -0.24298496749805643,
          0.98156274298013557,
          0.46921360887735841,
          -0.60232215004315,
          -0.74301170105671843,
          -0.85813695802024459,
          0.18114862450566746,
          0.01716154687786817,
          0.061721869896765008,
          0.65057748013422978,
          -0.55729943843606822,
          -0.853060890509493,
          0.807718481113559,
          0.80209203115964445,
          -0.670561604551829,
          0.93144082502772163,
          -0.63529308999979672,
          0.57637368674947731,
          -0.71363572430044175,
          0.066039325631117848,
          -0.56663757675802973,
          0.15889132918836638,
          -0.051361834796316522,
          0.17313463769702323,
          0.38487212873425752,
          0.69896063691578947,
          0.95877548266090573,
          0.010287182339894565
        ],
        [
          0.47302616745819231,
          -0.026040792787031506,
          -0.16516362019526487,
          0.97695110370339089,
          0.019371832498492506,
          0.42923239535659574,
          0.87852448588381171,
          0.84512971920280222,
          0.33792394821560934,
          -0.82487819642260429,
          -0.97434432693181194,
          0.94310810913122756,
          0.51162675946180436,
          0.95355653255166206,
          -0.79714584628795671,
          0.39747884678860679,
          0.5541583574041149,
          0.50519670188270938,
          -0.762298095616594,
          0.77661736954710614,
          0.3301479684136181,
          -0.26423805351652663,
          -0.84979808303158089,
          0.862282937874956,
          -0.84597885819008634,
          0.52628319312545135,
          0.57815503781104127,
          -0.15568036217844239,
          -0.83308748692109458,
          -0.28966137520283475,
          0.75434617527167347,
          -0.31848640258170824,
          -0.69542673932436816,
          0.083868452060243071,
          0.70176461822295788,
          0.10645339410120173,
          -0.18590623105490761,
          0.99708585991834353,
          0.4361513734506583,
          -0.59937819492445477,
          0.067628917720245083,
          0.80722077233617984,
          -0.96993930262057748,
          -0.993942717210787,
          -0.10158601582814417,
          -0.99786546134553711,
          -0.69003249866516747,
          0.89620623335816108,
          0.744144125896321,
          -0.21800555807586927
        ],
        [
          0.58065570349580164,
          0.42034126477971417,
          -0.37051314182420897,
          0.91163968556077823,
          0.38519221613238497,
          0.30202907773658172,
          -0.19559154793872863,
          -0.02574993131207165,
          -0.85989592546599225,
          0.13059371494282221,
          0.664731757073593,
          -0.93915370239191576,
          0.74362914876348352,
          -0.654074271040815,
          0.67780321465174154,
          -0.97105428209829736,
          0.96838340958376357,
          0.04250609672022599,
          0.041647336827931675,
          0.88895110802500066,
          0.975372357193193,
          0.913711929181257,
          0.11807641249952483,
          0.72594935730794818,
          0.70980456260830294,
          -0.21200596700837091,
          -0.32817964680533679,
          0.71915600922351974,
          0.24545755768954608,
          0.713321715867678,
          0.51664391130681175,
          -0.75858053763605038,
          -0.31993998915653549,
          -0.563606269101804,
          -0.26782298393497966,
          -0.97965771600753337,
          0.96856580775514944,
          -0.12198119896323927,
          0.46005021293779924,
          0.61299945007200718,
          -0.96617660625208412,
          -0.470518296946318,
          0.61469711482935285,
          0.12198418306301982,
          0.45484495239636974,
          0.82119190491114391,
          -0.43620561247651107,
          -0.25004480585688038,
          0.73141790327318157,
          0.700412231617968
        ],
        [
          -0.34843385790858478,
          -0.91412595753864523,
          0.28437297900156239,
          0.91710957252249592,
          0.51122533158547145,
          -0.93585247427495843,
          -0.8574460089033753,
          -0.27095394193219779,
          -0.49447248593294957,
          0.90511743322112381,
          0.62833075325339549,
          0.18958036609086496,
          -0.8728506369269613,
          0.85295952161596,
          -0.59771486140483143,
          -0.71785633374740354,
          -0.34384104369786056,
          0.97391781411115563,
          0.35876093813304277,
          -0.98182985946599166,
          -0.91126004267653193,
          -0.82306929278684,
          -0.836910338427014,
          -0.38201850872447474,
          0.66342862626171661,
          -0.73867255447444213,
          -0.16654093154253655,
          -0.6240843949333178,
          0.57714238716973087,
          -0.065053579472563544,
          0.23283482241237033,
          -0.24169733489266881,
          0.028621691120891222,
          0.19605809191437926,
          0.979312655794295,
          -0.84577561044133842,
          -0.030004647945042269,
          0.097372424638155874,
          -0.66353897762085112,
          -0.23259529291079581,
          0.41745131139100605,
          -0.9130343235179289,
          -0.84056912497240766,
          0.65749839679782,
          0.6137467310882585,
          0.50945456795096555,
          -0.62192261374678015,
          0.67097421178221361,
          -0.531547258428447,
          -0.94831062261182963
        ],
        [
          -0.083287752760469971,
          -0.77755790463111574,
          0.61700522835425275,
          -0.62116518978169888,
          -0.39919784203587644,
          -0.96555234647915578,
          -0.97632912153619478,
          -0.4517478152428856,
          0.1642744066548007,
          -0.21977601864886653,
          -0.17828072415440555,
          -0.40369279282399323,
          0.3945545848792234,
          -0.20826680180179633,
          0.993652367029316,
          -0.0078911100042337954,
          0.28599969055143415,
          0.85782532202590089,
          0.42527836153802723,
          -0.14733129416934174,
          -0.79165182748542329,
          0.077901473855785136,
          0.46881232293794811,
          0.014452065055981641,
          0.554740093823844,
          0.557150707303148,
          -0.89714009377712123,
          -0.58763576494147263,
          0.054959770299410668,
          -0.35018506351081807,
          0.73732324616222888,
          0.15887959224543724,
          0.93275450177993,
          -0.63518929800408452,
          0.68827363368605132,
          -0.067413688600948665,
          0.28409029908342087,
          -0.8168871287071694,
          0.14087298808621368,
          0.491425657584716,
          -0.5063373199743576,
          0.4953579811002618,
          -0.3889642317623167,
          0.90026722485926669,
          -0.45430362382138867,
          -0.30973686477789214,
          -0.18363348672846852,
          -0.30030303755085852,
          -0.32400612136315621,
          0.052111638822035691
        ],
        [
          0.058610936015399608,
          0.879440056734884,
          -0.58705447823756918,
          -0.46706275286685078,
          0.58850657941136053,
          0.65674622956054973,
          -0.075277200626794286,
          -0.85489166455868493,
          -0.7432803536428878,
          -0.54214823315783,
          0.057245005012757734,
          -0.84863613835944884,
          0.39984142367260866,
          0.75411532653166591,
          0.97535139335353682,
          0.051937869307932809,
          -0.10243297901005517,
          -0.80239853193440924,
          -0.21834341389602108,
          0.61088210057318748,
          0.89163699558288478,
          0.24458700275398654,
          0.97333728684864707,
          -0.53391242222002777,
          0.51714539449326746,
          0.49771154705615384,
          0.41020519113165982,
          -0.2567885381477012,
          -0.19802618141442055,
          -0.1403477534773783,
          -0.011379818479288697,
          -0.89604451859992629,
          0.099920867939446725,
          -0.20484303167739351,
          -0.90730263894472485,
          -0.26703053786081632,
          0.16103311502068371,
          0.95582104251467725,
          -0.65317840461282917,
          0.37206768147288233,
          0.12203581899878313,
          0.47325784870619758,
          0.44706585948901717,
          0.46259604494558448,
          -0.082950397509745116,
          0.77901695988380315,
          0.20909373332179893,
          0.073425884712159134,
          0.37600101283260018,
          0.12249501814856356
        ],
        [
          0.80723823603988942,
