{
  "Layers": [
    {
      "Activation": "Sigmoid",
      "Biases": [
        -0.074251419608309208,
        1.7856784260525966,
        0.64892878135820908,
        0.028033454482501923,
        -2.2860283355367352,
        -0.94406526472386265,
        -1.1347935531117961,
        0.056674073952002517,
        1.0462805722524378,
        0.3931709428743233,
        -0.26583787545770349,
        0.010499278585587989,
        1.8530921041567441,
        2.1674828216509208,
        -0.94076365196916323,
        -0.18002761121211189,
        -1.2368716877677961,
        1.4991028807499629,
        -1.6013157873352464,
        0.61350308639693973,
        0.45570860695684895,
        -0.59995311435798,
        -0.97913321190052238,
        -0.82353036052873019,
        1.4203373981442646,
        -1.306218396454945,
        0.650188591520183,
        -0.89434403288290865,
        -1.57967318449169,
        0.41999271367134261,
        0.57327090059482744,
        0.87346075315797278,
        -1.6777713488078718,
        0.9355384124042857,
        -0.073259218425025779,
        -0.68997402561429877,
        0.32649910308876184,
        0.522270153406986,
        -0.71186458104058015,
        1.155309713353587,
        0.8063893759441032,
        1.0844462402936048,
        0.4670203027462998,
        1.7342629893674471,
        0.32197164497634384,
        -1.2291505035030823,
        -0.308418871993146,
        -0.72573917775306385,
        -1.01902902158276,
        -1.1652623684128092
      ],
      "InputWeights": [
        [
          0.49804223822023697,
          0.59745715707708336,
          -0.89755155458453162,
          -0.70225217302605547,
          0.35385062409235329,
          -0.61284682703962856,
          0.633578339681815,
          0.97424520891261979,
          0.88805191411947881,
          -0.6993421154630749,
          0.34669583086108469,
          0.58632224402637478,
          -0.85909411952129378,
          0.064925474759780014,
          -0.32316430597536172,
          0.27379519090313803,
          0.35137351454388255,
          0.57811435457806082,
          0.90319213125113618,
          -0.42360099232018034,
          -0.50084346754733056,
          0.0092697709981619716,
          0.34767691591221789,
          0.091270570062413181,
          -0.17333679604092175,
          0.53125360965460233,
          0.35150145958206724,
          -0.58957513802279893,
          0.063731147213426764,
          0.067291453367778378,
          -0.19813879895839609,
          0.76847923807242779,
          -0.99525362490341429,
          -0.00515791513375011,
          0.13230051944679908,
          0.061303628396248581,
          -0.79043028916361591,
          0.17342926417769064,
          0.26854451479260888,
          -0.74921493252299765,
          0.58549727546527808,
          -0.10100932721592348,
          -0.5817697591955564,
          0.58199626093439027,
          0.90011313347604394,
          -0.80531039081544875,
          0.9399378535195867,
          0.63043507702985013,
          -0.66401407510862054,
          0.43819705509621837
        ],
        [
          -0.96231787321558881,
          -0.75964193967934512,
          -0.539677837960078,
          -0.849150288312659,
          0.33967634270569474,
          -0.4147401879524239,
          0.63935726168271489,
          -0.25755820736187773,
          -0.25061701440871292,
          0.62438176767216935,
          -0.27412396990510024,
          0.99733865494155582,
          -0.939328300424356,
          -0.58069856167527112,
          -0.10318621653102228,
          -0.43175217794928361,
          0.31173330513913089,
          0.86903094925473423,
          -0.11175199674238583,
          0.26512341770149728,
          0.82237607205026886,
          -0.70839877396854023,
          -0.76618845308730921,
          0.31274385552511846,
          -0.29888464375140272,
          0.28814062135027496,
          -0.34695877497986782,
          0.60482545002768573,
          -0.48131077736193362,
          -0.27336846862109188,
          -0.31041845134348345,
          0.95769757455589144,
          -0.298036407489619,
          0.45914965360077181,
          -0.60712430782899629,
          0.19859816741383574,
          -0.3479058339087483,
          0.010823769451243557,
          0.730251099577667,
          -0.94179115348056,
          0.37925851648208941,
          0.82418491156231233,
          0.12881101864689282,
          -0.55502995380491749,
          -0.69978936529259861,
          0.188700286512897,
          -0.049867486781663896,
          0.31168960479434388,
          0.13191566903238877,
          -0.06505703021729356
        ],
        [
          -0.37305156533080575,
          0.48959623705775057,
          -0.385578083203763,
          -0.23695239254543041,
          0.28101017352795393,
          -0.71877681081941658,
          -0.36518497895755192,
          0.34521112301488144,
          0.053137323887440718,
          0.51727868764908924,
          -0.795767934013229,
          0.448549866445909,
          0.44837649969155213,
          -0.72670194837952229,
          -0.084450528118460266,
          0.30730807937939059,
          0.992065334610303,
          0.21314805100229109,
          0.70414041674886119,
          -0.088265517160339771,
          0.63249137659297427,
          0.070669094863926585,
          -0.30289468718294105,
          -0.36619665368801618,
          -0.0012834151716164012,
          -0.30051280224031063,
          0.4687014244034059,
          -0.82302250953917566,
          -0.1892695394302443,
          -0.38649036117950264,
          0.690220363765192,
          0.25599187872752088,
          0.83983627469613786,
          0.70013646366655335,
          -0.77288124587670337,
          -0.427616146838331,
          -0.21375955448616688,
          0.54930524570230788,
          -0.026134867091960352,
          0.094742866032531223,
          0.99466296332433646,
          -0.89063318329472474,
          0.52787963334780419,
          0.012950133091775732,
          0.99188210907850682,
          0.36069667137198674,
          -0.31856485592687467,
          -0.38141053144473774,
          -0.81757243831530513,
          0.065817736750897082
        ],
        [
          -0.25927836955930528,
          0.11616789116706021,
          0.011288667699657374,
          -0.47914601063626383,
          0.58361395451843068,
          -0.0030304246098906812,
          0.22451392337377737,
          0.09201259248993561,
          -0.50129941983768667,
          0.0077736581142326851,
          0.00235719052338039,
          0.91755282366895374,
          0.22141209278954821,
          0.33558555943204255,
          -0.17876025857373512,
          0.93366607877676067,
          0.70540509923513706,
          -0.96091831353005974,
          0.069506504509773651,
          0.22299993537175722,
          -0.51918025443590143,
          0.65278587263976773,
          0.17487935242639988,
          0.30453861795955633,
          0.069277725371239135,
          -0.58911974952824719,
          0.88123545269508285,
          -0.064746364565499745,
          -0.33367404248142662,
          -0.3846793343511391,
          0.36629156777746308,
          0.8458578614928004,
          -0.89081232417039935,
          0.28159649674432435,
          0.001478447408371962,
          0.020264603683736934,
          -0.7327668025916334,
          -0.21217202143452,
          -0.01502325209911763,
          -0.72170969863913992,
          -0.22657510987020396,
          -0.17616359679570648,
          -0.084467104763518985,
          -0.58050045624666646,
          0.64105119555715739,
          -0.45531297164998424,
          -0.9806523685951104,
          0.8905145318932941,
          -0.722431966027993,
          -0.32737389257136545
        ],
        [
          0.20619405903446011,
          0.99100823267530835,
          0.18035431592385384,
          -0.39837971089678381,
          -0.13289515763852033,
          -0.92759179849936,
          -0.5600947969622504,
          -0.23556399891050817,
          -0.85914988180311347,
          0.32365421330807942,
          0.58624280388646188,
          0.77508975845077333,
          0.78272970427529143,
          -0.76761729834357473,
          -0.8097932169676032,
          -0.37409263622689654,
          -0.63689275187287753,
          0.1017680657703971,
          -0.577918963104447,
          0.94812226934164767,
          0.48031460900537887,
          -0.74468924261661629,
          -0.0049210420304367317,
          -0.69570717320182829,
          0.22561513744546538,
          -0.367681178648828,
          -0.517185981990505,
          0.47190747006254236,
          0.19785999064755586,
          0.11919884186119732,
          -0.53416607566067875,
          -0.45559353470422786,
          0.3793854240362432,
          0.445023746272792,
          -0.17322817345433542,
          0.64866034921436189,
          0.65408813028467039,
          -0.251000508709692,
          0.95935978473958539,
          -0.54633867108754852,
          0.73137885099753563,
          -0.93758435803074769,
          -0.15848184389694053,
          0.68476471819623574,
          -0.91574165761012316,
          0.10640915700206238,
          -0.57871318093057178,
          0.7092282399755081,
          0.64789195762127338,
          0.42646774389822223
        ],
        [
          0.672339550960523,
          0.75631169076245464,
          1.0037583556458436,
          -0.7860690268436078,
          0.011746078763566006,
          0.41048123557293931,
          -0.507399900959019,
          0.89484669746933265,
          -0.12050727980828881,
          0.21328464648008019,
          0.12154566105648523,
          -0.22974862111497207,
          -0.785292077700112,
          -0.6290565853075889,
          0.3181220015048245,
          -0.1373102141704261,
          -0.42030664821002728,
          0.66760638152736218,
          0.1135714789220957,
          0.59813642837844794,
          -0.86007180985323051,
          0.66687325627510985,
          0.58025953020369092,
          0.90690926450899334,
          -0.40354676339516543,
          -0.72127801125206359,
          0.7316531069579385,
          0.22347837911369459,
          -0.86459432495343491,
          -0.033132086853748653,
          0.82184449476299881,
          0.31460524680472451,
          0.05304249977104962,
          -0.55150146731526151,
          -0.66367009392291676,
          -0.15497885409557322,
          0.60254999978338519,
          0.64432527772445625,
          -0.88823593581232263,
          0.68404796769350729,
          0.21977256075941659,
          -0.58095208974164358,
          0.14926772365646046,
          0.16803257379398118,
          -0.51055323565851629,
          -0.14476898863941373,
          -0.28163105781676212,
          0.54243051006795073,
          0.69276367764100133,
          -0.62730775474534339
        ],
        [
          -0.851219152989152,
          0.27458871654414152,
          0.27617313027974938,
          -0.13305633601070796,
          -0.220864748315465,
          0.42458402840593973,
          -0.43889926085554382,
          -0.52793594529750065,
          0.89730948449423586,
          0.97308363541277065,
          0.77175577711493137,
          -0.43977082404067114,
          -0.67120108113854,
          0.9427074000170621,
          0.8972150603312794,
          0.48773160873238336,
          0.90928314292024548,
          -0.93945080059093444,
          0.41893516148640653,
          -0.1976334188525074,
          0.89382568897419712,
          -0.27587830827606169,
          -0.95089070326248726,
          -0.90791958465577571,
          -0.69279998684972088,
          0.22832995987232513,
          -0.094013330200433731,
          0.839078131284889,
          0.19561104267326143,
          -0.1894686956622228,
          -0.27858754144870412,
          -0.57966104471681745,
          0.026957299750007734,
          0.2551819554495261,
          -0.40756305370765117,
          0.27659327957961582,
          0.14140301879364606,
          -0.62622099071446413,
          -0.40841133623513315,
          -0.97591412762671748,
          0.21721490938679017,
          -0.97315159556065134,
          -0.38727069076777432,
          0.20668250022173296,
          0.73911506239783287,
          -0.7562801208536446,
          0.42002983906751534,
          -0.52216053938156759,
          -0.09999512896780996,
          0.08211686272216967
        ],
        [
          0.57844900902890872,
          -0.16675631482905073,
          0.14327320307153377,
          -0.832590744293258,
          0.759959696826034,
          0.35672289189124623,
          -0.2084881983727627,
          0.056675601183544845,
          0.87881154760098135,
          0.94874905011864319,
          -0.5371881077979469,
          -0.35809805663061633,
          0.89034698984355853,
          0.99382648192589906,
          0.97766296113876439,
          0.3094493101190437,
          -0.44965473826821989,
          -0.80775366810594706,
          0.68666947324019145,
          -0.18628877484430306,
          0.26275417918086269,
          0.30454027519526633,
          0.95913737812479416,
          -0.33513914293019736,
          -0.074785496617960384,
          0.73988017028860442,
          -0.43966317237325836,
          0.82499265662799415,
          -0.586314363400964,
          -0.65932720678042012,
          0.16468542241607093,
          0.2541496218592631,
          -0.319176833654112,
          0.45088338623406449,
          -0.10360131755755796,
          -0.43629022359665609,
          -0.20957375870217029,
          -0.93172558191869015,
          0.59098526522380279,
          0.5019524668201063,
          0.82766110753185873,
          -0.46204056520552983,
          0.017036596651389815,
          0.5107789456628935,
          -0.20305836294319202,
          0.41349928740382719,
          -0.555972069236668,
          0.97680904927999879,
          0.840666160761562,
          0.86841261080502563
        ],
        [
          -0.75883753127819586,
          -0.19783558524033351,
          0.7371412812698348,
          -0.39738200248489652,
          0.48400862262254746,
          0.7964478587749011,
          0.39818808654948751,
          -0.042206841156709939,
          -0.18600520508049073,
          -0.42952306117610795,
          0.25979160312747263,
          0.894600888018173,
          -0.97197023675075545,
          -0.020961761062376273,
          0.57334018466098047,
          -0.8682894113634837,
          -0.0087146869286204159,
          0.965634579831017,
          -0.033867552706785695,
          0.52141317129872744,
          0.900859319481264,
          0.98709811230158051,
          -0.17979551353094966,
          -0.43011050170628989,
          0.96654658015147288,
          0.07968023730179595,
          0.35893378509237539,
          -0.24273065532175644,
          0.93644877337333754,
          0.22011036461102218,
          -0.63541373321676553,
          -0.80791427167689533,
          -0.86989493555985753,
          -0.45676405653705737,
          0.95587281795866419,
          -0.13386686237343648,
          -0.36848272516524461,
          0.24059182098426987,
          -0.934718146325527,
          -0.037037076163333016,
          -0.509879574640544,
          0.215730378640981,
          -0.35951506266065869,
          0.30361153001610014,
          -0.92603402655113221,
          0.791509938267681,
          0.4312822455864217,
          -0.77267338798976337,
          0.18051499764529749,
          -0.26046145874034426
        ],
        [
          0.76889955047116887,
          0.10071865199315615,
          -0.43189063375222708,
          -0.41423543768274163,
          -0.94243947180316523,
          0.8242738364281661,
          -0.36965479320220967,
          -0.89246329954723136,
          -0.40212629938185968,
          0.78593077495941832,
          -0.47307828343289293,
          0.5725741770608842,
          0.81077247729295121,
          -0.567536876590347,
          0.17469798508130574,
          0.84972878143441555,
          -0.796625490848313,
          -0.06794050911883065,
          -0.586741720622366,
          -0.35789177277319173,
          -0.23313348124055192,
          0.00029855996335774741,
          -0.84361978820125183,
          0.55025686591526957,
          0.808697051790361,
          -0.5151702863284231,
          0.92013521199141068,
          0.22834567275280313,
          0.90043991082762376,
          0.30730409582955953,
          0.36713524637854922,
          0.83501763040574162,
          0.87382723829112585,
          -0.18577425945900683,
          0.81148962403364111,
          -0.63422117706210734,
          -0.10807255672423,
          0.51649487177204734,
          0.0510101219533739,
          -0.52444401706129351,
          0.15241231583521403,
          0.34875601693449865,
          0.445494620234957,
          -0.70234318540722862,
          -0.16187443957205583,
          0.53772509710832239,
          -0.63486385947580837,
          -0.98594004286116754,
          0.894028552184996,
          0.89972903366236978
        ],
        [
          -0.097341994246814431,
          -0.092860514435961175,
          -0.77322079437191649,
          -0.25735381727377449,
          0.48383263106128366,
          -0.82531578736206823,
          0.00876965149933721,
          0.10679075460984573,
          -0.55316331533404017,
          0.35541470590299207,
          0.8903574382904208,
          0.55744561623097655,
          -0.044159591088529924,
          0.30932415946630926,
          0.60519027351436949,
          -0.076350344640368828,
          -0.59127848161232,
          -0.1244047113552153,
          -0.95122954930919934,
          -0.65796398431256409,
          0.6467945791009917,
          0.93747961574202021,
          0.39639528524529138,
          0.53327437222598584,
          0.24258088199673658,
          -0.8305377994318337,
          -0.7073044447691329,
          0.50553525114836928,
          0.634181111123832,
          0.34051634057304081,
          0.72407167623860835,
          0.12421810677660317,
          -0.74483059118166928,
          -0.16280048359535937,
          0.90890606242879857,
          -0.91336607535192194,
          0.76085266570431331,
          0.12003496657417294,
          -0.14823477422944326,
          0.75057310730658433,
          0.82687710109643464,
          -0.71495280810241035,
          -0.81376151404034114,
          0.92350832375406489,
          0.30642128339495311,
          -0.56317628703111111,
          -0.973717965851756,
          0.98146538741291667,
          -0.067126404185790578,
          -0.16224674418526891
        ],
        [
          -0.33581646061907944,
          0.26869033565924083,
          0.25277165500109505,
          -0.47814429846862827,
          0.65244455499246046,
          -0.097455003203932078,
          0.89114992469255216,
          -0.36752195806141275,
          0.90360324929779445,
          -0.809650212207195,
          -0.0600539040266754,
          -0.30513255251330629,
          -0.95548043784915282,
          -0.69024532782601389,
          0.33867015587195848,
          0.27378039800819348,
          0.98469983428869123,
          -0.92649000597630649,
          0.86903614637632143,
          0.34704458188071807,
          0.52972339849659344,
          -0.1450175360593583,
          0.87892935434756259,
          -0.030043735516878441,
          0.98252042448409338,
          -0.778506594163257,
          -0.43651900244847763,
          -0.76420144325648609,
          -0.36591458133930388,
          0.25505551731093146,
          0.81474516922717988,
          -0.44436343289532226,
          0.91465287534854944,
          -0.27611992061486385,
          -0.25069193489202923,
          0.58811664932584939,
          0.73055378912818769,
          0.30178013439578888,
          0.1690895528426854,
          -0.55760584023341575,
          0.72064534924469714,
          0.4752272132357801,
          -0.26553518430956635,
          0.1608377932821996,
          -0.46229829011026968,
          -0.209249080550223,
          0.17222428953719435,
          0.447855839993542,
          -0.701951480627808,
          -0.566112624983871
        ],
        [
          -0.79170107141173451,
          -0.56686898884460735,
          0.9173118450569907,
          -0.2337320920357284,
          -0.23333854549115163,
          -0.282931780570238,
          -0.11162935052765362,
          0.76824308635839078,
          0.792542095727051,
          -0.53241306799782284,
          -0.40765034651517595,
          -0.29301203757190231,
          -0.61023177222535641,
          -0.54067451360532437,
          0.076969639146703,
          0.177219726027468,
          -0.91603254247638832,
          0.81895937481242687,
          0.47766969144646981,
          0.82742280111376187,
          0.705303609675881,
          0.2476359254098279,
          0.023051993551395804,
          -0.18863547234513667,
          0.34898752648067916,
          0.87275976077090411,
          -0.29728782883248728,
          -0.27299288313133535,
          -0.66375111439220325,
          0.18275828257397753,
          -0.40573311848348637,
          -0.82610390067119088,
          -0.93803107026959831,
          0.49966224475474752,
          0.66556195077493263,
          0.1215509806577721,
          -0.55066014937517682,
          -0.16632244912694058,
          -0.27979607196201683,
          0.1344024012962316,
          -0.93556209022894643,
          0.50146292982042662,
          -0.59742256551073,
          0.59992574498477158,
          -0.40128540428912712,
          -0.073385255096670723,
          0.76555042662805162,
          0.61703238587873421,
          0.44391794977460786,
          0.45471586018949239
        ],
        [
          -0.83464435256269887,
          0.23986440346926768,
          -0.61345275575414815,
          -0.61035381587884729,
          0.56708152006982016,
          -0.73345783017401189,
          -0.63069756636721386,
          -0.74411941152005223,
          0.83899216912230024,
          0.62551330580942521,
          -0.99234709483735517,
          0.60014400427350012,
          0.28366927404421488,
          0.87123537519641381,
          -0.6105188777569327,
          -0.7788303083189495,
          0.87104452447989011,
          -0.4833966186278193,
          0.89527868762230967,
          -0.51123523514727975,
          -0.73618928643997616,
          0.584215271022368,
          -0.49000865605999183,
          0.65551334081556556,
          0.32691786261247607,
          0.026330841227063469,
          0.51987215374925544,
          -0.95564422129712745,
          0.59293180672096157,
          -0.81934843010992853,
          -0.057094359730600334,
          -0.78063978879169826,
          -0.83037987582812234,
          -0.67171142228323721,
          -0.53325299956692551,
          0.43151675513641508,
          -0.32908173473099211,
          0.9450149582605164,
          0.71394730560244979,
          0.083020900532775374,
          -0.98414833711842487,
          -0.17760527906950965,
          -0.74191007222228045,
          0.47076933736944881,
          0.83147876293206491,
          -0.873029783096786,
          -0.21771112763418229,
          -0.0921660019100194,
          -0.68108845605943025,
          -0.54149747832297368
        ],
        [
          -0.60997526391858,
          0.073446177995723477,
          -0.016417128850560653,
          0.74457722970774531,
          -0.69512100861076564,
          0.13924094694581887,
          -0.47130774210175364,
          0.981245935866177,
          0.33034771154353865,
          -0.16866503537391953,
          -0.74440630331741175,
          -0.5063303849836428,
          0.23120780351478862,
          0.5194959107404562,
          -0.36511103411751322,
          0.57040892619152506,
          -0.79849826181346284,
          0.23409655968497084,
          -0.21626494269539745,
          0.57314836024827187,
          0.70621512305288126,
          -0.1063578272357053,
          -0.94535614884118979,
          0.28294545615014982,
          -0.26448739701015894,
          -0.21495295756429655,
          -0.8224650507766077,
          0.23249026069965179,
          0.86744215282182924,
          0.99727465686464967,
          -0.62696603228976433,
          0.31099838202342239,
          -0.95020036076240577,
          -0.83487873885047548,
          0.31942406494505171,
          -0.09423259643184996,
          0.90867524878653816,
          -0.40161480203717725,
          0.48205211841425655,
          0.37023076394225779,
          -0.45765951965024843,
          0.10775989718493738,
          -0.03012542690331094,
          -0.40392270413642661,
          -0.36351486542552047,
          -0.72347840830137278,
          -0.78289782040320277,
          -0.31975333467888362,
          0.53092488836420926,
          0.1642070596804466
        ],
        [
          -0.59323455024370442,
          0.33028664482490533,
          -0.68293782632139588,
          -0.21642180138311215,
          -0.76481727507188768,
          -0.45597544738588625,
          0.69144562862960413,
          -0.83066560494035258,
          0.89725445857169928,
          -0.028806150205771527,
          0.90303308521681125,
          0.64737072062919421,
          -0.78449968487752841,
          0.90281939875913531,
          -0.83618355532825284,
          0.52920434718200948,
          0.48929057641332346,
          0.8855213883115034,
          -0.76447765497530207,
          -0.035446823933983448,
          -0.50299386937951,
          -0.91912964706466782,
          0.53509537453888945,
          -0.58487612783846454,
          0.44545899590877852,
          -0.10516023369948546,
          -0.068223612984133319,
          0.088072128142210437,
          0.96608350301734758,
          0.47463535135421392,
          0.12708743214342189,
          -0.92658589573742944,
          -0.27209675843072817,
          -0.15096357627999502,
          -0.618284794776949,
          0.1543465993127614,
          0.38044211763706254,
          -0.89315649616423232,
          0.56096661660607927,
          0.01602022190057148,
          -0.719306326666552,
          0.024046974931956858,
          -0.24113581148084756,
          0.39543248850870316,
          -0.49839791348088497,
          -0.19316718392351426,
          -0.11044828008300765,
          -0.29235785304191059,
          0.0092814168078266361,
          0.071760040237007744
        ],
        [
          0.37017125314627353,
          0.53004409359004534,
          0.27780474619601642,
          -0.32994036648693059,
          0.20681072984491633,
          -1.0007824591809766,
          0.071254790385012493,
          0.44663408644598646,
          -0.0018211602481271422,
          -0.56765516210099742,
          0.23869980038334385,
          -0.37725032702778771,
          -0.45334842417618015,
          -0.37236833065504044,
          0.37895922935597692,
          0.98356593952764448,
          -0.86143475779179757,
          0.664523837683005,
          -0.60697391263019074,
          -0.86953381485499437,
          0.9983280935485066,
          -0.26352254341391174,
          0.34810891291525164,
          0.326642935747591,
          0.15275030834852224,
          -0.34243276334634276,
          0.13497475590583441,
          0.26831314471939544,
          -0.45087001355873468,
          -0.32937576167406324,
          -0.028538916864202818,
          0.85290626394005387,
          -0.88831532424912218,
          0.36852268622839907,
          0.055266990621531904,
          -0.25080467036742693,
          -0.33882317918485072,
          0.89885004186366146,
          0.73578940181856023,
          0.65827166944250426,
          -0.527743034758495,
          0.66080513969454535,
          0.95141790817801142,
          0.27413406598094675,
          -0.04573642160285521,
          -0.32497325997828913,
          0.77576533731517,
          0.35615716201599495,
          -0.24732919984402374,
          -0.42880655712406895
        ],
        [
          0.27322981953215364,
          -0.21147138615889771,
          0.27830217885446523,
          0.2166244476820394,
          0.31955912130555303,
          0.65918506574989921,
          0.36182466763697246,
          -0.28210544247078972,
          -0.57413783196980084,
          0.29025483652269679,
          0.7691956677491999,
          -0.51216411497196856,
          0.56385628680468725,
          -0.2299428666544748,
          -0.96092507136019134,
          -0.54407160199928406,
          0.85635030284676428,
          -0.94155671720837264,
          -0.5299403209406488,
          0.40712401816427668,
          0.39085577881641903,
          0.016964668007223304,
          -0.63618899406465312,
          -0.29138371755710507,
          -0.94205927387550037,
          0.5046284290376275,
          0.19328406602170822,
          -0.58974293115143839,
          -0.46825644024225,
          -0.578347139639066,
          -0.31644322667159808,
          -0.85581205664759608,
          0.58730820585377153,
          -0.079846333203604,
          0.083338728469744786,
          0.77880556790335653,
          -0.63378210103268584,
          0.23009668845043649,
          -0.11835467686068964,
          -0.70860113386556545,
          -0.16518635162621104,
          -0.65614514937233559,
          0.62921065824415767,
          0.14201184783779453,
          -0.46772378730129649,
          -0.964966441663292,
          -0.20924873251023593,
          -0.79070053177549338,
          -0.588537866872552,
          0.48341229624156096
        ],
        [
          -0.16877308995870419,
          0.66103071356360055,
          -0.58516947701911493,
          -0.078164328516361431,
          0.094107398564411179,
          -0.071182055303934844,
          -0.040707743170908077,
          0.40943529190596861,
          -0.053108115146514617,
          -0.12065111068755523,
          0.17618465591412738,
          0.70959969773204323,
          0.43059230560207984,
          0.66276492103246776,
          -0.88312823125126028,
          0.90714186097745475,
          0.0333399338756411,
          0.43489819421918752,
          0.56538686382774483,
          -0.92159894610948856,
          0.91617105376646957,
          -0.57769257941315333,
          -0.88545832447307726,
          -0.19262497394687986,
          -0.976400004278119,
          -0.8905435690310628,
          -0.02965964646984591,
          0.070574391320414251,
          0.70213835058216945,
          0.3833862094941568,
          0.5864950256433159,
          -0.44322738862216932,
          -0.50024841031647782,
          -0.3158718286582633,
          0.49726138409873816,
          0.75846511476850687,
          0.14935608587096985,
          -0.15345976412935983,
          -0.6222896583950801,
          -0.91117606215670743,
          0.8366865981417877,
          0.69347040867823728,
          0.12826190410480859,
          0.24426196285240659,
          0.62810274911571562,
          -0.20426122394420149,
          -0.20692032060141566,
          0.66405445432626808,
          0.774848715710637,
          -0.605210152258733
        ],
        [
          0.32885572155532006,
          0.88742215801198221,
          -0.93869165480474992,
          -0.39848643278042351,
          0.93858433471664116,
          -0.34432114907367012,
          -0.62482821606393568,
          0.054012308028634638,
          -0.10762449090986277,
          0.58009155219668462,
          -0.61050128652535018,
          -0.11715285898884573,
          0.4962529126718106,
          0.25592753588466205,
          -0.091075565060301511,
          0.2121376941751838,
          -0.4605878748356933,
          0.37425832642728152,
          -0.42968213564516167,
          -0.75718145714335139,
          -0.44306744111954949,
          -0.00885482964140435,
          -0.42980491057571074,
          0.89997288526630492,
          0.2976983976110617,
          0.82352469986036114,
          0.038246551156298686,
          -0.26421985946206411,
          0.81892122538243428,
          0.10565276525796351,
          0.89901569169124662,
          0.43538683354302782,
          0.90559307528063293,
          -0.47682930478243074,
          -0.94420086516350876,
          -0.70877498456099453,
          -0.87051696370485088,
          -0.614577377258647,
          -0.539100491545601,
          -0.91936091679640153,
          0.30603093002458359,
          0.20437163976410178,
          -0.22333020962475259,
          -0.2733088477729651,
          -0.6768570197793442,
          -0.36946402692265284,
          -0.87549756510670684,
          0.32756498132247286,
          -0.45406815192562922,
          0.888200091394028
        ],
        [
          0.5471289547120155,
          0.1989314675814815,
          0.86585419382561879,
          -0.47693332556905721,
          0.00081657877791526366,
          -0.93455479144877129,
          0.06280105337197564,
          0.971311185407543,
          -0.7544396472411784,
          0.78791447085576072,
          -0.49684067810701527,
          -0.93814067030078474,
          0.43894248327011487,
          -0.90368398703390929,
          -0.99742779098415935,
          -0.3790512448802929,
          0.87452765452827985,
          0.28798305645139577,
          0.075677000388678708,
          -0.7655831152965128,
          -0.053501184454828904,
          0.21661445225555343,
          0.31060500732090274,
          0.847096163431541,
          0.34220374510882295,
          -0.34995754404260071,
          -0.366024131793239,
          -0.0755495748817256,
          0.84890087391664282,
          -0.34536761755244616,
          0.32557504796534109,
          -0.43244031067558092,
          -0.073798779441337239,
          -0.30184070063171825,
          0.714274583679583,
          0.10857054616510625,
          -0.44306057242808905,
          -0.2775347182032657,
          0.63504748711225556,
          -0.24800956548680497,
          -0.899516349886434,
          0.047378675783200874,
          -0.854216000425329,
          -0.25127853241101328,
          -0.011871016821898834,
          -0.32974001268885506,
          -0.64510319006185435,
          0.78643921997734512,
          0.71392371629476248,
          -0.80309490281120843
        ],
        [
          -0.079281081868682088,
          -0.90478062131274306,
          0.75055940835398571,
          0.78390670877605639,
          -0.30522399182760923,
          0.74074982511983878,
          -0.91689300295259468,
          -0.573465234002939,
          -0.89475570868389631,
          -0.76628182237720177,
          -0.48511470639894105,
          -0.726135919333759,
          0.9441968168760948,
          0.52824616752808717,
          -0.30403876942552532,
          -0.82922902011062327,
          -0.92310306670923059,
          0.73673388391288908,
          0.91418051387373578,
          0.48140940359599849,
          -0.58465879353023031,
          0.013609008462753735,
          0.55418528044064919,
          -0.89278374297881036,
          0.62345037465244968,
          0.12541692851777858,
          0.920673878025528,
          -0.94724329336141411,
          0.034077371242036351,
          -0.66489902615662055,
          1.0002329399354004,
          -0.028229090344029473,
          0.83807269269935425,
          0.61644788044154153,
          -0.75210228486270081,
          0.892965560799377,
          0.4122622723864201,
          -0.46550505985217216,
          -0.40968872128183875,
          -0.80857725461505392,
          -0.71785150747269566,
          -0.31236147507631828,
          -0.83201752871896839,
          0.82622636601037547,
          0.056162264658992406,
          0.90855766467719079,
          -0.87302536514143847,
          -0.43726449015204055,
          0.550359195406732,
          -0.06153083642902081
        ],
        [
          0.0965665586252026,
          -0.088728823836936879,
          -0.35173814171332146,
          -0.92321742551676966,
          -0.84994065711603239,
          0.59752556015910274,
          0.80434303064536639,
          0.21320673161288439,
          -0.24353603639325144,
          0.54119865162545755,
          0.32566498224807583,
          -0.20626220758769198,
          -0.29022003536341467,
          0.00064681325352849409,
          0.1515542596115973,
          0.28045848960314285,
          -0.84359602475386386,
          0.72650247981327565,
          -0.14606022538415017,
          0.86279404755488043,
          0.63130932149217567,
          0.29543559399398717,
          0.54433100982969085,
          0.93034128693527074,
          0.034174282991037919,
          0.71664597241870753,
          0.57884049098965151,
          0.88436731874416408,
          -0.87646297551277086,
          -0.33873298891940895,
          0.24084378765080355,
          0.12032437514898947,
          0.0070016735267718309,
          0.61077675157807276,
          0.66123897774792839,
          0.99804894558331791,
          0.733430619648296,
          0.76013459912795966,
          -0.19506480229212958,
          0.94405092954143843,
          -0.28049898589494382,
          0.89488833677414426,
          -0.32791601064310405,
          -0.66964129425876573,
          0.038843610784893207,
          0.8416399164867282,
          0.11315037266794932,
          -0.79718024351297712,
          -0.13096235847937077,
          0.633475296395263
        ],
        [
          -0.65274407617217589,
          -0.34067319836288179,
          0.14731368575836631,
          0.95108567185424231,
          -0.47264836934724658,
          0.049756413653381362,
          -0.28675498618118783,
          0.67247604289194329,
          -0.56082354153195346,
          -0.099114464276732359,
          -0.14842991782161638,
          0.692224436674875,
          -0.26604445407395938,
          0.69616354624053267,
          -0.89442062573472225,
          0.98620153002691147,
          -0.370753968915307,
          -0.59147831675109475,
          0.15234578999892948,
          -0.3066971294042472,
          0.33074797002345541,
          -0.028066753577785198,
          -0.23142937398118765,
          0.28938593703911936,
          -0.29510932932349049,
          -0.35694712671717854,
          -0.58424653918455915,
          0.46383945682475308,
          0.78058326919977561,
          0.78931702662144465,
          0.18579168138209962,
          -0.22431250541087547,
          -0.8124437795918471,
          -0.00706118597066929,
          0.82710524002737928,
          0.77498274508109866,
          -0.29272827336696949,
          -0.36741970926234546,
          -0.81842430062728955,
          0.929244084083214,
          -0.10905551746958569,
          0.15819239640066174,
          0.77674417115126038,
          0.74732331677979991,
          0.21098129287820588,
          0.36813953200325894,
          -0.21592231953072252,
          0.032596144381684,
          0.45426892054366486,
          -0.81080724721738107
        ],
        [
          0.506522612688777,
          -0.30721141458309675,
          -0.78089303323405845,
          0.62734430197350644,
          -0.955168045557595,
          -0.93763363747684592,
          0.64262249050367959,
          -0.81652124469066278,
          -0.94596119963252867,
          -0.30479261666284663,
          0.4616286745778998,
          0.43851114786470935,
          0.10646572394064757,
          0.78298301640210477,
          0.73631430733984149,
          0.38612699083309959,
          0.43850380825962776,
          -0.1946404491874901,
          -0.72494820069331456,
          -0.0454535934999912,
          -0.390600434860883,
          0.10346009495632869,
          -0.54565530865984579,
          0.31881439138793682,
          0.046022489622877055,
          0.80145749713957,
          0.30686427708744179,
          0.97787144795465109,
          -0.51874178857128128,
          0.43459523481195983,
          0.53199194008594453,
          0.32751405150077778,
          -0.572029867951203,
          0.86573828318736956,
          -0.14434587599993357,
          0.75851936384281693,
          0.16610255215186234,
          -0.10915736509195391,
          -0.78782645017976893,
          -0.20573145101335605,
          0.16199395177417136,
          -0.12761545786245021,
          0.8564174218227365,
          -0.33854057823594835,
          -0.028501074533053557,
          0.20201672993570624,
          -0.078015458272058844,
          0.42605808286342578,
          -0.92639224060699643,
          0.078100735983308467
        ],
        [
          -0.86091578421584058,
          -0.68497537695634925,
          0.056374756988475744,
          0.98439560115992986,
          -0.6303279960653998,
          -0.76132821887558633,
          -0.46105617741428634,
          -0.0907997671597524,
          0.68147955329468524,
          -0.73415594050413058,
          -0.774683099657368,
          -0.85285350889651779,
          -0.62381614640584959,
          0.92553251510729817,
          -0.20502992146618104,
          -0.82219008106488112,
          0.11650598436750122,
          0.93918971094789894,
          0.37389341758764227,
          -0.66707772448852654,
          0.29775330132551708,
          0.35392357229220422,
          0.16540360041359573,
          0.83352462679742367,
          -0.12342432192276778,
          0.43125931461075095,
          -0.13735789936009291,
          0.96122157565723,
          -0.89189962017866775,
          -0.76782630232277649,
          0.35385317248403358,
          -0.76412902023268969,
          -0.63219177028760676,
          0.514635464918087,
          0.75504501775554944,
          -0.21679310824536779,
          0.77069544193205575,
          0.92511048931923157,
          -0.021430127426347648,
          0.360132358302116,
          0.95590534434199159,
          -0.17711659799872193,
          -0.10072795780075711,
          0.19345680137813459,
          0.067264652806260566,
          -0.23390042006067874,
          -0.80977877459044956,
          -0.42446629351590021,
          -0.74735853929892482,
          -0.28063806569162569
        ],
        [
          0.87481769783952545,
          0.78645829470064676,
          0.873258385245101,
          0.58787435020975731,
          0.69896458628258928,
          0.29106538123624542,
          0.2847513487531958,
          0.91452008708482369,
          0.42344184482782327,
          0.84931923643933549,
          0.23364366851937726,
          0.057792100592047806,
          0.100597373784996,
          -0.041815123108557693,
          -0.84357522693427467,
          -0.86494522198784474,
          0.011651213431427516,
          0.960835283450065,
          -0.13140612264892762,
          0.16685130340787835,
          0.98672739008181831,
          -0.057249294994745521,
          0.12170155099989292,
          0.49241374048994219,
          -0.18188935266555781,
          0.43719898568199722,
          0.63798982100587709,
          -0.031833128385191846,
          0.18762554834087339,
          0.88560422032956643,
          -0.60356849050039352,
          0.10716443000746539,
          -0.245885519121142,
          0.14392442283801432,
          0.23924756498723618,
          -0.52959031912320675,
          -0.5377491083288457,
          -0.45384500086950186,
          0.45848088864107694,
          -0.7030523495890949,
          0.97330710758000438,
          0.6255097170399464,
          0.077866566240061108,
          -0.073697825402963074,
          -0.37178356177646865,
          0.78840718542194665,
          0.45269511806292495,
          0.21839490046141943,
          0.086992204031896309,
          0.58114322038403743
        ],
        [
          0.87947139055067014,
          -0.47390515510744835,
          0.53472683615644412,
          0.39745803626914944,
          -0.038278605755007848,
          -0.8307945650519275,
          -0.13333519585732748,
          0.93112616417100413,
          -0.64463340018564785,
          -0.397653181950839,
          0.92421567049056652,
          -0.629424108888346,
          -0.882180039661441,
          -0.35156292427087038,
          -0.6936714843377676,
          -0.92321773042652133,
          0.5882656063527214,
          -0.47003649541622339,
          0.54465005028251778,
          0.060438212806326191,
          -0.68241331156602958,
          0.69725143124317368,
          0.63325679335211793,
          0.91046008013783486,
          0.22320272792382603,
          0.88696343878946893,
          -0.75152890817235785,
          0.48383413759449462,
          0.052148457853635082,
          -0.48926853469693843,
          -0.39790139594004226,
          0.70016234162637858,
          -0.65514354528524343,
          -0.823463164692526,
          -0.66210359282143783,
          0.43497865509424233,
          -0.77440605003516039,
          -0.6227843778178429,
          -0.27064926909412179,
          -0.81460849332183638,
          0.724139243834762,
          -0.077680993355660255,
          -0.41610071355172429,
          -0.85153498311818376,
          -0.78151755966718972,
          -0.47738976024120522,
          0.42364843612050673,
          0.622572689339157,
          -0.732718257856372,
          0.11791993254838518
        ],
        [
          -0.65956264101369966,
          0.76488627642560936,
          0.074339137316093484,
          -0.79144287055634,
          0.36508076874209733,
          0.049679135300107494,
          -0.81505842265035622,
          0.83414539894191309,
          -0.20979611918015423,
          -0.22301596604034632,
          -0.88367268089025852,
          -0.874152816829595,
          -0.099969006266899973,
          -0.93837778252305659,
          0.91524328654667175,
          0.042186172616506638,
          0.4249860622562831,
          -0.46410438971108137,
          0.75641798128564131,
          0.055952837791261173,
          -0.83261742385364035,
          0.73946045508576175,
          0.65484055211236158,
          0.15253846242681587,
          -0.59067119196727436,
          0.66817201868362419,
          -0.9142044486009665,
          -0.19818245231723233,
          -0.72867911308589384,
          0.89751903026249868,
          -0.633985135610047,
          0.56061449185388057,
          -0.98724162536338333,
          0.24613456548772128,
          -0.35432886512304035,
          -0.041926821207621666,
          0.82645919203628937,
          0.93961930596564358,
          -0.776913654395817,
          0.024212309191708224,
          0.55038708821415727,
          0.90214467957075306,
          -0.047596255677556543,
          0.20712789965510736,
          0.4763951061711813,
          0.014686888856527492,
          0.647488573831288,
          0.55280400698409582,
          -0.65792533258796038,
          -0.03308758608954207
        ],
        [
          -0.40673219873975452,
          -0.81834467793647014,
          0.90939401546155052,
          0.24092810049383487,
          0.39384950048891992,
          0.00057249618869397931,
          -0.19504305129241575,
          -0.99144837899031357,
          0.12570673979202751,
          -0.0015685650587751187,
          -0.21789482696722493,
          0.62289439374828037,
          0.73847663390220331,
          -0.869414944953641,
          -0.44626731458090152,
          0.81091087770898518,
          0.98016595832224662,
          -0.38788363820387362,
          -0.42161896528476039,
          -0.088283190868838249,
          -0.60572223307824591,
          -0.717156093269907,
          -0.0605168264785223,
          0.819236143842698,
          0.38658319036735095,
          0.080034162231891623,
          -0.86193523802768068,
          -0.13848505037454709,
          0.77193548111659482,
          -0.80071416718068855,
          -0.5498889681406498,
          0.99843094106206565,
          -0.65050903432667617,
          0.76567579484194026,
          -0.3679659757139751,
          0.087428945370016053,
          0.3288133219523165,
          0.36757866894183633,
          -0.70624378124388887,
          -0.90325227609396019,
          0.067962135192885242,
          0.69586286112125584,
          0.6186275422697165,
          0.64857977305247649,
          -0.761314761363973,
          -0.12871928552194892,
          -0.78591518682915174,
          0.08585069307474516,
          -0.79503963414468171,
          0.160206303894937
        ],
        [
          0.0079555579420408484,
          0.21415093527355866,
          -0.95032848497259481,
          0.76779201983198486,
          -0.95824231087558642,
          -0.93153176144523853,
          -0.02491214466584599,
          0.044337857878874988,
          -0.79813532105335916,
          0.52768720066422536,
          0.29654559521188639,
          0.88871381688178774,
          -0.396163337521681,
          0.098910995705641061,
          0.97242327234742976,
          -0.36499473225999285,
          -0.25571927226927227,
          -0.61086236027513652,
          -0.28579628427312831,
          0.84218425057634716,
          -0.23527855531563982,
          -0.16704846539568263,
          -0.68804316492351314,
          -0.4488170522951212,
          0.85095650232658226,
          -0.54719516533695467,
          -0.41623234786064256,
          -0.8889176695008314,
          0.53203955712211326,
          0.0017538409482047276,
          0.26018123547657668,
          -0.21017915378872612,
          -0.87230356577448909,
          -0.684669981900384,
          0.96287716535567869,
          0.16946944945677123,
          -0.37205489299392369,
          -0.75209330655339712,
          0.860798135063173,
          0.56076204500600657,
          0.16401816858441271,
          0.28019355331009577,
          -0.087008241924252328,
          0.465841928056365,
          0.063179039624442893,
          0.88611968753828407,
          -0.20196921864080134,
          -0.34755479938004358,
          0.25826820249768512,
          0.521230730656898
        ],
        [
          -0.44016044373098251,
          -0.37181346341788257,
          -0.16483908109706727,
          -0.54182437939845063,
          0.59730636029175743,
          -0.90376169690689379,
          -0.19604187566157807,
          -0.31310403869386094,
          0.876284483655673,
          -0.13222227842294007,
          -0.14104099171045467,
          0.29241013061496124,
          -0.90474931954636051,
          -0.39819305279047995,
          0.589716932643557,
          0.088965290861969581,
          -0.983616273234005,
          -0.789456979543688,
          -0.0018878780005463171,
          -0.67966289458990092,
          -0.11103760416870312,
          -0.24052192706648368,
          0.68926954279122332,
          0.51382538455201776,
          -0.72922893780953746,
          0.5725867206576436,
          0.44746092855959307,
          0.17366839541504339,
          0.35321279615586576,
          0.38277457596613285,
          0.42992932335584688,
          -0.64506339277697833,
          -0.34194434182374811,
          -0.56120985811926916,
          0.93857903342410554,
          -0.10373089600168411,
          -0.22289399284068887,
          -0.5156787825253194,
          0.32004254952875044,
          0.67051943557776472,
          -0.00827707652474519,
          0.02332759579099071,
          0.62918795050431275,
          0.78956456857442126,
          0.97040713438291371,
          -0.82758825823695659,
          -0.44748911910245159,
          -0.071115188278499025,
          -0.57595602904334964,
          0.405940886084402
        ],
        [
          0.81153195136938228,
          -0.15347565678094513,
          0.97253217473804243,
          -0.96371242489941455,
          -0.38092306581679214,
          0.72903694012344933,
          0.076338494055419454,
          0.68298797508800113,
          -0.83431317341506628,
          -0.5797776549697583,
          -0.0080955447126064284,
          0.2968168189904396,
          0.098042807432123291,
          -0.63279272293223388,
          -0.92748112896469248,
          0.03363094589012814,
          0.27739517855523088,
          0.61698748317102492,
          -0.37444623472902544,
          -0.78245727309124968,
          0.85640354489043924,
          -0.4629977961862623,
          0.8050340402022802,
          0.66724669434029482,
          0.90344740981422234,
          -0.22506851881078516,
          0.017813368207004372,
          -0.98309257052436017,
          -0.45368031318867807,
          0.74945816060440473,
          0.82755189215807978,
          -0.53605841826288991,
          -0.8168747425441365,
          0.51418317088900867,
          0.073099627034638792,
          -0.04251837320893246,
          -0.40535685756162831,
          0.89103743076545616,
          0.58681366426125181,
          -0.094556459193343614,
          -0.40801697314626006,
          0.54790464067291056,
          0.94538030322264444,
          0.79377264163665451,
          -0.46832251164579858,
          0.0811609575334371,
          0.72453882416616322,
          -0.9948314698835522,
          -0.2852169179747121,
          -0.55580772113892407
        ],
        [
          0.43963117948136204,
          -0.24455563135394925,
          0.030093683148206145,
          0.44252201469744967,
          -0.10085422668678631,
          -0.63859601549680634,
          0.56656181251943749,
          0.31008414801662693,
          -0.95866257438325553,
          -0.52187536627765641,
          0.27453007654102218,
          0.91042282190843737,
          0.462702222187172,
          -0.12062018656453764,
          0.33080549291123207,
          0.078291683906286824,
          -0.66984637635635524,
          0.55944146221878754,
          0.64201891570909542,
          -0.93098935049368081,
          -0.069263959887517282,
          0.29832875603827286,
          -0.61254505004115911,
          0.42721344360024827,
          0.80263642503039834,
          0.21101590174323284,
          0.10661235261249162,
          -0.19911063470920654,
          0.73168980136748429,
          -0.78046276172086981,
          -0.25337860472425466,
          -0.20064364979325589,
          0.34931355398401059,
          0.77125130887798909,
          -0.2342644596658178,
          -0.05439074502598968,
          0.090412611972415916,
          -0.76596955711899106,
          -0.7122035587013823,
          0.030891295659638163,
          -0.51909336266864281,
          0.84962153963725429,
          -0.84154385500013762,
          0.88455294102722737,
          0.61466112169775244,
          0.18086068837098865,
          -0.65392538656707977,
          -0.6434373334429353,
          0.51154985850008172,
          -0.11054374886345836
        ],
        [
          0.37162384845955326,
          0.79275872653291224,
          0.0518063380425953,
          -0.4062155677348383,
          0.20241237849772839,
          -0.50491429822063794,
          -0.47585284966057778,
          0.0019303792919614692,
          -0.94798749698919693,
          0.23691106024516975,
          -0.82010960977187153,
          0.37183110814718195,
          -0.41608084813898272,
          -0.060657089318778383,
          0.56321439803316165,
          -0.62594978238732879,
          -0.14237380741831307,
          0.33192262598222422,
          0.73612313969700327,
          -0.76224491629416591,
          -0.621729841473511,
          -0.35609666053575861,
          -0.44477150279095373,
          0.2218036507749811,
          0.10735066193447963,
          0.0050493225868946893,
          -0.040718215061648307,
          0.57393251141840007,
          0.49211114597222666,
          0.826005522272219,
          -0.31337829420838192,
          -0.50184185115005064,
          -0.70295220512205436,
          0.839805669344402,
          0.14348452047401386,
          0.355941936216781,
          -0.47143192621303642,
          0.0941920067755906,
          0.17239207625986269,
          -0.49871450932625655,
          -0.16481745161737454,
          0.41008544456495338,
          0.60966684881971356,
          -0.88635733416931328,
          -0.34946403343972404,
          0.40645115421171141,
          -0.846892553335114,
          0.044418342101551635,
          0.65938964819345613,
          0.65360721827299217
        ],
        [
          0.827478170241943,
          -0.58387822021608349,
          0.856328300168353,
          -0.13312823830579432,
          -0.17199572138101912,
          0.053908308809033544,
          -0.40489767826842626,
          0.74832187204047074,
          -0.37729088408952144,
          0.98940072701775583,
          0.11353701770337488,
          0.056421379911668491,
          -0.90524993803638,
          -0.78204726760890508,
          0.013834733882830319,
          0.019831181700145046,
          0.891996860751104,
          0.088695864534868052,
          -0.51475146856754017,
          0.77985478828965826,
          -0.338377669012696,
          -0.58258064544623678,
          -0.99986981510832007,
          -0.82991053341566856,
          -0.68195247696348182,
          -0.38558129901701232,
          0.27991076791879538,
          -0.17058122115693364,
          0.12590516657350664,
          -0.8396962998235693,
          -0.41460195632162639,
          0.21404591149209692,
          0.70673125328228614,
          -0.51216151737114746,
          0.1585465224924246,
          -0.048877288082174918,
          0.55995598086156229,
          -0.78436227674815651,
          0.20389103965158287,
          0.50005028259562045,
          0.42550921130436342,
          -0.32908103636023478,
          -0.20848894156675452,
          0.27061971792789363,
          0.21143030617093195,
          0.66648718619653624,
          -0.10823570137023894,
          0.92373956154665648,
          0.98566929278795878,
          0.056929384378882432
        ],
        [
          0.58371781706122328,
          -0.89036349377161883,
          -0.70918095466825626,
          -0.44717281416659593,
          0.18380760150215778,
          -0.55531478387009725,
          0.29053009301415994,
          -0.82977674036924454,
          -0.17849398608096392,
          -0.15890176420245297,
          -0.61486650548400934,
          0.17759384025396516,
          -0.977530695009214,
          -0.12046922581603918,
          0.26325142839715221,
          -0.39671599523452106,
          -0.2359652654098911,
          -0.52798095372239584,
          0.060495159297393387,
          0.73830793109558479,
          -0.11624710402531673,
          -0.91747070374087281,
          -0.21869396664385604,
          0.52750752407800783,
          0.97190445355592137,
          0.1595763520895977,
          0.058480854142802553,
          -0.38577978312917394,
          0.849705837352789,
          0.064973631405885426,
          0.43184699887046851,
          -0.43772502798434204,
          -0.668590726461727,
          0.12742985605598919,
          -0.86157544615802339,
          -0.16485395444184173,
          0.96216479314873671,
          0.71982930066244422,
          0.67365100819218715,
          -0.56984393232732933,
          0.92397742983273956,
          -0.7221571748177994,
          -0.87536128758382592,
          -0.33195974329868011,
          0.82266224528571452,
          0.96772427446258369,
          0.66457587571243648,
          0.065917267205379659,
          0.86927749429104384,
          -0.31279545699463873
        ],
        [
          0.59462223822846272,
          -0.65135010142745642,
          0.97908824793352833,
          -0.44895968252735979,
          0.83540163344570817,
          0.822221488104868,
          -0.037945997037980642,
          0.12480956470270725,
          0.36319846884145396,
          0.090788999300089282,
          -0.80576627149223545,
          0.82372462669216406,
          -0.65077091219847116,
          -0.10244479911403905,
          -0.96979019737828442,
          -0.50484860669214526,
          0.4230014923144737,
          0.53127456038366339,
          -0.077165999024378276,
          -0.30603389848895335,
          -0.64337598305447452,
          -0.77228417622875589,
          0.84376119941246863,
          0.56898043136390508,
          0.974246402309472,
          0.20963092969035702,
          -0.595998205059182,
          -0.42665611686432053,
          -0.84323148435482387,
          -0.023467564024832663,
          0.78372104600448567,
          -0.98782431608351351,
          0.48423053182827464,
          -0.36395292871192758,
          -0.756655848130736,
          -0.35565367002771797,
          0.31215913633746911,
          0.83967448982830184,
          0.10148353087252893,
          -0.9318559938704305,
          -0.58829162644292132,
          -0.47087505501661564,
          -0.68513353286031209,
          -0.29406040418705448,
          -0.25421366270431334,
          -0.3218755124181944,
          0.69318275274742724,
          0.32318125260965214,
          0.780218655405384,
          0.23426626169173298
        ],
        [
          -0.75170112284644774,
          -0.88749524987261708,
          -0.39908963083919574,
          0.31144875836620045,
          0.12311844915909362,
          0.74287910277282521,
          -0.56277317996034948,
          -0.41237952875914186,
          -0.34675157663906192,
          0.21711721533539263,
          -0.13767651088028782,
          -0.69624399455379637,
          -0.086880261355247762,
          -0.35496219486433983,
          -0.95648843648677118,
          -0.15236216901582936,
          -0.88909880643261829,
          -0.96492246038390739,
          0.45829487038768607,
          0.49560182046866191,
          0.724804043977527,
          0.53343722871983223,
          0.086663766962891159,
          0.61312224972128215,
          -0.91268388167332259,
          0.1242715671911532,
          0.62146111330849463,
          -0.51531932042422979,
          -0.78968864016826434,
          0.41711617344757745,
          -0.86811840570423249,
          0.70700935384755426,
          0.32316943683057503,
          0.0099306863372761421,
          0.34481695565426146,
          0.53978936257912635,
          0.51981812055421928,
          0.60914290050105768,
          -0.47029435157591487,
          -0.69317998889608345,
          -0.1085979183104217,
          0.43953824823385534,
          -0.83550963767750352,
          -0.94954358193357558,
          0.88830749229043,
          0.29642502761256218,
          0.46631834726846971,
          0.9485787915676982,
          -0.41330060490488807,
          0.75632546750670338
        ],
        [
          0.71237015266537429,
          0.92535316158990111,
          -0.32799788719522094,
          -0.75855511958060307,
          0.54406844809508126,
          -0.40245757463870285,
          -0.25005662756068331,
          -0.091430956304796987,
          0.49485299834916258,
          -0.87844338178225834,
          0.11782865634147248,
          -0.69288038159287324,
          0.422804231792988,
          -0.5829411588911817,
          -0.17927229854332666,
          0.29856394056261853,
          -0.44179965308630675,
          -0.798092710124299,
          0.0031158187292637256,
          -0.80019533854332758,
          -0.64428117763035442,
          -0.97027230524153718,
          -0.505888723182032,
          -0.5079815871281701,
          0.23445812163106192,
          0.83856315550569993,
          -0.63703429928325073,
          -0.18677177765843481,
          -0.95112576371972812,
          -0.014169699607851603,
          -0.27488323827724448,
          -0.2720127915914024,
          0.88047117320758517,
          0.052192530596239364,
          -0.96995359289703109,
          0.073182337551756751,
          -0.39119033863486058,
          -0.80517014630245365,
          0.22174946346245575,
          0.810081888363892,
          -0.75881706828029394,
          -0.19128197384285281,
          -0.50834005915378522,
          -0.89392947412695112,
          -0.492909961211572,
          0.40720337166263315,
          0.60300192955313781,
          0.13324334448083533,
          0.20989302666885834,
          0.68135097238414877
        ],
        [
          0.98687551040086186,
          0.22141934639657668,
          -0.67946238833875039,
          0.24914849042423681,
          -0.01701670702890469,
          0.88490966763261358,
          -0.13420861029152992,
          -0.31157311329026549,
          -0.57114538798025927,
          -0.65594851665195286,
          0.65107710629834148,
          0.0018447356598563695,
          0.66780122628147132,
          -0.796000062222965,
          0.30108052577600541,
          0.52399059359167754,
          -0.98619367701826111,
          -0.55147173768385815,
          0.46525791012469325,
          -0.67678724856020245,
          0.025802795964572949,
          0.18139111894239582,
          -0.48848720606344082,
          0.81277116701749941,
          -0.92619826051198584,
          -0.16165352422339288,
          0.41286306591098382,
          -0.072955021147944568,
          0.89180485765090578,
          -0.27630820615186319,
          -0.67682777455976506,
          0.033732089877434306,
          0.69341357971160311,
          0.66520085710501353,
          -0.18815965912197752,
          0.86481153209861938,
          0.26080739376708628,
          -0.54230239154689541,
          0.747725795036917,
          -0.22744603373247022,
          0.38107549280940511,
          0.97639791787784125,
          0.22607668998887459,
          -0.68100642016820689,
          0.209939528587763,
          0.18785683840683734,
          -0.85947425144883449,
          -0.29098660317886205,
          -0.20088019231106086,
          -0.43129960494427544
        ],
        [
          0.31386066384864414,
          0.17112507627526236,
          0.55557145367731942,
          -0.10188727290800373,
          -0.79456027293160048,
          -0.3842961748904869,
          -0.21588385128750215,
          0.49075167357215305,
          -0.60271557567165168,
          0.68706918421377539,
          0.40766695133470143,
          0.99011475179746766,
          -0.10904472264715855,
          0.94260742677037124,
          -0.11247404323161189,
          -0.41223009982801334,
          -0.13408819559936366,
          -0.014269732391794746,
          0.20064991001989402,
          -0.045624365551322328,
          0.29255815372020533,
          -0.83126077923678854,
          0.2829125108894911,
          -0.43576961307987483,
          -0.25944295156163233,
          0.2518473099172614,
          0.97092545805564567,
          -0.40988877381846534,
          -0.34537309050794907,
          0.13123114241845252,
          0.0564964189633429,
          0.095694868200553548,
          -0.14912091669527069,
          -0.042100833020895852,
          0.760974807024279,
          -0.48481321209054096,
          0.38201472581230111,
          0.81621033167262413,
          0.88042719246832635,
          -0.74033463026347879,
          0.902752339869047,
          -0.17768708597152863,
          -0.36918096942686762,
          0.96995012654924406,
          0.84679954434365634,
          0.3880415632055671,
          -0.90715588054115082,
          0.18933032541808723,
          0.0056843989051679452,
          -0.019207577915078343
        ],
        [
          -0.5757357059218623,
          -0.32471147972416448,
          0.42643485041336732,
          -0.21655743329921057,
          -0.84222682452098108,
          0.22554391538553525,
          0.80455478528578772,
          0.13799741386406489,
          -0.567787853676828,
          0.28579530212691906,
          -0.39276579586852717,
          0.56868399080683851,
          0.32169206781767107,
          -0.287506878254621,
          -0.26392081586386074,
          0.7284366463527614,
          0.1181308987435791,
          -0.046902115959382963,
          0.11056626133681663,
          -0.755066798701159,
          -0.51718334072171446,
          0.851590945029003,
          -0.84244481327018961,
          -0.36578576984612116,
          0.981726037583067,
          -0.31666892987951795,
          0.11372621312257182,
          -0.73918013110714753,
          0.23105234639100886,
          0.020932362389814073,
          -0.14261145206822806,
          0.25046660471974852,
          -0.30703181412519537,
          -0.77688524486443078,
          0.13868299393835,
          -0.98795122673714664,
          0.42508010684153569,
          -0.66709760911189631,
          -0.32782563199756004,
          0.530620813068338,
          -0.2698727958410721,
          0.27177480975115231,
          -0.21539256806954643,
          0.17258252310362016,
          -0.14628058507060954,
          -0.0033509541515504052,
          -0.55421823216196731,
          0.40138793290959546,
          -0.49626450612674122,
          0.3908666739551091
        ],
        [
          0.13286590361585954,
          -0.43241057490271106,
          -0.065646252822138082,
          0.19434848482915346,
          -0.12893759245484376,
          -0.66879945776542171,
          -0.97704268124851323,
          0.0676964058232117,
          0.78284693243669223,
          -0.91709695980610462,
          0.22399947314315982,
          0.7638030910035869,
          -0.059742982882335344,
          0.045420619372588428,
          0.26200336371701832,
          -0.089071585660372488,
          0.15739651436657259,
          0.77799552970657349,
          0.0069211591483702975,
          0.35460908872838037,
          -0.924287322963621,
          -0.42077692008509032,
          -0.34033815024119585,
          -0.055516479766705519,
          0.40889252759231465,
          -0.087381079208708953,
          -0.035114520202792716,
          0.92468130535709347,
          -0.41931854765817184,
          -0.685798512877548,
          0.70441265764968475,
          -0.96719597668416191,
          -0.62418187632475763,
          -0.85154960055395035,
          -0.026047709621269444,
          0.12044757632148077,
          0.74529034117508675,
          -0.69060626667204694,
          -0.080685941096422076,
          0.42721569290654204,
          -0.63731746939842937,
          -0.021778806459648841,
          -0.22642907180294306,
          -0.026001769068940951,
          0.97482096261970164,
          -0.89556307707254046,
          0.88909111410528374,
          0.30645280859503121,
          0.44495594366903396,
          -0.44885530832352666
        ],
        [
          -0.16784848090902285,
          0.12755725495982495,
          0.31594867009926553,
          0.28797442463756762,
          0.72652683486549585,
          -0.69785843822983606,
          0.52209308579714342,
          -0.43571881719431355,
          -0.9689162627617115,
          0.21701394784279024,
          0.7847675871892511,
          0.89719450880622831,
          -0.79095703441944709,
          0.829353819784822,
          0.0015337098668931567,
          0.051092151817199574,
          -0.21354912264806086,
          -0.33315463511454579,
          -0.878326177891866,
          -0.27824954397159934,
          -0.29154426047557741,
          0.23665230668315648,
          0.36410978190991466,
          -0.25585745202377197,
          0.87267601665231831,
          -0.55864586239491487,
          -0.78383013057451567,
          -0.58360657031521268,
          -0.35354665994139622,
          -0.4534970750378291,
          0.6433702269219993,
          0.89595440104832924,
          1.0226065446571679,
          -0.9484558188441925,
          -0.67102114467680507,
          -0.27558310318008444,
          -0.68980036940452216,
          0.4645008563054232,
          0.14221302558731472,
          0.7638437254581173,
          -0.53067223222233717,
          0.48828017257961742,
          0.43726653880683541,
          1.0310720438896055,
          -0.24815992985241261,
          -0.43298557651477493,
          0.30619159375598276,
          -0.90221728673240142,
          -0.53094348456270324,
          -0.24674367574079223
        ],
        [
          -0.43888034242107754,
          0.27775332627618682,
          -0.54517291310166016,
          0.62284908041401776,
          -0.56874331290995372,
          0.7588936458732265,
          0.9575683502883694,
          0.072379358545627881,
          0.14313519883639025,
          -0.96298586809632147,
          0.94819815406959229,
          0.17705523671092452,
          -0.14750604884820864,
          -0.12949840154061859,
          -0.40630419652070271,
          0.90797449133857966,
          0.51457202235438948,
          -0.06268412277174136,
          0.68471439490400254,
          0.654658197987662,
          0.90280033227220668,
          0.00092768422407352581,
          0.44751725358221639,
          -0.75982808584380668,
          0.8301240740642214,
          -0.34128721850912191,
          -0.0634613919569264,
          -0.014068320450374157,
          0.24047317015758771,
          -0.18409248987350516,
          0.72677511371725823,
          -0.18820005719434907,
          -0.9755509223792459,
          0.48002299033569351,
          0.14184305481037682,
          0.40518486652360219,
          0.34914436321621029,
          -0.30889173061886283,
          0.46817748312344365,
          0.80189049427743819,
          -0.42483774313861428,
          -0.98480953232713,
          -0.097208974056932893,
          0.31516504140198831,
          0.2187176747304648,
          -0.32734816164326541,
          0.50904728999977911,
          0.59946659147979209,
          -0.72194533775275382,
          0.71979336035503161
        ],
        [
          0.11312180442660359,
          0.845750813774409,
          0.41008708346340245,
          0.20798147228608227,
          0.1522947784261898,
          -0.94673931042351789,
          -0.86615406366811987,
          -0.59503496429190339,
          -0.59773004887118264,
          -0.71561303941298837,
          0.8989589110373738,
          0.51359695257778992,
          0.68832398850537169,
          0.96034287032308352,
          0.52719032558889745,
          -0.41846568892894676,
          -0.28027997568581464,
          0.18579445956398707,
          -0.048948909681140657,
          0.31715580059712017,
          0.1546572350361386,
          0.50313285655572115,
          0.80855868148687537,
          -0.44721499841088136,
          -0.34975938756327296,
          -0.63423676488293779,
          -0.47854722392531529,
          -0.070490579159515954,
          0.75992381750655025,
          -0.92268072850579419,
          0.43031882935642307,
          0.77519475645370073,
          -0.99717897296814084,
          0.5046236105766494,
          0.0690782583283523,
          0.35764135840854794,
          0.34295215206047819,
          0.35921336855476127,
          -0.25942496314099894,
          0.67000636382948886,
          0.61251081705007837,
          -0.45005106376765547,
          0.0884039911284748,
          -0.083966761572500478,
          -0.065045116668530592,
          0.22125408878676969,
          0.75141692276099437,
          -0.26599040802255614,
          -0.74359142977021075,
          0.932801537610726
        ],
        [
          0.060794324522876281,
          -0.71622555916283281,
          0.89350650728395764,
          0.15466090649559908,
          0.62584714941585762,
          0.93447658629619357,
          -0.6059875210121245,
          0.47491149935028237,
          0.933147379827969,
          -0.15277466749360849,
          0.83428261943638626,
          -0.16597062057088918,
          0.81838044788804409,
          0.64878285359809418,
          -0.26781415629066635,
          -0.04344310023112815,
          -0.78662061973285613,
          0.58004530753517436,
          -0.51112851935246906,
          0.53920321586192954,
          -0.81785751771018766,
          0.51507075489747378,
          -0.21316094278692419,
          -0.12177032636868618,
          -0.87144780927617438,
          0.83785054496008349,
          0.58289546194427078,
          0.86157632996556766,
          0.1352059034989952,
          0.72134363425953074,
          0.27796565442206805,
          0.28596446904496303,
          -0.71630666492378259,
          0.000732959860058206,
          -0.88597664872785131,
          -0.3211859434713763,
          0.60303700190661613,
          0.7709815201748792,
          0.064833930363602688,
          0.6897068014826383,
          0.079620855943282109,
          -0.83224885866333276,
          -0.32450257877445915,
          0.569953395920508,
          0.0905439521526757,
          0.54631861356682088,
          -0.0099202947451252545,
          0.97783352477773389,
          -0.41188766699193463,
          -0.13147815761204323
        ],
        [
          0.37248148154855415,
          -0.20503691551865647,
          -0.96698855371633985,
          0.033062005378101632,
          0.5248033475445768,
          -0.33841237526177614,
          -0.74493896731499043,
          0.24081580287326054,
          -0.027423855951920258,
          -0.21437952928335452,
          -0.0078684905720971567,
          -0.36190540747001404,
          0.88147591296670313,
          0.480755986613561,
          -0.14851132245829699,
          -0.77821650843770451,
          0.15587619147066228,
          0.70377752050927112,
          -0.84023004533073731,
          -0.53140095058209,
          0.80391592746486407,
          -0.90764930447837555,
          -0.9919553600587534,
          0.20485956475895137,
          -0.5304870641886158,
          -0.74924400891303333,
          0.67842675684456777,
          -0.3585909558296615,
          0.018480526371891372,
          0.84751056352491283,
          -0.99342341732698,
          -0.30666120328353108,
          -0.53933811469109838,
          -0.14517056291599592,
          0.97942777381182589,
          -0.66313249999676327,
          -0.15153825289024087,
          0.308590813580353,
          0.69387730824206029,
          -0.17045158465233151,
          -0.73532482951505151,
          0.79719735858203944,
          0.18128232665442084,
          -0.8142641155826571,
          1.003501415168951,
          0.31991320206507412,
          0.86869799031392148,
          0.29579965017584614,
          -0.21021491939099524,
          -0.0584188789957096
        ],
        [
          0.91998737206822756,
          0.63737370039677188,
          -0.68107650262806252,
          0.037028637869527065,
          -0.85445587214037522,
          0.45347461381066728,
          -0.28590768555192575,
          -0.59836229688640885,
          0.59486977969128485,
          0.10006994204778015,
          0.3510518463446462,
          0.15206112490993237,
          0.90429904528415028,
          0.55378898510576946,
          -0.057341250347067926,
          0.74242544424604628,
          -0.657754019290531,
          0.81502735886908029,
          0.69632775598459062,
          -0.67383723454524935,
          0.48269535225501792,
          0.10998009415036213,
          0.30435377777474748,
          0.40305387405909132,
          -0.66556336646127456,
          -0.82637348663428878,
          0.73179513207086277,
          -0.5480757414945906,
          0.80689829970394611,
          0.34975186994551116,
          -0.86185962386630111,
          0.19829619666066278,
          -0.4110988188317416,
          -0.26363583094066,
          0.12107030668107116,
          -0.9310512170991434,
          0.65086808702042187,
          0.982862541063524,
          0.40651685343626276,
          -0.30444124142734769,
          -0.75980345550161155,
          0.91255799243625169,
          -0.096641255226883729,
          -0.66913745539812775,
          0.86182298486503717,
          -0.12049457624578884,
          0.52342819298166876,
          0.79876125340246951,
          0.00615626309453197,
          0.24270907103088676
        ],
        [
          0.071932939273482419,
          -0.83682810921979256,
          -0.57448804486986171,
          0.17993560055602803,
          0.66140986715200589,
          -0.63093220302039,
          -0.840141518236076,
          -0.5266830463224218,
          0.23969269790128669,
          0.88445554151891459,
          -0.54384568785499121,
          0.2919057226175793,
          0.01763497285534003,
          -0.60575973140753181,
          0.40028037262895189,
          -0.036736849821436664,
          0.8224379900205786,
          -0.78146891074647762,
          0.40548028563037009,
          0.0038380689193978569,
          0.70473911940113054,
          0.50728024837620411,
          0.84026055424085866,
          0.95044899466473443,
          0.70217184851931547,
          0.30868986367517237,
          0.87148916188287506,
          0.41970365643070329,
          -0.39619514988840648,
          0.67343130578277755,
          0.51052202588737183,
          -0.065895120863274009,
          0.54558135173937372,
          -0.24080807710526664,
          -0.16983694265679608,
          0.783070507185078,
          -0.15594902523850732,
          0.10115467297901029,
          0.12552815007525953,
          0.15270177625634138,
          0.87470444407505021,
          0.20911445654704003,
          -0.49815846994133717,
          0.89753614482032151,
          0.48463957517898282,
          -0.51656072829169586,
          0.84509504574508776,
          0.88900445222440616,
          -0.967595961323544,
          -0.927438274532787
        ],
        [
          0.069396844298419455,
          0.48391302529649227,
          -0.18665529089168512,
          0.94535240871000148,
          0.7313164865634243,
          0.60276840306852475,
          0.51554137910049691,
          -0.18021755675671103,
          0.25627255316111031,
          -0.649067130194424,
          -0.10059604089701105,
          0.69569052446497759,
          0.76326970243592862,
          -0.25027019608438966,
          -0.67013594235877338,
          0.23649666960535906,
          0.65158977436774734,
          -0.68558951574075422,
          0.42041053764654451,
          0.672892250885901,
          0.46085638679537155,
          -0.91300674044692631,
          0.60895865168614,
          -0.30719775610764383,
          -0.11163182903747375,
          0.27192634563177009,
          0.0014600518373256363,
          -0.27987071540815778,
          -0.8055357380981113,
          -0.36133498662965813,
          0.50491937737131043,
          0.89927287316501769,
          -0.92238425147382441,
          -0.71695483053050657,
          -0.021372629488325835,
          -0.3314306750561844,
          0.023274697783760023,
          0.15207550243092702,
          0.18112057964827458,
          -0.91712838402157182,
          0.62777348867883032,
          -0.21123416355060024,
          -0.83589764571256553,
          0.49846311191180614,
          -0.355840576554754,
          0.65271434894927416,
          0.51305932195707848,
          0.020025582459827784,
          -0.94334321643469166,
          0.14957500876213328
        ],
        [
          0.87901428509102475,
          -0.36644555385976518,
          -0.59424376055005057,
          0.3239031295078757,
          0.15120368151595043,
          -0.0680116344225736,
          0.46514409370414594,
          0.20097967296940922,
          -0.26799057370670892,
          -0.20228498629972666,
          0.28681675279697083,
          -0.956920933674413,
          -0.88704658405153824,
          -0.011976978329353578,
          0.2988568119707713,
          0.63261287583288428,
          -0.38991359489817268,
          -0.36995752778349755,
          -0.68077844504076768,
          0.60204463229320948,
          -0.055632265175402568,
          -0.45066634954919366,
          0.052321971025560021,
          -0.57476058520713358,
          0.41360526713801421,
          -0.79812845719315417,
          0.1409341095483726,
          0.9049099147453421,
          0.021283641228971181,
          -0.82914335152249174,
          0.68767130361048578,
          0.22283815247390112,
          -0.51982741038911406,
          -0.34544773442087612,
          0.43922867119958314,
          0.24741297752781732,
          -0.666456979169872,
          -0.57875250703360492,
          0.21239991918080431,
          -0.52235361767493227,
          0.96752781048893755,
          -0.10451826778784257,
          -0.463588138471106,
          0.865804131633483,
          -0.86993092298980534,
          -0.20888937629789056,
          0.98731558144536413,
          0.53926337652244771,
          0.58271748533583878,
          0.3301772905610893
        ],
        [
          -0.29653266021456059,
          -0.75805082092825138,
          0.016780356314368108,
          -0.74175872832812406,
          0.68768768714412376,
          -0.823987308794766,
          0.20200752103399108,
          -0.00043325555406694604,
          0.0018091370103692009,
          0.12554284589618031,
          0.41698048035798274,
          -0.56980575388050381,
          -0.53136714071265234,
          0.51935115474520055,
          -0.55219660988042318,
          -0.58172044443647686,
          0.27669437966462129,
          -0.24825894267743179,
          0.44165147648393055,
          -0.24535959040936761,
          -0.790492745472853,
          0.08244501247035485,
          -0.83532854206460139,
          0.26807912008495366,
          0.095882969631520459,
          0.983618081395623,
          0.47386124180658828,
          -0.053399090735188934,
          0.30049756309440312,
          -0.5908789302885844,
          0.91380748674383461,
          0.11968400962104669,
          -0.75528422444723908,
          0.591138813687707,
          -0.32287243188644138,
          0.037788172738632587,
          -0.18672800057698433,
          0.59193684715141,
          -0.0092813694955014309,
          -0.10515625864755575,
          0.45904706675094809,
          0.91451539635117718,
          -0.23474018917119521,
          0.61639624114788338,
          0.77295790309544921,
          -0.45913296837388945,
          -0.0509744623817873,
          -0.0055250264482979931,
          0.088597542914551214,
          0.40810679733794369
        ],
        [
          -0.1613417712080992,
          -0.33519060201763595,
          -0.57287732265296443,
          0.25248539687795013,
          0.21765934213665472,
          0.32952356161723056,
          -0.056075377998179181,
          -0.66857646602103726,
          0.95813115786140834,
          -0.972018199653682,
          -0.35655712378027238,
          0.76285859174342152,
          0.656368082964357,
          0.1891394133610981,
          0.81959017845837212,
          0.57483261677686748,
          0.37213624353673214,
          0.95502386061961742,
          -0.727275261951571,
          -0.1768061093911969,
          0.36595233331181326,
          -0.20458626531098145,
          -0.29228924926903149,
          0.035905268160935318,
          -0.43304789070712529,
          0.87492962119832329,
          -0.56314450143809991,
          -0.70986215009880427,
          0.51008105348278776,
          -0.22252503397991508,
          0.13832095391232752,
          -0.60713425716942282,
          0.92424867460839089,
          0.87863600072100267,
          0.95137234480768074,
          -0.65666829583057584,
          0.59681390232277254,
          -0.31929296794990125,
          -0.0082192219433539927,
          -0.1949913876273181,
          0.60313156643427734,
          0.481713155521288,
          -0.92129419593762374,
          -0.53447176257439688,
          0.43689541844177793,
          -0.33747004640317929,
          0.76709354648810424,
          -0.59408023252746855,
          -0.63664404411688746,
          -0.54803846756891317
        ],
        [
          -0.87994461362651277,
          0.31240035835832869,
          0.18033055369402382,
          0.079794983684184834,
          -0.53061481049612835,
          0.816504981230811,
          0.82518349759918042,
          0.74695008820025011,
          -0.55407730483138884,
          -0.31248449339279694,
          0.6529874504096097,
          -0.9930125283983976,
          0.16200691216393071,
          -0.35082804766239434,
          -0.47105131307586934,
          -0.45322179218496789,
          0.10598299434564658,
          0.63203483174110742,
          0.39756117847948214,
          0.20024940567831762,
          -0.33736679598942182,
          0.92766684975443026,
          -0.75830785268517753,
          -0.44732228864325846,
          0.086876499655363509,
          0.45275980638073532,
          0.57876399308469517,
          -0.98859220052664343,
          0.5057551248506178,
          0.47339240077762124,
          0.1982596298691281,
          -0.1933227770085291,
          -0.30613949340424573,
          -0.27617752058779738,
          0.62499868293940652,
          0.2037637219969084,
          0.055270287039305532,
          -0.32821031920323196,
          0.13203022525520008,
          0.46797424441644508,
          0.94248368312150066,
          0.9727733843067623,
          -0.92147515959728277,
          0.609170860635929,
          -0.54022371676292,
          -0.25791174654878174,
          0.88852489649762012,
          0.98093229697422291,
          -0.38284837004629357,
          -0.39129518441814742
        ],
        [
          -0.35953568662922319,
          -0.12132536331009784,
          -0.43811445157381917,
          -0.65854108955055513,
          0.12831172257331358,
          -0.071425463443729909,
          -0.37763164253279885,
          0.89638722212156041,
          -0.31090688419216134,
          0.46107817868953782,
          -0.94984758174799022,
          0.64955583797083494,
          0.27992683357330284,
          0.57393729797808257,
          0.59380790581961906,
          -0.67360393010760966,
          0.95941875610653038,
          -0.44388647348134158,
          -0.9892450313251071,
          -0.056248788854139947,
          0.32630086724393287,
          -0.59426386880720417,
          0.16689145178930967,
          -0.829975046332567,
          -0.633078977276753,
          0.57590735432423346,
          -0.15866699363078418,
          -0.36061470707489213,
          -0.82941854768018231,
          0.44472423720052656,
          0.8565263690903604,
          -0.5910143525861028,
          -0.30653297649352884,
          -0.28140232055796227,
          -0.41633715916710284,
          -0.37409075510505713,
          0.33541476360389921,
          -0.46587830716455403,
          0.0317884235537421,
          -0.7168516551286731,
          0.48299715598580684,
          -0.2169336331969336,
          0.74950966133114183,
          -0.32949003481593159,
          0.33698982232708286,
          0.53110455286658109,
          -0.91271626550260387,
          -0.25488140827628986,
          -0.45626990536128564,
          0.42584459084127285
        ],
        [
          0.4093830308836377,
          0.01497599515315326,
          -0.75458566691133244,
          -0.18113007878222917,
          0.15250835012314068,
          -0.49086201996369144,
          0.0022923819224742875,
          -0.58441301305676119,
          -0.078211287899527207,
          -0.54723881013443754,
          0.012731038780965643,
          0.17158238636564926,
          -0.60008223413719608,
          -0.87428259249532791,
          0.76528571350535191,
          0.096464133991693846,
          0.53349479745294626,
          -0.50111298839074581,
          0.75995719589483213,
          -0.48415072042688767,
          -0.088004679077019254,
          0.29098119616473767,
          -0.57366458340148052,
          -0.11487727111546758,
          -0.29548555593678855,
          -0.532593929360512,
          -0.9921657039315589,
          -0.56512571669710043,
          0.28761241259476122,
          -0.35377595398695949,
          -0.72715262244345547,
          0.2816564750802471,
          0.24957591244363744,
          -0.4690529666410192,
          0.269326455953472,
          0.072624777231363014,
          -0.15990988182034735,
          0.27155602602576789,
          -0.89221644924159182,
          -0.68919677679918745,
          -0.22120858914687597,
          0.73943903157878288,
          0.47580207499048677,
          -0.9587984499271287,
          0.4136294883162881,
          -0.99536814393506645,
          0.71115052307468452,
          0.76306117048823441,
          -0.74822735057100953,
          0.79781104271336489
        ],
        [
          0.4400227011205376,
          0.25633779904462323,
          -0.92738887057501329,
          0.42095434463313031,
          -0.5507822204237941,
          -0.28672674638115386,
          0.45350226144233385,
          -0.81367613642876013,
          0.76715132837866085,
          -0.600801718804011,
          -0.33478054352851905,
          0.54056700941290148,
          -0.871723499120965,
          0.58093613341835548,
          -0.45192645198253517,
          -0.41703629928352631,
          -0.1555501240507319,
          0.50357055204476053,
          0.95705650251549546,
          0.21461668086399294,
          0.4885417062684867,
          -0.37555605025605554,
          -0.24754003766239283,
          0.71880767033611392,
          0.45838998230437417,
          0.33779666570946065,
          0.049641413878728835,
          0.27336291867682722,
          0.58742069459520141,
          0.11802766086959395,
          -0.47797886781179344,
          -0.66080203764864454,
          -0.48472947002976857,
          0.27279426079287561,
          0.80899080221625419,
          0.71168659304826787,
          0.041868304003111853,
          0.87909127374148532,
          -0.42172537963262524,
          -0.036972609549002847,
          0.13378052218617634,
          -0.084479526612960862,
          0.52552469303238636,
          -0.94505408729717977,
          -0.56809749722733927,
          0.44791118840567051,
          -0.53435558282190254,
          0.069078998166822669,
          -0.9522646969578602,
          -0.23879640785938006
        ],
        [
          -0.7794902669988667,
          -0.50336414542857955,
          -0.83532485447387794,
          0.58112171025426251,
          -0.43880447007305928,
          -0.19621695401378078,
          0.11129172010656084,
          0.054134281132735065,
          -0.77086712260086632,
          0.11088545079119951,
          0.0835622101522589,
          -0.018944031941486715,
          0.53661853680771487,
          -0.501578929585436,
          0.18949548050187287,
          0.57886102570134224,
          0.49350754609972142,
          0.86924527521724049,
          0.79672474387570946,
          0.844979878175783,
          0.86250016184590694,
          -0.704001046314819,
          -0.38962693230202428,
          0.59782579101598388,
          0.53369908810514344,
          0.7140482512728682,
          0.59205685057764768,
          0.98269662882358566,
          0.28258719045611436,
          0.74392389656894942,
          0.53251357569535973,
          0.32428066461492078,
          0.15549984489917648,
          0.67517955248812722,
          -0.053739241786352421,
          -0.91382378532981512,
          -0.38643949020055152,
          -0.40196584888161574,
          0.47811142605788909,
          0.26980718508463164,
          0.80041142372870711,
          -0.15205853629130164,
          -0.7533051019244027,
          0.91306924937309575,
          0.3580631473651788,
          -0.37316825435306661,
          0.11498394351320171,
          0.69328085896836389,
          0.24850787090097229,
          -0.04202002907029205
        ],
        [
          0.88909527596922788,
          -0.54028206738698237,
          -0.33066408946777776,
          0.24807272926315585,
          -0.623685925435568,
          -0.54689368880069633,
          0.1679425516222503,
          -0.93576371415019355,
          0.941681358330639,
          0.87251112979687784,
          0.87790230340238573,
          -0.8733795440593014,
          -0.16563638585014565,
          0.18410183338016797,
          0.034501706430620657,
          0.61079280965384308,
          -0.0723844917792607,
          -0.86699246733583857,
          -1.0015509965747638,
          0.48627684161002216,
          0.093452285237181229,
          -0.82709718427633516,
          0.79130904234768462,
          -0.71249738905122373,
          -0.68194644255000925,
          -0.98065845041397393,
          0.36428152670423886,
          -0.94385365720112746,
          -0.77367689965274378,
          0.45830247805990221,
          0.36200859049468964,
          0.66146458733162528,
          -0.40122714795405939,
          0.26080588538668925,
          0.31479435087359836,
          -0.26987758935677475,
          -0.56629255374771981,
          -0.694042871869996,
          0.5420923514799344,
          0.617106279772573,
          -0.24566171199263637,
          0.33093946034845806,
          0.20937821470805773,
          0.96360504909751388,
          -0.64641469308123223,
          -0.88473145120668772,
          -0.49913940062658896,
          -0.51055722859980857,
          -0.29491316005762708,
          0.29144401057963537
        ],
        [
          0.44540843803572389,
          0.69482907214342993,
          0.7949287452341286,
          0.46630067523461222,
          -0.20398100014530035,
          -0.23519735715613194,
          -0.73296957174777477,
          0.81638634934983878,
          0.67715498364760807,
          -0.972103994247476,
          0.40815628418333344,
          -0.83032939964232466,
          0.079347976119450922,
          0.73529237200341557,
          0.69463474522978619,
          -0.29970082959007482,
          -0.87568140566500519,
          0.080445570540142619,
          -0.92146301114588425,
          -0.40960043403612917,
          0.66010059700956947,
          -0.13885834128511279,
          0.18734663500820939,
          0.13755956955092902,
          -0.70307702518892412,
          -0.70842086216627786,
          -0.31143692096782288,
          0.49309276168533345,
          0.70392821085900348,
          0.33945201277079823,
          -0.16278533531238368,
          0.12388451530728563,
          -0.87524118547237373,
          0.84885387682917812,
          0.88821870963223259,
          -0.54944506889558375,
          -0.26594196178961443,
          -0.91674472966643372,
          0.65266575901353563,
          -0.481581566672715,
          -0.027795128117235897,
          -0.29838541525496276,
          -0.69649867450950154,
          -0.70035644945155984,
          -0.086062211344331063,
          -0.75447021225129007,
          0.3025320311420705,
          -0.4482708699488282,
          0.47958464717960636,
          0.42463014366627688
        ],
        [
          -0.20692170200826487,
