{
  "CostFunction": "QuadraticCost",
  "Layers": [
    {
      "Activation": "Sigmoid",
      "Biases": [
        0.10959144284181573,
        0.030692303038389473,
        1.9633399210352867,
        -0.96406181883734232,
        -1.7024770066261148,
        -1.46063855954026,
        0.78045126325894043,
        0.94274474975635791,
        -0.860719038273815,
        0.090484730086639,
        0.060555155465471931,
        -0.77865957026744148,
        1.2958515800341453,
        -1.7702686879981948,
        -0.16395446498719482,
        1.1867817083022754
      ],
      "Weights": [
        [
          -0.52815499295261681,
          0.43184354436800448,
          0.85750650382819593,
          -0.1231395641692736,
          0.36585235689983336,
          -0.42578768635883363,
          0.92252262985552669,
          -0.77459782942910671,
          0.553721812332375,
          0.48662473402202694,
          0.711241254594503,
          -0.053032960964071736,
          -0.069581311459100487,
          -0.80896449649988189,
          -0.6694664098461145,
          -0.76491532173942345,
          0.57394305780748844,
          -0.28502287481694849,
          -0.0038981246647259078,
          0.43891636166938214,
          -0.16095339761831937,
          0.26515820530459849,
          0.43871591776826052,
          -0.04643630747467576,
          -0.51696783652310252,
          -0.605909071618365,
          0.3299554048686531,
          0.86471758760730744,
          0.78276616010102451,
          0.17070128909527185,
          0.76987108822199524,
          -0.50901441042092621,
          0.22085599090203878,
          -0.0589946100233054,
          0.31124692330674425,
          -0.77517872851509662,
          -0.33816940595296757,
          0.039970486551117033,
          0.37129083418862274,
          0.016368286250532074,
          0.61428640331570672,
          0.24011504403518502,
          0.85838311646983478,
          -0.92456929384536746,
          0.28265549136000989,
          -0.50951144255864866,
          -0.13674198600622567,
          0.89649685973014792,
          -0.39345289469714323,
          0.85634653743079625,
          -0.2397634072163011,
          0.11677881220710097,
          -0.53757693920065641,
          0.6746133256352973,
          0.85803722987170339,
          -0.5700061130222398,
          -0.3150947191637698,
          0.34035267006822495,
          0.088732913613583431,
          -0.33490125567522389,
          0.39573719937684043,
          -0.56939113127173069,
          -0.32480141866233186,
          -0.0859407617418228,
          -0.30649503693129554,
          0.32511289738777632,
          0.43555321861394569,
          -0.6488146033262806,
          -0.21093748607091487,
          -0.13572472143448261,
          0.565806609957365,
          -0.60094534932888033,
          0.6793321605268493,
          -0.41931428381086461,
          0.59858324987516287,
          -0.70651703864218307,
          0.62704234690735494,
          -0.56268415923888659,
          0.89053247837759231,
          0.87249031036667346,
          -0.27231222021674428,
          -0.49036619017791166,
          -0.19498928891279874,
          0.035619071230587378,
          -0.37929092160209449,
          0.15384336375846389,
          -0.840899562924386,
          -0.28091102163610954,
          0.96457690788647632,
          0.97927459481013857,
          -0.69119565758659929,
          -0.26603856453066171,
          0.18949321144226056,
          -0.36434422899065416,
          -0.060402465339523884,
          -0.11954505171866377,
          0.66757531539897941,
          0.92201958320761668,
          1.3145407171259658,
          0.47990497212189048,
          -0.15390806549087738,
          -0.15521992324553652,
          0.6909947644227612,
          0.986135598372651,
          -0.033814936862852328,
          1.1344740221373155,
          -0.14134893734443293,
          1.4127326538404623,
          0.24756109186658251,
          0.20249925533472141,
          -0.51247226180672878,
          0.641889379138453,
          -0.70006095640142441,
          0.52801240715794706,
          0.44472575259119623,
          -0.16886652788830781,
          0.40638758749119608,
          0.33376405697331873,
          -0.22335793757692349,
          0.4320175436244662,
          0.13510998764675458,
          0.0347639215117505,
          0.41067881831827469,
          -0.40114168655505728,
          -0.133193564864686,
          -0.30920122769272018,
          -0.93978196744952591,
          -0.65092845079982486,
          -0.5689073525649968,
          -0.47828630655432641,
          0.58230610628642465,
          -0.013551610819779609,
          0.35242422930407563,
          1.0310838647696383,
          1.4753328078195538,
          0.021389597810791354,
          -0.13485646206847884,
          -0.46367005197024819,
          0.23531321862882981,
          0.17599854785654062,
          -0.52737841078792691,
          -0.19180784210347709,
          0.52429792731462876,
          -0.79034330784457041,
          -0.46996908164991058,
          -0.91153901238353752,
          -0.92417268870691827,
          -0.8748740642081223,
          -0.67437032974593891,
          -0.045519125786619277,
          -0.24671759702458773,
          -0.81148974116466388,
          -1.0055529304698327,
          -1.8118442694718486,
          -0.63034950721580874,
          -2.2004379506111778,
          -1.1016381615131472,
          -0.95733847448362386,
          -0.88819736800605986,
          -0.65402175015141262,
          0.024371523955291883,
          -0.64344843132874607,
          -0.26947554025008885,
          0.52272133079909289,
          0.064750647757609511,
          0.51329936132789844,
          -0.97650129842893152,
          -0.32811048496727396,
          0.34557029163681535,
          0.085656280170861174,
          -0.12498442035810845,
          0.32724673901192008,
          -0.56626206465626672,
          -0.74272368341547146,
          -0.83431760995065507,
          -0.79478806793697221,
          -0.24248420058182726,
          -0.40728380713047513,
          -1.0392580180367286,
          -0.76038296040628917,
          -0.29104155089620826,
          -0.88590539282284864,
          0.038831622034636228,
          0.89893305156157233,
          -0.1160150899900497,
          0.77989748513587109,
          -0.59032497696192576,
          -0.06006738045249433,
          -0.025236687313572433,
          -0.898630215226679,
          -0.26578472099031275,
          -0.7136255368523704,
          0.14790215244012492,
          0.49630625932166667,
          -0.44696440901424694,
          -0.32886411776893842,
          -0.16948290761269977,
          -0.13435575261558283,
          0.8465366352100917,
          -0.80543704947115,
          0.20268700421765815,
          -0.44376429458006433,
          -0.47485424478210536,
          -0.87642838418392932,
          -1.6435253848100071,
          -0.85863955171595208,
          -1.1574561804606125,
          0.36414614767315429,
          0.078737754574445568,
          0.48012943377313133,
          0.13366681775628311,
          0.34677314852418756,
          0.065096785131883092,
          -0.51473427721154386,
          -0.34732595431599433,
          -0.87374140409980749,
          -0.22621152422387031,
          -0.57054152546031767,
          -0.81370227972558906,
          -0.58642134217549824,
          -0.66392604164451408,
          -0.07451012018292881,
          0.57047348460054292,
          0.5897201352217788,
          -0.10918859678745838,
          -1.0148564396603108,
          -0.60934537947285006,
          -0.27686316082953533,
          -0.885289600743313,
          -0.86679249594739527,
          -0.4512964736965262,
          -1.9154473371854552,
          -1.2258368080880784,
          -0.29735697320627885,
          -1.390814905347441,
          -1.2868437254732741,
          -1.7215853007857176,
          -0.37314000049895785,
          0.48041632306169235,
          -0.41875105448065852,
          -0.63639353773568319,
          -0.94491048333643812,
          0.30643099214379022,
          -1.1849070222535245,
          -0.23021274861421148,
          -1.21983568304605,
          -1.4111542667667769,
          -0.52727785018076256,
          -1.0593252809038483,
          -0.37701511182477809,
          -0.71917265768997407,
          0.077166368045498743,
          -0.32533747643432726,
          0.75802682646680641,
          -0.60924253628895264,
          -1.1564855020567544,
          -0.5241738390784656,
          -2.0100931892036216,
          -1.147585098410173,
          -0.79053261359519367,
          0.22991911962843792,
          -1.1336940469336014,
          -0.54702080704733691,
          -1.5340010019266208,
          0.12469828046072062,
          -1.3588911315131047,
          0.42483004002342467,
          -0.70051636619791979,
          -0.78226601195293755,
          -0.3683810762043479,
          0.31031092941212279,
          0.0014902209458992637,
          -0.75576661655557287,
          -0.17521253157417882,
          -0.4915122976212235,
          -1.6136849582787611,
          -1.699931427845419,
          -0.21487334863951418,
          -0.96691536479882734,
          -0.68655340044586488,
          0.79717265044873553,
          -0.13559458063419519,
          -0.834009034138575,
          -0.63900757278460474,
          -2.0614958766736513,
          -1.3925959369165859,
          -0.47073132224257952,
          0.0051377235818046993,
          -0.37008177804705322,
          -0.55289937858281268,
          0.74711603998686316,
          -0.26277811800465911,
          0.019083104574325653,
          -1.8078202693183731,
          -1.8241797002212705,
          -1.5714802304671753,
          -0.62763500364546942,
          -0.65410927484501791,
          0.51550274884469249,
          -0.072136764930445754,
          0.10340984173697408,
          -0.602479382955167,
          -1.5292500018513022,
          -1.1736036660683769,
          -0.50250874248931521,
          -0.57887616041501155,
          -0.958453271653939,
          -0.69586622903385564,
          0.93473590203788037,
          0.08964894838425326,
          -1.1850489230341774,
          -1.2398346833379097,
          -1.2430539458256298,
          0.64798479293156352,
          0.22992464358187958,
          -0.361142486224081,
          1.1974480993453807,
          0.46104129295291085,
          -0.50579779380959022,
          0.541516991744724,
          -0.76576073344766216,
          -1.0485543711852716,
          -0.90731595509039786,
          -0.13303369598137246,
          0.040811326853652741,
          1.692490309637591,
          -0.56506500188158892,
          0.4984093893253439,
          -0.503242275510218,
          -0.15480535674598453,
          -0.49836003043444138,
          -1.9709734698497003,
          -2.0931299544441457,
          0.18749672994842356,
          0.30132374932811978,
          0.10345088513442163,
          -0.468887894291378,
          -0.72685307491007312,
          -0.22222942195895085,
          0.6067813089442371,
          0.27076956413205788,
          -0.10986066550989643,
          0.44597433837285633,
          -0.27615163664809783,
          -0.20127044149506168,
          0.57511343637899048,
          1.1521866623104706,
          1.425359233376545,
          1.9379208147584346,
          1.2099847926697132,
          1.3889123690964822,
          1.3988905229706075,
          0.78509078187547865,
          0.6291018445146892,
          1.0720009723487181,
          0.48272972560389271,
          0.8155979381667342,
          1.1856410502593053,
          0.58340024732170381,
          -0.52827597133348181,
          -0.042603793977237715,
          0.43934136182129807,
          -0.26910064227824165,
          0.72019838627232191,
          -0.76545381025891623,
          0.6725785248119649,
          0.021697726660074815,
          0.88007001445027921,
          0.84573036698038917,
          1.6022958531740845,
          0.64327467459145171,
          1.4955252616517882,
          1.2793671986223438,
          1.1695377408790713,
          1.4412208579747543,
          1.282726766300244,
          1.6729994006365176,
          0.38768217344148054,
          1.6756634850570085,
          0.77347797967250143,
          0.058645111920595835,
          0.21497285055805063,
          0.99974288546207446,
          1.7685866196140456,
          0.75336767846558317,
          0.68218303455765794,
          -0.411570168869642,
          -0.49281437457373922,
          0.17337712985375894,
          0.54776198038853974,
          0.10853229059266938,
          0.35262432964754958,
          0.8153481059597153,
          -0.60036372277692462,
          -0.086237334870482477,
          -0.0571233797931066,
          1.1884260449024007,
          1.4358837180277122,
          1.6326970366471378,
          1.2201626889655273,
          1.1718934886129071,
          1.8251132638399263,
          0.958752587831185,
          0.37387854104488355,
          0.85537809812028942,
          0.71779280903065357,
          0.29518611234856262,
          1.3279098723186993,
          1.2975939295285843,
          0.9040205951757303,
          0.30526021150752408,
          0.66151326548084244,
          0.8227738975037916,
          0.66630227339775128,
          0.59347229388866374,
          -0.23791143538225942,
          0.342216814810742,
          0.16348609070649325,
          0.73177625836398941,
          0.48554312035943054,
          -0.68018753234140072,
          0.35608940000220429,
          0.31139386427604515,
          0.43863518425526432,
          0.21679655146516863,
          1.1430065570831407,
          1.9596627391439654,
          0.60115628868361026,
          1.1841389762098338,
          2.2130060427468967,
          1.02959182683873,
          0.65877359582394,
          -0.64742009634193232,
          -0.36789349588049386,
          0.64491251765906776,
          1.5347397020649647,
          1.919378030675764,
          1.6301862743776341,
          0.4851332054912772,
          1.3973544193648757,
          0.759767258844934,
          -0.5273225721025887,
          -1.1154214549571024,
          -0.66713653067847767,
          -0.5298774337144051,
          -0.70830218648847654,
          0.21350813704224747,
          0.10153613111586921,
          0.54084697910702906,
          -0.53230340290270628,
          0.41273990226927387,
          -0.0073321177539226422,
          -0.1790416591223368,
          1.5504856789829626,
          0.38914902053990247,
          1.3474211049124398,
          1.2482344459360502,
          0.439529791640971,
          0.78187786901363776,
          0.42171996639901471,
          -0.029978725408428355,
          -0.60927512257812766,
          0.60919592795189081,
          -0.51173149751122138,
          0.30557072563298782,
          0.824858633043307,
          0.91835870948121556,
          0.0034829073481304992,
          0.22373482424941649,
          -0.43839244754682122,
          -0.42225642431849253,
          -0.868036305676655,
          -0.65696867241222023,
          -0.6145000914553953,
          -0.167409441021179,
          0.2067483719467928,
          -0.98758264699731946,
          0.49112279331848119,
          -0.64819766212555119,
          0.854975610697675,
          -0.59405108780493543,
          -0.93400362443329088,
          0.24860896085691595,
          1.008939322580577,
          0.88386062174421287,
          0.42887391370019662,
          -0.6094825818897367,
          -0.4672990493691877,
          -1.2223925100732733,
          0.51156255072923518,
          -0.58689498543586638,
          1.6120997059032891,
          0.86411121271064351,
          -0.4336411576610662,
          0.24895960004655329,
          0.0772867741529328,
          -0.73181447657990406,
          -0.2263255264353724,
          -0.81079923118183916,
          -0.35008992437183417,
          0.25753264418976812,
          0.54791818688159355,
          0.65323539339286785,
          0.092582567681857436,
          0.054123782335960019,
          0.37981253197537229,
          0.58772744452961556,
          0.5578406513763231,
          -0.92680992567001319,
          -0.078570626736841287,
          0.22364909952345724,
          0.90449583634629427,
          0.93088418970757913,
          1.2318447168139948,
          0.390306422189542,
          1.0508395403363831,
          -0.38832115280336688,
          0.32550592481319551,
          0.047906063382651735,
          0.7988330595022296,
          0.21256604132695872,
          0.39888073162829163,
          -0.36071022261763497,
          0.28021655944734319,
          0.325666410052093,
          0.54808201007830015,
          0.76291130327500212,
          -0.53175270462325031,
          1.0145415764259416,
          -0.73255116728092273,
          0.71849125230839028,
          0.49088106632326217,
          0.78876963217689233,
          -0.91679620165131748,
          0.09273667348583986,
          -0.76001293098274114,
          0.5878194305110751,
          -1.06191677405761,
          -0.93762406609180271,
          -0.56663617314385017,
          -0.089740543176439161,
          -0.48824425792509019,
          0.67542346149113242,
          1.1345962978625606,
          -0.24792526305075238,
          -0.44614156475088573,
          0.24415046010481065,
          0.60916312260496341,
          8.09865391059442E-05,
          -0.9426882657876815,
          0.87588749192756521,
          -0.62629549223362457,
          0.64386905578731113,
          -0.022635456647475866,
          -0.1503604453078804,
          0.21821295059153076,
          -0.44832659411876563,
          0.64612704316953373,
          -0.11530288239179447,
          0.92218344881871017,
          -0.75928231024895787,
          -0.70136057818478159,
          -0.67835379374470051,
          -0.033058969652246306,
          0.32659201965779416,
          -1.1184023167241022,
          -1.9025912800218625,
          -0.79492072210758968,
          -1.44091608149259,
          -1.097518396820649,
          -1.5684882331798988,
          -0.32209286826206518,
          -0.32122291576522671,
          -0.22560945296659221,
          0.11561882531602627,
          -0.33118198853426273,
          0.4532213743395575,
          0.035659022526302021,
          0.59363319052314611,
          -0.4381675059820398,
          -0.061424118719657382,
          -0.40500262800157155,
          -0.00988296274716392,
          0.053333284441504508,
          0.43077141285489351,
          0.88646882864193377,
          -0.7171614823499366,
          -0.42772784345900283,
          0.034217732515489666,
          0.26677380868728667,
          -0.060865281906960729,
          -0.71436238530145479,
          0.43310611834836993,
          -0.38554592437119573,
          -1.3427557758440007,
          -1.230918523833852,
          -1.9006924408623971,
          -1.0349170013056492,
          -0.58423807071132128,
          -0.743948614600289,
          -0.92991564965727025,
          -1.0666390265186272,
          -0.88272611332361728,
          -1.0177148115944423,
          -0.97657611667989652,
          0.057517275503306209,
          0.42249600150675309,
          -1.2617483797740767,
          -0.68483097627121037,
          -1.4271505276363452,
          -0.33931875094386188,
          0.26481460465228213,
          -1.0504343137632193,
          0.58131898691483819,
          -0.59877347343932508,
          -0.60978754492442711,
          0.20687357294856804,
          -0.46353626067070103,
          0.83083104546520969,
          0.039070931347771024,
          0.26671970773713388,
          -0.79298514060394276,
          -1.21483760013437,
          -1.229172265260188,
          -1.644699952693083,
          -1.3274122636325005,
          -1.8062135647227589,
          -1.4326324828084003,
          -1.2197774317495354,
          -1.5185161039735518,
          -2.0245687822930245,
          -0.85066838835292724,
          -1.8590729642974402,
          -0.72638313387330533,
          -0.78992383905853147,
          -1.3025086497694984,
          -1.2655766450348036,
          -0.26076315068855643,
          -1.1668049220460155,
          -0.28491892293499527,
          0.90938427663158028,
          -0.040135073174275823,
          0.33987272653788947,
          8.3813451836646012E-05,
          0.90448768694172621,
          0.11757746805652886,
          -0.51404885566202263,
          -0.96230858261659447,
          0.12411932256149992,
          -0.0074810392474844679,
          -0.83048486076490136,
          -1.3977217306401972,
          0.270124406320616,
          -0.4890480422046159,
          -1.4943841073778101,
          -2.5477144383710582,
          -0.61895975971787065,
          -1.4174964835397086,
          -1.1874820396245343,
          -2.4987734099666272,
          -1.4792937728958437,
          -1.6995162518030398,
          -1.0340571573452795,
          -0.11729442820065193,
          0.68096225030194835,
          0.31941755601985222,
          -0.66919483246960043,
          0.6913202934610222,
          -0.39205881992800679,
          -0.94284099652183173,
          -0.70508704720739557,
          -0.97095472154919982,
          -0.5701647784911561,
          0.98638580647516072,
          -0.821603715986907,
          -0.0530686006332649,
          0.73153597496496547,
          1.0783696688533859,
          0.52959881124989294,
          1.0866591987765371,
          -0.18963214309940005,
          -0.57662002731912609,
          -0.67089594303932321,
          0.71667225624739317,
          -0.71517611301641759,
          -1.6099315303698021,
          -0.20535659221987188,
          -1.4857747924147788,
          -0.77648209964620951,
          0.17594307903332138,
          -1.0984984489866889,
          -0.612150958728967,
          1.3178541372956185,
          1.3147810426941538,
          0.32180703351756779,
          0.52024160252776885,
          -6.1685706680522412E-05,
          0.97231207877450521,
          -0.28347382942927385,
          -0.99691487009418189,
          -0.14492062175431428,
          -0.058548033924478278,
          -0.02201813244690002,
          0.05156291253644834,
          -0.86777831324601229,
          0.94954081643372024,
          -0.31684021137471086,
          -0.2194391805746469,
          -0.019847430687705191,
          0.49330430892418353,
          0.29500158041864888,
          -0.79442301333464627,
          0.67796312650014123,
          -0.2174669993834519,
          -0.24825565125904803,
          0.29589314353338964,
          0.42337040301337109,
          -0.20247964743628685,
          0.85737576803638627,
          0.025653660675122047,
          1.5314381896815246,
          1.0493594318207171,
          0.14129079160885294,
          0.18903234498014868,
          0.48341112392170427,
          -0.78145515426324685,
          -0.41335856257918491,
          0.22301184294029,
          -0.810518850095244,
          0.98425291153821171,
          0.59343360062907458,
          -0.99177184365279714,
          -0.68259536586530267,
          0.076620228004104549,
          -0.3615312077247762,
          0.5638712251466379,
          -0.26728577585786789,
          0.22600217695864872,
          -0.43130992129933871,
          0.43534584661324316,
          -0.23756780255068816,
          0.021517015025886443,
          0.7866446778168974,
          0.057301865104249686,
          0.11290461948874864,
          -0.6030200599615495,
          0.24990472729137642,
          -0.45874866908880024,
          -0.16845940064672857,
          0.99611004402016623,
          -0.044634308877257244,
          -0.19026190850181587,
          0.58552215613162106,
          0.074744241088129867,
          -0.23615637001366494,
          0.55665775133515716,
          -0.5580193786766845,
          -0.68844982980531633,
          0.30665122136690287,
          -0.45006094988218875,
          -0.34031616772644269,
          -0.027225178931084823,
          -0.5284754427320919,
          -0.45055387073748038,
          0.61247601823841358,
          -0.21308929981168315,
          -0.44854406862133778,
          0.36823510280821947,
          -0.77247725578556048,
          -0.32338444783700548,
          -0.68669239276247507,
          -0.20606915567767645,
          -0.45515871257801821,
          -0.11995710226201994,
          0.51502522409762219,
          0.10745406773474885,
          -0.095178635513975526,
          -0.611036056850578,
          -0.0877617271561456,
          0.97962942302675893,
          0.10216772860132067,
          0.70573549602399588,
          0.70320765442433775,
          -0.89654735544477582
        ],
        [
          -0.049141674296026186,
          0.21388990362824492,
          -0.016522346290786083,
          0.35090650502310278,
          -0.39335605804159163,
          0.48094276339464964,
          -0.31374271725586472,
          0.0062049382896829522,
          0.20670270082259171,
          -0.16879284823594995,
          0.38982467284144046,
          -0.033052225357879245,
          0.97745635138354836,
          -0.57364065764350236,
          0.0808578035409484,
          -0.29331837596957583,
          0.63328668894894768,
          0.36677398579844417,
          -0.17585619934184857,
          -0.56297701061054717,
          0.60774865747146656,
          0.66793455766231169,
          0.7944202546560799,
          -0.86903302254438053,
          -0.39025935623145519,
          -0.60079042519725512,
          -0.028462388080569376,
          -0.385446089313392,
          -0.44671094673036454,
          0.72510601604074587,
          -0.265957967604537,
          0.761051287182573,
          0.23759310507064829,
          0.55052557893083931,
          0.371612108418632,
          0.0914790399072271,
          -0.39687337732129419,
          0.35867554812551677,
          -0.55203458653063975,
          -0.99339329366146489,
          0.74725866643885674,
          0.632610333844674,
          0.8773668134833531,
          -0.61393321964359671,
          -0.47470386959124106,
          -0.63313721268290113,
          0.0866441269702364,
          -0.66729320880137488,
          -0.88273520666205141,
          0.5157804114356469,
          -0.4268479211853316,
          -0.6074208353576559,
          0.0624255882641011,
          0.01493163989574973,
          0.60889408412106683,
          -0.12089006602115114,
          -0.8309683839260007,
          -0.72179709141425441,
          0.78641744764628463,
          0.679838944267109,
          -0.93943618636017523,
          -0.14701339687710793,
          -0.35429373596652863,
          0.014220998553687855,
          -0.67845460041473926,
          0.0012332197767706942,
          -1.0675715694008656,
          0.28657075494574508,
          -0.13395921143073569,
          0.26139245767695557,
          -1.0244254988878003,
          -1.061991470044986,
          0.52855207534611881,
          -0.644071870727854,
          -0.27353013680224264,
          -0.65809845600638006,
          -0.84750977093746127,
          -0.53834746206281114,
          0.42372477155522076,
          0.64808738085771767,
          0.40414871896648047,
          0.41340828663152229,
          -0.5250651906179602,
          0.041480908642495914,
          0.51436296362147083,
          -0.48531252680628417,
          -0.64569584486983744,
          -0.08837709364076464,
          0.52166021391774364,
          0.65380491858265533,
          0.832748485051065,
          -0.746584912643648,
          -0.82158727614211291,
          0.58616033380884469,
          -0.94363891861865756,
          -0.035553502711253494,
          -0.041730690383635131,
          0.49606348424386892,
          -1.1476786835106,
          -0.26194261547786907,
          -0.25417404227319657,
          0.57237509339698178,
          -0.78282855132735485,
          -0.7052483021640279,
          0.46231019561194647,
          -0.3101522599024788,
          0.25767148154248776,
          0.27120934403189018,
          -0.79445804796239572,
          -0.677313435576374,
          0.51415395221123672,
          0.84875009139716973,
          0.46613662364610614,
          0.53195653134674781,
          0.27572183536815015,
          0.742631144448636,
          -0.58014349754170191,
          0.60822120025440274,
          -0.72010217360525253,
          0.083860155619166349,
          -0.061075207228105881,
          0.081980182551760344,
          -0.77646176823734248,
          -0.63834840455179509,
          -0.50590769076338915,
          -0.89886901176692879,
          -0.91468582775184559,
          -0.18398456571477928,
          0.25420506416935618,
          -0.58052287298723859,
          -0.19018184765353624,
          0.219998238231051,
          0.95476386786792766,
          0.41990943949170167,
          -0.071012170955606052,
          0.49293728317855617,
          0.639125199769098,
          0.33424266849386564,
          0.58500141266623262,
          0.55269848118239451,
          -0.39983953418492196,
          0.432508570847075,
          -0.24418078719553121,
          0.24018106290587096,
          0.84297569236606351,
          -0.93175801018020377,
          -0.087506776130743522,
          -0.64191402018820587,
          -1.3616406535769721,
          -0.38513370338303193,
          0.48500473241226605,
          0.59123100591586408,
          0.021800389127391011,
          0.33092062101897968,
          -0.49725596565532404,
          0.85259608026216993,
          -0.836642367257391,
          -0.010452337139955812,
          0.157300014285916,
          -0.35576865290200488,
          -0.20770223056833842,
          0.70612077930565242,
          0.741334978403102,
          -0.47480331314612245,
          0.41763570446106868,
          0.84038323781592839,
          -0.33176205061335423,
          0.777442997730943,
          0.14208368608446412,
          -0.51552161591708356,
          -0.56456666636486774,
          -0.96199242749479741,
          -0.4075911287946426,
          0.24774159720148709,
          -1.9942992658825143,
          -0.40404077760957818,
          -1.088041704571789,
          -0.22557800595359084,
          0.54640992023236779,
          0.809373447928976,
          0.7010031299600018,
          1.1542046749406585,
          0.83611091604386922,
          -0.32788111283722854,
          0.12100381435120275,
          -0.78335984332645936,
          0.34314702199762948,
          0.47428702856165839,
          0.45483758052860052,
          -0.38005121920923279,
          0.75987924740340074,
          -0.39092628942032215,
          -0.82280870157065744,
          0.57715379082744844,
          0.51169343046018845,
          0.0023166587674405053,
          -0.70249672000162122,
          -0.4608876625262861,
          0.49397379372002587,
          -0.068191873450426516,
          0.06612584107529125,
          -0.75187741781737794,
          0.10598278048287717,
          -1.4579986772224605,
          0.53366521694182367,
          1.0313534102983415,
          0.74225499251867555,
          0.39534392398278134,
          1.9594480376079073,
          1.0930608280160672,
          1.261781491692308,
          0.5894430821262332,
          0.54820758314979678,
          -0.25398338115596564,
          -0.03475268850581302,
          0.4414489466090597,
          1.0855329228725446,
          -0.2822346492118209,
          0.86805681551330371,
          0.24166746403679196,
          0.50852824725282852,
          0.57629512600928079,
          0.62294521527921065,
          0.38590924709012614,
          0.81729348854114037,
          -0.078647670605864653,
          0.64452081545765538,
          0.63131001420312971,
          -1.5076851487031542,
          -1.1128276155370567,
          0.066156343374885476,
          0.23320885584998743,
          0.54330398265937041,
          1.3046535560962478,
          0.27058215718635875,
          1.6000281203896292,
          0.47508385646811613,
          0.91116123988213393,
          -0.43280752915845461,
          1.3908899095964544,
          0.79693051606515131,
          1.1561925286807915,
          0.55167274190949533,
          0.79519576340043185,
          0.041033322981553794,
          -0.078804285837157054,
          0.27005497010537383,
          -0.127433496442236,
          0.972850412320404,
          -0.51734382774858623,
          0.77180379215749606,
          -0.6288008394083564,
          -0.79397477107538539,
          0.64490392064753854,
          0.79365683157109812,
          -0.63411558097096032,
          -0.34372636469799811,
          -0.372809369306285,
          -0.36957299671902738,
          0.17327004419792563,
          -0.29668263202019951,
          0.99247800332218772,
          0.95138553248753821,
          1.2114181375679805,
          0.31953555645482018,
          0.63257547604639142,
          0.085561672201212233,
          0.12459317610550269,
          0.23768558528855305,
          -0.010200829949964175,
          0.77799729299209786,
          -0.56016894208064416,
          -0.099805891717486786,
          -0.78551777567336378,
          -0.47618787672121571,
          -0.718718909307994,
          0.84014612992288151,
          -0.72299753821343826,
          -0.2942168521667185,
          -0.72096219961423835,
          -0.29587971656612194,
          0.24830253473374503,
          -0.037616939482166004,
          -0.10442002001724085,
          0.47398210033085314,
          -0.94269127578193523,
          -0.58697797593086087,
          0.41861784227155369,
          0.66577443611187581,
          0.72198579138961327,
          2.0427259864512379,
          1.4163172518841629,
          0.012031199835756044,
          -0.24812410642089669,
          -0.46035090679551105,
          0.34783237183462434,
          0.055824281859916912,
          -0.45715005295084454,
          -0.68296415694294832,
          -0.11525503743971011,
          -0.35920350258853007,
          0.014793815831976084,
          1.0375891113133049,
          0.0058999251706382616,
          -0.727289197412778,
          -0.060076775654160045,
          0.3991953007601281,
          0.194097441351429,
          -0.30527052716808123,
          -0.83565767385707712,
          -0.97188106044777756,
          -0.2326646777567605,
          0.79825575356709355,
          0.49008642915293438,
          0.48841357734174579,
          0.91215523685471533,
          1.3420493501522319,
          0.12937878247537588,
          0.41718782360114154,
          0.52134204510764059,
          0.48760970125363773,
          -0.42852396763049244,
          -0.58965941382949894,
          -0.10662375843427886,
          0.35666939263098457,
          0.40503052261856964,
          0.16999551804212934,
          0.047127754920640891,
          0.77536118107836327,
          -0.7101590450848404,
          -0.60940154053790319,
          -0.52348988391186224,
          0.32126016352471803,
          0.36404228286351303,
          0.7443301454775324,
          -0.32944087045976961,
          0.24863251739531922,
          0.92218742206286242,
          0.042548126686270824,
          0.66774824320943782,
          0.75991781757772714,
          1.15000711298118,
          1.138756248403535,
          0.78812579572923358,
          0.66617931319803836,
          1.3489138842559985,
          1.3119683517488714,
          -0.46460630048445056,
          -0.51100835892318,
          -1.7323320556916266,
          -1.3307572425804268,
          -1.0677156553541296,
          -0.36037350642384375,
          -0.82686740796929814,
          0.79006911904600041,
          -0.29043560321825185,
          -0.030631833984593251,
          -0.02901564699159229,
          0.70836877944275767,
          0.81217759422760916,
          0.43919730699771409,
          0.28695260763332764,
          0.24772608473593338,
          -0.70238373663391263,
          0.19109027272875861,
          -0.20853156768105641,
          -0.15141582374397541,
          -0.72969602682406243,
          0.50300964063952414,
          0.4027896206126701,
          0.60849603227610682,
          0.084701508464037276,
          -0.10447373947332313,
          0.069610517322431439,
          -0.049117271605717105,
          -0.72877543740761164,
          -1.2453048493491503,
          -1.1197906076679802,
          -0.55680891561668722,
          0.021095262023899317,
          -0.65891580278198092,
          -1.1926253389664874,
          0.27483384481791617,
          -0.17940941849001632,
          0.82885051586023228,
          -0.25047396539309663,
          0.035164912644795925,
          -0.27013302558245184,
          0.0032000525184604227,
          -0.66927633950301646,
          0.13423959271595523,
          0.16177636205845047,
          0.24340729830704208,
          0.1905834816111035,
          0.39428184485961171,
          1.0754614714943573,
          -0.53833646504912125,
          1.8314033452835754,
          1.7751977557088152,
          0.33873051668207427,
          0.8124040953250713,
          0.55109110161525043,
          0.6362279505219125,
          -1.1121225392584142,
          -0.50949987170862521,
          -0.89334325501445755,
          -1.7471779807649459,
          -0.87589713432318683,
          -0.017629326046620177,
          -0.0206443402467049,
          -0.53095039863132154,
          -0.34533415359530512,
          0.78008212532121879,
          -0.85931839545031219,
          -0.36791531370090524,
          0.53855618479870726,
          -0.62580392656742889,
          -1.0516748055473464,
          -0.84073701978666371,
          -0.9040920705632628,
          0.070125034788812171,
          0.73456510833320376,
          -0.61174802477966272,
          -0.334292373478729,
          1.1537159687229854,
          1.0035200858217639,
          0.29987755896293078,
          1.189899505890317,
          0.074857337917565686,
          -1.1376828696124757,
          -0.43820064300326494,
          -0.3993344351094385,
          -0.41324216710368961,
          -2.0252093917550966,
          -0.73974166033262656,
          -1.0485403014536767,
          -1.4047467607736364,
          -0.78826346075238618,
          -1.0158295031549582,
          -0.56495362182090136,
          -1.2975076078210119,
          -0.09053146239985714,
          -0.46946987647619021,
          -0.039028439574651484,
          -0.39500340630551894,
          -0.93317996432606554,
          0.54799504148936407,
          -0.68371069854637989,
          -0.94218017517938857,
          -0.0028630247662397457,
          0.26120589185844095,
          0.79733964445493988,
          -0.20484598154701797,
          -0.45439290470713106,
          -0.78878480641495785,
          0.927200163552852,
          0.80184052834575259,
          -0.35813314793770118,
          0.056762125686295753,
          -0.50813230931439735,
          0.39941661872211692,
          -0.98483473362653462,
          -0.93493217302203913,
          -0.98676808131065608,
          -0.35797754274660293,
          -0.46802560458094966,
          -0.7953736359399467,
          -0.55656773852048325,
          0.53049004416974554,
          0.01834888198785049,
          -1.3900105077161606,
          -0.17354620746796121,
          -1.038483621746594,
          -1.1053976542621449,
          -0.46986237255482338,
          0.11686866757661185,
          0.27703423682318212,
          -0.14296342701050036,
          -0.31121654412703281,
          -0.27334836150847336,
          -0.75152678881262847,
          0.59707735828635056,
          0.44742666560211414,
          -0.94423780012998149,
          -0.13850445379884752,
          0.0610473870898715,
          0.66401937786088672,
          1.0197102110642078,
          -0.19530353000173109,
          -1.3963296045385454,
          -1.26274091546089,
          -2.0096640933806924,
          -0.8548554899647659,
          1.2396689744257325,
          0.62631351341465746,
          -0.17847826581321205,
          0.18128425590225639,
          -0.45325351291488125,
          0.052375624375450451,
          -0.47010599646378531,
          -0.78252281738559737,
          -0.46156918312407874,
          -0.78846905643260889,
          -0.33708334619053665,
          0.87314144715593167,
          -0.99468865328497058,
          0.18794523504947697,
          -0.61856863508338222,
          -0.26398654267429039,
          -1.0247529970612026,
          -0.21426131089409367,
          -0.2390345674002004,
          -0.39683888956294933,
          -0.46666839733231363,
          -0.38438398634484888,
          -0.63592990498978241,
          -0.93727698211590116,
          -1.3279405324653832,
          -0.64052074653835844,
          -0.21908879834793504,
          -0.25533993121152226,
          0.34433346977522494,
          -0.090664481686236351,
          0.67228199992069992,
          -0.30687414584937661,
          -0.33520436252372954,
          -0.84267119985353578,
          -0.28328309718575723,
          -0.37864713150184259,
          -0.093785923046988809,
          0.30080983563621072,
          0.40261134275386584,
          -0.033098297652814926,
          0.89866236867253479,
          -0.15872081076853659,
          -0.79266677951103071,
          -0.91827770458334312,
          0.086908045134862916,
          -0.3172467211922238,
          -0.38724949589370017,
          0.32387768593907007,
          -0.94462284845380917,
          -1.4743963979586696,
          -0.9844255648429725,
          -0.21076750134427275,
          -1.7520434437732007,
          0.47235081499715365,
          0.18081587513140962,
          -0.05089360229913114,
          -0.17009519528516304,
          -0.614382593098683,
          -0.33140614843361044,
          0.31760146875818634,
          -1.0187316615031505,
          0.019431899784695623,
          -1.377109014218791,
          -0.82627522231620754,
          -0.51132121775907236,
          -0.6400490194787225,
          -0.0072366149206157171,
          -0.72619515633493315,
          -0.76250301621049632,
          0.8011654294340389,
          -0.730091154185018,
          0.341970140679723,
          -0.46854111136505155,
          -0.055500335974110776,
          0.086199974613871619,
          -0.61443933433921238,
          -0.607373929086951,
          -1.5106589441848126,
          -1.6161028834967757,
          -1.6870110686333244,
          0.094337799077155574,
          -0.41066801429283384,
          0.03853314812789399,
          -0.25705796519266216,
          0.53009567297289661,
          -0.5843201924637963,
          -0.0027035887364173822,
          -0.32044692690837184,
          0.30881765186131915,
          0.44864608507147397,
          -0.35143690901267383,
          0.95445761448163746,
          -0.42467423266872795,
          -0.74086516698523919,
          0.42356552375389056,
          -0.81410196203739149,
          -0.79464294387817813,
          0.56124546660035213,
          -0.548600246765662,
          -1.2784632218541565,
          -0.73888234595954261,
          0.96318488231335275,
          -0.26852548996956888,
          0.34494547603042275,
          -0.73512479630863581,
          -0.25029117082844171,
          -0.20949106773308734,
          0.027644043177259641,
          -0.2900857329207801,
          -0.059381752954187857,
          -0.0806911042987269,
          0.444806201993725,
          -0.31062157537854035,
          -0.29981528630523158,
          -0.82371285366043356,
          0.26844299916273068,
          0.23829167071529053,
          0.83155314396823443,
          0.42118103300817233,
          0.38751656643651017,
          0.57450128428882563,
          -0.21056437594659583,
          -0.28191111007594005,
          -0.51115072944472972,
          0.98582644214189519,
          -0.4169845006414713,
          -0.044702329652684746,
          0.36802344187520719,
          -1.206876551422212,
          -1.2333438844294111,
          -1.2351621655578917,
          0.260704391823485,
          -0.85000824073308234,
          0.05641398445026196,
          -0.058931702229355259,
          -0.02957481626542123,
          0.16973149224832151,
          0.78091671382590966,
          -0.28564677292763868,
          0.06766667718980672,
          -0.98926218926393272,
          -0.013853849738454296,
          -0.12259918080958447,
          -0.99593968743581451,
          0.27568014754106213,
          0.64306599876324166,
          -0.23271143907150149,
          0.737921993900462,
          0.53676933377310676,
          0.98291377740556685,
          -0.746128109982817,
          -0.15839054132162042,
          0.85423128121249725,
          -0.18040004196423518,
          -0.80596347709783245,
          -0.48802597982983958,
          -0.95358096895531463,
          0.026034201557663072,
          -0.88698392394813586,
          -0.39652355547651741,
          -0.86089650007895191,
          -0.68295905338156793,
          -0.27307189051664837,
          0.36161446781305123,
          0.48100981874655796,
          -0.74764430436677531,
          -0.26951917072596782,
          0.29101533430705911,
          -0.39433670601294574,
          -0.11129073632350235,
          0.52123153622836127,
          -0.11066346047786228,
          0.59875834330584343,
          -0.52802192935012748,
          0.69292428529550942,
          -0.36197081225833905,
          -0.2070236919937844,
          -0.39899185101582496,
          -0.45925070740564583,
          -0.59917246037445615,
          0.010461054050338649,
          0.6348862069569069,
          0.84122348489571952,
          -0.62561315438628051,
          -0.8371776153371262,
          -0.30728334154042036,
          -1.3938873563013181,
          0.33623221180435225,
          0.12813738059256777,
          0.079032407524390419,
          -0.02622698424965491,
          -0.77017796023917073,
          -0.72435613843531144,
          -0.37167521110881435,
          -0.1022358767370567,
          0.20192360836339598,
          0.40796081715491456,
          0.60879706546665435,
          -0.22517063887225558,
          0.56976007067146517,
          0.50811480947724608,
          0.80405197402385231,
          -0.12666060794069414,
          -0.3059907719428302,
          0.23515542694122971,
          -0.5497695067154873,
          -0.13931873114129909,
          -0.055958838894059018,
          0.78241188871391465,
          0.74784737493417719,
          -0.38103205703453746,
          -0.82156607907134338,
          0.85938360193956465,
          -0.71363193481142517,
          -0.78771341617667356,
          -0.41783768279579631,
          0.115161948203283,
          -0.18624806713845907,
          0.068253168717889182,
          -0.18493095351815889,
          0.74060412431349254,
          0.22043268929787832,
          0.20416278805396151,
          0.628014217346627,
          1.1596774947425899,
          0.65280751327301678,
          2.0100306296098158,
          1.0661364304644185,
          -0.12924466386924943,
          -0.50721344678048885,
          -0.28507972071442511,
          -0.37015879881641195,
          0.34453326588363942,
          -0.048289368135441504,
          0.78081391496301045,
          0.11951381667234944,
          -0.389641260256086,
          0.8831497114216571,
          -0.71130287694794958,
          -0.95556332194282279,
          0.35300518783236956,
          -0.33280547135205252,
          0.90387999045680156,
          0.699569787134824,
          -0.021462026725500297,
          1.3386962310669235,
          0.967760051269641,
          0.59358098930340175,
          1.2672064009571054,
          0.67724747547908015,
          1.6331056778414694,
          1.1517191502005619,
          1.0575646454049512,
          0.92382411234343742,
          1.0600297994828443,
          -0.60091090922053858,
          0.922791539729873,
          0.26349961145192452,
          0.067705870299172147,
          -0.97219921450182456,
          -0.0902485650529091,
          0.42800068809368791,
          0.23866762268075339,
          0.62474508444495847,
          -0.6883685684232379,
          -0.82154056638762007,
          0.2570088161220509,
          -0.24304674773497445,
          0.23861428252811026,
          -0.1770424180301714,
          0.29309488380812393,
          -0.87567607178387685,
          0.61412839426912336,
          -0.55926730807806646,
          0.055351742343758038,
          0.17363259062490774,
          -0.67264744765401263,
          -0.8703439552925506,
          -0.037685823556036245,
          0.64810725335075514,
          -0.23237246247597121,
          -0.32033582819544115,
          0.731395643411582,
          0.43610116915842156,
          -0.88129799947628906,
          -0.42071868247532968,
          0.33582351644784003,
          0.78638600442275752,
          0.82449928275958051,
          -0.63369681126720856,
          0.26556725730837466
        ],
        [
          -0.96027546290593169,
          0.8594491429784713,
          0.62024344542710164,
          -0.48535107363301588,
          0.41474706415732032,
          -0.88219934150861523,
          0.99758899483544783,
          0.29064157783698863,
          -0.2308511401834433,
          -0.44920028800431067,
          -0.83701336228573642,
          0.96256100844306924,
          0.88474658496950653,
          -0.023064102691258047,
          -0.34059811853650057,
          0.14900819212359365,
          0.934346246921402,
          0.55063155751390436,
          -0.39858138056758219,
          -0.93761215925501606,
          0.22816656848131636,
          0.14156689673378006,
          -0.23433553132512966,
          -0.28295134714159542,
          1.0032459489693302,
          -0.18054666866832456,
          0.58550728663517215,
          -0.70209059010544739,
          -0.8026714016059967,
          0.037169573518395768,
          -0.61245634926767967,
          -0.00097368805022543113,
          0.83249083664343382,
          0.97937082335468517,
          -0.374426737130804,
          0.94334791592279121,
          -0.32659884518955645,
          -0.57218355008945376,
          0.65899135303921141,
          -0.25417897267203032,
          0.33710339324767669,
          0.52132632481109475,
          -0.17754524453868034,
          -0.31394142035174766,
          0.37781737614166305,
          -0.12269158896902976,
          0.25747948461112963,
          0.0943558550086871,
          0.34476170193949995,
          -0.86220506424144694,
          -0.16285908294596035,
          0.66445166690990465,
          0.70413026345608809,
          0.23633952733776489,
          0.803540029252824,
          -0.13878842334547123,
          0.97220079150697269,
          -0.45828341374460035,
          0.55020210921598789,
          0.76817771518768174,
          0.14813536000326796,
          -0.39176537984153659,
          0.035200733060662938,
          0.90214688598838155,
          -0.39083974820564832,
          0.15184758549231694,
          -0.32195765135041543,
          0.19430238460209789,
          0.23510845607642025,
          0.48204602454373591,
          -0.49674853943250208,
          -0.24007067425775655,
          -0.14895867109657276,
          0.95366270474159731,
          -0.066402145675064583,
          -0.08590813204435839,
          0.67964693059737091,
          0.55645653516252669,
          0.84158531665335079,
          0.888790816777576,
          0.68611359262949567,
          -0.89976731134501509,
          -0.021574427683891582,
          -0.26943277365814322,
          -0.087561623736338329,
          0.48034763607841557,
          -0.72602810131845008,
          0.65912586310337018,
          -0.64970261361086479,
          0.76023339862875539,
          0.041531839731886067,
          -0.037015553173274728,
          -0.15034424274953678,
          0.21462600447341332,
          0.18456885630073777,
          0.79070661705965672,
          -0.9881333957865126,
          0.47645555494796593,
          0.48465493646669916,
          -0.10644182471644587,
          0.28890336638475561,
          0.45598623257352111,
          -1.0244541210979519,
          0.44441571143224229,
          0.56332130939933645,
          -0.58525165585487882,
          -0.083407250154203028,
          -0.68996664540619479,
          -0.1229704615847281,
          -0.20591060946231046,
          -0.97150885352453875,
          -0.77552546312386117,
          -0.41911819049443477,
          0.11083255841799672,
          -0.066739160760284549,
          -0.40977355625611456,
          0.74436524843815921,
          0.22144348493201921,
          0.79228164749839591,
          -0.19992229765566735,
          -0.73295814199417875,
          -1.1993591028516129,
          0.0040347428451106932,
          -0.44279313022648525,
          0.22886349233687453,
          -1.3660247022264687,
          -0.95109582673154536,
          0.26202502298868358,
          0.29543185985599196,
          0.58106880458077836,
          0.14451947463925233,
          -0.39869456698924377,
          -0.065747304916859373,
          0.52757294471049865,
          0.11750217555068036,
          0.53937947375091766,
          0.79137823008835539,
          0.84554105758468212,
          0.51180660962486735,
          -0.0336649042562204,
          -0.30295291085082465,
          -0.48587956566649626,
          -0.32536847185699375,
          0.50226960668275755,
          -0.92154262447626567,
          -1.241607135575999,
          0.023074648127496957,
          -0.39618624427217114,
          0.27418319239509858,
          -0.18861028584145714,
          0.49795847910545915,
          0.5534925295475881,
          0.024720524067393702,
          0.22593825774648507,
          -0.957807417268739,
          -1.2066824505659397,
          0.0900039118654863,
          -0.12965522198336121,
          0.36438344992281468,
          0.14802513926732533,
          0.75313584254664345,
          0.90514275209165318,
          0.33347350087125593,
          0.46670055839510866,
          0.42326752495272218,
          0.36469387160171945,
          -0.50802410092701222,
          -0.66334720997963559,
          -0.53355347954953036,
          0.81075851494780837,
          -0.30206778374651228,
          -0.86860502383935223,
          -1.0844735844525091,
          -0.012995951003057223,
          -0.97975911731236442,
          -0.16988610690883985,
          0.57560910736364557,
          -0.28714973994156212,
          -0.32739961097888415,
          -0.26352995913624633,
          0.26697276274491338,
          -1.1232525897309642,
          -2.3188458307505408,
          -1.4231494896129364,
          -1.2202672901499145,
          -0.36279887465841526,
          0.14734374514749535,
          1.4274857963714525,
          0.2980619864272917,
          0.14406199878769913,
          1.2600161314893947,
          0.70891178869041727,
          2.0015831687435397,
          1.090727995002476,
          0.69218160179322119,
          -0.61804071972875974,
          -0.43841439944199068,
          0.16339835370519085,
          -1.0826343169028139,
          -0.73449392298667127,
          -0.449888382672958,
          -0.4389686714755196,
          -0.01308018375858626,
          0.68776826840484573,
          0.89255344364992939,
          0.97751176959439878,
          1.4753796120972738,
          0.70153068790415074,
          0.69656137120959749,
          -0.054607179516968224,
          -2.2415053593056329,
          -0.64789115771279693,
          -0.3807556300123906,
          0.035825835842242748,
          0.13392855716146143,
          0.72142353491307354,
          -0.55552395382620456,
          -0.5777963149943518,
          1.1403696731031023,
          0.9661324664625669,
          1.7851845421941683,
          0.86301282979547489,
          1.0104624244180271,
          0.19285623002930816,
          -0.20162259649136216,
          0.31764497489013077,
          -0.18104522644588053,
          -0.24258879401712025,
          -0.52227449611085919,
          -0.57588667948546313,
          -0.29731974500200709,
          0.058767992544054508,
          1.0957780512486752,
          0.2755281258095732,
          0.14211801106690639,
          1.2849390501865576,
          1.0879041907462965,
          -1.743225884693167,
          -1.8257102895520716,
          -0.728939697858439,
          -0.41149977858957776,
          1.1219142367421966,
          -0.16020145575152944,
          -1.0705361969564233,
          -0.11706505089915885,
          0.7514587192063461,
          0.11898346400803415,
          1.9485410010179822,
          0.79904361539507807,
          0.84819693886108094,
          -0.26469753948956926,
          -0.661160103162146,
          0.30438779570486113,
          -0.0061571582518104729,
          -0.97407474449768094,
          -0.10147079842377864,
          -0.64051568440229878,
          0.249987929171448,
          -0.39786873499851549,
          -0.24776048054503733,
          0.3092991588316456,
          0.87667014977602287,
          -0.19551120417381421,
          1.2882507931721829,
          0.82643227230173966,
          -0.7049121327344281,
          -2.8127175031742166,
          -1.567017561580851,
          0.35901415928062075,
          -0.667771428423932,
          0.018190118291932966,
          -0.23074523911223971,
          -0.036957057680574314,
          0.06415370381070748,
          -0.32733369246695687,
          -0.61526230202718,
          0.30511647918251772,
          0.30137522573546754,
          -0.682129651182616,
          -0.55781356280549543,
          -0.36579129617472272,
          0.22252271770282539,
          0.48309689906540526,
          -0.23975165883231148,
          0.91893466892720677,
          0.50127966516100375,
          -0.082896311535484546,
          -0.0048109392763409529,
          0.072973042287037,
          0.30751116264962819,
          1.152349081175428,
          2.2347474085616139,
          1.0969563697895233,
          -2.368587074583512,
          -2.3706394209460071,
          -1.3203447436194828,
          -0.3134075171509132,
          -1.1047066729039625,
          -1.3567520438713172,
          -1.4099411475204056,
          -0.85697005096940793,
          -0.31286539674455377,
          -1.5233947601086588,
          0.2965517218187998,
          0.39016766473957926,
          -0.62246343748244348,
          -0.73533827382014683,
          -0.75546597663653137,
          0.13373274048998571,
          0.8605646178437707,
          0.384880203637503,
          0.6287558579218544,
          -0.21786157821786875,
          0.016759836783444441,
          0.723510441420805,
          0.85051351711278789,
          1.4186526811002624,
          0.63308705738265281,
          1.1680166773701073,
          2.4991505623313324,
          1.443865663337248,
          -2.366394406008554,
          -2.7933391047496605,
          -0.78202547444203563,
          0.37946488255058025,
          0.70507569583556773,
          -0.66275084662628558,
          0.45351930290637776,
          -1.5766968608421168,
          -0.671588027680133,
          -0.82316580668202144,
          -0.043981119282386287,
          0.816016773880991,
          0.608666684317835,
          0.17416946503533232,
          -0.39777059690739031,
          0.168175817304961,
          0.90262133615860063,
          0.030943284423734931,
          0.68279064755120267,
          0.034628343239755305,
          0.15069229918395616,
          0.51020545993209776,
          0.51493509462179143,
          -0.23732260159513749,
          0.38207010588618423,
          0.84679765047152089,
          2.3464911701735618,
          -0.13542789074071818,
          -1.0568696783826139,
          -2.2608357178312803,
          0.49301974022568679,
          -0.3682544964740207,
          -0.91564316987520189,
          -0.010331918668280621,
          -1.1142369957981422,
          -0.88088231106214132,
          -0.99573250332575736,
          -0.29141137222242008,
          -0.6052857997473694,
          -0.508708066207358,
          -0.735626754989399,
          -0.42333051807708705,
          0.50071606241499755,
          -0.61171791151451493,
          0.94380410037312956,
          0.25310372156327005,
          0.64891722709486854,
          1.0768524439410649,
          1.555563575413955,
          0.37168344148204296,
          0.92478795157827354,
          0.7012260604467343,
          0.90417567961761769,
          1.3728184701417392,
          1.0756710601262167,
          -1.1488989523004605,
          -2.5232425240341514,
          -0.61802848149584677,
          -0.860537215405177,
          -0.475571904985722,
          -0.30082567533310461,
          -0.16772705661778872,
          -0.89851054700105981,
          -0.73998463768306033,
          0.02910425626173696,
          0.81859524914635029,
          1.8244146880806196,
          0.38106934478782151,
          -0.644685480249507,
          -0.85391930771181779,
          -0.23643042037968662,
          -0.5441314576258669,
          -0.29628521316029566,
          -0.74877319639322648,
          0.57761273182243345,
          0.0771648973690872,
          0.478522275340364,
          1.9052379116631675,
          0.445429108855853,
          1.1276422887905819,
          1.1998080090593837,
          1.8781283061584628,
          -0.54076776639294288,
          -0.99256727996824368,
          -1.7258913597787182,
          -0.71177818131418258,
          -0.25748359994410219,
          -0.817867087302821,
          -0.19851028391660661,
          -1.4582329695613294,
          -0.40596988745572005,
          -0.78524697459275916,
          -0.044717848059815435,
          1.7904802333770544,
          1.3051865713484752,
          1.3208736409042268,
          0.25293426377125006,
          -0.3020321279175715,
          0.48834031797291494,
          0.16817222613967967,
          -0.18924781593304882,
          -0.27503013657961611,
          1.0203669554625079,
          -0.5181145579742058,
          1.0033270942966845,
          -0.020048916570551752,
          0.93437246385787442,
          0.92983746668764977,
          0.82767526283685833,
          -0.52280727846382868,
          -0.52641783442390433,
          -0.47712952447252432,
          0.21424279942423388,
          -0.93896740352405261,
          -0.50913152925830973,
          -0.59167903829459889,
          -0.5562726176468924,
          -0.55044122922317251,
          -0.133860764606843,
          0.35314771883062596,
          0.6848637556916,
          1.6232380121405443,
          2.103627477328653,
          0.68484591122839289,
          -0.44389703674969017,
          0.46287327142048773,
          -0.93201888462844551,
          0.23337746439942028,
          0.424816859221658,
          -0.77667767134423693,
          -0.54010758366299272,
          -0.64057897457482671,
          -0.15588219119710711,
          0.83171682085740484,
          0.60762210034947739,
          0.076433028560027816,
          0.44529325791040741,
          0.45522874018175563,
          -0.87347934044034925,
          -1.1885978740986298,
          -1.6127263834464847,
          0.378972094762271,
          -0.97961247415624864,
          -0.71863542001559211,
          -1.8290097424641558,
          -0.575675160000861,
          0.46515232947591506,
          0.77587441294000326,
          1.6759170620340078,
          0.076315105401880273,
          0.76775596393435008,
          -0.025851344800873158,
          0.31307244054135647,
          -0.31059566428525309,
          1.00038162934613,
          -0.81583873073855362,
          0.76620215438455153,
          -0.32143360588957287,
          0.21699395597107826,
          -0.50383214342179938,
          0.31018771792000377,
          0.57987296338830108,
          0.43211697843255453,
          -0.28995546310387549,
          -0.012795195582240893,
          -0.54868459789619561,
          -0.7992260655885578,
          -1.3868372443396464,
          -0.28691514668289742,
          0.51392551902053429,
          -0.96621982361640069,
          -0.5454586051228173,
          -0.047474125438355282,
          0.60041820805501744,
          1.7466911244216961,
          1.2954527795253423,
          1.3364001960663221,
          0.63618125999621011,
          -0.44262590735121554,
          -0.51545266563248993,
          -0.48904810333823034,
          0.72978475006620769,
          -0.59794560442410594,
          0.73456682629582648,
          -0.75457530088439206,
          -0.6710743962796234,
          0.11122324533956877,
          0.62934013996006821,
          0.30792223813895425,
          -0.09846065554714,
          -0.36076041916507745,
          0.2799505153164652,
          0.81025162532810413,
          0.12503986093144787,
          -0.39458775874130103,
          -0.8677527914201334,
          -0.4137063073607582,
          -0.3986687757355728,
          -0.54810508503758715,
          -0.096669642713226853,
          0.072176765715298088,
          1.2763987045899152,
          1.0122137123272865,
          0.4976884268694432,
          -0.31444247436880279,
          0.0437618841860522,
          0.21692223295918123,
          -0.4781534042368758,
          -0.03371454013545476,
          0.095261131999668056,
          -0.22099267503034778,
          -0.58453621699759928,
          0.24613726841215083,
          -0.7392650555017477,
          -0.77327892162599365,
          0.15806365102642717,
          -0.37963579451411011,
          -0.41373761561319755,
          -0.47638241761818351,
          0.02293612924430433,
          -0.48231521515929415,
          -0.001158499302753462,
          -1.081701899639409,
          -0.5282266931160996,
          -0.092092853958335927,
          1.3001596187462612,
          -0.35553876978517579,
          -0.051327640928170076,
          -0.0953052460212285,
          0.66299417119697723,
          -0.86505200330112431,
          0.4589943977907715,
          -0.37846690051442838,
          -0.44602046962282732,
          -0.7865010984111388,
          -0.61270305022882332,
          -0.96238977132032377,
          -0.24028929393862458,
          0.097513993162546692,
          0.14180067499815388,
          -0.10579901898521221,
          -0.55843254520018315,
          0.76184911971095493,
          -1.189706226307117,
          -0.292566615760717,
          0.05477855642661654,
          -0.12834418704323641,
          -0.80983756605630375,
          0.34089783075339164,
          -0.50883370971663844,
          0.53805822344866194,
          0.5104369666398656,
          2.0390244123825956,
          0.11291164326462412,
          0.47049852864084946,
          0.4871560743079405,
          0.017441767762517293,
          -0.27051052185318181,
          -0.14685246509034156,
          0.10046308570976707,
          -1.0379042073463831,
          -0.70787621010829149,
          -0.38433898009736339,
          -0.88165502266831131,
          -0.47397579207495616,
          0.417447490220936,
          0.68374021385997852,
          0.20722120897167853,
          0.25344350387414255,
          -0.33259104516426513,
          0.65473958227167994,
          -0.35165750493068842,
          0.538854578845005,
          -0.03806427763616984,
          1.0589967583138442,
          0.55259822196360231,
          -0.46074116559984268,
          -0.47169899010231564,
          0.80366360864429121,
          0.49996810106750211,
          0.62790764154656287,
          1.4725699015897515,
          0.26883346705402561,
          -0.7379205938786193,
          0.0050655260693741851,
          -0.28940057085194548,
          -0.039947120422350955,
          -0.53445310721942507,
          0.73021277156554865,
          0.026858065318111028,
          0.2571548958171615,
          0.42636097210742568,
          -0.15061648093241223,
          0.96872046012839286,
          -0.13222626479303465,
          -0.26946801376205975,
          0.4112933562150114,
          0.39011646868493749,
          0.20820647625658914,
          0.870235631042605,
          -0.36515262672851673,
          -0.70974181732908059,
          -0.10830151757653339,
          0.29345175773310989,
          -0.256076982908047,
          0.28999624728298923,
          -0.57484450775631346,
          -0.27317918262312246,
          -0.039579298734550072,
          0.84064649273262426,
          1.0958504943487732,
          0.43107899738721134,
          0.30702214291004537,
          0.875674136718152,
          -0.055604347171062628,
          -0.35131472242954415,
          -0.36069057902720608,
          -0.3197534575597632,
          -0.46431200753833535,
          -0.020322847930077426,
          -0.85651705664302757,
          -0.60619396894818722,
          -0.13430967472682562,
          0.039956170988218007,
          -0.031447839069231626,
          -0.65983745052729825,
          0.19672088364901022,
          -0.177505096156613,
          -0.40141674452748322,
          0.68522215672578279,
          0.036444843053797887,
          0.41319988205071,
          -0.85858810395755636,
          -0.38741443077071586,
          0.2743515678974971,
          0.2720868998288315,
          -0.11073634426850756,
          1.2545187349607736,
          -0.22102393045476615,
          0.28310139572091658,
          0.90993867076699853,
          0.31084029675620517,
          -0.51350259078834226,
          0.31837245002120279,
          -0.47630860229653232,
          -0.38452319809098423,
          -0.30848815032290372,
          -0.40411951247953165,
          -0.15821704633651262,
          0.59523591368333606,
          0.39157428910669512,
          0.24801804653084877,
          -0.20074393747658512,
          -0.7048063559881057,
          -0.70310237233549855,
          -0.52752347189934967,
          0.1258362304556481,
          0.69776012368837259,
          0.98751464666455335,
          -0.75179487732931,
          -0.60737465791878809,
          0.14265659137765571,
          -0.21451480835219811,
          0.61543104260715842,
          0.063684054547354985,
          0.5504758403637211,
          0.20796523156980223,
          0.37387932006970204,
          0.23371450458587426,
          -0.41033022910565431,
          0.10903138992821429,
          -0.37932893723930466,
          -0.47956592294612643,
          -1.1330650844770009,
          -0.89477986379476038,
          0.087381195961698049,
          -0.80388128567258532,
          0.99425685815126463,
          -0.48875933707045982,
          -0.20415229125232479,
          0.40762418104980713,
          -0.29233365393268851,
          0.11914685227987951,
          -0.43033224890338728,
          0.720030890175521,
          -0.067790122105846,
          0.91765748212473552,
          0.2965681163711229,
          -0.019137603690514787,
          0.87902163429372149,
          0.11665394889709708,
          0.82362098788907978,
          -1.0465603005890571,
          -0.12356031978773432,
          0.90461615846369514,
          0.0047209582665129193,
          -0.39833573140018996,
          0.20461214037455971,
          -0.24900607945001016,
          0.033797702266372479,
          0.3775056286000365,
          0.68665657305390171,
          -0.71247066501381606,
          0.47522730718830686,
          -0.78098638977964152,
          -0.74718491644573215,
          0.34549875712667233,
          -0.89541004210064135,
          -0.47679516657541987,
          0.93566885675950029,
          -0.18765391912592158,
          0.36061104439831881,
          0.27825672595151846,
          -0.7764076231742798,
          0.012972499771216117,
          -0.76598753700892253,
          -0.61991024887295954,
          -0.84990651883327373,
          0.80627048629384646,
          -0.91838271794734871,
          0.47510752846816229,
          -0.76584558220067334,
          -0.15706532874280088,
          -0.067307301765681629,
          0.38553730604690034,
          -0.48755098799165858,
          -0.082564981696326811,
          -1.5592057230417449,
          -0.79799215067337159,
          -0.11041742044951906,
          -0.34233724922696918,
          -0.24483966575648464,
          -0.31445528839974218,
          -0.78280464870208821,
          -0.60665285618329368,
          0.77922500615654566,
          -0.65907744023302517,
          -0.39119239392045313,
          -0.21883645056099674,
          -0.29936725881202358,
          0.24530002453709018,
          -0.594785997466595,
          -0.96162025862836087,
          0.25343207625934072,
          -0.8005424401040655,
          0.011001681791923311,
          0.88837137840923386,
          0.27566580105737576,
          0.92169417435787371,
          0.78943347229161676,
          0.828022207026713,
          0.12277064681331584,
          -0.98053613140206664,
          -0.56506379159670139,
          -0.40224619405758194,
          0.907614255074461,
          -0.78538089059287008,
          -0.14756849268334271,
          -0.96597212292126566,
          -0.28202158895607465,
          -0.74329172478342376,
          -0.039060620668395662,
          -0.06284766069898122
        ],
        [
          0.811647828556079,
          0.85729116236739189,
          -0.035099441996375276,
          -0.77799033850483268,
          0.57627852645650834,
          -0.78966323833033114,
          -0.9988230910343644,
          -0.809995720042434,
          0.77474845538795323,
          -0.53244095609575182,
          0.33140395617060808,
          -0.16117581550084925,
          0.50388177685732216,
          -0.47624932072278553,
          0.0706207911648421,
          -0.80854204098791482,
          0.67650796508364708,
          -0.46862674934841247,
          0.20827594760752344,
          0.78021721390955479,
          -0.65031521173245876,
          0.86092522077210576,
          -0.086973354332689545,
          -0.71308231155439883,
          0.50723096274718971,
          0.0025068240979948665,
          -0.45819186127796324,
          0.28142585128494052,
          -0.9732438755413112,
          0.22797891905478263,
          -0.024199331990045432,
          -0.086002013292704127,
          -0.96381404704453166,
          -0.87811472616513764,
          0.75481881741776191,
          -1.1849592050656645,
          0.37431605978061622,
          0.80773263446135846,
          0.83402985986057321,
          0.22606700740926872,
          -0.70875460552322334,
          -1.0340893366244581,
          -0.77365523934850711,
          -0.35752388811677988,
          0.63266423179891262,
          -0.97428697929181651,
          -0.12948482412699852,
          -0.52357534218973234,
          0.7714347252322763,
          0.31473719810619544,
          0.30505461618862484,
          -0.81548075740610193,
          -0.83520824659667581,
          -0.62935728218458264,
          0.13349351042828583,
          0.6290287269553575,
          0.10565849289244006,
          -0.44880146754025968,
          -0.48522368026411322,
          0.94821708269215976,
          0.14992251326642583,
          0.45113303603092575,
          0.30711676623492762,
          0.11878634560977867,
          0.21321079994279352,
          0.19717659301681137,
          -0.10841571688504724,
          -0.17176417737019625,
          -0.84177463542362974,
          -0.32956989636439188,
          -1.3484091440165136,
          -0.12942882947553408,
          -0.80494329062500891,
          -0.12761990234392853,
          -0.94039806512553814,
          0.11526439688414271,
          -0.49329385559251421,
          -0.017855220802684431,
          0.24668838251302716,
          0.67250348562533668,
          0.53562482897211472,
          -0.98369891291531864,
          -0.97478713944606155,
          -0.095750095667858026,
          -0.16264905163139976,
          -0.04780168772728171,
          -0.30228678197383368,
          -0.33507455094508487,
          -0.429362306015494,
          -0.884421836992996,
          -1.2752356619950658,
          -0.904590146263814,
          -0.025855542460551106,
          -1.9337125408268026,
          -0.69836071430260471,
          -1.2837843752988196,
          -1.7548927961636522,
          -2.0309082650000709,
          -1.5887035211265095,
          -1.0046259516079432,
          -0.44230398801925513,
          -0.31424143916576214,
          -0.2541914624533036,
          -0.35976496456942736,
          -0.59848937387763612,
          -0.49650172924299096,
          -0.65161348088359672,
          -0.27068918319281071,
          0.40801614143073933,
          0.5382988875484529,
          0.6272291574526534,
          -0.23662070522137857,
          -0.58710731879859834,
          0.42808693784555091,
          -0.33446541904240479,
          -0.96984617735731,
          -0.72184412008648369,
          -0.59809205382037434,
          0.53801485557137085,
          0.29878410004440509,
          -0.54082025191271177,
          -0.6340582704090636,
          -1.5077490116861017,
          0.56582373625906068,
          0.63919061918792,
          -0.045320566271693855,
          -0.10334785584554371,
          -1.2518260965282795,
          -0.860719242229738,
          -0.17213623490794797,
          -0.38043800531408811,
          -0.62269878900020381,
          0.15332413267559442,
          0.70257230591606079,
          -0.577509313889972,
          -0.96322756737685233,
          -0.12566477073731491,
          0.23921191423420041,
          -0.63292102807643458,
          0.12099294885390573,
          0.38355258957431165,
          0.82409579807840616,
          -0.37206870609303089,
          0.40765679632800367,
          0.592291874869886,
          0.894433306514446,
          -0.96501473527606563,
          -0.005608892238469383,
          0.19529734426863826,
          -0.36315002418596137,
          0.43490037017535133,
          0.70251687852249978,
          1.5549902994051268,
          0.93996492417346611,
          -0.81838660935796992,
          -0.79495025238742179,
          0.10982735860405291,
          -0.15650472616264463,
          -1.3198392441976001,
          0.087394893494891421,
          -0.84833295101076589,
          -0.37927399026758107,
          -0.15908857075425581,
          -0.056711297586876895,
          1.1475803720077222,
          0.24241613437251564,
          -0.44835009270455628,
          0.070503886725456114,
          0.66930215282313854,
          -0.35849202374899758,
          0.22304956893850533,
          0.17612622138415399,
          -0.23785217081871651,
          1.2558876386142659,
          -0.28740726719453769,
          0.27040320702084075,
          -0.045472804680244248,
          -0.23839181383490185,
          1.7042732085462009,
          1.4309937947873341,
          0.52809317049717663,
          -0.28924085016193496,
          1.1204299968149676,
          0.649936049479281,
          -0.29916096678873705,
          1.3271917912061833,
          1.2333980959713136,
          0.73690103120020822,
          -0.17374747428968573,
          0.49390484829641618,
          1.0463101484909712,
          0.92229790953243385,
          1.6109750715855546,
          -0.18341737200220143,
          -0.46618873363022945,
          -0.087485672444623033,
          0.161519807921032,
          -0.81265042859075365,
          0.17195082396029521,
          0.90774322544876362,
          -0.29164378304444427,
          0.21837723194541309,
          0.10732595575680889,
          0.936301229130801,
          1.2490633103211384,
          0.9586713883016893,
          0.26190393132119016,
          -0.30506050648374533,
          -0.14116507062440664,
          0.9814747913017744,
          0.10860431110187885,
          0.89861548292693594,
          2.0260984619295415,
          1.2842256838967692,
          2.2080812287855114,
          0.62613686556635384,
          0.4908856173572092,
          -0.46636533371417033,
          -0.51353333674603752,
          0.24527239655991481,
          0.33754946646872269,
          0.9938679928464611,
          0.87494317768131746,
          0.33247630785460003,
          0.39125969402566158,
          0.72222478720804417,
          0.64118804994424017,
          -0.7896340856499704,
          0.23703171080663429,
          1.1934843748133142,
          0.37828686321242722,
          0.88271457182931246,
          0.45915914053531282,
          1.0410879108674103,
          -0.13274011846198217,
          0.54455687528250329,
          0.23420606766711347,
          0.99308867664575828,
          1.4837520771246044,
          0.95004256045857471,
          1.340573124613113,
          0.66021100694829937,
          2.0753516800029344,
          1.3830053674834071,
          1.77316502218663,
          1.3232099301950413,
          0.54256396563860076,
          1.0820162322627154,
          0.30617079989446172,
          0.9588075186341013,
          0.7983703049673494,
          0.68766995579129486,
          -0.49303504609254578,
          -0.57854414739546611,
          0.19216783538496621,
          1.1089959596483932,
          0.11493360909745067,
          -0.75583215518239566,
          0.82644080796728159,
          -0.0045045249182001828,
          0.42474082132105,
          -0.079761808232289455,
          0.72012414708973316,
          -0.599165683920749,
          0.11343877710420411,
          0.10688068021150503,
          -0.77526871542084164,
          0.15303789992524539,
          0.023105204623846038,
          0.91499366276840022,
          1.369268965788814,
          0.98052331128670123,
          0.99068065981933662,
          0.75320235154784487,
          1.1288927018004007,
          1.8517916330728621,
          0.87228695598926065,
          1.2844068646248248,
          -0.010918838220742249,
          -0.94925546241650793,
          0.027832671453283324,
          0.0609286696524013,
          0.77596386937681394,
          -0.652902805356927,
          0.91554297747506719,
          0.5321999667468883,
          0.48030107926511306,
          -0.4372245278792869,
          -0.26248539708908619,
          0.10172724702291422,
          -0.10989312942310349,
          0.3301905673640258,
          -0.338019034633609,
          -1.4644901686308287,
          -2.3801015299658563,
          -0.23291046028431547,
          0.57332781166412083,
          0.53800594440483462,
          1.1112694784915616,
          1.6633292238934228,
          1.2586338452748016,
          0.18202449222930381,
          0.44442611958541561,
          -0.44785813137958852,
          -0.20038246460425582,
          0.53437834443842192,
          0.78463355828567183,
          -0.59953662125061047,
          -0.84060662004430076,
          -0.586979307785681,
          0.17178767985011978,
          -0.569142604398895,
          -0.14650069220621287,
          0.88627939533953137,
          0.18732994183048851,
          1.101858484236697,
          0.22557368338293385,
          0.038481205344507059,
          0.24325745048537628,
          0.43883066327058129,
          0.10823967554779589,
          -1.2975807577988299,
          -0.58378290665842336,
          -0.69871258899162825,
          0.3016733336965145,
          0.18811811545819349,
          0.49801659534071385,
          -0.1803580074616305,
          0.43269043325240203,
          0.18616218116394789,
          0.51110396526891944,
          0.33749779048309964,
          -1.1169481932614087,
          0.95126419124131156,
          0.19353391983874302,
          -0.19323121343873395,
          -0.88742027114051747,
          -0.04634247256278734,
          -0.21134998979622344,
          -0.56173597664475572,
          0.24972428179149778,
          0.56865605313891521,
          0.98239333333302858,
          0.45809205316118512,
          1.0351151574412616,
          0.487081060706328,
          1.7877038414122206,
          1.3082685144293511,
          1.2483826938283162,
          0.90561888105990451,
          -1.5427301374484759,
          -0.03018600752826333,
          -0.1890865406005238,
          -0.054124236273719595,
          -0.5316820553307644,
          0.61311596178924965,
          0.40360609367252331,
          0.89915785298838291,
          -0.915067145978595,
          -0.77969873106235343,
          0.0030557100610144588,
          0.99781907710852169,
          -0.1193660538334627,
          -0.82590834517310641,
          0.13520366003355808,
          0.40389988451479492,
          -0.26381258431330429,
          0.74918501625486711,
          1.183181972728018,
          0.2721667579251234,
          0.68152235854960952,
          1.9039800304385848,
          0.52714030883121421,
          0.53046475931758386,
          1.3058369386826538,
          1.6946227925318651,
          2.1059274272940196,
          0.069081390040212548,
          -1.3790224728730283,
          -0.23208903826865865,
          -0.064287762485000774,
          0.16104954655977266,
          0.782848513682722,
          0.1518794323261366,
          0.72857141618280041,
          -0.20500215331591778,
          -0.96208213035818957,
          -0.43488937934360983,
          -0.14839361469490037,
          1.0611078979948907,
          -0.070594124772964381,
          -0.70327698612200729,
          0.13991472432412025,
          -0.34305618156732121,
          -0.53379449548461078,
          -0.30009702772493818,
          -0.14963773987293638,
          0.31664686149804261,
          0.58473767360648565,
          0.82204159818983047,
          0.76073339943319884,
          1.0969910455988465,
          0.18819945932106866,
          0.684568247399066,
          0.37124421645249783,
          -0.663747330961301,
          -0.647989904524055,
          0.9000538552124564,
          -0.1287855558798047,
          1.3837085424149433,
          -0.38087317792470077,
          0.29656792507264912,
          -0.028010951378275667,
          0.31850428318646956,
          -0.48520982711429506,
          -0.40463650518587896,
          -1.2145271519444316,
          -0.19436284575407983,
          -0.26760106418371454,
          -0.14822107718442398,
          0.34333088571326859,
          -0.73441668882906053,
          -0.58257110194678652,
          -0.25462513414135418,
          0.24843391321151986,
          0.81798418332819423,
          0.3750289634168803,
          0.0960897809345221,
          -0.025230257852177626,
          0.0029193944849531307,
          -0.2592798662980787,
          -1.0508918015936861,
          -0.42895080061508994,
          -0.28740053352524797,
          -1.2979233852254344,
          -0.17799471489790894,
          -0.40531830740208313,
          1.645968036765453,
          -0.28371568530500868,
          0.10700181310746147,
          0.41191958561109276,
          0.2258447562250262,
          -0.227508752979708,
          -0.62175101110021891,
          -0.29025941756760448,
          -0.37486010036884554,
          0.067511713846047344,
          -0.92149313161385893,
          0.26960658765521195,
          0.34498901157987416,
          0.023439396504736594,
          -0.29139588240168512,
          0.73916569588816783,
          0.18795662610648334,
          0.88616096585149162,
          -0.10700219008309846,
          1.3360929475652248,
          -0.74336082325462427,
          -0.904840365659031,
          -0.32087505930969795,
          0.23150347544176841,
          -0.8597017869009812,
          -1.1620543845848941,
          -0.43960953978305328,
          0.71263312598719775,
          1.5229968708895862,
          -0.00029956786227650604,
          0.37909947474227979,
          -0.62153641078259081,
          0.54958333226167877,
          -0.48379133088789344,
          -0.94044438704595956,
          -1.6890999407606535,
          -0.535546448910013,
          -0.46176956997614532,
          0.42356740554635636,
          -0.19852336600475884,
          -0.085921868981664568,
          0.86200220561467278,
          0.11205533487642694,
          -0.43698489843154814,
          0.5611072153936193,
          -0.596604807019115,
          0.60395522458715512,
          0.0498079567955327,
          0.94745909059919453,
          -0.54020783880130463,
          -0.517168045539761,
          0.49195613456851439,
          0.64762119479945179,
          -0.81734543567600615,
          0.21321133668851131,
          0.14584925472384017,
          0.26108417035491671,
          0.29227127162298366,
          -1.0128991642251317,
          -1.3278648697222706,
          0.4587471927159979,
          -0.049359315127655637,
          0.11148259169022559,
          -1.4924254970755386,
          -0.49513533607179089,
          0.39533102979807938,
          0.45597937447307818,
          -0.0071295517129265152,
          -0.14571787224469132,
          0.728049269419905,
          0.63682071283648911,
          0.76033360219850177,
          0.33350474219559889,
          -0.21727892418708245,
          -0.52401822697276235,
          -1.3276149433777824,
          -0.72838927683382548,
          -1.4607243950109712,
          -0.404476798288584,
          -1.1293609980660591,
          -1.0302666447857953,
          -0.879253771309644,
          -0.32534046106557235,
          -0.51828980269433422,
          -0.048228260122455319,
          -0.711373666447278,
          -0.59583044249618922,
          -0.26939767145160182,
          0.033693422362721152,
          -0.33945107046229173,
          -1.3364093401432593,
          -0.93472951896901413,
          -0.20475734063431392,
          0.20317071517606433,
          -0.078983540795383111,
          -0.29858918670022877,
          0.961412256170021,
          -0.85675947050568191,
          -0.48577840133687866,
          -0.7492358785194152,
          -1.5039424289584575,
          -0.73865724716877856,
          -0.46704427645924662,
          -0.5888935007722601,
          -2.098439104767968,
          -1.232335424869442,
          -1.584130461776895,
          -1.0350305112327589,
          -1.1469107302184616,
          -0.80533677768684342,
          -0.90354576699703826,
          -0.67374704509319328,
          -1.5038578587164819,
          -0.10066927757006748,
          -1.6384203266908883,
          0.36583984901603439,
          -0.21132712816115773,
          0.25210874502123709,
          0.38848311505003552,
          -0.12735529411771243,
          0.56903829687457053,
          -0.25896439015273048,
          0.35164204158311169,
          0.45341468241945354,
          -0.41761116252747693,
          -0.23157420672437637,
          -0.83121948240804733,
          0.31708756557987516,
          -1.1472221518009189,
          -0.37402310839924696,
          -0.5582728454446827,
          -0.77629475325642172,
          -0.35783140742986397,
          -0.95632877434034469,
          -1.8719352352021208,
          -0.35919313114003026,
          -0.28931064627574926,
          -1.2733445001218153,
          -0.55284001288573437,
          0.092982835668501351,
          0.55826494148065686,
          -0.86145618881627761,
          -0.96157577021555662,
          -0.19615306200146054,
          0.18557373853699227,
          -0.52450841621719846,
          -0.072397064854827914,
          0.2579096903166469,
          0.669461687279444,
          -0.28795545336091771,
          0.037054620419127465,
          0.17114307766268108,
          0.20270351685269211,
          -0.30560842575347263,
          0.021826762901262932,
          0.3099872423861913,
          -0.34258655092359214,
          0.0627449529766371,
          -0.68541548053686951,
          0.11231601654118031,
          -1.3259454615393902,
          -0.39270726037663384,
          -1.3842785656951238,
          -0.33730142736197249,
          -0.44368128633243153,
          0.506111671656274,
          -0.18561830864386625,
          0.095476500424422628,
          -0.44046924765727824,
          0.25330490144919493,
          -0.015901344152260907,
          0.19062329610989348,
          0.24664139955873521,
          0.17822492354201275,
          -1.0687927532686765,
          0.34944743604880052,
          0.0736119904491224,
          -0.78865520288121549,
          0.55133052896289347,
          -0.54839951695643319,
          -0.54508992059994743,
          0.65520919756481488,
          0.024059149061469477,
          -0.11500564104481423,
          -1.222166861176851,
          -0.24130529872661352,
          -0.28070962472772348,
          -0.19969805276429939,
          -0.643220056388102,
          -0.69799185200370739,
          0.806683268678717,
          0.70887358742467188,
          0.13297117364241637,
          -0.67755311279307517,
          0.18544025908350442,
          -1.4565001629450334,
          -0.45303121204004315,
          -0.23823831403424983,
          0.31897141740193735,
          -0.38711719288775276,
          1.2088247129266625,
          -0.423749484741961,
          -1.0167555766695435,
          0.4103465845708264,
          0.24380381464233547,
          0.9045238811230053,
          -0.32384605432300317,
          -1.0023176727077081,
          0.14105876570514464,
          0.54429972221715217,
          -0.32046111774632546,
          0.45052390089758682,
          -0.68800718596946864,
          -0.70075935963322045,
          -0.191122008133211,
          0.48137633145314718,
          0.74238063975262236,
          1.3056576620590268,
          1.1881615925231128,
          0.93531557070768156,
          0.7163478414578992,
          -0.063621249855601539,
          0.679801979326405,
          -0.33889804874310442,
          1.1103029229901482,
          1.0785019134975808,
          0.930988759008328,
          0.33393293581290917,
          0.099451448930486158,
          0.0056892398575131937,
          -0.23406996678865452,
          0.785873762960322,
          -0.37642703533727107,
          -0.52585118424180033,
          0.0338787472615299,
          -0.505107778236794,
          -0.73737804696015685,
          -0.015038477334513837,
          -0.81612247824662765,
          -0.029221577119903711,
          -0.20884417651081638,
          0.68017149271619881,
          0.57400021055839978,
          -0.42473121779245371,
          0.22782516112853984,
          -0.50891156584732633,
          1.0171421796600126,
          -0.073396047004923054,
          0.73446188047613348,
          0.520657625522159,
          0.9403394887704124,
          0.84039060061072823,
          0.64517549988663447,
          -0.45071641945828078,
          0.71548295807265494,
          -0.27511277703964215,
          0.17744356779619097,
          0.3477508031469127,
          0.52422343713030473,
          -0.630660582277182,
          0.74536523052545378,
          -0.71626019281056663,
          -0.34739987912639531,
          -0.62529928434692,
          0.13681267726182067,
          0.53664057001686694,
          -0.097535868080140586,
          -0.63668364707234171,
          -0.56325380417539417,
          0.83595154844212549,
          -0.40513086957785444,
          0.15715932917676057,
          -0.5556513837222522,
          0.92140806683004839,
          1.1126741266858256,
          0.19654193428571515,
          1.3498315640542811,
          0.99462178542722812,
          1.0972689178433637,
          1.2322936144525098,
          0.7288264529328613,
          -0.088783154846116027,
          0.40648221829719167,
          -0.36439281393285849,
          0.520028052911599,
          0.095321822767463246,
          -0.69180555700603774,
          0.56788408440864158,
          0.16181890462197479,
          0.74559967894155121,
          0.49236844538659025,
          0.93292001716740758,
          -0.72039273019931882,
          0.52235113678448231,
          0.1167989081545979,
          0.1818115340402966,
          0.44262487904513065,
          -0.12655325100461778,
          0.73586569531329593,
          -0.35658365138480469,
          -0.74752606680231015,
          0.9894444717417612,
          0.58394172658766375,
          0.20225687052099334,
          -0.48318067334464643,
          0.64958283874670808,
          0.076125140048231191,
          -0.11836844968039209,
          -0.74571987549382146,
          0.94915031161742025,
          0.75524916637606132,
          0.40342383799409071,
          0.10220738933053136,
          -0.24109591355856247,
          -0.85307665219004214,
          -0.0722075461964962,
          0.12943822494072371,
          -0.73127139766752391,
          0.51569454919495017,
          0.35649303312361685,
          -0.28240905014849754,
          0.80392377952061922,
          -0.93033358559064239,
          -0.42952022187710559,
          0.98730779810327818,
          0.28630336684916063,
          -0.69838838001903691,
          -0.77417948159187855,
          -0.23085687291510182,
          0.046051891947254085,
          -0.27793637389401005,
          -0.11863582978632811,
          0.5404439375689396,
          0.94685738245798434,
          -0.60286968434358867,
          0.33093421795718231,
          0.66117766606461537,
          0.23064518417053653,
          -0.601634607251783,
          -0.8955191647475238,
          0.99162212328274635,
          0.89187401116362486,
          0.82348078062695484,
          0.091971751190181472,
          -0.89230045291646987,
          -0.86031284147925347,
          0.68166692567006082
        ],
        [
          0.81905282192709994,
          -0.54780763367344487,
          -0.86784795674648929,
          -0.88860654228520441,
          -0.24796427579748179,
          -0.37455415146574972,
          0.12760740864870404,
          0.6209083669524188,
          0.65593066040272963,
          0.846104261203065,
          -0.3252742069602072,
          -0.877456056449235,
          -0.1694518412041105,
          0.066251702909086843,
          -0.80484962671720717,
          0.39916333933694731,
          0.056454501783823385,
          -0.796443008381546,
          0.70372885998184931,
          -0.23758565777132953,
          -0.12350072644802752,
          -0.8070958638858502,
          0.77680072837355685,
          0.058450419426309672,
          0.16496991479617809,
          0.28076301628574135,
          -0.83084049358186174,
          -0.71873375008036244,
          0.58474468436869931,
          0.64712920083510828,
          0.42560081343948247,
          -0.46484640499726532,
          -0.005977863242502171,
          0.17389643306065669,
          -0.66268174704884386,
          0.070024892159039412,
          0.50750756716933532,
          0.90414403463922888,
          0.87927020000576672,
          0.78342202093621,
