{
  "Layers": [
    {
      "Activation": "Sigmoid",
      "Biases": [
        5.04463239905788,
        5.5733887230788666,
        -12.040595099427046,
        -3.90876944224572,
        -3.2930089659483412,
        -6.0396621821813179,
        11.996147422721803,
        -2.6686859793267681,
        0.51719937927873727,
        -14.121165735513277,
        -1.4607880968636615,
        -7.6640460849063778,
        0.43522114720348287,
        2.2206620103785126,
        1.9152667007338677,
        1.5763523646756301,
        1.531933797229994,
        -3.6426057615625997,
        -5.6341018338139905,
        -7.3796954509901322
      ],
      "InputWeights": [
        [
          1.0257689018068603,
          0.57462230760935362,
          0.32411997523724606,
          -0.73985404188934012,
          -0.114306523213233,
          0.57329557652263252,
          0.24330533721368339,
          -0.49727765048393996,
          -0.92025146315895578,
          0.17257623273744563,
          0.25015928846731433,
          -0.32511584382382586,
          -0.2445047403791023,
          -0.87628137607603018,
          0.61537733009030615,
          -0.98808209798126123,
          0.1561772984039207,
          0.624370639705892,
          0.12825533219711072,
          -0.34445447657122025
        ],
        [
          0.44753389794256976,
          -0.080774578560525279,
          0.75347165125983318,
          0.4161212449594866,
          -0.95305366602729813,
          0.42381535240124724,
          -0.55358020186537249,
          -0.38859457728924646,
          -0.51718490323141775,
          -0.04198044825480627,
          -0.84159586072021786,
          0.652823518348268,
          -0.93513213415754282,
          -0.71963623593105619,
          0.251234076786291,
          -0.65234789289361061,
          -0.83100333972313734,
          0.96620825913720842,
          0.015058877953388884,
          0.6796706742993972
        ],
        [
          -0.28237347362685511,
          0.88189382844935771,
          -0.087120376614827841,
          -0.21028816553953406,
          0.8265960787143205,
          -0.69099708644063862,
          0.42519967683476417,
          -1.001200452181723,
          0.30581158297981503,
          -1.1007542408363029,
          0.41642450791734936,
          0.61465542818546925,
          -0.31567403270056871,
          0.8062500706081217,
          -0.57759274019914175,
          0.77753704679371594,
          0.60848293360843031,
          0.59508889031582635,
          -0.11429510816834047,
          0.64390987441087577
        ],
        [
          0.9836483526776012,
          -0.31575839087966129,
          -1.0244160463045002,
          0.79586686083857672,
          0.88297647472467466,
          -0.42748334559004941,
          -0.37877739237735958,
          0.859314951146845,
          0.63509561532087067,
          -0.99970778574367969,
          -0.6168019569577432,
          -0.54373844541483463,
          -0.025836014804695138,
          -0.53046361271767561,
          -0.63156135742607022,
          -0.9303334335779232,
          -0.83803201745675238,
          -0.56581517119905789,
          0.30558372994982341,
          0.51638112989398155
        ],
        [
          -0.015247408180742307,
          0.604530319975276,
          -0.04339202944559465,
          -0.68983367125693007,
          0.22498098483302476,
          -0.80163060196065994,
          0.35555435001735597,
          -0.023815318909476357,
          0.81462024749166706,
          -0.2737937668165622,
          -0.4399933573422235,
          -0.76959109647072221,
          -0.22781078928271659,
          0.455283291092997,
          0.9060818230355302,
          -0.23748695142392812,
          0.47490365477800556,
          -0.02450756050645897,
          -0.63966539191927352,
          0.7251098349611691
        ],
        [
          0.64134237880692146,
          -0.18300603755414757,
          0.13290878423119987,
          -0.0412370941434407,
          -0.12548929334625097,
          -0.73010102913105579,
          -0.76410193502084656,
          -0.42626853866042985,
          -0.078736605905917481,
          0.58589972478205354,
          0.87444957246950206,
          -0.97224339764437939,
          -0.54611399877940558,
          0.896598246102122,
          0.838712853248618,
          0.2869069519004469,
          -0.67570061655194791,
          -0.92748672209693928,
          -0.034711742465325747,
          0.11810517477940838
        ],
        [
          -0.91067477187268175,
          0.7269163177661192,
          -0.24169316407662725,
          0.027959433214703948,
          0.25426359360099221,
          0.64200115974670557,
          -0.032457635208253829,
          -0.16140769907742897,
          0.086836903504106208,
          -0.31749968913519022,
          0.69000710145516631,
          0.56546562080398832,
          -0.40093798298513916,
          -0.54708142260565107,
          0.641116047147117,
          0.21999569409700809,
          0.94499307848102121,
          -0.72577112980200786,
          0.097361066686968409,
          0.685440441166558
        ],
        [
          0.29616638308268478,
          0.25415272748430573,
          0.32907277453325262,
          -0.73736064618642672,
          -0.62981029993858,
          0.9424998222631803,
          -0.21904611371572932,
          -0.54209033745817448,
          0.0765437389807878,
          0.051828683976592536,
          0.2225460721546845,
          0.4405551632785295,
          0.83505271592984653,
          -0.325011814558024,
          0.92943216404823159,
          0.88226997675547181,
          0.724475749075028,
          -0.52379432993023756,
          0.51951636754062436,
          -0.24602412801098764
        ],
        [
          0.89283654198855422,
          0.60897568653668877,
          -0.50331060317715837,
          -0.064495436085413985,
          0.21606483032919849,
          -0.041587488468190111,
          -0.80214085237236066,
          0.79261670520984029,
          -0.016835787185466095,
          0.59062529324421675,
          -0.57168877735787693,
          0.0038309826900114405,
          -0.42819480380168584,
          0.50799793160047435,
          0.27322932645629733,
          0.695324629872905,
          0.77670760499833791,
          0.68654458018005948,
          -0.14833587027988454,
          0.020645228951677395
        ],
        [
          -0.68422362382650115,
          -0.83524289849814359,
          0.23331925543588131,
          0.2046947759277809,
          0.033812770638539866,
          -0.12634406795110736,
          -0.88918323226386053,
          0.13022912995420238,
          -0.41556792132642684,
          -0.67505856145305543,
          -0.32895985251341281,
          0.44092906647483454,
          -0.67148226235186,
          -0.50428170043519382,
          -0.67310135172734464,
          0.57623417708264468,
          0.44283870119191893,
          0.28197431171307713,
          -0.10801820961660542,
          -0.91915133102653113
        ],
        [
          -0.71423830499067642,
          -0.43643740361224159,
          0.360847444418888,
          -0.42735475481678736,
          -0.80757362230684415,
          0.81064554632319419,
          1.0343915566976689,
          0.4036997717664908,
          0.26439759499307158,
          0.38643496312996384,
          0.5527597111085647,
          0.38629894549148724,
          -0.14954257282549865,
          0.4207801652745507,
          0.930268454001672,
          0.15237864209512947,
          0.99926705053598741,
          -0.92558486989713151,
          -0.47856622647396585,
          0.54444936690064583
        ],
        [
          -0.12688903498583173,
          0.79776444699015137,
          0.73450522861073275,
          0.43017172237667251,
          0.63478119649920806,
          -0.33215381156046131,
          -0.79678488353380306,
          0.1351461541233196,
          -0.13266846336514537,
          0.63048315878825278,
          -0.31958058365669367,
          -0.098911615236389361,
          -0.68540604031768881,
          0.97790333923408146,
          -0.74873293390552009,
          -0.61459076907312693,
          -0.093085738825045741,
          0.36944063802244514,
          -1.0459945517770133,
          0.09841650774839894
        ],
        [
          0.5877796477307845,
          -0.22024002596622352,
          0.15952270549052219,
          0.2898734149879677,
          -0.82524582148438974,
          -0.36346192120111059,
          -0.024289604256975593,
          0.12686333876776718,
          -0.29743482614385086,
          0.59847094738175388,
          -0.22457674421961227,
          -0.70734450905604507,
          -0.46518475183443525,
          0.0163473788136904,
          0.32592059715129612,
          -0.91113982559284934,
          0.80625576053268366,
          -0.31771506497799512,
          0.42075645623584623,
          -0.1935234933818239
        ],
        [
          -0.0662331615955367,
          0.062598584350456746,
          -1.1190758257598958,
          0.47597054349205326,
          0.23107707193435625,
          0.44466474796051636,
          0.41119584208491727,
          -0.4671794697254063,
          -0.34135278471766251,
          0.28739441444912206,
          -0.046231953762738816,
          -0.62353607080541162,
          -0.46538096804598128,
          -0.42988414192023722,
          0.63548235839122558,
          0.918915298828878,
          0.90034294163588258,
          -0.94625646446277545,
          -0.17861545119415412,
          -0.14621052847474503
        ],
        [
          -0.77552567790041926,
          -0.49873119635267527,
          -0.7164147971321182,
          -0.96642969490869757,
          -0.98040094672033962,
          0.26154332023452409,
          0.74443747247039116,
          -0.72319364688287169,
          1.0025851164060002,
          -1.1163813503413864,
          0.95596618544606238,
          -0.12979298891100535,
          0.30903373282970825,
          -0.67877171227963151,
          0.77828118657547474,
          0.12313884913095277,
          -0.80560451024963475,
          -0.34872974109588173,
          0.028052626275527737,
          -0.35423586206536722
        ],
        [
          -0.06268408050477027,
          0.63927746687412046,
          0.24552755240490395,
          0.73936243012563863,
          0.85080214473132931,
          0.82185273596489772,
          0.16042291732449823,
          0.38809170366514578,
          -0.97764439673190862,
          -0.3671331129354608,
          0.42480795825642254,
          0.43848494449802433,
          -0.79632445532458185,
          -0.37880062801335013,
          -0.10119032095821322,
          -0.089842533108150852,
          -0.74852317251030565,
          -0.83872660419635314,
          -0.51814473006265971,
          0.922740539469731
        ],
        [
          -0.86657085094727315,
          -0.58389818139043037,
          0.70126321763361354,
          -0.94649497785794778,
          -0.647125772647595,
          -0.37389678715121188,
          -0.35324001748229356,
          -0.660233545550253,
          0.0697488583708236,
          0.863497916998882,
          -0.36931929789532242,
          -0.42220112114091768,
          0.62378832147332586,
          -0.37001513814095638,
          0.17270844859022119,
          -0.31034761774179886,
          -0.86860230285154016,
          0.86969091420048039,
          -1.033400923404018,
          -0.036459922519073977
        ],
        [
          -0.49215698556166926,
          -0.88147629617382173,
          0.25629180148809722,
          0.562375504819646,
          -0.77503584300171391,
          -0.87469974646666737,
          0.0069816450763140357,
          0.91498047931574678,
          -0.26626408970069704,
          -0.802969764993917,
          -0.49161040183205423,
          -0.024457953552450156,
          0.35374116370329234,
          -0.33459576017696641,
          -0.3299708095290918,
          0.698388447847085,
          -0.19334086053481503,
          -0.15266611051746504,
          0.8875275837079849,
          -0.68267198694726017
        ],
        [
          -0.86277269327208139,
          -0.14207189745866033,
          -0.043098082853457308,
          -0.73462097619849487,
          -0.50677440965554843,
          0.18238831174241343,
          0.80010952411106484,
          -0.83178992799028362,
          -0.63228310722947678,
          0.0052276739557730132,
          -0.61980558658072415,
          0.66593921099916731,
          -0.17892127196425922,
          0.65806693738782163,
          0.15019817287984708,
          0.093747301354884321,
          -0.72728555299752684,
          -0.867560982909192,
          0.85121486948889158,
          0.56257580178002331
        ],
        [
          0.53462606983132743,
          0.47215694066469327,
          0.20435624211656209,
          -0.36317816603188408,
          -0.32796260293580209,
          0.06235165291149411,
          0.47702290380259066,
          -0.99898771356337535,
          -0.29461932912555155,
          -0.053379774402317,
          -0.34248760161970077,
          -0.39231764167425587,
          -0.11139462507449466,
          -0.89296994738756363,
          0.66558909961899315,
          0.88337110504681049,
          -0.39169818860888295,
          0.029455932118003278,
          -0.6921526900670264,
          0.79121884404825482
        ],
        [
          -0.75024065712593235,
          -0.4205642271008645,
          0.578269012883329,
          0.50430126331557434,
          0.53848100362342044,
          -0.81058594931238981,
          1.0770828324079174,
          0.25939770348829733,
          -0.66700645754203758,
          -0.64567203175408749,
          0.30112451565403225,
          -0.66898618886119987,
          0.3651647515023646,
          0.75131824767672772,
          0.603079307460613,
          -0.064302943319201,
          0.31979178311824985,
          0.12607457375151865,
          0.59155003012244067,
          -0.6630128814917573
        ],
        [
          0.8562413126962658,
          0.66334200318302627,
          0.6844637989122655,
          0.4644525475501548,
          -0.73974507183771387,
          -0.23829988783543965,
          0.7231134593661751,
          -0.76238821257382239,
          -0.86799533091575465,
          -0.64608660883402436,
          -0.90012786543050471,
          -0.5944760329170462,
          0.98943668798418194,
          -0.66775521527520065,
          0.098532629068450575,
          -0.97486740667199911,
          0.46550608729534038,
          -0.47566898513590544,
          -0.80876743459987976,
          0.32605906300382009
        ],
        [
          -0.23540648829311214,
          0.55842395679425116,
          -0.19616109211367397,
          0.71818671521541433,
          0.33865734587416435,
          -0.70049393640221747,
          -0.57003810087331874,
          0.069647165513589737,
          -0.72250576116234622,
          -0.25241085894540827,
          0.20002940570880337,
          0.20465398425356271,
          -0.67512691175689243,
          -0.38184674092110477,
          0.99713989706655537,
          -0.12096810424526394,
          0.8792152698203799,
          -0.32232068709103018,
          -0.50412902112027136,
          0.76271863332162115
        ],
        [
          -0.7112624585827414,
          0.15789052651598806,
          -0.912008482817537,
          0.39190987899708557,
          0.23120938383035683,
          -0.1607799404053184,
          0.82833839447124558,
          0.36268380334129141,
          0.38433507099661413,
          -0.069673199282450457,
          -0.626285296921224,
          -0.67151488657913472,
          0.61464001828680492,
          0.20944717448660863,
          -0.60073437554816211,
          -0.25966035565187584,
          0.4179453929007072,
          -0.028027253430333125,
          0.20042663470939909,
          -0.42371701538427481
        ],
        [
          -0.082872680501334367,
          1.0409366271305005,
          0.11775591658058267,
          -0.30322748462860477,
          0.66071212130595192,
          -0.11890668279807944,
          -0.678669483103988,
          0.93148618939787542,
          0.77298880383282342,
          0.31989724879948556,
          -0.32399437814999638,
          0.25765857830765293,
          0.72931256200062788,
          -0.51191363235479836,
          0.563617242602087,
          -0.93248029509386243,
          0.72514067614040045,
          -0.868286082958941,
          -0.44618912941678723,
          -0.18262612280298837
        ],
        [
          -0.73064922273285426,
          -0.44612514140683457,
          -0.65562245887143056,
          0.76625712711174743,
          0.67354561995711371,
          -0.82375636997023316,
          -0.15291263785329137,
          0.9545485601154009,
          -0.6044429946606662,
          -0.52110034095256685,
          0.61600531143082615,
          0.225345220734635,
          0.84488311068962074,
          0.11344114892640139,
          -0.39384597436573693,
          -0.40567019129929494,
          0.36641396489516087,
          0.28779307150276751,
          0.18434288127445764,
          0.77716625625411484
        ],
        [
          -0.67832066246434786,
          -0.047911164878318729,
          -0.4381238653733624,
          -0.61071114887672706,
          0.22128178087986733,
          0.25317127795565686,
          0.56549685990324294,
          -0.560661727064397,
          -0.750478487546524,
          -0.62367678371390312,
          -0.84141021786311332,
          -0.81625461197330917,
          0.77723865219267763,
          0.97312146068075056,
          0.7398598739965031,
          -0.29079820043233584,
          0.26195731736311212,
          0.71535489454851608,
          0.80518944708716533,
          -0.063260745451347189
        ],
        [
          -0.59128154802262523,
          0.75767559598531242,
          -0.3230629247556594,
          0.84038050548915522,
          -0.06965774179443425,
          -0.92919359586523564,
          0.018031225138121852,
          -0.17430300797805348,
          0.48288168190892222,
          0.161423819762237,
          -0.1785676100389971,
          0.61532310195394491,
          0.17187564036687486,
          0.037135484549115548,
          0.19615643807637909,
          0.63567379429178117,
          -0.24748019338064942,
          0.66731261045658152,
          0.83684079030614755,
          -0.89242650145520952
        ],
        [
          -0.29299641574855456,
          0.861718549331237,
          -0.71399064836462478,
          0.78076492698673861,
          0.010380024574621512,
          -0.58632465030388625,
          -0.18101132840966386,
          0.851979566072006,
          0.19854178550562973,
          -1.0492199201428953,
          -0.49458948994105173,
          0.58222584295213853,
          0.82174033074515618,
          0.8412281774588799,
          0.80067834012155925,
          0.30530899446631421,
          -0.21417942991888328,
          0.27316980904894322,
          0.16256850453191585,
          -0.48578493898599157
        ],
        [
          0.74109864782415591,
          -0.40287574107426449,
          0.7914436826538529,
          -0.9491273438856308,
          0.35888231524259234,
          0.37778828947480581,
          1.0942913583188887,
          -0.47213776522787704,
          -0.70379715863705239,
          -0.90318015132231622,
          -0.20005234546083348,
          0.229592230023156,
          -0.67850371628192507,
          0.54636002510310466,
          0.14739110493983557,
          -0.834968401955573,
          0.2015558490581979,
          0.24169332513583591,
          -0.5984573174911324,
          0.252031769409266
        ],
        [
          0.91050065995998941,
          0.92550904390733357,
          -0.81721518476863841,
          -0.19492796476188418,
          -0.016591239702030306,
          -0.99657744958387406,
          0.14310575329583516,
          0.39847465537948118,
          0.83529620190061071,
          -0.14885336284659881,
          -0.064175225617897347,
          -0.25937029943679646,
          0.68806331473278559,
          0.43222122515078404,
          0.11229022649067784,
          0.0596734102367154,
          0.62598138209952681,
          -0.38669423965742439,
          0.85658319814216755,
          0.76531782843316409
        ],
        [
          -0.48642847814720519,
          -0.55758623668592755,
          0.21335473857450185,
          -1.0065216102469419,
          -0.3549453902338407,
          -0.586006115631626,
          -0.45280535233322344,
          -0.62586798981308545,
          0.060148555002180408,
          -0.33720196022787008,
          -0.45489954162437735,
          -0.19467380401557335,
          0.602007318836327,
          0.575929059567762,
          0.51515448313152379,
          0.19278916982176481,
          0.33491080720499344,
          -0.9039428224509104,
          0.4986894115162776,
          0.33503572902777484
        ],
        [
          0.097799056701588144,
          -0.42792932069526363,
          -0.87903525280951311,
          -0.46493656732765704,
          -0.26553619016892144,
          -0.146713136476294,
          -0.65246998177501014,
          0.85527228147137757,
          -0.79983483034384228,
          -0.8129503172918694,
          -0.34829654719431774,
          0.090665046909032709,
          0.097748231141159936,
          -0.38564187903581953,
          0.55718156750150671,
          -0.55710263984944364,
          -0.56547060316511844,
          0.63525117005156051,
          0.47838003010424734,
          -0.665786646398355
        ],
        [
          0.20941385539828575,
          -0.34138861330998183,
          -0.38670814360893324,
          -0.85797702795224584,
          -0.66203336338758034,
          0.8725066221741028,
          0.56722435727683462,
          0.47875978578177342,
          -0.029287768492756074,
          0.81481767327049914,
          -0.62517847015094152,
          0.29777588645080832,
          0.7917976393235151,
          -0.594126044908257,
          -0.13544630423545609,
          -0.87636791207010223,
          0.062444919220512908,
          -0.53909647276405448,
          -0.98112625434476752,
          -0.0061827927046664054
        ],
        [
          0.24649702207488458,
          -0.10801808640624708,
          0.19782830213054922,
          0.26754281152485154,
          -0.7106992615164226,
          -0.2370439253532462,
          -0.42782023596725172,
          -0.59854164061505633,
          -0.56283588376797211,
          0.63119159402933367,
          0.10255291214128738,
          -0.066481091135211445,
          0.16718184336210976,
          -0.40833034887198144,
          -0.96825246637440832,
          -0.81558283623301842,
          -0.58976880363238893,
          -0.38959558735716,
          -0.67768787219757043,
          0.73786959346491177
        ],
        [
          0.21143799087037918,
          -0.548705544995352,
          -0.36696969861945761,
          -0.74207691151985333,
          -0.65634816735775459,
          0.68656065064089611,
          -0.49645659459716879,
          0.50616020629556124,
          -0.91025781247212478,
          -0.8801601999625519,
          0.35682247816224411,
          0.46136859460474533,
          0.93759198963714219,
          -0.46916713804623766,
          -0.83252294145398276,
          0.82356697843568161,
          -0.01587408102580205,
          -0.22701390100097574,
          -0.92027175156018759,
          0.18393872031525191
        ],
        [
          -0.077839951050579045,
          1.0136952663429508,
          -0.9723071173872746,
          0.35642571057192429,
          1.123098839433007,
          -0.10788824549373473,
          0.25482565842502841,
          -0.725569652880255,
          0.53913011836169134,
          -1.0335905587827019,
          -0.20277209684061598,
          -0.57017066127887506,
          -0.99605856285904582,
          -0.16568722906977068,
          0.07236069722436643,
          -0.62893742751668857,
          0.35859398813404242,
          -0.77900828433936942,
          -0.73453645889815478,
          -1.0058518656342834
        ],
        [
          -0.57427756235421612,
          -0.5137769243398842,
          0.28780215755531591,
          0.315120268157913,
          0.5453975635199988,
          -0.51338142471417436,
          0.73949248608760021,
          0.4035021900636333,
          0.23641811229810733,
          0.067953940024483642,
          -0.5329417112762237,
          0.86424796905288637,
          -0.74625463801372016,
          0.52523144591966253,
          -0.24807866349230451,
          0.81335789088883581,
          0.693958714819507,
          0.2625212605198099,
          -0.95936831530539179,
          0.21212846113624756
        ],
        [
          0.3863000377008568,
          0.13700639223671751,
          0.33382795544505595,
          -0.14679723232729663,
          -0.66625125036655841,
          -0.30619725603356013,
          -0.2809163542662258,
          -0.33732766582413737,
          0.050462396382760288,
          -0.43848665325639907,
          -0.57272991834648956,
          -0.37747922631526531,
          0.37527901722590346,
          0.1205843726539754,
          0.16732817521845228,
          0.91564178735575874,
          0.070936049905846288,
          -0.87285270940377946,
          -0.09153689452045348,
          -0.76578362113838927
        ],
        [
          0.40997112549552484,
          -0.80529303013151,
          0.18600621451449764,
          0.54282782790565,
          0.8691891888542469,
          0.30130562910857728,
          -0.557926850689439,
          0.84238309256592425,
          -0.81172655848875186,
          -0.54080265351572521,
          -0.70301383345024948,
          -0.3932727605533583,
          0.54514939748831237,
          0.66058743465449854,
          0.6794433769202,
          0.53727732210098633,
          -0.64472104378873452,
          0.45707163486037922,
          0.20587643618407805,
          -0.56285895532837749
        ],
        [
          -0.12852249498597709,
          0.85254087246826593,
          0.8181217203533786,
          -0.25388158068074174,
          -0.32976430979671928,
          0.92142655054016431,
          1.0941088028852639,
          -0.69875913023286429,
          0.14639280589034467,
          0.17945232871140923,
          0.17844641945065368,
          -0.11822958715874628,
          -0.1294702685396886,
          0.92862477924040321,
          -0.83090379842652273,
          1.0049634334014626,
          0.087030416228207272,
          0.35445876908884971,
          0.36502284529785745,
          -0.545715495244812
        ],
        [
          0.62560659431446441,
          -0.89516063743438823,
          0.061149515928353847,
          -0.90661595016572094,
          0.2218956297145975,
          0.015285863118152368,
          0.58521986505118839,
          -0.74881729546219,
          -0.0036101604967711236,
          -0.10211583564097296,
          -0.773303918849701,
          0.14066569823831582,
          -0.72466608131397126,
          -0.14477829596634098,
          -0.41407772405816173,
          -0.17382102276457268,
          -0.18072043428405371,
          -0.83716224426758079,
          -0.12752740772671545,
          -0.63831598136559753
        ],
        [
          -0.95288365810350084,
          -0.43538121395046664,
          -0.32876924753328796,
          -0.96256819991374387,
          -0.23941990138722,
          0.65475528600191846,
          -0.24176364680186904,
          -0.4051574668826034,
          -0.059494609657028116,
          -0.0668639955828223,
          0.29597620558696003,
          0.42990763356553419,
          -0.65833752411849855,
          0.7067535858111077,
          0.54491090855623092,
          0.703757209276785,
          0.20823767069899415,
          -0.52136904170234011,
          0.58136204440815753,
          0.26036569986287222
        ],
        [
          0.775310929694422,
          0.2545544867515816,
          0.28903471294691535,
          0.043487894072551221,
          0.78360972523325179,
          0.69307398748851512,
          0.70437424099368973,
          0.882828734203121,
          0.4551602655932403,
          -0.63592936948162238,
          -0.47386049114043904,
          0.40049530981226983,
          0.804496527799767,
          -0.29830849611896437,
          0.64500325840675,
          -0.38846389132023362,
          -0.036227464883570877,
          -0.59127412871592278,
          -0.77993296885344665,
          -0.69915345261571149
        ],
        [
          -0.68777773616472426,
          0.39975811241198445,
          0.17169236741273955,
          0.67248416551871926,
          -0.95206260618662519,
          -0.57570853354367391,
          -0.73251704858916433,
          0.61061176282998175,
          0.62380966543673266,
          0.84679183335814157,
          0.88934595978610331,
          -0.37461052181790094,
          -0.693784764014038,
          0.61508450773568513,
          0.23993581842571179,
          0.21248400744674417,
          -0.87285394635711533,
          -0.62531417973012038,
          -0.2919487399313801,
          -0.340009259205636
        ],
        [
          -0.55973134400334812,
          0.41145990370084667,
          0.76819014985635259,
          -0.44999260991013651,
          -0.86494798420463714,
          0.33563547823516859,
          -0.22959580773990651,
          0.83390109905036669,
          -0.27078265507556071,
          -0.048763822283746407,
          -0.60426823629420179,
          -0.58368171146913472,
          -0.31084921583096886,
          -0.087576466026456773,
          0.27283396164884383,
          -0.46171407584232182,
          -0.99851811428065729,
          0.1927164196669206,
          -0.11974624182566138,
          0.64618970424761557
        ],
        [
          -0.53561672238308045,
          -0.60624377648949934,
          -0.92836155421411859,
          0.79048119369318037,
          -0.49722030547989082,
          -0.25145306803303663,
          0.27597258455634976,
          -0.37383254489670475,
          0.27889195288999308,
          -0.54977362386193662,
          0.25457554728441767,
          0.297765287773766,
          0.015656096190022187,
          0.75648932986479533,
          -0.62393406086831926,
          0.7380929595954886,
          0.3750715018816001,
          -0.740924512022532,
          -0.089900022571755014,
          0.87980872352558614
        ],
        [
          -0.70852895760970613,
          0.22979557579427723,
          0.75064423111846545,
          0.029188742533043811,
          0.5911938447613253,
          -0.28589617326652944,
          0.49164336284065485,
          0.244662622968174,
          0.035194777287146907,
          -1.0917943163367097,
          -0.79157964832003169,
          0.89543108955979644,
          -0.56013766170899593,
          0.61950539545989747,
          -0.17763440582923154,
          -0.88576678743374981,
          -0.35620138088273084,
          -0.27980299392738794,
          -0.801742787278692,
          -0.73225556502773448
        ],
        [
          -0.19624850398047228,
          0.26555996413549865,
          -0.60610284679912385,
          -0.42913819984101742,
          0.22009062568180984,
          -0.33441865073312094,
          -0.791671130840636,
          -0.33146668628369036,
          0.77989039678349159,
          -1.0561736657633452,
          0.12653702545815898,
          0.035507617242340063,
          0.54512238271617652,
          0.50443956192387818,
          0.31869005036756487,
          -0.4107012335581578,
          0.91724748204142759,
          -0.15759875477741275,
          -0.25807075528112727,
          -0.52689495849237789
        ],
        [
          -0.84937675762302312,
          1.0308802345684638,
          -0.081024440587064525,
          -0.93015036852743649,
          -0.79196221230657593,
          -0.48109166109890261,
          -0.69747544971471331,
          0.23868206776906017,
          0.095026975623001775,
          -1.0517483815579209,
          -0.83946729409522058,
          0.61781166754756978,
          0.85910199897737838,
          -0.8759298428352057,
          -0.92085039532923729,
          0.60222882148862378,
          0.666323072053449,
          -0.53796037346962289,
          0.91614749725117983,
          -0.46578494414795585
        ],
        [
          -0.032562855270997192,
          -0.92642184291834351,
          -0.15141013465320255,
          0.71370174779753914,
          0.95641760166203216,
          -0.16985004119107985,
          -0.47512180833720041,
          -0.15770749212333432,
          -0.63047257932708578,
          -0.69456496214280083,
          0.3699014833408078,
          0.8520025037242609,
          -0.62621838972992772,
          -0.22499823707675248,
          -0.26418275288491672,
          0.75642856560967076,
          -0.96010835375399206,
          0.15703549510841375,
          0.43317928985451543,
          0.89393535023331372
        ],
        [
          -0.49368167083059405,
          0.99913569508311872,
          -0.51922928203627938,
          0.86565995746930258,
          -0.38792950137076138,
          -0.537339206511034,
          1.0867724948905007,
          -0.17825545885784483,
          -0.92106629979853771,
          0.83866475522735084,
          0.46625378146229329,
          -0.2331861199112982,
          -0.68292884258451547,
          0.19635851530937179,
          -0.14126939885845405,
          -0.801117860048427,
          -0.77142650509624966,
          0.49345358384476173,
          0.45824500200544804,
          0.40131864213783436
        ],
        [
          0.12227359332957513,
          0.85921762947324332,
          0.85187366642619033,
          0.88209156255979793,
          0.33143108875483657,
          -0.35041886379335263,
          -0.58876415289120121,
          -0.25882480150558013,
          0.61167759649365583,
          0.652810189797152,
          0.4478425878933418,
          -0.44872421134141638,
          0.78875814502934671,
          -0.79009901158055906,
          0.13617227632503412,
          -0.41092409486708592,
          0.3450371781416256,
          0.8232634102738009,
          -0.94191589850846269,
          -0.45481535951471636
        ],
        [
          -0.7453222108272437,
          -0.030075289138044952,
          0.27832588544681242,
          -0.228168030206145,
          -0.21555456843234166,
          -0.97713164400631281,
          -0.121981159487033,
          -0.88147046413749064,
          -0.8676350213037487,
          -0.9180121001148781,
          -0.94746514950932625,
          0.215947074202157,
          -0.55947747049977326,
          -0.2694535447145649,
          0.39946901389348916,
          -0.65348959960801722,
          -0.23209840128607012,
          -0.806434000814472,
          0.38642398811042944,
          -0.79964086898458686
        ],
        [
          -0.53641766018360593,
          0.28271553589364473,
          -0.61691592619193236,
          -0.33259440300245774,
          -0.19620236147202119,
          0.79586841727285,
          0.82586162590308743,
          -0.65120253033481146,
          -0.29874252839100179,
          0.36436744538931309,
          0.61786185618436273,
          0.69294443362519775,
          0.42658370857933137,
          -0.94676288667610531,
          0.66105631655958985,
          0.45831953045154561,
          -0.24597609182298824,
          -0.78474173901616473,
          0.87026852237146757,
          -1.0211536781475399
        ],
        [
          -0.56376490916251876,
          0.23130206291898814,
          -0.453291173180495,
          0.664113944692507,
          0.82023870155211731,
          0.85320821872590391,
          -0.51700929289796693,
          0.64744292249426638,
          -0.664515551962858,
          -0.782433856354486,
          0.40569420292924824,
          0.88372897598088418,
          0.076780953527163687,
          -0.53501553655146306,
          -0.16260739475537619,
          0.93412257530899523,
          -0.72294751763754816,
          -0.35896273140800744,
          -0.39793178454875311,
          0.066535102009277008
        ],
        [
          0.51426656882152821,
          -0.88899613876495842,
          0.48295409340048395,
          0.84239828895588176,
          0.21473005043335791,
          -0.42908709354091623,
          0.049637638329305678,
          0.60001682609774565,
          1.000680078667582,
          0.10395068621128058,
          -0.32703968422536073,
          0.27801284575025187,
          0.85744643405887044,
          0.7593437092517441,
          0.35067975275169722,
          -0.57713290084911706,
          -0.8583516918536398,
          0.18451169019563318,
          -0.18902099218121582,
          -0.091670059793189734
        ],
        [
          -0.32279137649695883,
          -0.62418806256395165,
          -0.38958782455318103,
          -0.31380689114523125,
          -0.66895489346239523,
          -0.58153609230505021,
          0.80972656334637361,
          -0.96488773074477518,
          0.064459925432692952,
          0.55520300722548754,
          -0.81799710687303606,
          -0.4211364557581897,
          -0.2036126753420604,
          -0.38772356029141924,
          0.16622368466060081,
          0.13693915968934955,
          0.37689083791859634,
          0.27556550482282788,
          0.46200821905493339,
          -0.89354915773352173
        ],
        [
          0.784013412983924,
          0.07359604846729767,
          -0.061183427462819927,
          0.70824069024927383,
          -0.24167167109726684,
          -0.53518643767711849,
          -0.64830695891783074,
          0.444677837360225,
          0.063723319591043312,
          -0.50775262737151017,
          0.51380578512872543,
          0.0019285579637595023,
          0.29718541129365728,
          0.46103300651364126,
          0.12064578021827484,
          -0.82985244498889044,
          -0.91819019741322716,
          -0.23279385021087179,
          0.098745039927007741,
          -0.97399933609356149
        ],
        [
          0.32983876193564471,
          0.2851632489477261,
          0.31875110482115404,
          0.42463152806745219,
          -0.52633492218589983,
          0.93059195520314975,
          -0.87730625906901427,
          0.30095561242570684,
          0.55506397587127787,
          0.82536641899369911,
          0.52710622487670422,
          -0.30897395234278613,
          -0.28710833290774657,
          -0.58206097375042765,
          0.47737282556928456,
          0.82119010982966234,
          -0.0982607397662557,
          -0.016391619289647462,
          -0.23298846791368169,
          0.61569255075677876
        ],
        [
          0.46310767757645521,
          0.67019080889115767,
          0.847883490889495,
          -0.78753702246145441,
          -0.70741876803724735,
          -0.25355575896013538,
          -0.22822012609053471,
          0.40517974029632131,
          -0.9043891847193577,
          0.53914621144901442,
          0.17885736446449552,
          -0.88918002401719853,
          0.9608352514584817,
          0.99964110958755825,
          0.47001234226791294,
          0.81977738299742176,
          0.5013790632075168,
          -0.1720550944912379,
          -0.89191786805089934,
          -0.36234535153087138
        ],
        [
          0.2242830412849583,
          0.18023980551153451,
          -0.039120318572139795,
          -0.35969923882055782,
          -0.51348244512419039,
          0.38034815553621548,
          0.47465089039745517,
          0.4569862720341466,
          -0.79558222254220046,
          0.11447731871948388,
          -0.85036945828140464,
          -0.40731722447705737,
          0.14268116134892239,
          0.15060827460766676,
          0.08566158828477384,
          0.58864506308913866,
          0.92307676564777308,
          0.039059302850776273,
          0.00401441472494628,
          0.52979259743797236
        ],
        [
          -0.18894308948203928,
          0.14145421579323692,
          0.31242053304040462,
          -0.88436032687082611,
          -0.2562119509849744,
          0.24747125942068235,
          -0.86797770049419742,
          0.79116578476603716,
          0.86055612138025572,
          -0.78721689940869688,
          -0.800122850350871,
          0.19448423635227344,
          0.50417272694669146,
          0.48817027108081845,
          0.037794528889045373,
          0.98020551586785065,
          0.5961587534644639,
          0.86654167310147845,
          -0.77576178273979,
          0.42152235619225215
        ],
        [
          -0.74541684404198461,
          -0.071684165679396589,
          -0.673424115806239,
          0.81786405392871619,
          1.1428747123363889,
          0.94024308578532267,
          -0.86284863808653955,
          -0.40608209251654775,
          0.5269311474065812,
          -0.61765999445743036,
          0.73407955723454832,
          -0.45836495530486593,
          -0.36562031899871805,
          0.24866888623612024,
          0.15114997694270627,
          -0.62077814132315812,
          -0.16584615636726824,
          0.201929476188288,
          -0.35707030887969654,
          0.8457796964356773
        ],
        [
          -0.865571590730627,
          0.88011223548366169,
          -0.95772073103718158,
          -0.54183636405022317,
          0.29840462934365558,
          -0.746177256460459,
          0.079761560457790481,
          -0.28522815020904657,
          0.22670531477044412,
          0.56440317327347189,
          0.55900069613049719,
          -0.34548785643971769,
          0.33256717295220856,
          -1.0812919148222038,
          -0.5317169232942166,
          -0.096060493141106221,
          -0.56867151983895436,
          0.29780117206754469,
          0.21092250877189986,
          -0.034312012470638517
        ],
        [
          -0.96456761624190446,
          0.18984963382655515,
          -1.1292539095785608,
          0.0799351568520256,
          0.30678300845626888,
          0.66217626009017649,
          -0.61162926867029643,
          0.47712036235534078,
          1.2875394402845561,
          -0.25191778839558865,
          -0.14200006351374386,
          -0.47901940474502391,
          0.92660336436604729,
          0.55145339022028472,
          0.10273463341705377,
          0.44442022453093338,
          -0.25937894225339675,
          -0.5167172336000132,
          -1.000933951841247,
          0.4332778667915661
        ],
        [
          -0.71862264321386593,
          0.79510348692088384,
          -1.0096457871564715,
          0.41578802245775687,
          1.1486497757365943,
          -0.019467719577679031,
          0.25943478846953233,
          0.26354170381151648,
          -0.090961020090698327,
          0.25955239605506741,
          -0.70368857836292509,
          -0.073905454513873745,
          0.63012569769189108,
          -1.0250107740494237,
          0.10092225025062297,
          -0.048836906980888044,
          0.69263561387890171,
          0.073753126063406726,
          0.79110841224425577,
          -0.5401723358358147
        ],
        [
          -0.12863177639168166,
          -0.41049491941940275,
          -0.95865941944434852,
          1.3726910850237304,
          0.540331367701292,
          1.1589098194726679,
          0.73430123027716188,
          -0.11156098686971976,
          0.96105734881552574,
          0.59505036416886126,
          -0.049336934006399914,
          -1.0964583628821025,
          -0.64514075072195354,
          -1.0619222919452613,
          -0.93822804113165237,
          -0.17357665099985736,
          0.37998404552361809,
          -0.33093954044990154,
          0.23813055405736039,
          0.52361747099465727
        ],
        [
          -0.48106269472939639,
          1.1429717799276655,
          0.482867956214555,
          1.6448299831136339,
          1.3568078565174084,
          0.41632612960786364,
          -0.35543854529081087,
          0.42810338403031462,
          0.53789627172872634,
          1.2873563662630516,
          -0.27858705050361693,
          0.20970857133053031,
          -1.4221763468944815,
          -0.82816025405426241,
          0.55891133312046859,
          0.480328387292183,
          -0.33058801604660465,
          -0.55350267036422884,
          0.82067541642598163,
          0.089054614364917822
        ],
        [
          -0.96704208000960057,
          0.068394477053134978,
          -0.63375961195019381,
          2.0651582511289153,
          0.21900854283928456,
          0.9108644007506923,
          0.31860890610627723,
          -0.54677793383732753,
          0.0501499890598632,
          1.377786443191579,
          -1.4996201283267845,
          -1.0529354295951896,
          -1.2783288373170676,
          -0.043911546358657252,
          0.814968092350862,
          0.88783095429184267,
          0.044533507202399174,
          -0.62654646538212,
          -0.14200134399431219,
          -0.64264835974164292
        ],
        [
          -1.2141019093690735,
          0.42016530146919057,
          -0.96850330655520622,
          0.45164180003851345,
          0.35916943506351412,
          -0.081895642900640123,
          1.3665559063253334,
          0.50438241877524126,
          -0.23426966165716279,
          1.4219639447924428,
          -1.5252552940704285,
          -1.0397871863165904,
          -0.85842625055704158,
          0.31750222812301315,
          0.43372961458649656,
          0.99850118398703291,
          0.63741337674763476,
          -0.93811997521028589,
          -0.23263215639714735,
          0.77410568031231752
        ],
        [
          0.61290112124615814,
          1.3358430099945451,
          -0.91403502104687,
          0.52448002670423466,
          -0.28792512996810449,
          1.0766562424860904,
          0.93914756231367613,
          -0.77023573260761136,
          0.72154914484454269,
          -0.027814036276341429,
          1.1478801556474987,
          -1.9110465835620945,
          -0.14690652339346164,
          -0.54521563616105573,
          0.62421131736158486,
          0.35606004173867462,
          0.72182740297170589,
          0.033919326543279629,
          0.29255773505181315,
          1.1879488147297117
        ],
        [
          0.56357377752444926,
          -0.40843162608970629,
          -0.93712408311028073,
          0.40493874485647174,
          1.0162419421684639,
          0.75887872524643063,
          2.0884998739744636,
          -0.0325664811703995,
          -0.82768593344238561,
          -0.45234019350049282,
          -0.58116660611373749,
          -0.79279792972149588,
          -0.90822047196901745,
          0.90129570432763184,
          0.809380930903075,
          -0.54565500701842151,
          1.4895722624459917,
          -0.69251073039338873,
          -1.4683482039089122,
          1.0623592266030371
        ],
        [
          0.77670336838891829,
          1.4049179148441711,
          -0.58565531287954109,
          1.5664649801974093,
          0.24894028374667884,
          1.1058318064394779,
          -0.21601295152011277,
          0.46046578998119175,
          0.44017627866622094,
          1.2414021519285983,
          0.36158134633001571,
          -1.1295274934944248,
          -0.31305502053363726,
          0.915533698808273,
          -0.13290069056489029,
          0.048370186031163734,
          0.08862387290201075,
          0.2485914608285173,
          0.60430059520806934,
          -0.16756468127305235
        ],
        [
          -0.074933920461074541,
          0.48225413056829686,
          -0.56109256234555127,
          0.19820877678294921,
          0.16024830426101536,
          -0.040510281307179735,
          0.36151664868410471,
          -0.31148844082987748,
          0.72224317212575939,
          0.66688829070635414,
          0.78169396919496625,
          -1.2165224780422246,
          -0.55609240448307973,
          0.51756852638938122,
          0.52974290386109968,
          -0.97758179867646056,
          -1.136475449068463,
          -0.56724670971073587,
          0.274455409563719,
          -0.89183776150548921
        ],
        [
          0.56185988560896083,
          1.1044521936242018,
          -0.35383512302156539,
          0.016366952833965675,
          1.0241182492233549,
          1.1530757286315094,
          -0.31297164528145804,
          0.82695620921235347,
          1.4255496063478022,
          0.15172132142209341,
          1.0379800344848826,
          0.002509325035440834,
          -1.4691000990877192,
          0.68387267655234008,
          -0.055295917230713393,
          -0.636707515166783,
          -0.96970261545809988,
          -0.54087156654234347,
          -0.510743698936189,
          -2.0679552117394744
        ],
        [
          0.64727008514210782,
          0.18004343854211347,
          0.37778378977962768,
          0.35983545453236471,
          -0.23145014553945767,
          0.7293736632304183,
          0.79976495100567724,
          -0.88765976115442125,
          1.0795318849936142,
          -0.69246609527629588,
          0.898112452436751,
          -1.2865021595512625,
          0.32045818128960069,
          0.84234954132947049,
          -0.76751417608993378,
          -0.40815743921157716,
          -0.12027914946891195,
          -1.7085876912123958,
          0.164124813720425,
          -0.857116038693476
        ],
        [
          0.67304585090704716,
          0.4693759852638642,
          0.20155145513445003,
          -0.26165191318434339,
          0.27935046395366248,
          0.016368369406998373,
          -0.1127110725927836,
          0.6123431715273211,
          -0.36077823597598963,
          0.48870675250368412,
          0.39211402964439718,
          0.064886727494189236,
          0.23400709115225574,
          -0.89202868301455185,
          -0.31364093140906191,
          0.053528793110981236,
          -1.0356640720767774,
          -1.0193354706740332,
          0.42909805607841395,
          -1.2875710310923936
        ],
        [
          -0.86786425430083525,
          -0.69416125343771118,
          -0.17761076051394209,
          0.477877756156863,
          0.12692160614880255,
          -0.31340990895886817,
          -0.77678748703451383,
          -0.44641578145145761,
          -0.24771117251046917,
          -0.095753493525006908,
          0.12997888018905762,
          0.00073912139821170572,
          -0.51808512473310575,
          0.50816972960541384,
          0.7311118126929792,
          0.66263233680072275,
          -0.44856610932088237,
          -0.17703410361048289,
          -0.78645506023129708,
          0.18677310960077356
        ],
        [
          0.047970471091261485,
          -0.097730575630552374,
          -0.44702557584791092,
          0.17124930476128833,
          0.48459228280718136,
          0.7999250415168333,
          -0.87042575597964766,
          -0.42776416360843422,
          -0.052981535692776832,
          -0.10172433535740229,
          0.43875986942381356,
          -0.55605562631610284,
          -0.24941743184485254,
          0.38992498710303308,
          -0.27367497044658323,
          0.142688367525819,
          0.45898736583610295,
          -0.93454780335001963,
          -0.16876344999257803,
          0.486140250624193
        ],
        [
          -0.31211480370929723,
          -0.10859237333254472,
          -0.90298937620120523,
          -0.75344301070983777,
          -0.11448867900585567,
          -0.98109770472190572,
          0.92199263068341064,
          -0.81408120422010655,
          0.21623712208736387,
          0.010339645361440785,
          0.478506031096989,
          -0.919427817478374,
          -0.37968714735955406,
          -0.43136516461657792,
          -0.87565591514941854,
          0.80540541360484741,
          0.011694817898328243,
          -0.016638994166395971,
          0.68337806227915032,
          -1.0120216660180854
        ],
        [
          0.51820645281777333,
          0.36420047814742279,
          0.24946192074867393,
          0.034884030030564582,
          -0.543699154834594,
          0.85932351959741671,
          0.612031446714003,
          -0.055310094665476046,
          -0.96350870706770075,
          0.2593747920295536,
          0.38151929947556196,
          0.18736210549897672,
          0.56862559366436582,
          -0.058276724098072052,
          -0.64542477637607154,
          -0.37616581068606458,
          -0.89960825533190258,
          -0.0418078182985621,
          -0.32199209737449824,
          0.44779031984319922
        ],
        [
          0.42297878151637008,
          -0.46124759834860429,
          0.31811235440529456,
          -0.46506668714066041,
          0.31122453908428932,
          0.46316397891055971,
          0.43000908854302972,
          -0.5613190231054237,
          -0.25149803128179682,
          0.2689232867383784,
          0.83984446543215152,
          0.46520238960285576,
          -0.38051727266176072,
          0.60605346450106556,
          0.44343311210114172,
          -0.97459279969161572,
          -0.23706122440694954,
          0.093350570443996861,
          -0.016257451771694045,
          0.14887411849710405
        ],
        [
          0.82959593471944593,
          -0.83805560047407035,
          0.75315316082539518,
          0.20573217544515315,
          0.69353259822350188,
          0.39720619099821708,
          -0.30116216645690591,
          -0.19776574053339818,
          -0.48693581236612615,
          -0.89432454698851316,
          -0.60563740442560676,
          0.89401876096741,
          0.20947756114294402,
          -0.39377709695611379,
          -0.58637654910849835,
          -0.831827340319885,
          0.76289826748481659,
          -0.96679422140135307,
          0.11763025827804229,
          0.77284286501029942
        ],
        [
          0.079736527175388983,
          0.359756106681719,
          0.48165457617128821,
          -0.6880923907105182,
          -0.21532323582104906,
          -0.5984219992286125,
          0.77184494521355884,
          -0.12015140495729471,
          -0.29876603473995444,
          -0.18599418139218568,
          0.18793035106678172,
          0.45753817641299654,
          -0.7493057441071912,
          0.65434262684070821,
          0.99205054725465869,
          0.6708557362219858,
          -0.32184616662040166,
          0.8666187662443624,
          -0.52698953931134562,
          -0.34328987259282479
        ],
        [
          0.49877255212390864,
          -0.548965135883953,
          0.23219306641821155,
          0.417027908906294,
          -0.85242068951953009,
          -0.47522246998127737,
          -0.15475488401133983,
          0.74739963797375952,
          0.29959860109637859,
          -0.75248261036483555,
          -0.37970559351194916,
          -0.65042122398375835,
          0.077723475022908273,
          0.4608965105516068,
          0.16133334265041568,
          0.78613353902647076,
          0.48129280168153532,
          -0.087322144974044252,
          0.39982882568710187,
          -0.67633274193709281
        ],
        [
          -0.47002631217953994,
          0.13582256326641665,
          0.60446350310484143,
          -0.27735727544730393,
          0.50584723194834824,
          -0.33303468876606912,
          -0.44792555798351391,
          0.18864861224128574,
          -0.16139606922045721,
          0.4500607829795556,
          0.54848755569003238,
          0.9099661189138224,
          0.083373065110954145,
          0.60067601929861714,
          0.80475002700408493,
          0.41742070954669075,
          0.0761300802578208,
          0.48319777281876414,
          -0.96508408663341472,
          0.21006019175337634
        ],
        [
          0.80816507644159652,
          -0.07161143914367,
          0.1101105422333242,
          0.30502889595746024,
          0.80255936291100594,
          0.46293664576201626,
          0.85867639856167866,
          0.8316975639187838,
          -0.7433746917003119,
          0.41371459074773831,
          0.35680245524384047,
          0.782587026551326,
          -0.98028231657627918,
          -0.89337018908505728,
          -0.062550546669897955,
          -0.56302924946964317,
          -0.76353880757721782,
          0.70552500241724592,
          0.67791291955040678,
          0.48767761983620622
        ],
        [
          -0.82421804990372372,
          -0.79146193337530657,
          -0.98366160588778961,
          0.12199168535001051,
          -0.86356838996556051,
          -0.33643570509206211,
          0.98264190816506891,
          0.77411630270350829,
          0.58330018096733038,
          -0.045512443145933973,
          -0.71944477186283862,
          -0.09263472868838693,
          0.59602835356158257,
          0.776692273757351,
          0.48966585461195605,
          -0.509134141930818,
          -0.11801164873038135,
          -0.85842561917798854,
          -0.21126445076444622,
          0.024847154546869241
        ],
        [
          -0.25338354137809838,
          -0.235713453014821,
          -0.78212073239366808,
          -0.910324932108522,
          -0.73136497699365777,
          0.328076423097335,
          0.1368701677176104,
          0.14448609457441261,
          0.1270639644483213,
          0.2969529377194402,
          -0.29075903080426674,
          0.16181661921449117,
          0.031478945225001595,
          0.5204934453141391,
          -0.27505537217200776,
          0.20147090988509758,
          0.047966340431216281,
          0.599900501838201,
          -0.26393903521835049,
          -0.84677865885891135
        ],
        [
          -0.19862521523061363,
          0.14887976239574902,
          0.1477835924661032,
          0.61636564387722936,
          1.4260848544718714,
          0.30133592138884507,
          0.82087315358952262,
          -0.71026419710867994,
          0.14780404752619714,
          0.71116028866405412,
          -0.50857975097699415,
          0.52838619069718462,
          0.3384929466297773,
          -0.44963341193752332,
          0.14152495819388758,
          0.70828218796848186,
          -0.05732593735362855,
          -0.048872057005715355,
          0.31616273748829155,
          0.30710161292815241
        ],
        [
          0.96165802122539112,
          -0.73568735976368083,
          -0.15656268206945878,
          0.82939716658958518,
          2.21039266542418,
          -0.36428518450246272,
          -1.1881650626286953,
          -1.2127383645247698,
          0.99576054472314235,
          -0.10811904734218703,
          -0.08593647331451712,
          0.17924498540703931,
          0.711661872948552,
          -0.18992412660672134,
          0.48758739242488675,
          0.89177391319265431,
          -0.72624184555566174,
          -0.75701138576455385,
          0.080348358321714261,
          -0.73723673899369579
        ],
        [
          1.0342351093714686,
          -0.57860230137324486,
          0.761399227226295,
          1.4803476383080583,
          2.3091304221705218,
          0.41957864653026511,
          -0.70912383937899215,
          -0.35381955861923281,
          0.0070981185678158773,
          0.7257371980055477,
          -1.1620344237395914,
          0.15566393760077074,
          0.84467347357710576,
          0.18919781192141116,
          -0.14709094464197661,
          -0.15042008230214837,
          -0.84139264371019384,
          -0.33239132024874873,
          -0.1851739237388057,
          0.086321430569941543
        ],
        [
          -0.1051894441645423,
          -0.71202103425291385,
          -0.36522233690747241,
          0.59066410844879824,
          1.5640470768956154,
          0.3291489967684717,
          -0.28127824163636517,
          -0.68189860995510976,
          2.4558741973035141,
          0.669653054315717,
          -1.3507026614663222,
          -0.80529163440022222,
          0.21956795069177967,
          -1.0982648855643973,
          -1.1415381851745456,
          -0.35168491843062383,
          -1.1731156375232799,
          -0.45527195622239991,
          -0.034712703373323626,
          -0.43965733993199263
        ],
        [
          -0.72091933794546892,
          -0.78630082825616043,
          0.05320859029768301,
          2.7346801647206131,
          0.72723683340981815,
          0.055635268211085089,
          -0.48684801680195855,
          -0.705241918763855,
          1.8463239704339107,
          -0.20144685018969566,
          -0.67486821549671672,
          -1.0014177254466179,
          -1.51561749165934,
          -1.4586516132226592,
          -0.28997217229208766,
          -0.18367124976506033,
          -1.0098162890175082,
          1.3746792774076309,
          -1.286229853033847,
          1.3433112910551186
        ],
        [
          -0.011005914394794477,
          -1.7085016233396773,
          -0.47371182249688354,
          1.7502052404249853,
          2.0415095496107174,
          -0.13018489161935487,
          -1.7511045805481702,
          -0.62510268546255066,
          1.067801928547033,
          1.1042214458060551,
          -2.5227386905020963,
          -2.1955811349027314,
          -0.12160977581528167,
          -1.2675305763169174,
          -0.020856812285544271,
          -0.10426257643730827,
          -2.1024173768631482,
          -1.6606235894293995,
          -0.23807581064167627,
          1.0376003977322215
        ],
        [
          -0.66012858046906686,
          -1.5944778086219702,
          0.064189401161035317,
          1.1441627468833431,
          2.7791182808259336,
          0.42318549415091711,
          -2.1873468196880075,
          -1.1219962439135387,
          -0.75465147512562414,
          0.42854680938339917,
          -2.6408603756103317,
          -2.243425756441447,
          -1.59019622363214,
          -0.14974500375283573,
          0.17053348428171286,
          0.50765511924397777,
          -1.4906569953633373,
          -1.2778302311528551,
          0.5802275810953722,
          3.015282892559358
        ],
        [
          -1.508607214848245,
          -1.9607955513137299,
          0.37323880735597426,
          3.0558785974891656,
          4.2370555356078388,
          0.66042655728513056,
          -1.8122095062117887,
          -0.14242612492757914,
          0.72308591061119054,
          1.7151264254552505,
          -0.615648037109302,
          0.10448005140061131,
          0.43497154497124191,
          -0.66306451501456409,
          -0.2195283121814802,
          0.77650306800940916,
          -1.8826802103274238,
          -1.6754320094029875,
          0.62128001832155866,
          3.9292242498604728
        ],
        [
          -0.031033337202792256,
          0.029670320206758576,
          -0.090975121796185512,
          3.4857718211109292,
          4.124908416440352,
          1.3669428281211513,
          -0.99680870163057189,
          -1.7531008272465647,
          -0.0315297348821734,
          2.1391578582972817,
          0.71884818306446729,
          -1.2836808970199818,
          -1.3105190385757417,
          0.622616332625616,
          -0.045348191781804992,
          0.17016437774833049,
          -2.201445783054115,
          -0.48168414653814745,
          -0.828191864340076,
          4.3420209364133173
        ],
        [
          -0.082598856752531952,
          0.99091894143814541,
          -2.0911866807542778,
          2.1149042157944544,
          3.6698496725757352,
          0.34928131003508334,
          -0.40023918660491103,
          1.3542729020275925,
          -0.16532684007326123,
          1.852478375049246,
          1.6958453908987754,
          -1.0529304916292119,
          -0.13547118969856373,
          0.41030924478668757,
          0.49133228387498173,
          -0.2421604659552028,
          -0.98411934936727485,
          -2.1461085150464911,
          -1.681950687545682,
          4.273644338967487
        ],
        [
          -0.052164256654967517,
          2.1570746933911775,
          -1.1795794885195268,
          1.4712604350013816,
          2.1757840115239508,
          0.65643029030054656,
          -0.5139802324178121,
          0.49251614148123357,
          0.83349588070834957,
          1.7160603381060378,
          0.057685936860696119,
          -1.3670302111664268,
          0.040337010623172458,
          0.34393045643924508,
          -0.55426505826471073,
          0.038481844495339368,
          -1.749508330782463,
          -2.4971383023891636,
          -1.3766984755542742,
          2.5498706712093013
        ],
        [
          1.363990421806996,
          3.2777907741722965,
          0.685760012951661,
          1.5076684461633334,
          2.602191235411222,
          0.74842207614113476,
          0.65213807231635745,
          -0.11767102606550862,
          1.0562575625372195,
          0.9576730884801844,
          1.8302529250146937,
          -0.30215893047432296,
          -0.93696360211012353,
          1.4283236863461566,
          -0.2537657982608964,
          0.45947045137088477,
          -1.9781641870299975,
          -0.85477267688881176,
          -0.4894970121647001,
          0.67300292329954869
        ],
        [
          0.26119773802463514,
          3.0653551044860778,
          0.23743824243970951,
          1.4274814442546857,
          1.1645712697231734,
          1.508331260953929,
          1.4373238484648845,
          0.33630310095084393,
          0.9986959906544578,
          2.267497263342547,
          2.1711334129941076,
          -0.8640553573020231,
          -1.7041063834624486,
          0.081284726957613088,
          -0.43569572569207426,
          -0.61098601776463768,
          -1.7981537680346094,
          -1.1389850192071664,
          -1.9609829564442203,
          -1.0617144903885889
        ],
        [
          0.8675159425361012,
          2.2620022650750857,
          -0.45560171871255056,
          0.85779666874788152,
          1.1409088537495826,
          1.0848514929657958,
          0.77937800763833953,
          0.86905561887180516,
          2.2396341549568266,
          0.078006108183687334,
          1.4712024850502388,
          -0.94610596787046608,
          -0.80142258216832152,
          1.1166786242411,
          0.24239864512981693,
          -0.4305462986228068,
          -1.929445704525411,
          -2.4105951393134566,
          -1.5741632094742974,
          -2.6058818151660539
        ],
        [
          0.096520449435395117,
          1.195359998240809,
          -2.1522151040677242,
          -0.26666261331377733,
          0.77848540654570386,
          0.76905078422939654,
          1.0523974408722128,
          0.82233531439545571,
          0.59257297980742518,
          -0.13492871085121386,
          0.68055790701241514,
          -1.1415587581673472,
          -1.8155755868301904,
          -0.31339434083202383,
          -0.28349785453042159,
          0.032952538817075959,
          -1.9113293402634279,
          -0.045854292891619526,
          -1.7316147497102001,
          -2.01491795490478
        ],
        [
          -0.17371083217978345,
          -0.20368618424532592,
          -1.9199348801970828,
          1.7906676777937729,
          -0.48981764170788572,
          0.067202120374530716,
          2.3505752382720106,
          2.1045203678460256,
          0.13251844727545437,
          -0.88227757465161794,
          2.2761704224545194,
          -1.8605880312333778,
          -0.83630126795644122,
          -0.61994521054652985,
          0.1291668009535758,
          0.23503113677197587,
          -0.12831714653744339,
          -1.5504450557528715,
          -1.7620799450731615,
          -1.8476150583571078
        ],
        [
          0.36743814527077578,
          0.16762886591910403,
          -1.9689543498869397,
          0.78810497668401069,
          -0.96655729932299561,
          0.37944716527129824,
          0.68167008444790556,
          0.73413950985145293,
          0.04548379687003197,
          0.82707547438172768,
          0.23277969620068112,
          -0.47500474310409296,
          0.092619462066402536,
          0.396437253706219,
          0.051471011548291819,
          -0.51546446972976367,
          -0.65368386411081825,
          -1.7682329552148972,
          -0.368466910252991,
          -2.7134563236296696
        ],
        [
          -0.73608625950076712,
          -0.22409904262265326,
          -0.873214478921977,
          1.2395962041794593,
          0.86782837395261614,
          -0.28058214167815737,
          1.3484325558289094,
          0.54468446167873308,
          0.40780898458252207,
          0.89682154298088235,
          -0.78626080607737836,
          -0.75910539125463694,
          -0.8248614763714035,
          0.29678187795741756,
          0.85067114477739514,
          0.193418388876236,
          -1.1914606288741692,
          -1.437085130956127,
          0.68491991618829284,
          -2.5564933880428997
        ],
        [
          0.27339368643110057,
          0.45982816630583118,
          -0.90221674970240684,
          0.30369391296829096,
          -0.43179160622814294,
          -0.38635081306128111,
          -0.51640633154151516,
          -0.8007693276280341,
          -0.43254037791112782,
          -0.61778515336434581,
          -0.56628673802567853,
          -0.034396074552550872,
          -0.80472381038954688,
          -0.85033628410519435,
          0.17656925260517745,
          -0.28486243552050355,
          0.44931530263107833,
          0.24512033377875364,
          -0.90107161754058873,
          -1.0222577668983193
        ],
        [
          -0.38072547127409628,
          0.0017503405531330595,
          -0.74539685427883129,
          0.96900579792725439,
          -0.627771882379233,
          0.11998309941426522,
          0.61874411230818416,
          -0.4196726105890427,
          -0.74347395100307234,
          -0.68068143556182259,
          0.33423752892403558,
          -0.18857118406569015,
          0.32167205468788868,
          0.01892416181744376,
          0.78617522413659313,
          -0.54373170539515825,
          -0.039910320032745659,
          0.49550375683029568,
          -0.93827109179869062,
          0.49441078414230849
        ],
        [
          0.31890105100936278,
          0.55751090493146338,
          0.3559730438782544,
          -0.55631313608917887,
          0.56468678364638325,
          -0.015822254407949255,
          -0.67814333422114159,
          0.84653930610709094,
          0.65068322740680029,
          -0.47384411975440438,
          -0.61705821243468562,
          0.48703959172245148,
          0.89881466986035585,
          -0.19779022006749125,
          0.078242694599046578,
          0.67871233308219581,
          -0.66716484316744606,
          -0.63579019714744633,
          0.27776730814740286,
          -0.80500610709043952
        ],
        [
          -0.45997808908234844,
          -0.7540838721361417,
          0.39263922945230773,
          0.28199756012107241,
          -0.86212896507236914,
          -0.87273312008330317,
          -0.365581498417286,
          -0.17281117100738147,
          0.43065306419420424,
          0.21677839981257255,
          -0.65763415937365655,
          -0.74414856560400988,
          0.93186944940934635,
          -0.13104071313059199,
          0.094938607289896851,
          0.53103039283478437,
          0.38934645546190627,
          -0.54264014025232632,
          -0.53292084268207163,
          0.025562976525603406
        ],
        [
          0.53020437073768,
          0.80896584450598474,
          -0.40294262542754838,
          -0.68070764390941008,
          0.35826649565242613,
          0.20209419264139572,
          0.012442108540574327,
          -0.518629622846013,
          0.87170910570680538,
          0.050192439619961136,
          -0.88973094179348711,
          -0.87202882711648311,
          0.074049774639975252,
          0.80836058656209464,
          -0.70123827843049968,
          -0.37362710004498612,
          0.33147877781242319,
          -0.66079302152632613,
          0.36917004439145962,
          -0.4174813136538
        ],
        [
          0.27039350733176909,
          -0.63544670733291631,
          0.76525076911800349,
          0.18902366145670796,
          -0.51176873346356766,
          0.6968557980770852,
          -0.82014055807096364,
          -0.024554838538110142,
          -0.60371653454974727,
          0.4061580067936762,
          0.46014978875545881,
          0.14599436041102695,
          -0.096968023844652917,
          -0.072064282930491275,
          -0.4163313052993643,
          0.33763887987775809,
          0.72892803837089981,
          -0.58702900380816769,
          -0.171753327982423,
          0.72244625988752853
        ],
        [
          -0.055237826453951443,
          0.89788404798678767,
          -0.15643144694691083,
          -0.58124120010925917,
          -0.18090234960020032,
          0.92350561464898429,
          0.57267725604097863,
          0.82300169431195747,
          -0.71222340674894824,
          0.055274569646640716,
          -0.30510501084353453,
          -0.14262822635737651,
          0.44395171276150897,
          0.83171715665024115,
          0.43281614837182,
          0.87180207046044722,
          -0.32421396636744881,
          0.73874432828210168,
          0.060494354702372514,
          -0.841096086481145
        ],
        [
          0.43484771197887151,
          -0.32851457001255413,
          0.34283649057996135,
          -0.052407413112733024,
          0.28937425695525221,
          0.027754465384810485,
          -0.67023660324430279,
          -0.54180379083844565,
          -0.18719868991284111,
          0.65289756780573849,
          0.41995331749299214,
          -0.52563410635780328,
          0.72736882492018684,
          -0.61521268551835062,
          -0.4425782339982105,
          -0.58999731968772384,
          0.26215962913283286,
          0.9743331484940867,
          -0.76851060445838593,
          0.67159386357950535
        ],
        [
          0.81370357172190022,
          0.032287464970109134,
          0.11599368031272432,
          -0.62168473222943377,
          0.51558584051438872,
          0.56017629505510635,
          -0.49489810004673018,
          -0.02561717736726863,
          0.45773168965595373,
          -0.51403076543004722,
          -0.672642584099773,
          0.049425824607894096,
          0.59641950520738463,
          0.601524410508528,
          0.52761397833159152,
          0.50824315576480772,
          0.24912918842854284,
          -0.0068175421516640531,
          0.8259252953661339,
          0.250127088568001
        ],
        [
          0.19062682726431537,
          0.35598505761715643,
          -0.32176100794382723,
          0.20520440061888154,
          -0.71508577136129392,
          0.14685106130964371,
          0.16387637111139017,
          -0.045539060284945608,
          0.47500410900884393,
          -0.78196976146434738,
          0.28408699929039632,
          -0.438073893753249,
          -0.57492373632389326,
          -0.3642445308377294,
          0.22575285308702958,
          -0.047872198092459413,
          -0.076219499127603826,
          0.65519319681803456,
          0.045433354887464965,
          -0.33472621641298522
        ],
        [
          0.49599831604798245,
          -0.096286736839166429,
          0.88121937455791166,
          -1.24861369207499,
          1.7497140646584291,
          -0.31354613173071633,
          -0.49470242801083369,
          -0.07265195174556284,
          0.77036545994856009,
          -0.51532264150775753,
          -0.093981763970199958,
          -0.8434902905342111,
          0.43819334922889114,
          0.68573934898948907,
          0.92641024883802425,
          -0.55037498603912793,
          0.10250222981000021,
          -0.19549782355702788,
          0.53325479161620548,
          -0.46875607488254278
        ],
        [
          0.66604703347870864,
          -1.3319031427832566,
          0.61732941687928777,
          -0.13065789289877669,
          1.6859659105048805,
          -0.039528454248590562,
          -1.819590136856321,
          -0.2964675661220319,
          0.541154506604689,
          -0.22728782839063849,
          -0.058636159029181061,
          -0.62332626401447022,
          0.797846816011131,
          0.67781047558379848,
          -0.49638643012154293,
          0.16242754517974314,
          -0.70725057568145633,
          1.0530475916259481,
          0.1799785192035844,
          -0.49859867795997354
        ],
        [
          0.20544919348361165,
          -1.7888894865451714,
          0.42849815270575264,
          0.586090733030892,
          2.3128459785575637,
          -0.17724917003824814,
          -1.535481384018865,
          0.54733079720962174,
          0.29452827702521567,
          0.30602690774479413,
          -0.0820071299467047,
          -2.086551605646771,
          -0.127941550836953,
          -0.43031729110158762,
          -0.5694229442783012,
          -1.0833471912934161,
          0.14051580383564577,
          0.41271274225873822,
          0.4419152351016189,
          1.3222742679839687
        ],
        [
          -1.1535610150266578,
          -1.2563378949481008,
          1.0746924025487445,
          0.86100650718941651,
          1.1565261927970334,
          0.54703436506440239,
          -1.7576599924801108,
          -1.45757021334248,
          1.0120674303398158,
          0.32630527677735194,
          -2.0940358401395489,
          -0.10555433691922732,
          -0.35047605941395032,
          -0.83578918303456939,
          0.017933896757706336,
          0.0388903078321808,
          -0.36260086725934554,
          -0.45968083671836685,
          0.21259058435597725,
          1.4955756597510213
        ],
        [
          0.048117660979005071,
          -0.8690132605253913,
          0.66221114839197071,
          1.7486513158683106,
          1.8129702261427978,
          0.0020261207083363368,
          -1.4039103461989746,
          0.33287872332214496,
          -0.95828565130336807,
          0.011191148507118347,
          -2.1838288501774228,
          -1.4579764654334784,
          -0.11190768746882404,
          -1.6105962047471032,
          -1.3544684184271905,
          -0.26250605300202939,
          -0.50736125871924986,
          1.6455045246026354,
          -0.63938001859965,
          1.2389894578450764
        ],
        [
          -0.45607110554440339,
          -1.6100299401851514,
          1.1924134111717746,
          0.53672007429761537,
          1.8488334047198851,
          -0.3681187367015073,
          -1.7354533177281144,
          -0.15317274725170088,
          -2.0147902841260223,
          0.77863702029614523,
          -0.97280691729590818,
          -0.39120865445174113,
          -1.4165949467665362,
          -0.52261701776239367,
          -2.0361730426758791,
          -0.41036449871675912,
          -1.6703398642203018,
          2.3572245959836753,
          0.82405654228231529,
          2.2120882976094283
        ],
        [
          -0.82162976880114424,
          -3.863507344047858,
          1.5673055309128918,
          1.7634746161406951,
          -0.34025911597238889,
          -0.21413844227981688,
          -2.6389107895765496,
          -0.71638852604867853,
          -1.0921698209114952,
          3.3736245070820416,
          0.27979890647038397,
          -1.3850672781786084,
          -1.5210741754787418,
          -2.5075437229076623,
          -1.0247166039050324,
          0.28924960357874746,
          -2.470796039733052,
          1.8044922445691305,
          -0.45126989613227575,
          1.3134213454610846
        ],
        [
          -2.636939759310692,
          -3.2336829715527284,
          0.75344318879347016,
          1.0866490727839944,
          1.1471072323005942,
          0.911938339132137,
          -3.229204597669288,
          -1.4241129724213071,
          0.077142262297531974,
          2.3691374062604278,
          -0.13134118143898574,
          -0.050592709277942231,
          -0.081540615192894711,
          -1.9327596210255755,
          -1.8410697162429226,
          1.2160918271690231,
          -1.5250230303879648,
          3.27153671094613,
          -0.55885813228576375,
          0.47110806251948734
        ],
        [
          -0.74661299866077391,
          0.26983392683082408,
          3.6268396773574194,
          1.3943067361485777,
          0.50677319992401582,
          0.21532567498320668,
          -3.4419179047489745,
          -1.0631658401452526,
          -1.2125438086085463,
          3.8422065955075819,
          -0.59179366772209763,
          1.1919673998592371,
          -0.73118914468557,
          -0.52544040432122463,
          -2.2936449551621507,
          0.070580213866622957,
          -2.2295121149212007,
          2.2059273755750324,
          -2.0714960279288541,
          1.596928010036903
        ],
        [
          0.67521760574520684,
          -0.20152317148382645,
          0.33851162889965419,
          -0.809820632048615,
          -0.3386006260600613,
          0.43872950866597216,
          -2.712532605391456,
          0.29098758323222895,
          0.29084798973748238,
          5.7027485557343418,
          0.79288143636414687,
          -0.94799077636299989,
          -0.45036505324262927,
          2.4316760606756849,
          -1.2420818411463386,
          -0.69450702858546676,
          -1.7690171408425983,
          1.4726190493590385,
          -1.904993448431455,
          2.4662644148190553
        ],
        [
          0.79351781510914221,
          2.2314123305575357,
          -0.0071501348094210448,
          -1.1990028882540615,
          -1.999166095923532,
          1.2959127114046956,
          -0.20452416202005591,
          0.9761948804436803,
          -0.8940499238029368,
          4.6117958620697852,
          -0.24045732436437123,
          -1.8850001434079236,
          -0.42829909779969749,
          2.6792278449257894,
          -0.69444892547155213,
          -0.45312111569773417,
          -1.3841142312340462,
          -0.92470547938931746,
          -1.5588466313780183,
          2.7173060846386954
        ],
        [
          1.1550085905110641,
          5.6553794238336286,
          1.3696327436787075,
          -1.6855187783661185,
          0.290925292906889,
          0.99355273085182494,
          -0.24910104063433641,
          1.1395217201097059,
          -0.52649042013339409,
          2.7204971832695177,
          -0.78559998680577059,
          0.80394595347361664,
          -0.36664166244373331,
          2.731806383767196,
          0.15812374272889448,
          0.19587780369898675,
          -0.39941253500528717,
          -3.7969236943054505,
          -1.9416730575431109,
          0.59008176284131231
        ],
        [
          2.5916263335829544,
          5.7092854796536878,
          2.0606994426933007,
          -1.4070953085168279,
          -0.76887879145201732,
          -1.8185137858006226,
          0.21204702647390994,
          2.0043321703762982,
          -1.3414157390030539,
          2.8574314828983876,
          0.71506328371464245,
          0.68550460284921044,
          -1.2469902650522948,
          2.1765691339600206,
          0.0034316549981859594,
          -1.3807380985982816,
          0.3948284314645073,
          -1.1850302819196112,
          -1.3473807903882062,
          1.984865409369369
        ],
        [
          0.99282091370641112,
          3.1980878444960941,
          0.60145060457613853,
          -0.3971021941859938,
          0.18833224078754143,
          -0.47154859771853552,
          0.95121009792136535,
          0.770389056443865,
          1.7743322390892606,
          0.073561270786391686,
          -0.62297463899831462,
          -0.23580952002525457,
          -0.65834596387785826,
          1.8651563552955615,
          -0.20100391175577786,
          -0.94395396223137007,
          -1.4317366301616448,
          -1.8956786903272651,
          -1.5044622393950593,
          0.20791959614584671
        ],
        [
          0.59763902131756685,
          2.1769343834622332,
          -0.023424320009959823,
          0.40514263023586705,
          -0.45362345691432848,
          0.906386811668499,
          1.0192135175265338,
          2.727361684641409,
          1.639970813156264,
          -0.665382182157158,
          -0.77889454465145946,
          -0.52782238062693276,
          -0.16224743003643316,
          -1.1898798425151516,
          -0.10926520416448882,
          1.1414898228435233,
          -0.85169018810553643,
          -1.8176443002546872,
          -2.2756653961402038,
          1.0400405661058574
        ],
        [
          0.88237617862287665,
          1.685596813312543,
          -2.0999727538155231,
          0.70805662322617458,
          -1.08029992119222,
          0.4899251424103474,
          1.9611913213047838,
          2.8233387424246446,
          1.1745458938102693,
          0.0028556874071333067,
          1.5534657093863129,
          -0.47140838305299476,
          0.37384388340662528,
          -0.60934506675751987,
          -0.83910297528590883,
          -2.2753606366772647,
          -2.7063745485837689,
          -2.5419849672545451,
          -2.2249789558985671,
          -0.993967452696708
        ],
        [
          0.08758384675490391,
          0.2774134751625707,
          -0.99263544591649788,
          0.5528385674707319,
          -1.0531295594460881,
          -0.0084041389450920673,
          1.5404187818087247,
          1.0280034156783666,
          1.5298528533940783,
          -1.7388974304638951,
          0.62041845491913472,
          -0.11064057757192813,
          -0.12259352934991216,
          -0.54205636653650091,
          0.087971794311596282,
          -2.3859736530186941,
          -0.41656204080082943,
          -2.3165540998448373,
          -0.20800189845590042,
          -2.1794899142592747
        ],
        [
          -0.74467371479934663,
          0.89751559766734224,
          -1.5942954834840326,
          1.0650505504883532,
          -0.21921060891121252,
          -0.40852327096786928,
          0.59517352559943038,
          0.3640761091889344,
          -0.28431827774756385,
          -0.34148525482628422,
          1.0903572822638437,
          0.34655563815519891,
          0.068441994453882368,
          -0.18356931871168875,
          -0.56291433079849917,
          -1.8651819431191716,
          0.97184435973758754,
          -0.44805972557072854,
          -0.6734737394836704,
          -3.0014071248462662
        ],
        [
          -0.60884843668998223,
          -0.72831839949930011,
          0.46393893254996921,
          -0.19452621020751795,
          0.90333700948893947,
          0.4224456949918648,
          0.27482023984654486,
          0.17613058149714661,
          0.02317799586375047,
          -0.98292746955186638,
          -0.77638921247528214,
          -0.51544357950758213,
          -0.35899624129112723,
          -0.8788561737907814,
          -0.686115573242177,
          -1.0305039548203769,
          0.17114766562721209,
          1.3354241378222058,
          0.20143782649248518,
          -0.34008627064092439
        ],
        [
          0.12726112862730429,
          -0.083957728998259734,
          -0.73167169569587809,
          -1.0300759779102393,
          0.34489474383652263,
          0.58670975948910964,
          0.71443035272786881,
          -1.0054112595684943,
          -0.75563304147715,
          0.43546605145614137,
          0.98663968591958184,
          -0.34357280368945969,
          0.55453665055654833,
          -0.54255441654040748,
          0.093492839069309566,
          -1.5421281660904813,
          0.34897441750773411,
          1.7411165952039793,
          -0.80028486486588946,
          0.11354424374510319
        ],
        [
          0.1376127057051881,
          -0.82538650330569185,
          0.14140791212801726,
          -1.1171469148676869,
          -0.85778453618933059,
          -0.047443193688177142,
          -0.4263040923169843,
          0.46565221802450263,
          -0.15772935707268082,
          0.28998570786067823,
          -0.67210248184316246,
          -0.00952504759301033,
          -0.16490190560205656,
          0.44543270895502574,
          -0.8282643920906424,
          0.29497858859313814,
          -0.8555829777821794,
          -0.29853180491675085,
          -0.482404652528142,
          -0.36613432390968231
        ],
        [
          0.53502803308135338,
          0.57059535216270463,
          0.637628153113438,
          0.1942473048968934,
          -0.085584535268286813,
          -0.289721007133313,
          0.15060144069273287,
          -0.55738857469414171,
          0.84251693330055444,
          0.48260431090375455,
          0.68759426082950281,
          -0.10599861715424855,
          0.33554456523636278,
          0.586186392978805,
          0.012971390680333894,
          0.31169081263779685,
          -0.91454628167672858,
          -0.61506406764362431,
          0.095807507223330257,
          -0.82968468342645529
        ],
        [
          -0.9580192685791824,
          0.72101165045383986,
          0.53157596164944132,
          -0.3290057803336997,
          0.20660678531967536,
          0.36646178204241953,
          0.38823796768558233,
          0.023434277190824464,
          0.54057931519023517,
          -0.65679378605579941,
          -0.851797724897579,
          -0.89158437485679354,
          -0.20178325768681593,
          0.29821957500178137,
          -0.79448984366896058,
          -0.2948714531009401,
          -0.32866033678352646,
          0.82429440438733559,
          0.65661913233895264,
          -0.54103992223600428
        ],
        [
          0.24836517137356437,
          0.43177371442650214,
          -0.39560891510352919,
          0.81228841102492766,
          -0.49012661909691607,
          0.94655068663558273,
          -0.48477349354069915,
          0.75568886546872949,
          -0.59694362230688891,
          0.63844928463788719,
          -0.66462621447683934,
          0.16637608952941349,
          0.27794824735136303,
          -0.88168011753364151,
          -0.16578573816504857,
          0.025650851523380598,
          -0.761477312300739,
          0.64637132341028314,
          0.66807020835664532,
          -0.391934761971745
        ],
        [
          0.64846586727420352,
          -0.33177628648159613,
          0.065159852308945748,
          0.88381302237670767,
          0.19563956929391765,
          -0.49302226218839507,
          -0.458603140162797,
          -0.7603697433237433,
          0.25244691767599131,
          -0.89244391637637477,
          -0.74425986461631721,
          0.92153962175284476,
          0.371654940325714,
          -0.60824605533847831,
          -0.19854341129171033,
          -0.051300647582544455,
          -0.42260231180896513,
          0.05420500605647776,
          -0.8639266594742242,
          0.49370665216999537
        ],
        [
          -0.33996270191325917,
          -0.55767075733884808,
          0.51061786894950478,
          -0.6436722155835316,
          -0.31701785667154481,
          -1.0419991695910358,
          0.44921377991267586,
          -0.56679016387675107,
          0.94091597820420692,
          0.34922133105168829,
          -0.082876519964234785,
          0.74010744360478486,
          0.78653396931774644,
          0.12138722368929182,
          -0.72326372535929861,
          0.86698972038370836,
          0.83164271777811749,
          0.543934296834137,
          0.81369397068933713,
          0.53473219551161622
        ],
        [
          0.69088607662645685,
          -1.9750193665167077,
          0.90077707557498721,
          -1.3206052807356394,
          -0.57892903977349008,
          -0.85610041978332063,
          0.04393999741034086,
          -0.622663871213152,
          -0.68685165851910368,
          0.097663850838704561,
          0.71690692247076526,
          -1.739049047789651,
          0.57175284153117978,
          0.1086039308387719,
          -0.74014968789421909,
          0.22209544765636721,
          -0.23237274582032391,
          0.025495089103993503,
          -1.0206637082679402,
          0.23659108000723897
        ],
        [
          1.2535613805579844,
          -0.99286165146900929,
          0.903300838922494,
          -1.1573680866661869,
          0.27383523083404443,
          -0.6897359685775456,
          -0.40019977720855032,
          -0.27449240647043616,
          -0.53136182467609938,
          -0.70442958049980831,
          1.5031533392074992,
          -1.1859478350017874,
          0.41802009925685968,
          0.84983358982724055,
          -0.15893610664545085,
          0.85206254079055632,
          0.46244280334291021,
          0.95507817968449382,
          -0.90998136793109385,
          0.034301798340431851
        ],
        [
          -0.19108877449560721,
          -2.6634997357360786,
          0.15782209873840897,
          -0.21735843493822185,
          -0.39119584074649449,
          0.12524043001671534,
          -1.3837247887371882,
          0.74052282273375225,
          0.6001278451977714,
          -0.38930525827361195,
          1.7059690355415873,
          -0.54194101578789045,
          0.6407729496935135,
          0.86888790945039918,
          -0.050005396502713656,
          0.1435334473212197,
          -0.39061187340388143,
          1.6876211446705025,
          0.069261307415271187,
          -0.49321229752027196
        ],
        [
          -0.075363953250740287,
          -3.5782743014539977,
          -0.32605715354004594,
          -1.1378097102464408,
          0.84442993785570386,
          -1.6224403991718015,
          -1.5357223751515634,
          0.17334030615584223,
          -0.10628995671428235,
          0.064182611769592723,
          0.81282563578425693,
          -1.3307738964278861,
          0.067261737399701288,
          -0.77550817021986,
          0.85173833253866571,
          -1.1540901375836608,
          -0.039156275328263525,
          0.82007644360078824,
          -0.34881779560789683,
          -0.63729071818524141
        ],
        [
          0.69181026286018843,
          -1.7738229552650995,
          -0.72850073198991339,
          0.41563082850379868,
          -0.33720109228597073,
          -0.25873991197263413,
          -1.2372228212790828,
          0.47944571893604221,
          0.22712166832113495,
          -0.05171162914732929,
          -2.5521026795033657,
          -0.66992794332216976,
          0.59405758881446036,
          -0.016340113702870928,
          -0.16250920719554451,
          -1.2393699665762041,
          -2.89075449242459,
          2.1141573312695332,
          -0.81920260105409914,
          1.169854613805805
        ],
        [
          0.69210420701464626,
          -0.94284257353333456,
          0.92316532547347063,
          -1.8289729420802916,
          0.17287754734510333,
          0.30622457669310826,
          0.66446898286723111,
          -0.9163492657067569,
          0.69177670427341065,
          -0.94590090573552343,
          -0.22776844866133597,
          -1.1638492281186788,
          0.27639316872782671,
          -0.80370176880925015,
          0.536495845953849,
          -1.4874011571755055,
          -1.8263036977147051,
          1.8235642759365454,
          -0.637031367696346,
          0.80607154278173254
        ],
        [
          0.86591672386238827,
          -0.77779922605148555,
          -1.6429781867072462,
          -0.17422822253618214,
          0.29893043780004691,
          -0.62051620141019337,
          0.31267913728235736,
          -0.24393609082072865,
          -0.41532674442533657,
          0.32883345333125336,
          -3.7253804165662641,
          -2.002713591130548,
          -0.1141915228275177,
          -0.79509974517223414,
          -0.67244211423347178,
          -0.6385689086870272,
          -2.5882307362772949,
          1.3584172408000219,
          -1.1869235845170045,
          0.99458691336774707
        ],
        [
          1.1258232331025064,
          -1.7008005285823558,
          -0.23940965972891398,
          -0.9218579740294971,
          -1.9546185304015318,
          -0.56212476243743092,
          0.53942731074365335,
          -0.10310377640390966,
          -2.9874581977398957,
          2.0115617885258592,
          -2.7312426928356555,
          -0.90215643907155629,
          0.7242635433183694,
          -0.62122070595900891,
          -1.6555181186979175,
          -1.7163011295105763,
          -2.8233993488393838,
          0.62631954597138551,
          -1.8365606338021556,
          -0.43876533697092807
        ],
        [
          0.22933728858944413,
          0.38708280082190527,
          -2.587436518306137,
          -0.73455805843089139,
          -2.388755224335616,
          0.60911862543509065,
          0.51552551620554365,
          0.054906007215057742,
          -2.6929153787764606,
          1.7473201722508451,
          -1.1683310713931696,
          0.58323130374008336,
          -0.3592581888716867,
          -0.90280173226962712,
          -0.51208434450697549,
          1.107761692710185,
          -3.919901576936736,
          1.2230444330350765,
          -1.4420756552011318,
          -0.15834089004364896
        ],
        [
          -1.1712782606636372,
          0.825592489047007,
          1.6247502956675324,
          2.255635262584184,
          1.109016110846434,
          -0.62401845718969284,
          -1.5174712897156224,
          1.0874334612689014,
          -4.2732608061924973,
          1.7469528198236495,
          -2.0498519763989402,
          -0.50542575146844249,
          -0.040368105786741909,
          1.6660922466260519,
          -1.8521075904994022,
          -1.1070490435755065,
          -1.6308941387637597,
          0.90359625021952139,
          1.5179832502955311,
          -0.32540016960549223
        ],
        [
          -0.333472755022835,
          0.066077611319322951,
          0.49875108233833815,
