{
  "Layers": [
    {
      "Activation": "Sigmoid",
      "Biases": [
        -7.3030626479226148,
        0.17152254211286333,
        7.580935921475529,
        6.5179848288977409,
        6.1978461616392178,
        -13.005387194453489,
        0.10159310641439223,
        -4.4524964731917933,
        2.3241228526722142,
        5.2247008046143355,
        -7.2628722201651454,
        7.7074548671707923,
        0.49445358088518176,
        -5.5716830540711255,
        -5.7937650440671788,
        7.2420713833945092
      ],
      "InputWeights": [
        [
          -0.98692334497194545,
          -0.64977163522137971,
          0.43856222603584627,
          0.92222188276106154,
          -0.581325925651567,
          -0.97455934654827259,
          -0.016135088560448055,
          -0.63102026915076859,
          -0.063021784521530982,
          0.49242375960564966,
          -0.11556973417261596,
          0.25126729838598244,
          0.78812703160351,
          0.02366577906601618,
          0.8983917361859084,
          0.57662595448377174
        ],
        [
          0.27144776370526835,
          -0.31407211631163451,
          -0.57207974044478738,
          -0.24514990297278724,
          -0.47983040334428118,
          0.02665473068233707,
          0.60540328741002669,
          -0.41766723899991742,
          -0.03108168776508894,
          -0.25763717939154451,
          0.96002970433839407,
          0.24299627824729192,
          -0.62175635624895009,
          0.31634993644482884,
          -0.35415087269708789,
          -0.40275931299374734
        ],
        [
          0.24263059480262783,
          -0.56583995002886922,
          -0.52380632886535727,
          -0.55834324282726611,
          0.928048113596065,
          -0.80959947836491308,
          -0.0061154637218463542,
          0.88980641283195727,
          0.59735895962114727,
          0.90392678353931077,
          -0.0018853302297462498,
          -0.68526255266679337,
          0.42852084288154441,
          -0.73752493478316428,
          -0.79088599818871907,
          0.40302117390847469
        ],
        [
          0.35551764529348895,
          -0.34611708813905212,
          -0.1401829442278088,
          0.5124005747759901,
          1.0263860875295159,
          0.4963424432939415,
          -0.57224412301626215,
          -0.75209345973927266,
          1.0056821672587364,
          -0.5270834846236252,
          0.049040891537707847,
          0.66505909504430483,
          -0.780306369105672,
          -0.90600215524393679,
          -0.87749238942863039,
          -0.29898282663607334
        ],
        [
          -1.0050707855990531,
          0.791800908245084,
          0.38764529770354728,
          -0.16936645747293974,
          -0.6785082484107483,
          -0.61061453899274609,
          -0.06277238523705353,
          -0.96645569152097888,
          -0.86184848948721493,
          -0.32114798080184703,
          0.75192074182488766,
          -0.67782350161051264,
          -0.41521532674539191,
          -0.44663281363383439,
          -0.65128722346501045,
          -0.29008291043983137
        ],
        [
          -0.009333786627680616,
          0.26971259663254527,
          0.73839681108609534,
          -0.58043773935309018,
          0.094946346946565771,
          -0.40960980286725313,
          -0.24792538482800264,
          -0.62039573004368431,
          0.14934538457181543,
          0.83156562253828414,
          0.71082076763779667,
          -0.16263831660108757,
          0.975070150995309,
          -0.0357246487115322,
          0.66542769966533788,
          0.93047929474445623
        ],
        [
          0.62590188805166824,
          0.67843070809164374,
          -0.24821559151527389,
          -0.20517603258733894,
          -0.61478863213919288,
          0.29129269476145059,
          0.75885654504339983,
          0.60704704534363263,
          -0.24329585173528404,
          0.62250417221333154,
          0.87742440247022357,
          -0.876868346211816,
          0.66667560856571284,
          -0.18188691322631267,
          0.38989042698316,
          -0.45598559185573384
        ],
        [
          -0.44396690915188208,
          0.83110128409595518,
          0.66755330541298485,
          -0.51709634179381991,
          0.54785520350783878,
          -0.15982605014828658,
          -0.23190725098476384,
          -0.45358139744849435,
          -0.9164113647897234,
          -0.24616561218170194,
          -0.076214176295046121,
          -0.861539607839043,
          -0.72396858692387256,
          -0.16012534798993794,
          -0.25538897330030164,
          0.3764583662926283
        ],
        [
          0.050374758356781735,
          0.12300925931346822,
          0.6743896154420147,
          -0.69930999956226314,
          0.31225003837835941,
          0.56010173530411878,
          0.79121314695034017,
          -0.75654307476144023,
          0.69870171731929576,
          0.41297867667852695,
          -0.33743546336856189,
          0.09288416572886854,
          -0.29924482157673044,
          0.1800348398095456,
          -0.3689439208442,
          -0.29238216915809845
        ],
        [
          -0.18269570761210519,
          -0.7237622191068408,
          -0.908777593382292,
          0.018325261332610913,
          -0.65166967711188084,
          -0.83365803920569859,
          -0.81331010388281355,
          -0.56822247875753529,
          -0.24996353626610438,
          0.65073451522733339,
          -0.33890629133176509,
          -0.770781983592863,
          0.68423831319218364,
          0.0371764751902909,
          -0.59126815038846425,
          -0.79656091506299931
        ],
        [
          0.80051970195178135,
          0.56754594595537811,
          0.4994721044985343,
          0.045260667361840527,
          0.12488610204545704,
          0.85743031244819023,
          -0.36360756416905554,
          0.84195200933244341,
          -0.16008889825444431,
          0.41113398835985715,
          0.47485955276558933,
          -0.76908015689751019,
          0.8686602841668376,
          0.19233967459821078,
          -0.86199774897770576,
          -0.2077446550753945
        ],
        [
          -0.63847207099046366,
          -0.53085197697958619,
          0.018644814399158761,
          0.33786220036314391,
          -0.48752184351680294,
          0.2460800287230562,
          -0.24367867356275269,
          -0.025611331946111104,
          -0.40800953247937277,
          -0.71281532424506477,
          -0.45335430434871915,
          -0.52486917350379636,
          -0.534319219917377,
          0.12068285958904521,
          -0.045503212856881969,
          -0.81135142628741819
        ],
        [
          -0.044391166370638072,
          0.60935340370841629,
          0.70724537548045041,
          -0.16265302260713541,
          -0.39638589396252077,
          0.55524541905169189,
          0.041680699036929537,
          0.17213668809050628,
          -0.50873087795372651,
          -0.48475113252071378,
          0.27380801003786304,
          0.66524491861851,
          0.8371130988700739,
          -0.19009367480806874,
          -0.90763299117503471,
          -0.76779363077263774
        ],
        [
          0.89873559648757129,
          -1.037567235239315,
          -0.792324777024679,
          -0.0034914044985824167,
          -0.8256891287273993,
          -0.20527486295194261,
          0.058432115768498723,
          -0.73358251341557235,
          -0.97130322909571,
          -0.36880320297218383,
          -0.079534022188558845,
          -0.19040142046750558,
          -0.091025532396210987,
          -0.43998851946109341,
          0.05754857290281578,
          0.04421696964603683
        ],
        [
          -0.59850810156076861,
          -0.874766730178744,
          -0.90115418281184112,
          0.75217889356518519,
          0.64931621825477759,
          0.2342565119769546,
          0.34257718660929876,
          -0.49948611818503391,
          -0.88667315071375308,
          0.70274754769922354,
          -0.31205506301836894,
          0.73118228439270883,
          0.75559868739289016,
          -0.31711200542744644,
          -0.7738357427438538,
          -0.86763872202054149
        ],
        [
          -0.049942967470366528,
          0.15040083906644056,
          -0.47213756844944732,
          0.00025439584696490439,
          0.93800126625755875,
          0.797055432056743,
          -0.92728805500146849,
          -0.2208374839107872,
          -0.94872268870446108,
          -0.66650060239143194,
          -1.0028051475217956,
          -0.26663455570148192,
          0.3229772539669305,
          -1.0239377571919934,
          -0.25021400668859534,
          0.94846548244267859
        ],
        [
          0.52658471178416355,
          0.11199348509697128,
          -0.052643558456468474,
          0.06967959322832333,
          -0.85083892545439488,
          0.24130924734386097,
          0.69307985303852548,
          -0.72563654489714391,
          -0.087035993453005611,
          0.94219998556184836,
          -0.062793614733691869,
          -0.750933545380215,
          0.45445397911374169,
          -0.84592369032982351,
          0.96774138205572635,
          0.889747078887323
        ],
        [
          -1.0419039880653402,
          0.81282404248037665,
          -0.68776192257984781,
          0.43723986603186987,
          0.50276911421904691,
          -0.868822129544793,
          0.0750733330647803,
          -0.38593853686825863,
          -0.94226314440709258,
          -0.18103358119724675,
          -0.19706784693493318,
          0.63847328632200251,
          -0.078182453794671938,
          0.85834819523658989,
          -0.30236674474641956,
          -0.64889700279278117
        ],
        [
          0.24407655063232564,
          0.11240446028685082,
          -0.39765942746658822,
          0.12211563370987923,
          -0.16026380285387204,
          -0.92036300558502815,
          -0.2205584702745137,
          -0.99854883205037892,
          -0.69188496201638783,
          -0.38417266512298232,
          0.035700258175173284,
          -0.750644067739452,
          0.67509710109574583,
          0.8257534019932562,
          0.82272186826801308,
          0.89251049946355265
        ],
        [
          0.1033730897322187,
          0.4084847294390252,
          -0.76459639866709017,
          0.32638881148637794,
          0.18680154276313915,
          0.026165553965682847,
          0.67597944995317449,
          -0.25798288572469941,
          -0.048024114560227926,
          0.89552196843545206,
          0.22540598579713428,
          -0.55474817377453556,
          0.74123640261372414,
          0.7615695894048029,
          0.51013344291484364,
          0.87242236559572262
        ],
        [
          0.170820036830015,
          -0.45760272330231461,
          -0.22007831463482458,
          -0.51922109464316035,
          0.63106433162689024,
          -0.04192095818829298,
          0.27937124094825355,
          0.68475236252051108,
          -0.93053428885866607,
          0.88497592724855312,
          -0.22553231862342726,
          -0.935934135661776,
          0.95483393660528448,
          0.79877145498101054,
          -0.66553379853369288,
          0.38837412454477216
        ],
        [
          0.80082869755257113,
          -0.37406549349985513,
          0.90839637072884238,
          -0.66353070174476469,
          -0.1402124604186909,
          0.21760975466210789,
          1.0008278094040355,
          -0.67328788971427567,
          0.28395412991401836,
          0.12559200294316256,
          0.80320127921224382,
          -0.20276846035340918,
          -0.027223991502335274,
          0.89966013890732466,
          0.90172710756658025,
          0.35745335941492284
        ],
        [
          0.75257334129106446,
          0.96043420649499922,
          -0.267535606146576,
          -0.38609853221236207,
          0.60987003636769765,
          -0.67732900554220221,
          0.722078703883326,
          0.36616926893702217,
          -0.73563864861023331,
          0.28969584598197395,
          -0.20292606290398907,
          -0.90135723186595251,
          -0.41610517892274362,
          0.79151271449443339,
          -0.7046964997623264,
          -0.028560724916805457
        ],
        [
          0.45667919648961908,
          0.53729260942333668,
          -0.0559826178745351,
          0.24707406668791707,
          0.25824327790408541,
          0.098249112620083276,
          0.54313683330941787,
          0.89803453555431478,
          0.79131744046355879,
          -0.55055970668797127,
          0.72921267042913285,
          -0.12216852323111946,
          0.737345010002757,
          0.87011669811834036,
          0.16254431100476596,
          0.75070175191680533
        ],
        [
          -0.94938468218628125,
          0.31400473528914657,
          -0.45920483672876855,
          -0.087747133543196729,
          -0.91962511185333318,
          -0.78068454829881928,
          -0.4444402248329285,
          -0.84015659361976869,
          -0.055278255244609761,
          -0.92609954781834714,
          -0.52089212245261907,
          0.016081867767864962,
          0.56478841342745212,
          -0.15374077551007492,
          0.30355860686771297,
          0.31126115134275223
        ],
        [
          -0.9640728843662496,
          -0.18197249857326561,
          0.092247381360377453,
          0.081085288458090723,
          -0.71093594445623642,
          0.75782595587988355,
          -0.73439705830138335,
          -0.04087470823794942,
          0.711705188161091,
          -0.94740530446176163,
          0.44046097465823886,
          -0.48468602422579038,
          0.46379104671780663,
          -0.63575216589454175,
          0.89493258085919924,
          0.98014311085748118
        ],
        [
          0.02360181898956485,
          0.5626068808733794,
          0.94836583223321236,
          -0.3939064065659646,
          -0.2934738879534885,
          0.4510389251084933,
          0.94793286880407324,
          0.24871731756363089,
          -0.11693332564446954,
          -0.44835634313532358,
          -0.50097773449448224,
          0.86854336134219656,
          -0.87114155110189828,
          0.27704146856493744,
          -0.20262434102680471,
          1.0151798798546075
        ],
        [
          -0.28856986628694747,
          -0.81872180130897732,
          0.60833512551278568,
          0.86953489135818218,
          -0.32617897214139846,
          -0.17799832868291107,
          -0.40435941742833587,
          -1.0086298981016733,
          -0.072365439835825857,
          0.92594627856272527,
          0.51549143957019594,
          0.98401341054650138,
          -0.77949054682845387,
          -0.047461630282257812,
          0.1746632533418766,
          -0.25266351794534536
        ],
        [
          0.36203547839225814,
          -0.09722840486640226,
          -0.32830050841790637,
          -0.59807908462493087,
          -0.92290500039011425,
          -0.542334966462985,
          0.77234256065379669,
          -0.81014867781560607,
          0.061545504849516243,
          0.2106608953979017,
          -0.39885057105649713,
          -0.2922471305071293,
          -0.4184316718413989,
          -0.65913134973454834,
          0.67372153231760867,
          0.68242087553548259
        ],
        [
          0.68806959145855351,
          0.64105990316153794,
          -0.14454946385590145,
          0.029112811226915877,
          -0.0030977104301106615,
          -0.8415630141822531,
          0.88196320955570628,
          0.25886622673942217,
          0.778113841904656,
          -0.7493644283898615,
          0.47233929841810596,
          0.5279950879334282,
          0.66967675854233888,
          0.34463288637861106,
          0.37508032841518246,
          0.36696993129617239
        ],
        [
          0.65146709761735244,
          0.08615578242031742,
          0.00657525334608814,
          0.036441422094178687,
          0.57339887460917049,
          -0.64532504310737393,
          0.59181257950071087,
          -0.25759109647834766,
          0.35380644037966713,
          -0.0093123006447876841,
          -0.04244334871854246,
          0.59114738533334921,
          0.83155232338016716,
          -0.90555978633422018,
          0.792676634135455,
          -0.8033354839932676
        ],
        [
          0.51068364029903157,
          -0.652090047752547,
          -0.722021252828308,
          -0.2006448211347803,
          -0.29579756641532329,
          -0.51119304225688189,
          -0.037687997260400265,
          -0.29383789867052368,
          -0.36638760600591913,
          -0.41700214630001431,
          -0.47122596639175418,
          -0.41625589827959525,
          -0.78105164858730647,
          -0.54609537820290388,
          0.59024567294752606,
          0.9182334904401992
        ],
        [
          0.46468805750086495,
          0.129622311316847,
          -0.243164858832206,
          0.3703798804653094,
          -0.67067025907555622,
          -0.61338672811388884,
          -0.15395331003137353,
          -0.56190398735456071,
          0.73269005192714,
          0.65351196990340843,
          0.20744684907837824,
          0.094794580064314876,
          0.32847472532453487,
          -0.6127387377985033,
          -0.61026543762116581,
          -0.29540549695916052
        ],
        [
          0.33161602445206095,
          -0.25946084854444712,
          0.26315252140132772,
          0.61986489298931269,
          0.59985280514896866,
          -0.37942983794983454,
          0.65005123371314333,
          0.6010722296162464,
          -0.43470359258574742,
          0.630499224124744,
          0.71262152223441566,
          0.37391861405557475,
          0.081187609730046947,
          0.96997500755662069,
          -0.900295465427799,
          -0.56708187450327119
        ],
        [
          0.71277021399882168,
          0.6964475832804804,
          -0.26258162464545853,
          -0.44767059589222519,
          0.27119584355377263,
          0.13222441817793298,
          -0.13758722223926029,
          -0.81909311319340872,
          0.38310797797440932,
          -0.0091003791185773932,
          0.86618450063092245,
          0.28590850014725683,
          -0.63631023878273463,
          -1.0171023494028277,
          0.012554544671733068,
          0.5307230850870126
        ],
        [
          -0.758685920649958,
          -0.35254276737568357,
          -0.17214987301935117,
          0.31334172443428587,
          -0.23678234087724712,
          -0.56147155715183161,
          -0.71610369929751516,
          -0.968961141166409,
          0.45237176205303037,
          0.45343058093620159,
          -0.76569673171502084,
          -0.23683669299632165,
          -0.73182851362392,
          0.62675918053242574,
          0.26754926149453895,
          -0.90248963653717074
        ],
        [
          0.5105485685972887,
          -0.70033289715862568,
          -0.689194521787169,
          0.90761522431022756,
          0.94331709672435859,
          -0.472911091799359,
          -0.69949502138298925,
          -0.50605664467729439,
          -0.85077708153056331,
          -0.79434100685097286,
          0.081725436415159988,
          -0.22779040011466878,
          0.63434806838278135,
          -0.55680706245635814,
          -1.04689897632978,
          -0.595920021528319
        ],
        [
          -1.0319737694760864,
          0.92712443585417481,
          -0.87442133431222213,
          0.77546409224627444,
          -0.28356030862302362,
          0.65558979557093133,
          0.96159355044838957,
          -0.49187353719166543,
          -0.778058962213072,
          0.017852116543325004,
          -0.85003350920913312,
          0.13274976393487778,
          -0.63018641517916785,
          -0.51570203665521386,
          0.86273900759026023,
          0.73627017354793212
        ],
        [
          0.24035865687667751,
          -0.965831411766006,
          -0.32338981365218822,
          0.5195452819267683,
          0.2181945248245141,
          -0.77814146413996832,
          -0.95934605749688784,
          -0.90843559200706159,
          0.21722927197943306,
          -0.11164279114480148,
          0.46689811544316762,
          0.92675981154375375,
          -0.41448527299751753,
          -0.52989352178447813,
          -0.083766525565184755,
          0.33613664953644834
        ],
        [
          -0.49217700483494625,
          -0.13744796371690021,
          0.68920970509746349,
          0.57568197470330329,
          0.98341685291386016,
          0.52238207294805106,
          -0.66700757693175061,
          0.71505782071525548,
          -0.68218383795915449,
          0.48345166112337623,
          0.20316499162606039,
          0.57152562308843768,
          0.25812598137143428,
          -0.077625253264350672,
          0.16949582926702203,
          0.92608174782666919
        ],
        [
          0.764211165007711,
          -0.43595962394224547,
          0.014810179832157738,
          -0.76446410983347535,
          -0.84350739833011679,
          0.26984818800641069,
          0.67635165993098478,
          0.85248292379960566,
          0.58059137561057816,
          -0.91850806875628432,
          -0.46221061814217185,
          -0.71335060043492848,
          -0.66263425569250123,
          0.18243943605804494,
          1.4045121743703406,
          -0.30734906509695453
        ],
        [
          -0.94389360530750266,
          -0.738119991788199,
          -0.61157305377177151,
          0.85670262732306179,
          -0.53862637082440079,
          -0.25951227611052213,
          -0.63358326975143409,
          0.37478470720624874,
          -0.10929624554550049,
          0.2049573573082302,
          1.092637579736639,
          -0.90589443286528848,
          0.655407989344223,
          -0.60449797863490151,
          0.49352203793811589,
          -0.4225060289246137
        ],
        [
          0.19876892575612598,
          -1.2483769485316116,
          -0.77701189438378482,
          -0.034718864513440167,
          0.57654970626956548,
          -0.058689280906576366,
          -0.31960411756292489,
          -0.19486106474532305,
          1.0428473014698456,
          0.0827641333743771,
          -0.86584098593278769,
          -0.525478516363555,
          -0.52719375619197628,
          -0.55484880920177782,
          -0.58623125948347043,
          0.394714159906649
        ],
        [
          -0.49242312810530503,
          -1.4292668584523363,
          0.44559216631456877,
          -0.33345410088816257,
          0.27790226472070068,
          0.80972874461802391,
          0.6028758128381011,
          0.30839430055513284,
          -0.23196350246483102,
          0.803681937198928,
          1.0834231682337165,
          -0.67965634214012727,
          -0.089178727414871845,
          0.46831372314069353,
          -0.53793987731201276,
          -1.1555314984980862
        ],
        [
          0.89970501086428956,
          0.12640748622918036,
          0.52618899244504658,
          -0.31686145028885848,
          -0.23797515140766179,
          0.17042831025889577,
          -0.21540079394098521,
          0.10820705555350034,
          -0.10862755259334662,
          -0.93005409654126714,
          -0.35608314222837323,
          0.273745925100073,
          0.071360560786888058,
          -1.0759193017730107,
          0.73561688089615052,
          0.11755194352897419
        ],
        [
          1.1111815341317577,
          0.56038556280851681,
          -0.68302681848307856,
          -0.8716610376495999,
          0.86246581117351373,
          -1.0467634856086521,
          0.50311041992283057,
          0.018580598050124065,
          -0.56889943546255306,
          -0.51942003720431962,
          -0.054345845989154477,
          -0.40941764367078465,
          -0.43088456155998467,
          0.48177815626121834,
          -0.80089281749036945,
          -0.99555378208991363
        ],
        [
          -0.029261919639282895,
          -1.0909963825499884,
          0.21657608741047113,
          0.919942125520991,
          0.27386266665998965,
          0.75422147377388238,
          0.87018059521340208,
          -0.65445201703834588,
          -0.92249665012205906,
          0.66378572425358318,
          0.34350746502207252,
          -0.2759055951886592,
          0.48802354345332505,
          -0.055664581109702328,
          0.23363348324208086,
          0.762449753629971
        ],
        [
          0.35075408169282091,
          0.384418301714802,
          0.45959686965107971,
          -0.5653487019877621,
          0.92234300301695182,
          -0.45421329127868854,
          -0.20668282265081295,
          -0.71675556254155914,
          0.75219141750768592,
          -0.8433939968561055,
          1.0806865909734611,
          0.40028525935583426,
          0.99404277162220178,
          -0.0066494891925210822,
          -0.11804874305821557,
          0.47224920915917
        ],
        [
          0.60427414082101583,
          0.40736956588078149,
          -0.016231618963741656,
          0.19249239458334014,
          0.4087246069857301,
          -0.63137243115927644,
          -0.74677900187153712,
          0.5554536774839558,
          1.0071561181898412,
          -0.30487987907929082,
          0.60217534850164389,
          -0.59772110287483915,
          -0.59351643245133712,
          0.13184022568152795,
          -0.67373762671680948,
          -0.8392745318543311
        ],
        [
          -0.26606943840672209,
          -0.16943836289841938,
          -0.94508711326395756,
          0.65651193936279606,
          -0.25323336651273842,
          0.41799740727060242,
          -0.31169638847176417,
          0.49663662149598642,
          0.8365068126470786,
          0.20131738001700608,
          -0.29541743111528024,
          0.69687431551201673,
          0.11214975683945382,
          -0.13085987003883035,
          0.40353474798800326,
          -0.70681972984721309
        ],
        [
          -0.047756238668947681,
          0.86758710157397867,
          0.29515338853154172,
          -0.83451643516484353,
          -0.957575725918331,
          0.619574292828725,
          -0.26988185258513109,
          -0.76241537038836593,
          -0.12543802593903597,
          -0.76972634563950248,
          0.23408407098507053,
          0.82972251368327143,
          0.19301609251313226,
          -0.65920653208949231,
          -0.098768217680965067,
          -0.78749785762438285
        ],
        [
          0.88442147586256237,
          -0.153583964459579,
          0.034900139439251091,
          -0.64356963611733331,
          0.68894338518349629,
          0.61040810408687285,
          -0.31187569179421143,
          0.49376189662668091,
          0.07715509631403325,
          -0.215131042401531,
          0.788548197490314,
          -0.45651472244988078,
          -0.080454033424721558,
          0.69918413885203079,
          -0.73830737300999716,
          -0.10507164791350887
        ],
        [
          0.228775245995816,
          0.41543852022290734,
          0.97142516008705593,
          0.1005030151256885,
          0.48897911189352128,
          0.042543286356219144,
          -0.56025542660687278,
          -0.67837499783273525,
          -0.71356629916806424,
          0.21694691183047013,
          -0.011030367733657082,
          -0.39331288143945026,
          -0.49391236602545058,
          -0.069329758378946643,
          0.31898951412088894,
          0.16961852892590248
        ],
        [
          -0.83037528216685907,
          0.43630817552470175,
          -0.62343413473910891,
          -0.34560312770439722,
          -0.14519442617659734,
          -0.2749393622940407,
          0.92513954600248327,
          -0.38069032251724533,
          0.73195825343611931,
          0.052789373854193987,
          -0.558342919144325,
          -0.896431728936116,
          0.60601678812658277,
          0.28911176489717755,
          0.352024136091617,
          -0.543953919426402
        ],
        [
          0.71718608650531812,
          -0.64868550913973422,
          -0.64204645736946964,
          0.14462327983098314,
          -0.63713482394591159,
          -1.0113909673960739,
          -0.71395263045165847,
          0.81953002416629606,
          -0.2507380613720358,
          0.0098150722403339,
          -0.84253585284530375,
          0.0431987841431095,
          0.54270525272717562,
          -0.52762870231598691,
          0.66105760329289742,
          -0.46741099876063363
        ],
        [
          -0.95824589401330607,
          0.67651016215228765,
          -0.29575062028949162,
          -0.96244224973155523,
          -0.7018725660141576,
          -0.18149971646158233,
          -0.35171900519270333,
          0.30457495126983591,
          0.86940724298949634,
          -0.0344453118089384,
          0.92296437251427021,
          -0.64575028370072951,
          -0.64038622825624558,
          -0.77985037534456314,
          0.18266627143982861,
          -0.2053193849203214
        ],
        [
          -0.33364865121281162,
          0.17872892386662251,
          -0.78997075928247773,
          -0.35048012246510424,
          0.74959998904019409,
          0.24090179488162364,
          0.42283186207424966,
          0.30819884778110751,
          0.55823634344744777,
          -0.06960863054729817,
          -0.80390779736406359,
          -0.2249753232761863,
          -0.661572799358835,
          0.946415098412376,
          0.90776813982872673,
          -0.067495565737529351
        ],
        [
          0.10476745029127924,
          -0.958682796718615,
          0.19546622505517891,
          -0.79314086676707829,
          0.34566112421681139,
          0.753163692672746,
          0.23961931660659042,
          -0.77223156604815013,
          0.65103326168502962,
          -0.44435936788105612,
          0.35739071046035287,
          0.81066207776839028,
          -0.86974643966401133,
          -0.46526163254812863,
          0.052357127172121834,
          -0.062556441050888964
        ],
        [
          -0.749849695182482,
          0.72007881892204428,
          0.79544383736624757,
          -0.18810773489589408,
          0.35695430490442553,
          0.019865779858307044,
          0.127865015444145,
          0.47010411484056475,
          0.37767629243188394,
          0.43214014183300364,
          0.7689230834262335,
          0.15857473065248651,
          0.95762773063747075,
          0.82269866401011393,
          0.92979125593495393,
          0.85030302351992015
        ],
        [
          0.82282664958688179,
          0.059074034070226211,
          -0.57097927090770539,
          -0.00014170223270343216,
          0.12853864174374352,
          -0.891025439741035,
          -0.49171207317020715,
          0.278977722977788,
          0.925375038868157,
          -0.11025814225454865,
          -0.59364427659571983,
          0.35403777300220513,
          0.89834487958977016,
          0.41254838926948,
          0.36355326756752537,
          -0.27927648354025747
        ],
        [
          -0.0070717206724622648,
          -0.40139923843342618,
          0.811634626179947,
          0.63414020241748559,
          -0.48977529404167613,
          -0.66695230238590175,
          -0.74407583364325358,
          -0.48665765668494343,
          0.020285360559400972,
          0.54041693397978152,
          -0.93408554116438747,
          -0.45113123349727352,
          -0.19082138760809472,
          -0.99630195398627974,
          -0.84006148025801819,
          0.20828319336206502
        ],
        [
          0.54649972240689826,
          -0.98432249857630449,
          -0.0046621593391204608,
          0.30508052577565725,
          0.72896166245295912,
          -0.6654225192198352,
          -0.97389774268179619,
          0.64121701234744855,
          0.48361824686461974,
          0.2064627782110636,
          -0.81168159881842183,
          0.45672672848371004,
          -0.14961460967545145,
          -0.45431684159696517,
          -0.30764731186826105,
          -0.10343809511741754
        ],
        [
          0.45268995014922736,
          0.66864525668000452,
          0.22878767985647547,
          -0.55257832211081137,
          0.76770203928111191,
          -0.17984033240258959,
          0.60843122870152067,
          0.78828072111027281,
          -1.0653912395277538,
          -0.58370386295753152,
          -0.94055989117510841,
          -0.24322033739103974,
          -0.233796272194147,
          -0.043476218480618369,
          0.53592822414129693,
          -0.50174214586104782
        ],
        [
          -0.46711577367337087,
          -0.84900939263021835,
          0.611341097570313,
          0.0882307477386961,
          -0.33109000808444872,
          -0.72329120997279017,
          -0.86552930912095827,
          0.58378085552580317,
          0.52885997520197014,
          0.74816573193048863,
          0.93555035109110762,
          -0.6469171218281865,
          0.43020731319816097,
          -0.90529056330979218,
          -0.72667623905783207,
          -0.026500396392960066
        ],
        [
          0.53639230325540588,
          0.51844806008931565,
          -0.43895170153761487,
          -0.31551674144745406,
          0.47776397734363879,
          -0.63989859169391639,
          0.42963042541217122,
          0.035923332365681952,
          -0.62169137950404452,
          0.090082889805463681,
          -0.5096445808240806,
          0.14520868324513042,
          0.26134024127679545,
          -0.99616379011330491,
          -1.0147073719199724,
          -0.48131009902216926
        ],
        [
          0.89774820794992649,
          -0.31575171238820871,
          0.67084611140823325,
          0.36201034229493961,
          -0.61214459426272239,
          0.9650647845800745,
          -0.572051430502546,
          0.64494951384241206,
          0.63869260284179119,
          -0.9214651054669436,
          0.27248726570280596,
          1.0310034129589472,
          0.2791800364754784,
          -0.10625049767609035,
          -1.7326179831626802,
          -1.1023215411696106
        ],
        [
          0.99023321704877065,
          -0.56635489950001483,
          0.7199573078525372,
          0.30254940226985488,
          0.31804269097252758,
          1.3379286732905371,
          0.32864701260718271,
          -0.28123342298116349,
          -1.1185881116034011,
          -0.030908321142539892,
          -0.054924167733483881,
          0.49806986242031848,
          -0.27378890772393782,
          -1.0317166949224284,
          -0.91831242213006,
          -0.78257004709548883
        ],
        [
          1.0333592068573176,
          -2.3171392491556455,
          0.417448057458181,
          -0.15730015341607792,
          -0.50446513977124985,
          -0.78530612401914268,
          -0.45360531983585156,
          0.61641260990783242,
          -0.51348557206454815,
          -0.36670987903197361,
          0.93026092786233627,
          1.0726098884043709,
          -0.26085757898184292,
          0.96275131945950732,
          -1.8894350766886969,
          -1.2245535118847382
        ],
        [
          0.60653000994653727,
          -0.94179899554946511,
          -0.22475216955991392,
          0.29768086568853563,
          0.53554669708831082,
          -0.9224028298255692,
          -0.0068361054167969861,
          -0.2041286612532546,
          0.31192797218897111,
          0.72437459940352988,
          0.92444055826858251,
          0.389810977851659,
          1.3009803707342755,
          -0.38213431541814424,
          -0.86047048841327678,
          -0.39500330542971474
        ],
        [
          0.11895353759004253,
          -1.1252623310785384,
          0.097017096931228675,
          -0.21770550271709963,
          1.0661211939480124,
          -0.087175631318312963,
          -0.14799323318425062,
          -2.0932442068463071,
          0.3834894112717282,
          0.83812743356483088,
          1.3459107143653004,
          0.3625092224588668,
          1.576662493853205,
          -0.087839833131212908,
          -1.8967149143769864,
          -0.6230527446599
        ],
        [
          1.5279110372461879,
          -2.9831929236455865,
          0.68139575663261953,
          -0.2923176647897095,
          0.18357882853030694,
          0.51900676006968882,
          -0.53837127454296141,
          -0.39100091130531334,
          -0.20549452495496368,
          -0.78535579700006253,
          -0.42544269898910853,
          0.21498649526302882,
          0.39764728807939437,
          0.65000870228484808,
          -0.947350603381687,
          -1.0771815683693544
        ],
        [
          1.4898736440592435,
          -1.1801837839741407,
          1.1307417770582222,
          -0.85524176631263127,
          1.7992028835404113,
          0.78974652070708873,
          -0.93312459758634714,
          -0.19804272699420497,
          0.97686981377745563,
          -2.0471188228568611,
          1.2489102143876796,
          0.17325436653581564,
          1.4344991756424865,
          0.73935062321643674,
          -0.6949319989482502,
          -2.1710107494804225
        ],
        [
          0.88092017679751378,
          -1.3398143638976219,
          1.3939807191750617,
          0.014469971497928658,
          0.62747179469058023,
          0.10298702932794508,
          0.22467819859897323,
          -0.038647828717649824,
          0.49280991827378912,
          -1.2960101386594558,
          -0.12938314686040794,
          0.41617853322223536,
          2.1657007050523958,
          0.217057972709431,
          -2.663414385530722,
          -1.8394289983091725
        ],
        [
          0.02937098276819931,
          -0.74867967473153041,
          1.5529257113862416,
          0.47047914225139909,
          0.12451085351155104,
          -0.19038142722128376,
          0.37890852515257389,
          -0.26899023721602755,
          -1.2248837063243607,
          0.37933194882380433,
          -0.14996015670882643,
          0.23556704528773997,
          1.3536405035184049,
          -0.60557521579742368,
          -1.719370569760535,
          -0.64756144789086278
        ],
        [
          0.18593957157509777,
          -1.0798319758541,
          -0.24266019093956326,
          0.95103064023453054,
          -0.51928705733292735,
          0.57239738449542832,
          0.71528378883371624,
          -0.85818675132617017,
          -0.71811646002657725,
          -0.72410343825173973,
          1.7530805163575036,
          1.0703989299911141,
          1.0155487657517937,
          -1.0352088329973967,
          -1.4390055828323145,
          -1.5273111583599479
        ],
        [
          -0.18081160039491398,
          -0.74587177392278126,
          0.0032568116478969272,
          -0.49729241824498766,
          0.88520699887518572,
          0.60616610833012774,
          1.1133242022712022,
          -0.66456121444254468,
          -0.63918120231054021,
          0.20954898916146444,
          0.70950066316351978,
          0.67104557133294052,
          0.068438724529510345,
          -1.509372325366811,
          -2.0268016486608986,
          -0.31920970621732991
        ],
        [
          -0.094939239103113221,
          -0.048031920952167115,
          0.71844232786919993,
          0.66532000544058556,
          -0.6231043873405695,
          0.012636498579401348,
          1.7589761891238531,
          0.31332029334994366,
          -1.3153707020963612,
          -0.82373096776547383,
          2.13276345281479,
          -0.46940567514628512,
          0.32320242956452888,
          -0.012778306920589786,
          -0.97827910880193,
          0.45080864045056085
        ],
        [
          -0.27402263072436345,
          -0.476720888915132,
          -0.44843945061943657,
          -0.2088948238420609,
          0.59396996887103914,
          -2.1121209511158643,
          1.2980784503484244,
          -0.1603390665139092,
          -0.99142972387150807,
          -0.35895008574644416,
          1.4159050408583063,
          1.0870257010848012,
          0.134565927364846,
          -1.021192929439706,
          -1.3450408568848247,
          0.25598059957192149
        ],
        [
          -1.1189779051694542,
          -1.3780855321676153,
          -0.19725189263381493,
          -0.21202486808617141,
          -0.35663126806610551,
          -0.45138402907798525,
          1.5358946995693026,
          -0.95108936720615678,
          -0.069685318269956151,
          0.71988568886418558,
          1.0168865723317788,
          -0.60137814600484418,
          0.55231302620066181,
          -0.920637511601469,
          -0.44171469708969135,
          -1.0823937870704554
        ],
        [
          -1.1669364969593641,
          -0.053099182867904063,
          0.92143758326154546,
          -0.51368640917924169,
          0.80992470835107611,
          0.092368714985996969,
          0.99628521003842263,
          -0.84633534237327779,
          -0.49294456324090258,
          0.513489800047804,
          0.37317443943174355,
          0.064326411399080685,
          -0.95498741190877734,
          -0.019063380335798328,
          -0.82656243316608247,
          0.36214510412392503
        ],
        [
          -1.2997952645582627,
          0.83864313857190531,
          1.02383646343967,
          -0.97681704066818054,
          -0.45230318797488955,
          0.2733171097941749,
          -0.10230908640899256,
          0.7103792943486501,
          0.73837444160177046,
          0.012595722514946488,
          -0.28670767011148979,
          -0.31357375568695306,
          0.062204796689546843,
          -0.54654574295370539,
          -0.75035788886495491,
          -0.5523979366498768
        ],
        [
          -0.95942777721847516,
          -0.035464841164455779,
          0.90215195711070884,
          0.39252897527094938,
          -0.9524226398728618,
          0.14051197005812591,
          -1.3448187832056027,
          0.70632512307587692,
          0.4995852615665658,
          0.36311090084946618,
          0.098404650690295734,
          -0.46900585669960337,
          -0.49203026490076757,
          0.86760673620645068,
          0.68894138615695388,
          0.78688721142096774
        ],
        [
          -0.57495002898234682,
          0.14478240577886289,
          -0.26120323639248511,
          -0.70162474081984127,
          0.42984273308184895,
          0.18733125519107016,
          0.30131744321335224,
          -0.12408046101114928,
          -0.29016880166138426,
          0.85193193756970831,
          -0.70985476897984,
          -0.90475767987718692,
          0.51558722924223033,
          0.28636243034205827,
          0.036199490753180227,
          -0.75674021906857747
        ],
        [
          0.33878608529606447,
          -0.85741367520398171,
          -0.14492984253806779,
          0.38598138096609674,
          0.12474370398795456,
          0.21667187278259623,
          0.692923739160633,
          -0.35977624871657721,
          0.21611791978229075,
          -0.93648069578227333,
          0.34786275898139474,
          0.18721783606378245,
          -0.11219674189787922,
          -0.98015292591373981,
          0.24666745586233368,
          0.50400308182755538
        ],
        [
          -0.052483387597300715,
          -0.49418322628927641,
          0.77684425285213388,
          1.0153566259226208,
          0.65639116079769844,
          0.51630000340846338,
          0.34757216654617457,
          0.97879445596701331,
          -0.49607757931924878,
          0.64538520976896652,
          -0.99484900657042119,
          0.53009346316630712,
          0.56340071764556554,
          -0.072447715531372525,
          -0.43503974007532276,
          -0.8628705240477379
        ],
        [
          0.787142541652212,
          0.83160652915382116,
          0.39182317119206289,
          1.0212322208365923,
          -0.65014178491905517,
          -0.40610628049724251,
          0.33424549720149604,
          0.67635377936166041,
          0.15473299905296653,
          0.82280818309630521,
          -0.63662785307458791,
          1.0318594810376116,
          0.930063006894345,
          0.10418677006914967,
          0.71887510640433439,
          -0.017068531007441694
        ],
        [
          0.93693521337953845,
          -0.042757961302928207,
          0.020689285612788159,
          -0.040847535296057669,
          0.45543555671920016,
          -0.42735575297903844,
          -0.62489228977541578,
          -0.35656451466154337,
          0.65451352043899125,
          1.016310109806045,
          0.0749526220172135,
          0.15008855885381833,
          0.45551737766512673,
          -0.16090907358034584,
          -0.27468976486531205,
          0.7370757094531859
        ],
        [
          -0.021708679413901116,
          0.2506934239308925,
          0.53456618977714643,
          -0.60210897802088315,
          0.25799653987918986,
          0.30580052181221362,
          0.030780770654179088,
          0.95214209046039966,
          0.14972159107665167,
          0.32082105922163606,
          -0.39272806330645094,
          0.94542654964351491,
          0.85398019515479229,
          -0.512563863033366,
          -0.0693188447892622,
          0.81542756537745775
        ],
        [
          0.51999367578512667,
          0.091926307055803014,
          0.97761367921148479,
          0.80354622204777326,
          -0.59949211297920157,
          -0.71540799202638339,
          -0.60935348826996072,
          0.66060212936907359,
          0.18379368710753527,
          -0.30169774359510282,
          0.75954571100290036,
          0.54270202647920651,
          0.077033154962118558,
          0.81478821377676058,
          0.20510982815328746,
          0.46243459691513972
        ],
        [
          0.66173720457130647,
          -0.51754506769949882,
          0.75715531893521915,
          -0.078894739962176955,
          0.33883810845546569,
          0.84755267700381887,
          0.19540868408283271,
          0.62512680219442773,
          0.49544591651892445,
          -0.11202707845468432,
          0.9342118971269604,
          -0.28419624200331023,
          0.60204997042298436,
          0.38616059855809687,
          1.2076996437184289,
          -0.27386745288518993
        ],
        [
          0.67818585106801221,
          0.75136536984248048,
          0.98088491448027526,
          -0.18600726617059174,
          -0.26991675027740103,
          0.13352437847906815,
          0.61786843236635136,
          -0.11139015751785263,
          -0.44081250391800386,
          0.14450771388686792,
          1.8546809746267559,
          -0.48123805114237772,
          -0.7241584260648587,
          -0.066064751350353682,
          1.7016771704234959,
          0.31736884599877108
        ],
        [
          -0.65375407242311123,
          -0.052327879679999766,
          0.785560904218571,
          0.20811824954421973,
          0.48555309788948259,
          -0.16040974403048675,
          -0.637287198008962,
          0.4559826203756549,
          -0.74482723953625829,
          -0.42724455215656088,
          1.2566626419209486,
          -0.53224481540150814,
          1.2320249111005619,
          -0.32704156209770946,
          -0.14729633231197475,
          -0.54051417888460485
        ],
        [
          0.01674316727547218,
          0.54150905281978667,
          0.41126639079233818,
          -0.524816644118153,
          0.096374078573002689,
          1.1787632337148819,
          -0.819903759558138,
          -0.035568797275245825,
          0.57371605847834628,
          0.4362670849301527,
          2.3211614206402631,
          0.13785889051385558,
          -0.81480054998071949,
          0.1266705471101483,
          -0.47028472930806176,
          -1.2840072381277405
        ],
        [
          0.54188836806162011,
          1.579567205854834,
          1.317283278301248,
          -0.164528421270984,
          -1.1432587551567612,
          1.6339212962385001,
          -1.2024119887321199,
          0.055670105762949354,
          -0.65585541612130416,
          1.064505595413078,
          3.3849707756235534,
          0.65855720104793491,
          0.52001658451560684,
          -0.1536754072824591,
          -2.092180078412559,
          -0.518037355421411
        ],
        [
          1.7584804542799064,
          0.38295362707236263,
          1.327552794795368,
          0.37488883832117992,
          -0.92225152512885544,
          3.2096996317738653,
          -0.961983949652034,
          0.91511318645141426,
          -0.88619380993377161,
          2.9428894366985707,
          2.9489627003869785,
          1.0501075676957943,
          2.1034671258075566,
          0.077743061105634129,
          -1.321989648315562,
          -1.3218671553135619
        ],
        [
          0.33120257993188623,
          1.9749609960543657,
          0.81072660897247373,
          -0.068225888595685485,
          -3.1296485972408363,
          2.1794521426454736,
          -2.7470671874707864,
          0.26594859921389857,
          -0.77756170757763443,
          3.871414923885256,
          0.8458201213815455,
          1.3912214650862802,
          0.39884153766081271,
          1.7188028695137849,
          -1.4054437155452826,
          -1.3894769291313156
        ],
        [
          0.93294289638722661,
          0.5271937239945943,
          0.049176945198747504,
          -1.1637457156685742,
          -1.7567112263660387,
          1.9677050810367098,
          -3.0059488016486449,
          1.1501987667202425,
          -1.0774749117936124,
          0.99659606571139769,
          3.5188955223895051,
          0.4765813103887902,
          -0.2576405122744313,
          2.0149150631044423,
          0.23340298089840256,
          -2.8845367770738513
        ],
        [
          1.2639484477095502,
          0.8677725147937918,
          1.853955369095831,
          0.64941570186265574,
          -0.017399507164667451,
          1.2776956861723723,
          -3.1816137136092579,
          1.22864777018559,
          -1.1969327825196665,
          0.40705472761504596,
          2.3057645675056531,
          2.4117816874519789,
          0.30031715408305587,
          -0.93601480832256445,
          0.54374376431082594,
          -2.6971679593277567
        ],
        [
          2.3415137856226993,
          -0.09625299073955601,
          2.6499871189386992,
          1.6094035104561395,
          0.39518197720989467,
          -0.41688647459018074,
          -2.3979941403558227,
          -0.16610205463950278,
          -3.2880415044121953,
          -2.3146144144975582,
          1.8635988364223624,
          1.9694447534143431,
          2.5309712427477904,
          -0.97234297932318481,
          3.3605205413195161,
          -3.2186394995213456
        ],
        [
          1.4600194836543587,
          -0.4740767975982596,
          2.3687503852713259,
          2.3304234865613167,
          1.9931643017685368,
          1.731773138968395,
          0.0485631883229487,
          0.69518162272868655,
          -1.7413651058650912,
          -1.3012664021003144,
          3.9268372487326211,
          2.0721441032940455,
          3.3798349164214079,
          -1.3643417484510707,
          2.5752729850565719,
          -3.482665687959325
        ],
        [
          1.4697380073869846,
          0.050242238457951,
          1.7576551150263307,
          3.1013524089202709,
          -0.69773411788316619,
          -0.4183219452748822,
          -2.2925308616206239,
          -0.63950978535679959,
          -1.8886751117673368,
          -0.876030823949576,
          4.0501090797094559,
          2.8693049603091474,
          1.3246837393758939,
          -0.9494008671062999,
          1.1203426691360883,
          -3.2239173793286162
        ],
        [
          1.8531563970158624,
          -1.322402806848004,
          0.91790072922688881,
          2.876048202485658,
          -0.014555556049015143,
          -1.6045561847468719,
          -0.078336484311405788,
          -0.8061430886093558,
          -1.9019103010864766,
          1.5477766438072216,
          1.7583383125428356,
          2.5312630901112443,
          1.895817625671484,
          1.0576023639413423,
          1.8548996183606576,
          -2.5088018191638883
        ],
        [
          2.3456513499294496,
          -1.465609768184174,
          1.8086565167275319,
          1.5658198538774961,
          0.77723598090353541,
          -0.33708558679883083,
          1.4570744637233029,
          -0.37203888058563295,
          -0.48410021626089372,
          0.28172670872265487,
          1.390832166910742,
          0.95814459447564915,
          1.9766629584904141,
          -0.85821418573182906,
          -0.12646389359831534,
          -2.6314438773034747
        ],
        [
          1.303972754933072,
          -2.0267735622985859,
          2.7904116647005544,
          1.0947887521330251,
          1.6788742881570606,
          -0.31682327536948895,
          2.5822995337906409,
          -1.25162037247947,
          -1.8277042651679394,
          0.81921421870022293,
          5.2485611625761752,
          0.84022640174725072,
          1.6888164310937923,
          0.97694313893002072,
          -1.0324357177012409,
          -0.64133873897617788
        ],
        [
          1.012443507985296,
          -2.4588103563671262,
          2.8739661743105671,
          1.1851225459516397,
          -0.25727409726402173,
          -0.95368143068051681,
          1.3480949654362042,
          -2.9891966446352813,
          -0.840944200750777,
          -1.2862232368021,
          5.5068012707946288,
          -0.34967110217841074,
          1.1017281071731229,
          2.6940732379055277,
          0.27596196814317914,
          0.090340946082586693
        ],
        [
          0.24592837121386343,
          -1.5521794271505345,
          2.39435564187379,
          1.1259135046747424,
          2.2588851693036132,
          -1.9524032511169678,
          1.0745725379887507,
          -5.364169937987449,
          -0.11300715516948341,
          -0.832600905048748,
          5.3410710222885731,
          -2.4498058457679743,
          1.8235441857306842,
          0.10224692903345434,
          0.61486520307939652,
          0.5138933366298849
        ],
        [
          -0.52667836840345994,
          -2.0609447691188736,
          0.80855862919003407,
          -0.023317244178919467,
          2.8672423801726379,
          -0.37494872916463889,
          1.5516924119664881,
          -3.510366914665576,
          -0.041970532190255511,
          1.0907604054097362,
          2.6684988411502428,
          -1.441499377708827,
          2.6453006902945928,
          -0.42813477014610174,
          0.56139821608590734,
          -0.78433232676078735
        ],
        [
          0.21446318463854558,
          -2.420135218012327,
          0.41248511866870496,
          0.348796798398282,
          0.79237419238350937,
          -0.89817755432311308,
          1.8602322307161887,
          -0.56554295400443055,
          -2.3264523400382608,
          0.593567960783244,
          -0.45349959482186281,
          0.38160779380666277,
          1.4029438891632879,
          -0.35537300954244977,
          -0.30767425545336918,
          0.077768640541648809
        ],
        [
          0.30056685495454805,
          0.64057672842282731,
          1.1377067013231488,
          -1.1741930012655544,
          1.2600123794346922,
          -0.84952184439608436,
          -0.19844717989352315,
          -1.3281336417205381,
          -0.74859504763961859,
          0.56237186836998065,
          -0.087294105751062612,
          0.57889553111811554,
          0.25843367389059441,
          0.3144099725057844,
          1.1467040938072193,
          0.19473862652313351
        ],
        [
          0.88481055170381506,
          -0.193498362566731,
          1.0936120043378332,
          -0.78806469451689154,
          -0.6406392656803741,
          -0.032531205813242876,
          -1.2127093659328698,
          -0.56026113808064248,
          -0.85878881998907375,
          -0.10731957434698433,
          -0.24792077754572134,
          0.12033389045895182,
          0.2149168290881083,
          -0.7256056809185315,
          0.13683392956256268,
          -0.0437548498674933
        ],
        [
          -0.504393401319406,
          -0.21935978266588685,
          0.58254245218305478,
          -0.21218759635140613,
          0.70405833022261743,
          -0.31869322538385564,
          -0.0016528076913246165,
          -0.69335000694615412,
          -0.17818061090410722,
          0.44048341527630874,
          0.17836076721477812,
          -0.25532557873567535,
          -0.26720530566928352,
          -0.10356262652818862,
          -0.86647082590899716,
          -0.45109671791157557
        ],
        [
          -0.51369004960013687,
          -0.052566047558408074,
          0.33080822114947239,
          -0.69468251077590848,
          0.42172713717673871,
          -0.15222848915395623,
          -0.62732817574475119,
          0.52540646909836941,
          -0.78390346478079165,
          -0.08119465916417358,
          -0.84083083869843933,
          0.057669753237076848,
          0.30308049401049214,
          0.782878753059026,
          -0.079100153195513972,
          -0.90430895343129891
        ],
        [
          0.54831854712370975,
          0.64931784753122657,
          -0.28230474142243167,
          0.254980033988682,
          -0.76941453595422393,
          -0.010802395510413388,
          0.98563641200702479,
          0.37414464188849994,
          -0.24891237692337229,
          -0.8529234504607015,
          -0.30921322425794306,
          0.75978449781486879,
          -0.94616636777514729,
          0.00394073410959044,
          0.62556941968275614,
          -0.055912087780356556
        ],
        [
          -0.1560111203372842,
          -0.54299510692320052,
          0.29325382593466864,
          0.18647587670231011,
          0.3428676955914518,
          -0.50501209487735765,
          -0.28969222869780481,
          -0.38623058091559181,
          -0.35583206021651159,
          -0.66199683837152756,
          0.62646183197430716,
          -0.41667099245271039,
          -0.11494186188281334,
          -0.042817499471034366,
          0.93624683283894328,
          -0.61021523349360285
        ],
        [
          -0.33935806527039086,
          -0.25873982963827313,
          -0.4420080565865826,
          0.26477666133383304,
          -0.59194922291099494,
          0.26043542587418594,
          0.25872423923667287,
          0.89027205891329531,
          1.0553141468258505,
          0.094093305228567112,
          -0.8302432193156658,
          0.10124798877598751,
          0.19041283828903113,
          -0.052308731963101367,
          0.29766746010135187,
          0.2548399179035673
        ],
        [
          -0.023425585938786818,
          0.31681529355999127,
          0.88013818402046207,
          -0.75041597205960731,
          -0.83740792513351081,
          0.32398835937245979,
          -0.16516793835205196,
          0.44689032301360215,
          -0.33165928210172091,
          0.75533308860513482,
          -0.768837483529638,
          -0.48894558919897185,
          0.040710548528954789,
          0.6121873875160051,
          0.0323296521021745,
          0.036074062400991959
        ],
        [
          0.95802798013884649,
          -0.632759012661801,
          0.27974266081163751,
          -0.37226119477276193,
          0.51234207847756619,
          -0.20626676921417078,
          0.47012869101608745,
          -0.88170648737580715,
          0.99468145215841564,
          0.48522601542019295,
          -0.52052377474126232,
          0.67341909850076409,
          -0.058986135698259688,
          -0.21313471091469979,
          -0.6905272261362585,
          1.084726500701334
        ],
        [
          -0.10062687158629356,
          1.1252250282043765,
          -0.39789978545416754,
          -0.0069585498222968795,
          -0.2009592753731172,
          -0.41945389698017593,
          -0.37118326834258797,
          -0.09881716994824491,
          -0.65470870880604581,
          -0.27457253315289659,
          0.59632717114869993,
          1.0945615111018399,
          1.4316999101254992,
          1.2190667975331673,
          1.5958681386810618,
          -0.304965964403564
        ],
        [
          0.016508225010956359,
          0.084242091605474675,
          0.15425037389776233,
          0.23797163016588283,
          -1.4981389563347549,
          1.1916466760577629,
          -0.47142836445918912,
          0.19624798055861506,
          0.1963311375064998,
          -1.2064507162377436,
          1.3081126481455108,
          0.86728336891531732,
          0.80738154171351273,
          1.0629450830499145,
          1.341208391684694,
          -0.94361687370346115
        ],
        [
          0.53873935599105194,
          0.58969162585231449,
          0.28961251483969425,
          0.20121188775506976,
          -2.1697675234622107,
          1.0242806974050303,
          -1.4313814326080399,
          -0.37144020422878782,
          -0.874320278437476,
          1.2798811754043504,
          2.8134641511741267,
          -0.041510432112151829,
          1.5858933947958929,
          -0.29858808700282752,
          0.82373300587331622,
          -0.16840662498661024
        ],
        [
          -0.32295872173801887,
          -0.91871517550244808,
          -0.12307128925856986,
          -0.078545319870679434,
          -3.5319756744886828,
          2.0098975354788275,
          -2.3202125234644093,
          -1.4354777387383741,
          0.42797147906299565,
          0.909173615158174,
          2.4606149149131924,
          0.57156012364019282,
          1.8283626971985298,
          2.4267333103935673,
          0.761148163105138,
          -0.55590382903394242
        ],
        [
          1.7126484549609697,
          -0.36424250792644297,
          0.87886676208987791,
          -0.21603180484159726,
          -3.4071055258001532,
          2.0437701756633628,
          -2.6538437317801353,
          1.11827369054563,
          -1.49292275784479,
          0.055019178899616321,
          2.7915084674844066,
          2.0812579162999012,
          -0.19325008054670251,
          1.5484728832514543,
          0.3499728472660556,
          -0.93768768219173659
        ],
        [
          0.85904555373989255,
          1.256550356051477,
          0.571246527333234,
          -2.3728408534297003,
          -2.6698272133861831,
          3.47578245422079,
          -4.4045844466648685,
          0.49111362032070566,
          -2.0007535516132924,
          1.3533518609123119,
          4.1056497667492016,
          3.2474386949092904,
          0.707875603995262,
          2.353343125017469,
          -0.013287413471696215,
          -3.0052276595022058
        ],
        [
          1.8859434538703488,
          1.635171631211817,
          0.012420743158185504,
          -2.8635154121815694,
          -2.2405427655014538,
          2.9105075112338805,
          -3.8237708697829582,
          1.5526574225088636,
          -1.5698048010017209,
          2.1695363696686334,
          0.7562107834764864,
          3.135002550521818,
          1.1492224470269001,
          2.41808728988882,
          0.61719164392965586,
          -5.3839397924479959
        ],
        [
          -0.46402843731036336,
          0.24776906823617695,
          1.0461683092362197,
          -1.3672029365851841,
          -2.8512910793207618,
          2.1049771369825696,
          -2.7865773596099115,
          3.1076254018408238,
          -1.8010327491886664,
          -0.027718979129926179,
          0.22334708921827917,
          1.668603445153229,
          0.808455474705017,
          3.394571203256024,
          -1.0423698123680631,
          -2.0292511375985258
        ],
        [
          -1.541837749252398,
          -0.40542581874009681,
          -0.42760681360530106,
          2.3115190623125654,
          -2.0721772511087369,
          1.5206737686762051,
          -4.4719730118106842,
          2.4767154179997806,
          -2.2493100063386779,
          -0.26746066174806576,
          0.41324664976096465,
          1.151651419834405,
          -1.6913931128218811,
          2.1568135970070452,
          -0.62999185278505121,
          -3.1947591446249715
        ],
        [
          1.2516697731506605,
          1.8877880270948915,
          -1.8428426103275248,
          2.7956829089753712,
          -0.76555171490168861,
          2.0411623064503917,
          -2.6765878814403576,
          1.042939742189954,
          0.10326155292674415,
          -1.4004520725097762,
          1.076433752016174,
          0.83352619814113083,
          -0.17284350091231043,
          0.48999332483314334,
          -2.6763609688794472,
          -6.4785655596843377
        ],
        [
          0.024979998460032859,
          -0.40972874570858325,
          -2.3342772162453369,
          4.2496182261762563,
          -0.19599998754882353,
          0.81150964707675288,
          -2.4932297736171822,
          -0.010293999621709748,
          0.17709391313598616,
          -2.1434118231313888,
          -0.97012886229184525,
          1.4641797225327138,
          2.6073747727926566,
          1.5106211360098403,
          0.36169257242933672,
          -4.454433709513256
        ],
        [
          0.56737793930042535,
          0.732873815091759,
          -2.3606439926976646,
          7.3284735242552559,
          -0.82920750493379247,
          -0.17934490927533225,
          -1.440272084910913,
          -1.2371164852702257,
          -0.73435653361893116,
          1.3193381222582614,
          -0.88348068262478674,
          -0.80048285760655069,
          1.3597451230630433,
          3.0898932051274715,
          1.2016329059840087,
          -3.4894187148395428
        ],
        [
          1.7938312202767752,
          -0.2751692883398355,
          -0.096962276309262144,
          9.6191048662749967,
          -0.669701377459706,
          -0.83812601502449091,
          -1.1617865176524047,
          -1.1082695372992506,
          0.15021176444303133,
          0.4365313512080965,
          -1.536356557918549,
          0.92463136563179427,
          -0.83332471016916021,
          0.17208128568522069,
          3.0156657625736725,
          -2.3587628570469596
        ],
        [
          0.4070523043792999,
          0.58042649084648024,
          0.0035761939223585911,
          9.0474680308301654,
          2.041606282313678,
          0.31700101586301216,
          0.10000372747633285,
          -1.4860067379670239,
          -0.739364822480156,
          -0.0034292846686696937,
          -2.0129216969158596,
          0.34910366544319266,
          0.11866105488014027,
          2.2832481373145539,
          2.4213502212614881,
          -3.3378446374539688
        ],
        [
          1.5152175653828057,
          0.38335524440506485,
          -0.4970148790232316,
          6.2295986594972792,
          1.1203139612916686,
          -0.421692037047949,
          -0.91020151596682253,
          1.2181801917573449,
          -1.4286963407517594,
          0.82039684331450491,
          1.7059041430474315,
          -0.76785716077600041,
          -0.86060467468874424,
          1.5364047161892902,
          0.70103864878076372,
          -0.06874884164380525
        ],
        [
          0.70711799147471821,
          0.90386012094283608,
          1.0844223644163655,
          4.67421834375518,
          1.4137835445582667,
          -1.8410098003530868,
          -0.947047770299444,
          -3.0368607568726453,
          -0.83915963056132914,
          0.64406802026358767,
          2.4493293732729331,
          -3.136877528244205,
          0.74681767022454482,
          1.0492885670371908,
          -1.7961408763844395,
          0.70401987735032179
        ],
        [
          -0.8949052850269974,
          -2.2330488916584494,
          0.66573899733486042,
          2.4135222499252853,
          2.532632212210896,
          -2.5128813012771025,
          0.7746152110439406,
          -6.3861945435235326,
          -2.4551266426776075,
          -1.9386019044820104,
          1.953210157780557,
          -4.2467510598280018,
          1.9792434869937827,
          -0.847372934887962,
          0.27626045784031394,
          2.5405518067620467
        ],
        [
          -1.2589174239852374,
          -1.8311949883509169,
          0.47815081365163592,
          1.335162559871631,
          3.2187617425221711,
          -0.93684296033173864,
          1.4544951695095258,
          -5.4918123390499618,
          -3.0390543483551111,
          -0.49277185509960475,
          -1.0307823177740469,
          -3.1623030656372153,
          2.3610478529853829,
          -1.6751122205335682,
          -0.28865483848925377,
          0.70335449821041374
        ],
        [
          0.12651304932386048,
          -1.0916512724925844,
          -0.071490094055980474,
          0.56550908939343592,
          2.497551153721135,
          -0.48500729049185759,
          3.1983307184122061,
          -2.8041434599025421,
          -2.2612934169390928,
          0.83425121685418424,
          -1.5712650369188863,
          -1.3947048303588399,
          2.2586501308378848,
          -1.0857411291151018,
          1.6539267757797003,
          0.17834224961930681
        ],
        [
          -0.51319931493067372,
          -0.15114340341616731,
          0.45029339047537736,
          -0.14290228846571348,
          2.3632721318626948,
          -0.75277739738633065,
          -1.1593309278466,
          -0.098817040828964253,
          -0.02737117913013629,
          -0.91052328568678542,
          -0.25534945665867487,
          0.17005972495255914,
          -0.18251007364780916,
          -0.033614282481909383,
          1.4610455852884423,
          0.24309186028683352
        ],
        [
          0.38777087243474345,
          0.778695743860865,
          0.40396876343098059,
          -0.82633479550066113,
          1.0273880817673236,
          -0.53077965001902316,
          -0.70613099394091761,
          0.31321065082496452,
          1.3218268271386262,
          -1.3598139206093174,
          -1.2083032274633045,
          0.83533978963256283,
          0.88716516813665058,
          0.19077508395988516,
          0.21014165795351647,
          0.078909698384499391
        ],
        [
          0.6129038913834054,
          -0.27460311953679772,
          0.11718090500923824,
          -0.64726757978744509,
          0.765592430295475,
          0.65613651676790741,
          0.3876404478665566,
          -0.41538912126425731,
          0.92802190586465527,
          -0.081962444587846475,
          0.76211317135107459,
          0.84418621073782218,
          -0.36076082998800152,
          0.57842181273484083,
          0.81567071932648438,
          -0.77309154474892972
        ],
        [
          -0.33706802195054475,
          0.38079378991420415,
          0.57727418215886483,
          -0.42529873692507447,
          -0.46855194707756881,
          0.31937366860681238,
          -0.071592430971923943,
          0.004192149499051839,
          0.9312115782689393,
          -0.15546244988447119,
          0.82770163612589487,
          0.84709200214936686,
          -0.94099328016492256,
          -0.089362477686737815,
          0.58763348551355332,
          0.19848873687108309
        ],
        [
          -0.032474444320821971,
          -0.11756975439923266,
          0.66598361802414752,
          -0.684420640088081,
          -0.20444250851636098,
          -0.94932239955197117,
          -0.8023716159358264,
          0.20383513762721631,
          -0.57706507608634139,
          -0.22693053859285209,
          -0.95423752667336914,
          0.86193937252337227,
          -0.3470067459087382,
          -0.29671717059746888,
          0.2333397171265299,
          0.83650774008887452
        ],
        [
          -0.39878785850329712,
          0.77385336087451606,
          -0.060822857058515152,
          -0.085378324586379936,
          -0.4882334675617277,
          -0.30686458536329431,
          0.76572397870872011,
          0.40891364120988616,
          0.878312959462733,
          -0.092007747320456482,
          -0.61363757417491827,
          -0.598343853344525,
          0.70370668867384878,
          -0.011717211892145972,
          0.93098634805417069,
          -0.17315639659474116
        ],
        [
          0.54361922805912954,
          -0.55495694295001385,
          0.83626747802440571,
          0.58124911346881225,
          0.6425319827247592,
          -0.8447135731949621,
          0.83601463376025187,
          -0.132099249805682,
          0.84714821062283141,
          0.64116002447050058,
          -0.11150007411437504,
          -0.58383376714432511,
          0.43929154001557713,
          -0.92625210116187107,
          -0.84263374898299592,
          -0.36114009534949787
        ],
        [
          -0.073928542862566851,
          -0.50398313163727215,
          -0.56599328808735261,
          0.73681439744670507,
          -1.2198380197542873,
          0.34696741777025047,
          -0.12618307289469422,
          1.0243984396780401,
          -0.33867797838965985,
          0.027005349036185546,
          -0.75617656422491863,
          0.78715845071164969,
          -0.70765281734785779,
          0.23478022139167634,
          -0.49172904975234266,
          -0.33915094388435491
        ],
        [
          0.15318692335426354,
          -0.2571405306582053,
          0.33110837737990317,
          0.088241573269360038,
          -1.3987050678207149,
          -0.057833833121065673,
          0.34680453478869577,
          1.0642732326949858,
          -0.441518300003503,
          0.56678699250688847,
          -0.81160904370598808,
          -0.51724228361965141,
          -0.11975852464359864,
          1.6269739090867066,
          0.40346165376256271,
          0.0054571819664213407
        ],
        [
          -1.6158077839352318,
          0.16456456359703453,
          -0.044229319352625009,
          0.60493144309150038,
          -2.6633230668587089,
          0.47424405164457306,
          0.014403227273370338,
          0.51752573408593949,
          -0.953939544765907,
          -2.2418266763847408,
          0.97451474063275845,
          0.18157574229488835,
          -0.12245885688757387,
          2.17468187160443,
          1.3884181222606231,
          -0.48066783913751204
        ],
        [
          -1.4862718227387575,
          0.050136441953966548,
          1.328678759925441,
          -0.056035257340403488,
          -2.2674300755435248,
          1.3394791201914831,
          -1.3761828934681122,
          0.52691474298969787,
          -0.09865187288235415,
          -1.7926571935172961,
          1.7925974816506398,
          -0.68991574321141313,
          2.5693474812958503,
          1.1944574145991598,
          2.4823929344363584,
          -0.27054144660262081
        ],
        [
          -1.3775427992597962,
          2.1174728061197876,
          0.16845238041716981,
          0.22052333513515809,
          -2.3056876658335685,
          0.24061493143206314,
          -1.2386901823974821,
          -0.74485035766949348,
          -1.2923555879645827,
          1.023967403811582,
          0.49322681241480965,
          0.40603909363573409,
          3.1482782607635422,
          -0.70399680051692781,
          1.1513502169800587,
          -0.23427102086163326
        ],
        [
          -1.7504769450741127,
          1.4828826125591734,
          -0.10505213002104642,
          0.22235493156628292,
          -1.6977331879544646,
          -0.18093068226831791,
          -3.6892372714203612,
          -0.12333139343103129,
          -3.0011870917814893,
          -0.51013114119197356,
          0.036981014032721471,
          1.1262366001310213,
          2.1229974442926611,
          1.5250406514834307,
          0.98418963308288432,
          1.0425256863544374
        ],
        [
          -1.2790242899129354,
          0.66750578369810065,
          -0.21655429454766006,
          0.0024668826157175942,
          -0.749156507659261,
          0.51543910791734027,
          -3.0916820251487134,
          1.5935937676328318,
          -2.0727619082806146,
          0.70675731747336978,
          0.20880983466202716,
          1.3118772708161968,
          1.813928306268658,
          -0.68178969232150244,
          -0.56762290766465062,
          0.38130940669498542
        ],
        [
          -0.23920258261372643,
          0.78840283921572074,
          2.8734038064235508,
          -2.7398660430695503,
          -1.2338866399471997,
          -0.142048806014955,
          -3.5605892335309504,
          -1.2858342507000027,
          -2.3171315155225916,
          1.2588034255432732,
          2.5706493120806164,
          4.1522499702714226,
          0.49775707336357822,
          -0.044263505944300646,
          -0.18829923628226841,
          -0.55855656435033041
        ],
        [
          1.0008677657329097,
          0.91224553160120592,
          0.5508106134056131,
          -0.060318283913141119,
          0.13987330553249225,
          2.6835581023137696,
          -4.282916180090873,
          -0.98882929776138206,
          -2.7709743304479444,
          0.095594508236457168,
          -0.68437956607304218,
          4.6801455271635337,
          0.96759819945052594,
          -3.0776442935329924,
          1.6256459726239652,
          -2.0197805413877181
        ],
        [
          -0.58506902932496763,
          -0.27081077733742231,
          1.5180234432877444,
          -1.1042502439903654,
          -0.26426319933557851,
          1.558590676910242,
          -1.7925760478467259,
          -0.0802540490880178,
          -0.38468896067393582,
          0.12745501126797418,
          -4.2445441766951078,
          1.3043316762973378,
          1.7611531917353063,
          -0.3713994473311833,
          1.8610081866534911,
          -2.4542189439986322
        ],
        [
          -2.1083241321842561,
          0.28972679817518393,
          0.26033482965235172,
          -1.8759065879221666,
          0.21698913008925513,
          1.3834363184556555,
          -3.1952437899196786,
          1.2221285932752897,
          -0.2402443656083865,
          -0.35957657148433247,
          -1.1524566384418484,
          1.6719164886919431,
          -0.68005766143724333,
          1.6096397660416659,
          1.4701064655486511,
          -2.6848932064832738
        ],
        [
          -2.4704143068093165,
          -1.1693947038930381,
          1.2273132363738644,
          -0.74399747377648917,
          0.13103710188167853,
          1.932383119254921,
          -0.86052768185195316,
          -1.4322339302631777,
          -2.8400672089032293,
          1.0931128610570988,
          -2.6855261483108652,
          -0.46707583206206565,
          -0.75409278347439168,
          2.1172544995628142,
          -0.070010626226070932,
          -4.1658574244406186
        ],
        [
          -2.692867556320083,
          -1.6865447230055293,
          2.11463838550029,
          0.073786078722647058,
          0.048896982170858284,
          3.7868391979727858,
          -2.3957923598275297,
          0.54834844967918528,
          -4.1625597421361924,
          0.59512386877640633,
          -1.6845931537248571,
          0.556841756932785,
          0.22027289978840717,
          0.16924551421091577,
          -2.3438337659182982,
          -1.430306044255335
        ],
        [
          -0.6781957581178244,
          0.97882746753491845,
          1.2855643506220671,
          4.8476062582897459,
          -2.1459953394169862,
          4.6617669501350472,
          -2.8538147258275508,
          -2.1901436775262,
          -3.6815454139728567,
          0.10673319598263679,
          -2.123724583526013,
          0.13476235486214341,
          -1.2662782737996257,
          0.51530888810640563,
          -1.9311946359409011,
          -3.449280412237516
        ],
        [
          1.0342248804922412,
          -0.34282076970493441,
          1.0200616378515741,
          3.6792430983411624,
          -0.61938701111415728,
          4.7134962986283444,
          -0.097001249868855471,
          -3.6502062322038,
          -2.0430035567574527,
          0.92940395384016827,
          -1.5617567033301791,
          4.6953257232894066,
          -2.1505304927473081,
          -2.0936950990704308,
          -0.1672104912111303,
          -4.1083941722469923
        ],
        [
          0.98821194051509742,
          0.35088024420457486,
          4.2000382786858834,
          1.1551953935047945,
          -1.5485064486147766,
          3.6572513402009759,
          -1.8030933433996574,
          -1.8780445216121466,
          -5.6167948518163229,
          1.5320914744309233,
          -2.0988035004564729,
          3.3658912799295746,
          -0.45743764826117933,
          -1.1757332608192668,
          -1.976826082259965,
          -4.9032134693405416
        ],
        [
          0.64206148416452491,
          -3.3668019455163565,
          -0.71729060289947977,
          1.0240142210608221,
          -1.7116382903939937,
          2.3279149803764962,
          0.91665259067977534,
          -0.26623589575440132,
          -4.9723187120419858,
          2.4634253794461265,
          -1.5166142307681094,
          2.999927398249711,
          1.5053937517333449,
          -0.53293454332540779,
          0.28137996426802764,
          -2.5130731471890644
        ],
        [
          -0.47547747643422666,
          0.23348672901745118,
          -1.8105301508670117,
          -0.54521776596234572,
          -0.48497884909450611,
          1.8586045944846859,
          0.24173654634172051,
          0.29146343068648012,
          -3.954093840580474,
          0.21331659601421343,
          -0.580979576271404,
          2.9408987988764528,
          -1.1706170022183424,
          -1.7829077981543635,
          -0.70163648084217,
          -0.2972328482011401
        ],
        [
          0.52530796324947293,
          1.8974394906541494,
          0.41481313851404,
          0.75562158109413358,
          1.547838685323051,
          4.2578537714442932,
          3.0200662911319061,
          -1.378806919222775,
          -0.53605986398275929,
          -1.5304301395517919,
          -2.6618157462817611,
          0.068808135180059141,
          -0.78175637840118029,
          -2.5908245250502708,
          -0.34313725285578961,
          0.50345610977483113
        ],
        [
          1.1534140027061934,
          0.10836416879083205,
          -1.6081949189831981,
          1.3802599186024196,
          3.2373917521863755,
          3.6979159644880792,
          -0.25805605903093548,
          -4.7590677354344253,
          -0.24642349405606923,
          -1.2894238281414878,
          -3.708018856270193,
          -0.49409481799682042,
          1.639286076362396,
          -3.5140157840168054,
          0.074643732171397151,
          1.170186468127046
        ],
        [
          2.7312613529112442,
          -2.2518918533958585,
          -1.5016555432332301,
          1.2172978529806853,
          2.4206455651493788,
          1.7612439775251474,
          2.3993168403579022,
          -3.4199084321542217,
          1.8306405094924623,
          -2.0228666305504981,
          -2.4821321773188956,
          0.88861847185030363,
          2.0201577973309721,
          -4.1384974137118222,
          1.4089644490044613,
          1.408321603524443
        ],
        [
          2.24887248282473,
          -0.74094554075272767,
          0.503519671613021,
          0.81131022545343645,
          0.7732276834879005,
          0.56934688272389711,
          -0.2305113726205657,
          -3.6392010222488507,
          0.2508274755606188,
          -2.5786743671109793,
          -1.56637495091472,
          1.1460646930719132,
          1.3750849495441417,
          -2.419665732988177,
          -0.15119531936236619,
          1.097721815715605
        ],
        [
          1.1622223854249925,
          0.16337211151400133,
          -0.7606381587091654,
          0.11568625609771008,
          1.2106609108510009,
          0.47241595459969066,
          -0.3332131422404781,
          -1.586215082253519,
          -0.22790340790451427,
          -0.54059290871363652,
          -0.63156234625978858,
          1.06976227823625,
          1.1257818401690638,
          -1.2779422994759087,
          0.43447263078641257,
          1.1407574965557121
        ],
        [
          0.25688127639070629,
          0.34298828127174213,
          -0.86082427963280173,
          0.35306876963954004,
          -0.5224051379180884,
          0.30849906104590558,
          -0.90341278283582782,
          0.40758839252752493,
          -1.681919235483208,
          -0.26176570124163423,
          0.567926977964611,
          1.0630803653418128,
          -0.33048822092490626,
          -1.0741626140897065,
          -0.80119682376971624,
          -0.39552533305830695
        ],
        [
          -0.75094767466847756,
          0.16384353900587981,
          -0.785682097063905,
          0.95085631168047124,
          0.63926411922717119,
          0.22117430169334737,
          0.27279924425159613,
          -0.038781831361768909,
          -1.1107380168515848,
          -0.83175001163099027,
          0.29014499043753583,
          0.31055240086910474,
          -0.4335477388379006,
          -0.86570322065753269,
          -0.0044455391599071354,
          -0.71572233082143111
        ],
        [
          0.95238370813582285,
          -0.85180042896984787,
          -0.30294168948081335,
          -0.83768101080453361,
          0.09249911736934012,
          0.42251401198192984,
          -0.56387604300003658,
          0.75919475799527281,
          -0.78149995241653825,
          -0.93897000693720512,
          0.52905165947087851,
          -0.39932739755091357,
          0.22768901796796157,
          0.66191290787462531,
          0.8038158591173441,
          -0.86031751368833143
        ],
        [
          -0.10508900525385742,
          0.11904377239438325,
          -0.48805127078828336,
          0.34742486040121207,
          -0.21194687038656079,
          0.77505575612467681,
          0.91606324108321047,
          0.10599495302696468,
          -0.29157745038153532,
          0.61691919107775162,
          0.31857811172305994,
          -0.45856309986949179,
          -0.16167780912909097,
          0.53735363052431573,
          -0.75908088893571279,
          -0.90084059726311017
        ],
        [
          -0.072056854256729558,
          -0.40940460658071814,
          0.33058029802415922,
          0.75139896135851014,
          -0.065405943543965714,
          -0.23042706464536319,
          0.15534967038296491,
          -0.30086234092622721,
          0.14017435004460488,
          0.030643746756172846,
          -0.91570580983679584,
          -0.50215000249641539,
          0.70239587530997893,
          0.49572713163950355,
          0.16633416487723521,
          0.71893834222780351
        ],
        [
          0.015344368088573502,
          0.32825340610953185,
          0.43423424721268344,
          -0.84220929560526669,
          -0.33547175942050705,
          0.71258398864248906,
          -0.4022143751887301,
          0.097390888018545341,
          0.026120431584684103,
          1.0744093489673292,
          0.82949031346068469,
          0.15062861167091451,
          0.17146685736167006,
          0.029608870581902508,
          1.6461409706369519,
          -0.59240578182887571
        ],
        [
          -1.4322496032796492,
          0.12353737735449542,
          1.0343748074803356,
          0.40589249849036874,
          -2.7656957966621465,
          -0.10741562386097764,
          -0.43731686107378753,
          -0.32376447517526052,
          0.524855501455954,
          -0.11777630156981522,
          1.2798854055265549,
          0.44482838848927536,
          0.65174505780827374,
          1.482583414102711,
          -0.14434040681258667,
          0.59916501632633357
        ],
        [
          -2.3739759415304031,
          -0.47135350348161609,
          -0.0092364593923630351,
          2.5066872900016182,
          -2.0291354519036857,
          0.44667494424560539,
          -0.29151867155335048,
          -0.22779892623368978,
          0.0072182902128876845,
          -0.98220484015864562,
          0.64883164213846767,
          -0.18933354915758377,
          -0.38637901457511054,
          2.1999612730835731,
          1.6214563784232068,
          0.83551400906627182
        ],
        [
          -2.4366412870151906,
          2.8839415320711788,
          2.9753613697674206,
          0.67547208329427311,
          -0.011665097152715276,
          0.77481044955260392,
          -1.4133870877844506,
          -0.82520280700298654,
          -1.2145336495053194,
          0.99583768373552239,
          1.1740865282089079,
          -0.49538984195602753,
          1.071272809537219,
          0.83800023843534732,
          3.8184160362929487,
          2.3133701254710171
        ],
        [
          -1.4039413398285607,
          -0.774614488601159,
          2.4251763342345232,
          0.85073165135409656,
          0.18471786644261704,
          0.997955429538882,
          -2.38187572576193,
          -2.3383786437307683,
          -2.8057557884141078,
          2.8410478035807936,
          -1.3892089154231577,
          -0.24946639550852592,
          0.14743609965420632,
          -1.254373859221507,
          2.447927873841214,
          2.6614242563066424
        ],
        [
          -1.6214267919690864,
          -0.29896335346130565,
          1.4166665020260121,
          0.14918042556127625,
          1.5587610618435444,
          -0.14449924313699503,
          -4.8437997963293036,
          -2.094552335589134,
          -2.2817094193362264,
          -1.4266100141945328,
          -1.0447321297600527,
          0.81790626936963784,
          0.74769353457838594,
          -0.41492274550788033,
          2.2733505724469629,
          2.0786604434097855
        ],
        [
          -1.6768992677972319,
          3.0566563449596367,
          0.26380440851961362,
          -0.19671953562248173,
          -1.0921819463742877,
          0.51695573225757929,
          -4.5679836904659465,
          -0.81547780378571377,
          -1.7149902341547711,
          -0.4792178484772347,
          -1.539611642205424,
          0.56373633468822093,
          2.293816982274492,
          -0.16548094249052631,
          0.3763370609155603,
          1.0955708349746347
        ],
        [
          -1.1062894126137834,
          2.8085255290585351,
          0.17426415803598372,
          -2.36921358172993,
          0.0689219655662413,
          1.949645075119941,
          -5.0317769168324977,
          -0.7381920213927522,
          0.5481073784708651,
          0.25078948528525552,
          -1.5387012514468406,
          0.92168336263383888,
          -0.61390728960399876,
          -0.90052122017004088,
          0.97801034930077235,
          0.031346571170319734
        ],
        [
          -0.299010181932265,
          0.51722878094901892,
          -2.438739490821705,
          -3.3975134376139855,
          0.24762603666169658,
          4.6211667779293,
          -5.39439200770305,
          0.21310356079219253,
          -0.9825357386851945,
          -4.129053615584243,
          0.15707788653138627,
          0.46975885266077677,
          0.061261364866857626,
          1.2015099724168128,
          0.9725198128871968,
          1.576815129715176
        ],
        [
          1.2119714009819234,
          -0.0848337575802919,
          -1.9256611767668119,
          -6.2697145211287317,
          -0.43233373377287432,
          4.4971262209942715,
          -1.6815974098031472,
          -2.3713366961874565,
          -0.58042701295953036,
          0.29869953618495976,
          -0.3813693947340302,
          2.0748333567668871,
          0.6214831571484456,
          0.65169519133298159,
          1.9301194936763266,
          -1.4419240021034097
        ],
        [
          0.63725573933223334,
          1.1916285681784238,
          -0.50383816681727189,
          -8.79074133392699,
          -1.0701146428658772,
          4.0358802135134884,
          -3.0032056228294568,
          -0.53914435298519348,
          -1.7159269609557435,
          -1.7346471975844224,
          -0.44682537336229905,
          1.4996130171408144,
          -0.32690221109762174,
          0.10451875912689342,
          1.8501010059044158,
          -4.3738566312684686
        ],
        [
          0.98052757737613461,
          0.037635382043650627,
          -0.33042262320103682,
          -8.5985262447855231,
          0.70521415870262449,
          4.5172665648502806,
          0.099342781620020776,
          -1.8706576696874298,
          0.25664918499216577,
          -0.69030883585296832,
          -1.7438120502435432,
          1.5275956930559089,
          2.2320317828810365,
          -3.4717514243353138,
          1.6672872873642157,
          -0.36716049124196626
        ],
        [
          -0.86372209930439847,
          1.22511326840461,
          -1.2955962014889029,
          -6.6010113701210447,
          -0.6069209299514835,
          -0.34335164551892977,
          0.70922704530304648,
          1.2332466685241645,
          -2.9296631100791832,
          -1.596343284463728,
          -1.8581053610699547,
          0.95069912535751055,
          -0.32618514856818037,
          -1.2176442577909596,
          1.6628428526083856,
          1.2534106690787037
        ],
        [
          -0.7785192154210866,
          3.2665437028336917,
          0.66390348390223075,
          -9.0062194369550159,
          -1.9701667186391949,
          2.2194969838802909,
          -1.7784334004043565,
          -0.66217661792389326,
          -2.7134540568853693,
          -1.4025795105547658,
          -3.3587332876701361,
          -1.9304390924032682,
          0.9753512820371335,
          0.049742642606176168,
          2.9775136466098249,
          2.3050989484442446
        ],
        [
          0.56563933281229328,
          -2.3752715687355339,
          1.2053715344479306,
          -7.7651131841861742,
          -0.66611338018880684,
          1.6926106300046153,
          -2.5173949385779828,
          -0.093698917402241927,
          0.56098937292009643,
          -1.3093129082360804,
          -1.4780021849861071,
          -2.179749841295632,
          0.5069798404262047,
          0.74639067725358266,
          1.4712880783731326,
          -1.3916810480095654
        ],
        [
          0.1446916220547867,
          1.404655719844075,
          1.3888277904498574,
          -5.9795114566915748,
          -1.9353970797260396,
          1.56417962173881,
          -1.8533743192503371,
          1.4139984022626095,
          0.56611244708766673,
          -1.676435145831312,
          -1.6238163458335262,
          -0.17531454580686104,
          -2.0955457460518185,
          1.5920164064657132,
          0.35780830504898103,
          -2.95094924039764
        ],
        [
          0.52449083377759309,
          0.23119123534849628,
          -0.6231012523704037,
          -0.12937422633374834,
          -0.093105588468631484,
          1.7617804171645382,
          1.355382089724547,
          -2.4189452957174509,
          1.3048936114317944,
          0.90902177600848022,
          -3.4050546607791237,
          3.0616424509666782,
          -0.27655719600088807,
          -1.192493624245877,
          2.4214364494703164,
          -1.5470811915255205
        ],
        [
          -0.60328525628425711,
          -0.2647450113526994,
          -1.3563722524287554,
          -2.8554988070271468,
          -0.99708350318671812,
          1.5829397504449463,
          1.9177538042189981,
          -0.16060808141089639,
          1.0936849609756854,
          -0.66780344382199208,
          -4.9242764286439993,
          0.51192766492356279,
          2.8615598517939627,
          -0.88012017835913359,
          -0.78163590972710872,
          -1.3694936006757803
        ],
        [
          0.58760227331262938,
          0.33371000416604568,
          -0.0095676546282702449,
          -1.758027502382074,
          2.5048529676730973,
          0.66082018493245931,
          0.17587119043541935,
          0.59908628478773973,
          -0.21441475094877224,
          -0.22371218868834675,
          -5.0976264736303136,
          -0.10412600060365851,
          -1.7692300770006233,
          -0.52264274550084788,
          0.63275351063868,
          -0.66089225443522437
        ],
        [
          1.8426583558670093,
          -1.5737954209938554,
          -1.1085515956479177,
          4.671837092041609,
          -0.46369770517522541,
          1.8366550341919756,
          1.0803358230437936,
          -1.7511864442840648,
          0.28633224638706423,
          -1.5166168336308012,
          -3.9349342999559433,
          -1.3420089356574374,
          0.22617469873315743,
          -2.2784665405164408,
          1.3945031449429943,
          -0.73968865298828479
        ],
        [
          2.3529910474358555,
          -2.7485368436542919,
          -2.8651634413155325,
          5.8878538703780512,
          1.8678168528923502,
          1.3825992774066147,
          2.0403414473606376,
          -1.455390865945549,
          1.2008035208978438,
          -1.23885436960031,
          -2.8771189449356314,
          0.10068246512212849,
          1.7904482438255058,
          -3.5617355771864143,
          1.1460495422890149,
          -1.064724105975805
        ],
        [
          1.4088163045136333,
          -1.3933635671580968,
