{
  "Layers": [
    {
      "Activation": "Sigmoid",
      "Biases": [
        1.9449072544068784,
        -0.71307246120306167,
        5.1573752370116548,
        -0.63422456945548245,
        -0.073405760704450485,
        -0.33904908751776891,
        0.55495251709178828,
        -3.8861432167452352,
        0.27648243254429961,
        4.2647575470622687,
        1.5409559928807308,
        0.16267651946221992,
        -1.2115745022174107,
        0.43240129132708377,
        -4.2387183559330408
      ],
      "InputWeights": [
        [
          -0.16853274803850021,
          -0.86559785451756655,
          -0.46701030195121895,
          -0.7223034402222277,
          -0.84776671556807082,
          -0.16379528482868544,
          0.1244582440260348,
          -0.90145443239061174,
          -0.5589022731717207,
          0.35204799419757504,
          -0.84320556048723694,
          0.94523344178009039,
          0.55029488647077007,
          0.852912030226144,
          0.727785403415028
        ],
        [
          -0.94241726541183368,
          0.34772092065749466,
          0.91555335377927149,
          0.33080788572698816,
          0.66917040408537765,
          0.98617437305415423,
          0.74409161061255291,
          -0.44671446060571257,
          -0.92756230824920316,
          -0.93848432141781457,
          0.72757732702930633,
          -0.66895257366564864,
          0.017664307623091142,
          0.97763680042378887,
          0.24517021192549615
        ],
        [
          -0.90969935504942612,
          0.93165718981979551,
          -0.0093818876837759423,
          -0.51176430088066471,
          0.27604766935061015,
          0.3094011562461027,
          0.73447496998330608,
          0.31237871457081851,
          -0.051788366849371319,
          0.99516332771203808,
          0.68954633523290221,
          -0.53092209842731053,
          -0.99029287939239519,
          0.0821708110595572,
          -0.39077934153061156
        ],
        [
          0.07443350853157274,
          -0.60141522359119592,
          -0.69443824043844615,
          0.14905078649893941,
          0.48566682613405682,
          -0.23354064989327661,
          -0.3493185686391635,
          -0.64722032611070213,
          0.87111830433537285,
          0.90231300883501164,
          0.72756263308738534,
          -0.12342275596892727,
          0.32086778351753215,
          -0.57484586742095367,
          0.72563633443175624
        ],
        [
          -0.65564898171685115,
          0.89790611349960925,
          0.9279294605890962,
          -0.73115407315612746,
          0.83350845822081943,
          -0.53916442943250387,
          -0.27489035394758415,
          0.38510116540086087,
          0.89759486449589054,
          -0.1531973945207584,
          -0.51443708387623366,
          -0.2388873189847798,
          -0.48742860705875596,
          -0.019104430408534226,
          -0.48734753784406726
        ],
        [
          -0.22569764431807365,
          -0.46867230409780741,
          -0.11486146151468304,
          -0.7677815604356022,
          0.26764839887569941,
          -0.070437468024449473,
          -0.47492565684736204,
          -0.56853818519784149,
          -0.42545992530232,
          0.014693450578654356,
          0.46711947417387889,
          0.6844009320556671,
          0.33576482034935812,
          0.68760465229541345,
          0.16551102841585186
        ],
        [
          0.48777958514869624,
          0.17304897270139938,
          -0.72125773918230807,
          -0.22540463007613479,
          -0.59756196942231576,
          -0.27918997466992651,
          -0.63664276855790958,
          -0.015503245161847095,
          0.96168112151031415,
          -0.015888759936036723,
          -0.15358125420726021,
          -0.429742293774366,
          0.78899493919405861,
          -0.58192680538952068,
          0.3629319852156585
        ],
        [
          0.60970974012055024,
          -0.30572919725464881,
          -0.28239187197191196,
          -0.36849216617263869,
          0.39917803043450512,
          -0.66642338516635446,
          0.64968617256006256,
          0.20485953848064378,
          -0.8505169735133179,
          -0.96005776764318951,
          -0.34247318564412965,
          0.49993416213686165,
          -0.84628612023126559,
          -0.23802069570251369,
          0.7734550361460335
        ],
        [
          0.034379088056643317,
          0.70021552856994929,
          -0.017870445218061793,
          -0.524949952620724,
          -0.5875152605590872,
          -0.87097312570063024,
          -0.13712592776646793,
          0.39640495997112807,
          -0.46877336663474967,
          -0.8360212143273712,
          0.74828266559680168,
          0.56301853794860846,
          0.16656478809838712,
          -0.7349351706946613,
          -0.52085498786211892
        ],
        [
          0.10098309276384263,
          -0.12875196701872263,
          -0.897468417597681,
          -0.91071688792266858,
          0.72372257453338285,
          -0.609977767937608,
          -0.82371078436056122,
          -0.083347464900449836,
          -0.769489980287058,
          -0.10444318882637906,
          -0.579791062301498,
          0.91413034604187315,
          -0.65311175013240652,
          0.30055495891404244,
          0.15329913123823014
        ],
        [
          0.041664282993783483,
          0.80746823278239133,
          -0.13539998693767494,
          -0.78338009085104776,
          -0.30261152121287488,
          0.65250894506948443,
          0.21501608374746561,
          0.65013489011863235,
          0.92247150257867794,
          -0.26166469820286553,
          -0.84446346040303644,
          0.43701435079124606,
          -0.39330539280832549,
          0.5099276067191415,
          -0.66501892540284624
        ],
        [
          0.4127898183348816,
          -0.80859789965690909,
          0.45532865175614579,
          0.084121005250127751,
          0.25824407418209411,
          -0.873139518447943,
          0.42550600804604161,
          -0.86550480871273217,
          -0.72979900961103816,
          0.7470411946302592,
          0.6090382348983473,
          0.66234373639594024,
          -1.0112307058767638,
          -0.37622146560194997,
          0.15982683705478218
        ],
        [
          0.17525551937755876,
          0.17704902380035395,
          -0.54530128294714619,
          0.093705308283935834,
          0.95046932248550753,
          -0.29291603793368332,
          -0.013146844217487188,
          0.96806817385655,
          0.99383537148393741,
          -0.80171467850917455,
          -0.02050046517179465,
          0.14502312282549451,
          -0.38430879670985924,
          1.007029123107914,
          -0.83816523237077112
        ],
        [
          0.13501034546107327,
          0.25930083434589052,
          0.680622010379643,
          0.84586247873457721,
          0.99474658963040941,
          -0.599994097336816,
          0.60557227143915937,
          -0.94353572496304816,
          -0.20619818022744768,
          0.2494509224543669,
          0.60075077073180427,
          0.91126900972174629,
          -0.6862967823881917,
          0.41854122085352058,
          0.54376838653606219
        ],
        [
          -0.52141358192119347,
          -0.9101913682624142,
          -0.739827148819939,
          0.85664582179709692,
          0.49266252766226304,
          -0.28845099142835334,
          0.60002077573797441,
          0.30065218987185049,
          0.51053220782429953,
          -0.64178518585047606,
          0.83793794913099473,
          -0.44448251309878717,
          0.064620659065424219,
          0.6894719964239534,
          -0.18621270693024122
        ],
        [
          0.34926431310761008,
          0.94505912823636506,
          -0.26582808932011626,
          -0.85656432614011635,
          0.5325364716139882,
          0.83605998839869045,
          0.17883224547967702,
          -0.62746293059825664,
          0.627737748123378,
          -0.68665826249969741,
          0.35306554431570697,
          -0.34212716167471041,
          -0.57206327687467706,
          -0.6186926690140534,
          0.64050145676816161
        ],
        [
          0.69262732236423119,
          0.08692839913043536,
          0.682450684305534,
          -0.84107958631188584,
          0.6517526153469928,
          0.4718476299712428,
          0.45200350550218987,
          -0.15147703768498763,
          -0.594775361691741,
          -0.73346345436253257,
          0.92684782317419712,
          -0.60616281383414561,
          0.31172007288499931,
          0.13228844133823617,
          -0.45836873721014504
        ],
        [
          -0.18446810732836988,
          0.51207417933253707,
          1.0097475587918265,
          0.60273896145104455,
          0.41826567379708685,
          0.61785845817553253,
          -0.92828158247077808,
          0.37994593429569717,
          0.85240700819236259,
          -0.021235141740012189,
          -0.98058139209124084,
          0.56562419015239185,
          0.42167454179092506,
          -0.63413785067707018,
          -0.34967059055957739
        ],
        [
          0.73461094658598824,
          0.90065502104332806,
          0.3406437633615963,
          -0.85846642184601141,
          -0.93158514471775811,
          0.60692375256235154,
          0.17821073853628755,
          -0.923749990517255,
          -0.92935665765139241,
          -0.93807462656364449,
          -0.046301899035256666,
          0.077804103617390069,
          0.76089335036184413,
          -0.5007732149245574,
          -0.26130884090122031
        ],
        [
          -0.004867580749665144,
          0.077941586812691463,
          -0.94665860984821593,
          0.59431728428631114,
          -0.17486781254457925,
          -0.032981694112056023,
          0.554218806980383,
          -0.289836109371813,
          -0.842505678285984,
          -0.294042356614726,
          -0.70513725795271631,
          -0.86195306816813344,
          -0.39107369502358874,
          -0.50315816300309912,
          -0.8800922685364001
        ],
        [
          0.053605528983657391,
          0.19264092188303059,
          -0.69221885799777483,
          -0.80586484646023226,
          -0.76058279559998732,
          -0.26236716554928635,
          0.72597047542428628,
          -0.92522919013908145,
          -0.13472903006048034,
          -0.94956401137129076,
          -0.78848096241663035,
          -0.24447382904327222,
          0.66508421174902244,
          -0.577777426646498,
          0.6181270464262254
        ],
        [
          -0.7626894933938928,
          -0.22428749726179356,
          0.53839729684989179,
          0.28310086844868942,
          -0.54970456520146649,
          0.18970447253011891,
          0.3182906992289381,
          0.60133878561856213,
          0.878322761055874,
          -0.85305084458046265,
          0.034349689237046663,
          -0.030732159379081331,
          0.66886018834728522,
          -0.46650153138059286,
          0.79253082703186939
        ],
        [
          0.073058727166997711,
          0.632334114136008,
          0.95048988056953276,
          -0.820426269793594,
          0.411398839670674,
          -0.95776114160639791,
          -0.76312877614775643,
          -0.32397802918027524,
          0.15454290622576047,
          -0.26583095903019827,
          -0.83201675957488652,
          0.014494311421040101,
          -0.091449906456356228,
          -0.56426983787998275,
          -0.19022618905328903
        ],
        [
          0.50355516231396469,
          0.58180857923796536,
          0.40101427659960909,
          0.93549841932422506,
          -0.827790934127336,
          0.21122802617535719,
          -0.61422079852575406,
          -0.93733569978548226,
          0.90534671397586386,
          -0.32482593280706029,
          0.10647214760560367,
          -0.356052504030272,
          0.85121799273136778,
          -0.37131421123947111,
          -0.043572565500287819
        ],
        [
          0.3766716774250608,
          0.015284865945296683,
          -0.14753523277494615,
          -0.046471113465764,
          -0.70290793501823168,
          -0.18084194664336017,
          0.43668554718821812,
          0.5321227789502776,
          0.22032984114914109,
          0.83322782970539622,
          -0.019897299376106715,
          -0.19256061373016545,
          0.93615781621727867,
          -0.50327814156509654,
          -0.53501077946887543
        ],
        [
          -0.36383245469301528,
          -0.15185561814370865,
          0.93354970594520892,
          -0.39666937420696036,
          0.71953550446727355,
          -0.58232957603854685,
          -0.666529149327222,
          -0.17951998509279951,
          0.40066869488636325,
          0.69186772236175231,
          -0.38139992931356503,
          -0.63487560941581422,
          -0.35855512238391479,
          -0.70684338915481881,
          -0.46224292130823974
        ],
        [
          0.024084296279952715,
          -0.23130490436244125,
          -0.59691823594619309,
          -0.86611782562517536,
          -0.29979620548014246,
          0.87809532005826385,
          0.44281277288898396,
          0.70614233008773986,
          -0.010142452998837653,
          0.60730908454901866,
          -0.31950402308685555,
          0.62034277094784385,
          -0.78031150122452753,
          0.990127725337225,
          -0.461142673815226
        ],
        [
          0.41605931098342352,
          -0.1827348781845283,
          0.64267098792481447,
          0.097471943929778176,
          -0.55575062125041108,
          -0.17892407709225289,
          -0.15098158414257645,
          0.47954755859640436,
          -0.91473667182321627,
          -0.53389928520151086,
          0.99865213872444991,
          0.72203489009547239,
          -0.051432798721905287,
          -0.68368720701284424,
          0.5843180185588337
        ],
        [
          0.38553383081920856,
          0.94772710356844725,
          0.098356775525875823,
          -0.1900332818143016,
          -0.17804033239419256,
          0.16706718840212353,
          0.23022928084464789,
          0.67101524398850265,
          -0.65274650625246544,
          -0.34705438821087997,
          -0.96130054632621642,
          0.0317337944943943,
          -0.28491947740600249,
          -0.21843673377611303,
          -0.65624915199035039
        ],
        [
          0.84649171793610378,
          0.54755770958943428,
          -0.026524073625106632,
          -0.060989526459980105,
          -0.3792911621281197,
          0.79382387348937244,
          -0.10088252955828235,
          -0.35854425489711944,
          -0.16046273380787204,
          0.10488177922106139,
          0.6471112598436809,
          -0.11377701895980033,
          0.50418560359347386,
          0.76213926081225558,
          0.21787064922354427
        ],
        [
          0.015391530671522368,
          0.33284030374115109,
          0.099024328920908566,
          0.44931107281155869,
          0.12026868783824535,
          0.3672499515632161,
          -0.5662359707502459,
          0.1499415747933133,
          -0.441011378525772,
          0.9245499914283245,
          0.73699464181018237,
          0.40317691316154636,
          0.767301244090309,
          0.68358387569576784,
          -0.77444166918897261
        ],
        [
          -0.21835330154988136,
          -0.021088529527467637,
          -0.31413890974958913,
          0.034608361417389245,
          -0.072132097324794392,
          -0.841651684273757,
          -0.36708002844609749,
          -0.58477498054316279,
          0.11733934587534499,
          -0.54306918203324683,
          0.73370648941536609,
          0.13618030481302432,
          0.89798267314862235,
          0.66251431968674346,
          -0.14374382510468942
        ],
        [
          -0.900259103407133,
          0.026743244463299166,
          1.0142702966271302,
          0.74412951427556706,
          0.12603545822862822,
          0.46631815643552627,
          0.7694079726427232,
          0.23727666037531039,
          -0.073714932907818678,
          0.4544022120335186,
          0.3435576911953559,
          0.57748120817596782,
          0.52501807235049636,
          -0.36398303666175597,
          -0.57881040118578975
        ],
        [
          0.073791829512258045,
          0.9451665876998433,
          0.82259197085193858,
          0.30173260092030196,
          0.11575068638969847,
          0.91007755185041372,
          0.937361757528553,
          0.48427610594029585,
          0.1555302996290385,
          0.12040844611275751,
          -0.7923076391744247,
          -0.55069356092592325,
          0.715119883084372,
          0.86104371175959993,
          0.38937887292673995
        ],
        [
          0.95843741894786982,
          0.65182987238025036,
          0.32627911618035155,
          0.4416688874107253,
          -0.91254154598459147,
          -0.061918669987136077,
          -0.29691834612749324,
          -0.321409617124616,
          0.4769933149521477,
          -0.18636188159109227,
          0.70268060823973122,
          0.103249511289571,
          -0.8051561427902808,
          -0.90683345894212475,
          0.75202287212824515
        ],
        [
          -0.11740757974417049,
          0.26566513248771911,
          0.17774686413115773,
          -0.80320617669124927,
          -0.40311572492644354,
          0.88842804899184413,
          0.83773550963007859,
          -0.81025444145317915,
          0.761037781867547,
          0.17210253538016238,
          -0.067863103972957292,
          -0.61762696869953748,
          0.46328348940883746,
          -0.46519673274693418,
          -0.73745978384116972
        ],
        [
          -0.13328196182483376,
          -0.054172706432962195,
          -0.32314154708210691,
          -0.5717242129209309,
          -0.10373938380346848,
          0.44259973183400153,
          -0.14880445156774871,
          -0.55506899519898356,
          -0.20563764608403665,
          0.963783985639144,
          -0.17556160342115743,
          0.88525743204490326,
          -0.81789422125251965,
          -0.8170029904108822,
          -0.22409862834187758
        ],
        [
          0.40013354773007043,
          -0.24291149090539246,
          -0.25551362338839734,
          -0.97701061546947476,
          -0.26037681368522869,
          0.086586807465654475,
          0.082186476856222365,
          0.51273948867016983,
          0.24451501225478012,
          -0.64964631889719315,
          -0.66093725195852659,
          -0.38636957192287263,
          0.77809415738972676,
          0.098782110996822658,
          -0.39356155364971529
        ],
        [
          1.0477559584022436,
          -0.74419591241774785,
          0.45067069871461235,
          -0.76404291339264763,
          0.19099341523417454,
          -0.57145994637731956,
          0.27568855305925433,
          -0.60089278725433393,
          0.94017965179736684,
          0.29450526880169825,
          -0.49259850613142991,
          0.057345948203422252,
          0.63852354179623416,
          -0.81655352398465386,
          -0.10215220797168345
        ],
        [
          0.020037143033746145,
          0.28951283129785971,
          0.34494738927163543,
          -0.86226745480243938,
          0.53140142771328081,
          -0.31936947677391125,
          -0.21512461319353057,
          0.96079623470191811,
          -0.076525050676436765,
          0.2018485480140606,
          -0.72855832778179974,
          -0.480624380429555,
          0.96405660727207665,
          0.32068480371788871,
          0.57878553018562084
        ],
        [
          -0.2806680355115253,
          -0.335311112094613,
          -0.20509627376644996,
          0.089439517448665865,
          -0.47429742231208954,
          0.15961434300158131,
          -0.25148714841527969,
          0.33068459339415984,
          0.090374713286722169,
          -0.42481555596004528,
          -0.14546022857852958,
          0.36025316538421875,
          -0.41746155366684445,
          0.58004906687274738,
          0.77826362246727809
        ],
        [
          -0.752820108658087,
          0.37926203419436127,
          -0.55714183360023783,
          0.087630358593582119,
          0.88219606158107744,
          -0.15559113657210921,
          -0.17228244527304817,
          -0.23213277934368382,
          -0.1809804198765145,
          -0.762386065149314,
          -0.77725781725114051,
          0.78410920823112706,
          -0.44834930126174377,
          0.22796711596124009,
          0.83757798970457953
        ],
        [
          0.28072542010573326,
          -0.062017880117456355,
          -0.42000334107040938,
          -0.84802347909032827,
          0.062499804240653031,
          0.036648776479766443,
          -0.32238737130391654,
          -0.74714102225911128,
          -0.34582311637612273,
          -0.26149196198966057,
          -0.61466646846412776,
          -0.44137927652466918,
          -0.019461402596520769,
          0.52167763926827115,
          0.86802316612480013
        ],
        [
          -0.49907298672589279,
          -0.20821989403924332,
          0.82800848521885639,
          -0.068821360904570361,
          0.33755090020462369,
          -0.27430648078309794,
          -0.54802973400698041,
          -0.84382247288833423,
          -0.58187284124574823,
          0.20104084291803484,
          0.959153987059945,
          0.15217658513907864,
          0.92024196287881666,
          -0.33045317095361082,
          0.78904586362847351
        ],
        [
          -0.5333857773986217,
          0.87380593868125089,
          -0.0060577887394018086,
          0.733217814621831,
          -0.58749413285980612,
          -0.64960667838814012,
          0.19328001015956295,
          0.080839149540818334,
          0.0025334102166230383,
          -0.89770741741797833,
          -0.651470366416504,
          0.54744935580474474,
          0.35396955724857787,
          0.13303504411250278,
          0.64308683251945042
        ],
        [
          -0.7550493243654337,
          -0.66975788539537418,
          -0.10633435879807689,
          0.53319972789924086,
          -0.13194624112947231,
          -0.29009408098750028,
          0.21938146831506353,
          -0.10513873424226093,
          -0.73890340969062385,
          -0.53205168861639784,
          -0.78359532360358641,
          -0.72191225725249375,
          0.61497997453376663,
          -0.031052105304370102,
          -0.0078648515294376543
        ],
        [
          0.78959936719906,
          -0.54481433183504635,
          0.18232144631446676,
          -0.12868158399018406,
          0.02446212729449997,
          0.61621688631574179,
          0.81409037207556356,
          -0.801034919520619,
          -0.80334258545413606,
          -0.29228953343485053,
          0.60930872931946234,
          -0.59180445872818987,
          0.8628579611143935,
          0.30312088202720283,
          0.59165808363437145
        ],
        [
          0.049376179805870363,
          0.42125721826214474,
          -0.27345973845744337,
          -0.15345007719979684,
          0.86743775371361442,
          -0.89012306557067544,
          -0.65629985500033539,
          -0.12939902568966274,
          -0.47078345579026865,
          -0.26098718520097258,
          0.68647866130365631,
          -0.76717449949783689,
          0.59951741692400162,
          -0.28867534904380571,
          0.51576532845192147
        ],
        [
          -0.475218514303405,
          -0.40861101335010691,
          -0.35490114141320922,
          -0.840925413123722,
          -0.43165627861361722,
          -0.31492119919031303,
          0.48137240106547385,
          -0.21182422460575281,
          0.25073695084706038,
          -0.26333929803232081,
          0.72484837932007418,
          0.75775694625401624,
          0.65275665442078,
          -0.18028392005734192,
          -0.28012737115700809
        ],
        [
          -0.57252459481792473,
          -0.10695731730612527,
          -0.493428260298854,
          0.090541198307958579,
          -0.10742232919569027,
          -0.15322976170547972,
          -0.38414893967965891,
          -0.027299545913202165,
          0.049968598731571119,
          0.82049261664161122,
          0.35994894185161863,
          -0.87326458609780855,
          0.279527244690905,
          0.25950405322451559,
          -0.45931459361486665
        ],
        [
          -0.66686759137185048,
          0.2891632272739238,
          0.87757255767434184,
          -0.639106114144426,
          0.028753738347968218,
          -0.51027142872695452,
          0.0012091980486616781,
          -0.51227745877246367,
          -0.0440086033464061,
          -0.64438427602371418,
          -0.5279566985823485,
          -0.89565030833312387,
          -0.40681465225222962,
          -0.62375061168922874,
          0.7131232643164237
        ],
        [
          0.91249305523106228,
          -0.45180726066260707,
          -0.71329387081965168,
          -0.61654770773897016,
          0.64818797106885517,
          -0.39227414365775365,
          0.19027931355863342,
          0.23068817380146939,
          -0.43120716736566467,
          0.97268050400650852,
          0.98703013896145286,
          -0.0173784853447154,
          -0.84329702560856956,
          -0.23822522302858054,
          -0.86939890111958429
        ],
        [
          0.71078961479254588,
          0.88185830352811279,
          0.98776789853002156,
          -0.15726454475521504,
          0.92018835875154514,
          -0.54564540101660042,
          0.072287064699787643,
          -0.5863735137861037,
          -0.23175679564745258,
          -0.18556381792274,
          -0.11061175519112673,
          -0.4635315105479505,
          0.72859491676743848,
          -0.73133226875535862,
          -0.59851691821270814
        ],
        [
          -0.62069176489710287,
          -0.2528777773587742,
          0.47278373786816819,
          0.63533976009517,
          0.69318036688440521,
          0.42169573540370847,
          0.69087928668802634,
          -0.50365489976291911,
          -0.60202973800073345,
          -0.72320483864710339,
          -0.871862320950728,
          0.11210024136381355,
          0.04113865493509597,
          -0.96976888897217528,
          0.66617879811062286
        ],
        [
          0.33637117521606796,
          0.962885533775968,
          0.53064177539783808,
          0.92528601420513379,
          -0.47099648648922049,
          -0.84288102075902371,
          -0.177743221444692,
          -0.073773999687270164,
          0.27503156011643182,
          0.19521727382692813,
          0.79148418151353661,
          0.089828977717851671,
          0.38916789846210936,
          -0.94892986440419869,
          0.96074866903333733
        ],
        [
          -0.93778001962452606,
          0.75462059428898753,
          0.085046785470016623,
          0.31225241964131578,
          0.770679342094297,
          -0.99091733237241886,
          0.45117779583885836,
          0.64917266160437825,
          0.70106605604928951,
          -0.82449570561253138,
          -0.14141698160647531,
          0.053278539686320549,
          -0.69375620001275318,
          -0.3151732231056234,
          0.59981414190812776
        ],
        [
          0.047998924243633695,
          -0.4147435982341528,
          0.17840948170606488,
          0.44903470120772704,
          -0.48393089277718865,
          0.4970070501839759,
          -0.60410243859307811,
          -0.97801762888019916,
          -0.57064975912976046,
          0.8577449989276319,
          0.7410801567374653,
          -0.023050388430383227,
          -0.32345840880931159,
          0.20526360422059334,
          0.24528079460687025
        ],
        [
          0.82682477679811939,
          -0.32212186177285612,
          -0.11610960675783549,
          0.23138484322839023,
          0.39896809193256594,
          0.38805203335862543,
          0.65915395757390216,
          0.64407880582103494,
          -0.032845892927446711,
          0.83354957697487764,
          0.91170768460770313,
          0.16463414731697432,
          -0.12503034492309612,
          -0.82869101357966379,
          -0.49224688527788762
        ],
        [
          -0.24207879512811542,
          -0.29141964941309989,
          -0.045277040445448363,
          -0.75198180287674976,
          -0.73209659505446367,
          -0.42647170312199806,
          -0.94704814193293008,
          -0.26201765033930752,
          -0.47873486635504103,
          -0.54586285743611618,
          -0.76368600807359821,
          -0.812886151594543,
          0.57764109120424612,
          -0.55208354787569458,
          0.87974697059052021
        ],
        [
          0.66772211593660735,
          -0.031395600106876441,
          0.053650535457817256,
          -0.83834359904053024,
          -0.90746912220159881,
          -0.21551693181195794,
          -0.77937096268723682,
          -0.29338490896467379,
          -0.041347296533910664,
          -0.93440410507147065,
          0.64246061764228457,
          -0.66576457894525876,
          0.73670746561791522,
          -0.64169730572643091,
          0.54388440518865133
        ],
        [
          0.82402870181536381,
          0.76761087131182071,
          -0.070585120513432617,
          0.48265162379922966,
          0.96584089285168817,
          -0.70038870416731835,
          -0.798126691976658,
          0.092670777061198154,
          0.59034177410198085,
          -0.28860553719753196,
          0.35692621183810608,
          0.35619481795558267,
          0.0048363866031226549,
          0.97510314838719292,
          -0.68841547728237729
        ],
        [
          -0.40075773054703057,
          0.97944242916001556,
          0.20478294202210895,
          -0.18126425064065385,
          -0.76273498634668069,
          0.0036209614171891363,
          0.5388880368980361,
          -0.85318949196824634,
          0.68731757189072529,
          0.17961259648664416,
          -0.45622872654764,
          0.27538382324296207,
          0.80017549743157168,
          0.067349250720569243,
          0.73598572065267542
        ],
        [
          0.79142202190658217,
          -0.10794654098780747,
          -0.96539749409888909,
          -0.48074667122116677,
          0.11234172026938817,
          0.35472946844657405,
          -0.56913438300138652,
          0.99174782848903931,
          0.9046769959892722,
          0.49314609459733044,
          0.074667378579221441,
          0.26038631782493826,
          -0.88629959157791,
          -0.72913230860005218,
          0.995836884609342
        ],
        [
          0.804287126850726,
          -0.260775683393282,
          0.38088437902136091,
          0.12671768966966512,
          0.49280270028500317,
          0.640469658497016,
          0.10644718287743342,
          1.0843410477801005,
          0.15676589340407876,
          -1.0273169711583419,
          0.26954253782310433,
          -0.28752387396486828,
          -0.86153246582209253,
          -0.33220074052208587,
          1.1526938643765221
        ],
        [
          -0.78275765522546992,
          -0.8316673758999199,
          -0.94657295257338736,
          -0.25530047801757655,
          -0.16966072989714218,
          0.13428595095406024,
          0.59037455239823589,
          -0.75065428562993786,
          0.45926398626773557,
          -0.81962669999041826,
          -0.38985566541601635,
          -0.19730365282763879,
          -0.97405629695407125,
          -0.010081981100160217,
          0.18919009874500742
        ],
        [
          0.72472872765935081,
          -1.0046900606268767,
          -0.97186642183435878,
          0.67546815405651228,
          0.27627358331261254,
          -0.54188825066011115,
          -0.71474132707690563,
          0.73746976460769476,
          -0.98888430524061,
          -0.4687430576623054,
          0.086761849075620665,
          -0.0096963228027488711,
          -0.83892275173757846,
          0.80609549251660884,
          0.85732387317562209
        ],
        [
          -0.46040212142314663,
          -0.53520985675105881,
          -0.22484332956716793,
          -0.48094623506963441,
          1.2702424609298508,
          -0.45286345915185133,
          -1.0310602483552414,
          -0.065251432998377573,
          -0.10309122836140784,
          0.65080773871179465,
          -0.1480080784127458,
          -0.87671085862939191,
          0.44804755569398375,
          -0.21446206064355153,
          1.0177307110889768
        ],
        [
          -0.54375430950823911,
          -0.36954366777596359,
          -0.79834611823031776,
          -0.42369532267416965,
          1.0819919982727622,
          -0.3788030493396683,
          0.1212989251290193,
          0.70915878809617372,
          -0.672335018545256,
          -1.3331509705250819,
          -0.5762869860387746,
          0.84906335217256612,
          -1.1495808437238326,
          -0.48770949156768678,
          0.089373871103763811
        ],
        [
          -0.83041016563601722,
          0.18399223741121382,
          -1.3157814970781565,
          -0.13148930240990053,
          -0.0780598147676565,
          1.3296878751467496,
          -0.23145859746888481,
          -0.48986125588781604,
          -0.68948128927179386,
          -1.4295341162422235,
          -0.57450038927687175,
          -0.522326983817322,
          -0.03234911273421167,
          -0.97459174616394284,
          0.40746241081870582
        ],
        [
          0.25784773956490953,
          0.06104974840232389,
          -0.91359853976211725,
          0.22650194928073622,
          1.1258354747506132,
          0.30753771474891356,
          -0.7021006980473018,
          0.510466003912403,
          -0.30803757389357944,
          -0.99800645500437712,
          -0.94792247708350841,
          -0.46277473467091274,
          -0.40544574778908882,
          -0.92319286094916442,
          1.4943618590884138
        ],
        [
          0.9544101620457045,
          -0.3645221432620005,
          -0.1273270253156846,
          0.20995137361891564,
          0.74995120193310949,
          1.1466376035917685,
          -0.62747348353078758,
          0.27360178483493758,
          0.57382458858880925,
          -1.8542311296234515,
          -0.41391147599196731,
          -1.0090782305922386,
          0.9248009880645,
          -1.1032405115330835,
          0.28933360387293949
        ],
        [
          1.2247000058659705,
          -1.3513178024937536,
          0.010381991372577077,
          0.048400837567294609,
          -0.43648953440596489,
          0.81716007076045161,
          -1.910077527802464,
          0.62579982798355116,
          -0.71836935094542476,
          -1.2102015803327157,
          -0.54788261471260247,
          0.012896294136492265,
          1.5850536842324285,
          -0.056718591867722185,
          1.2537292175926802
        ],
        [
          -0.57236073659901021,
          -1.2664088466602352,
          -0.40882422932617574,
          0.92753106435272947,
          1.1492288663933452,
          0.64808897109140162,
          -1.5739138172136666,
          0.94204691342653291,
          -0.28660078218608365,
          0.0019175677887301502,
          0.75754864527293908,
          -1.3744564199139004,
          -0.48803209256248814,
          -0.13838391307857367,
          1.23649092808825
        ],
        [
          1.0202541340124569,
          -1.2033234858778383,
          -0.39884497410076064,
          -0.49308287627023867,
          0.62155413890469347,
          0.73614498308987908,
          -0.52183660509541585,
          0.24512509937427776,
          -1.0513684207604814,
          0.34100065240110439,
          -0.77524551697014432,
          -0.35780743283403332,
          -0.40921006854284336,
          -1.131179185233971,
          1.2527765239782616
        ],
        [
          0.55780788320614449,
          -0.0638403174884279,
          -0.53058888221187572,
          -0.34698804981965536,
          0.29904359032892086,
          -0.82249557889100944,
          -0.049013033984357218,
          -0.52102681291357977,
          -0.35899763982541305,
          -0.32455140461637649,
          -0.67912122768037875,
          -0.39796676629405159,
          -1.2985875858000155,
          -0.23133402761664426,
          0.92457487488661239
        ],
        [
          0.781834097385606,
          -0.052059286155382446,
          0.044431643555379569,
          -1.2503640797081428,
          1.3920456335692042,
          -0.3597373277605323,
          0.50886032188333741,
          0.35545826849251133,
          -0.96624924417140867,
          0.4303597040841407,
          -0.028338871619746266,
          -0.12779770072305222,
          -1.1070774368478875,
          0.40776179449841421,
          1.1250105630565233
        ],
        [
          -0.331046355672827,
          -0.39099355422907917,
          -1.0161337203290697,
          0.25878159161822789,
          0.24341286343002663,
          -0.005099558127001207,
          -1.2251739937741786,
          1.1410408433192316,
          0.29341248452410934,
          0.733730795661334,
          0.35887716969458033,
          -0.012981383090391192,
          0.3361197623302955,
          -1.0287080452018782,
          1.6037062897870815
        ],
        [
          0.47321917106589412,
          -0.778151075741914,
          0.15985010595620658,
          -0.56730575493467483,
          0.10946255569302155,
          -0.28935443187639848,
          -0.93247211683890163,
          0.99181955452766579,
          -0.54845327421457335,
          -0.076192700705996083,
          0.3134646484664656,
          -0.649071561103706,
          0.67697031448538891,
          0.49465690775460092,
          0.92134635864981107
        ],
        [
          0.0084687108008116869,
          -1.1105839690857338,
          -0.985536325451399,
          -0.77929954977549531,
          -0.30744742496069771,
          -0.35690210954290458,
          -0.69526448824832088,
          -0.29598426898177133,
          0.26631999196488676,
          0.56958031572410917,
          -0.52865078992103443,
          -0.46246679543783642,
          0.56365742197934687,
          0.12034868009886481,
          1.0578609063811595
        ],
        [
          -0.735984753412567,
          -0.81511860227276323,
          0.4010979254662666,
          0.5583602849721605,
          0.020358432922820052,
          -0.059023072489943644,
          0.01928222369967349,
          1.0511143849648879,
          -0.71106287310459526,
          -0.79264002443784987,
          -0.28218339737349513,
          -0.84696119473524389,
          -0.56117322190236774,
          0.77167920563086279,
          0.824492821918684
        ],
        [
          0.93410850789499233,
          -0.27348597421631843,
          0.17170553967296645,
          0.074659925424249929,
          -0.49219808683460109,
          -0.65748842184170475,
          0.57893271753309139,
          -0.92105246642732819,
          0.81046300136200922,
          0.147900282078988,
          0.045406251593458985,
          -0.17732286761467658,
          0.02942372080945465,
          -0.49688277745326181,
          0.2190023784726734
        ],
        [
          0.21762543573783688,
          0.72117733311385057,
          0.6632619480255636,
          0.00010793113608700592,
          -0.73520263393149,
          -0.57782608677025082,
          0.79560398898541906,
          0.58113509271642949,
          0.4132846174066736,
          -0.1188261693763676,
          0.651141046015855,
          0.035820175884177512,
          0.67552089784269642,
          -0.83516378935175772,
          0.5016945743542055
        ],
        [
          -0.713338295027981,
          -0.47851305726008714,
          0.33226325298296733,
          -0.94942500967130972,
          -0.52221842599152546,
          -0.6373518997754678,
          -0.81863116198012575,
          -0.56702981655297813,
          0.98183065631133537,
          0.023178936378267186,
          0.45389244214201496,
          -0.19544887530355462,
          0.89064043074566646,
          -0.68431453123077468,
          -0.056021439802497089
        ],
        [
          -0.74399947238377706,
          -0.93466274711320041,
          -0.094967380579640354,
          -0.51840623806760622,
          0.045265568652687514,
          0.69282180057393761,
          0.49593981048308694,
          0.40700024088103887,
          -0.53306194649371286,
          -0.144210749142586,
          -0.65289998569014307,
          0.32140877785418964,
          0.71536362742725534,
          0.72225035871058985,
          0.53625661511293421
        ],
        [
          -0.1224860099913492,
          -0.30734530525306464,
          -0.66714798677128528,
          -0.23011661543137787,
          -0.1480230623860905,
          -0.21668287077411286,
          0.4683828991393702,
          0.56104544551299873,
          0.38569678554030429,
          1.0013959211535819,
          -0.90382088047872122,
          -0.16597576869389721,
          -0.42508808929757019,
          -0.73492188793927149,
          -0.023491481278689035
        ],
        [
          -0.30758846647336668,
          0.324964877767244,
          -0.93760214670908426,
          0.20035988056473972,
          0.37145224679212369,
          -0.525761127606757,
          0.27520145983650851,
          0.5900166828762925,
          0.0283184203013659,
          -0.050064719351761114,
          0.52484223127876584,
          -0.17629165958351203,
          -0.6375223701940872,
          0.22564032305649853,
          0.41077664265725966
        ],
        [
          -0.262339153748592,
          0.515322689941275,
          0.78817244692875166,
          -0.14413327492566846,
          -0.28682670803835303,
          0.79344910972862392,
          -0.72764363962883338,
          0.30896383350614026,
          0.34361585874895828,
          0.12152956787917711,
          -0.54695635236416906,
          0.23369027130072509,
          -0.92490884087234915,
          0.44428351700147684,
          0.19015581311967233
        ],
        [
          -0.12546861962161893,
          0.40050115281491794,
          0.304281754842804,
          -0.43817344021908416,
          0.96117881667263616,
          -0.29857273862259959,
          0.41170317117973332,
          0.72658490051882563,
          0.89594750909366239,
          -0.33760540245848131,
          0.308656944187063,
          -0.99366182429224437,
          -0.2140673787674108,
          0.58958424451013658,
          0.33774029541085548
        ],
        [
          0.71805609808476745,
          0.549068628468533,
          0.78842471151102567,
          -0.11179542217853852,
          -0.3419412004049992,
          -0.3795592811172771,
          0.286655879221124,
          0.15206470986370596,
          0.14550285105063018,
          0.16952718502943054,
          0.63192399219777529,
          -0.91040183278394593,
          -0.7632504202241317,
          -0.43586394187895516,
          -0.66876109716408427
        ],
        [
          -0.28397371638939128,
          0.95607096497120747,
          -0.01415463737779897,
          0.16431431070071348,
          0.66083570462047114,
          -0.048080784209917952,
          0.23679570412811185,
          -0.075020331497382645,
          -0.09802012031482428,
          -0.64565108646943636,
          -0.000842286686497195,
          0.015366615730421831,
          -0.48865643498536449,
          -0.35215844415069963,
          0.10456125901885277
        ],
        [
          -0.59118220408383637,
          -0.35544485676896742,
          -0.63593042113793208,
          -0.392813032645517,
          -0.27538850760411637,
          0.72579432728529669,
          0.77757048841934973,
          -0.41398543306967822,
          -0.17069455341597775,
          0.45099109598659293,
          -0.78264591871001,
          0.47442322964202738,
          0.35487835293121783,
          -0.36505694541716149,
          -0.34856874644819719
        ],
        [
          -0.25774921779574084,
          0.65413550654257113,
          -0.4237384661497321,
          -0.91416353343711154,
          0.48368449331947422,
          -0.51749567582955858,
          -0.73644642350246714,
          -0.39493596908446432,
          0.75996807238839748,
          0.53424501930124113,
          0.1060136594859499,
          -1.1602961860256826,
          0.8967751539887121,
          0.79225307562079084,
          1.0251628254481007
        ],
        [
          0.18796006627825024,
          -0.9623537799309182,
          -0.95007709747864688,
          0.25397182353863418,
          0.072865011050411654,
          -0.27914135873824963,
          -0.18667919621094606,
          0.67251829482145786,
          0.78674249849496614,
          0.59179590151327388,
          0.32894692238807033,
          0.53119874136140977,
          0.38170013207645392,
          -0.17654926788090872,
          1.6708981213962717
        ],
        [
          -0.54834379665726551,
          -0.62849305504057074,
          -0.80479467736599331,
          1.6859995935177752,
          -0.19928917575846109,
          0.22943237400140398,
          -0.42991204772508068,
          0.29535390747033069,
          0.27850905024451184,
          -1.3393859191026187,
          -0.6643101742923,
          0.20640799450355207,
          -0.4600699823091059,
          -0.36196422782541621,
          2.018518898483427
        ],
        [
          0.42758801970580446,
          -1.2729968565339509,
          -1.564828884101245,
          1.4339438875066703,
          0.801339135605098,
          0.72362143051221373,
          -0.15215734284493621,
          0.18270926756972286,
          -0.15057191591964575,
          0.30946573982559122,
          -0.590274913853812,
          0.5456962548848816,
          -0.720256340136045,
          -0.25434976986655305,
          2.0568575811364
        ],
        [
          -0.1704616014715048,
          -1.296318213441634,
          -0.63171786682440079,
          0.36313796461029868,
          -1.4482269629693967,
          0.73929836338017441,
          -1.8535597155398009,
          -0.10192778277193269,
          0.83685261455275894,
          -1.4789302372224111,
          -0.96856866820633714,
          -0.52316338258970874,
          -1.59191902746817,
          0.31233443840806541,
          2.0572125266866315
        ],
        [
          -0.49722363679585313,
          0.15282912387022973,
          -2.008608376185181,
          1.9164614378259126,
          -0.49037447720754557,
          -0.19044948059274927,
          -0.97269495523643967,
          -1.0059912207068587,
          -0.63570795774833067,
          -1.5718750561159394,
          0.18842925282283951,
          -0.41613550742003447,
          -2.6161622538795783,
          -0.83499984541822248,
          2.2553966090125313
        ],
        [
          0.73213150410279659,
          -1.179194998133944,
          -0.53038848409100192,
          0.49654559036211132,
          -0.12475704521415061,
          1.2292423622279889,
          -0.73193359159399718,
          0.31067662031737575,
          -0.22987050585086458,
          -2.4959413220513866,
          0.1045839702472481,
          -1.1742949298101855,
          -1.5715573635699043,
          -0.7803052626468483,
          3.5027205955451084
        ],
        [
          -0.98397808885192106,
          -0.556458949645636,
          -1.2655154476647923,
          0.78669072380081639,
          0.78870772355033991,
          0.52653383374705143,
          -0.69768282516554492,
          -0.48942459220553919,
          -1.2247547038316917,
          -1.098214322841307,
          -0.94590260530391934,
          -0.43064661026257134,
          -1.354636655335848,
          -0.7380918795531981,
          2.7182479783936491
        ],
        [
          0.0843937402584134,
          0.26848167519640409,
          -1.7231947842825131,
          1.0000700352842209,
          -0.59816287179000471,
          0.71121167055768841,
          -1.4726171730244868,
          1.0742680138786629,
          -0.42940723462903724,
          -0.57135881128150556,
          0.94672485608892054,
          -1.7008983217778657,
          -0.26342194461779922,
          -1.4500546214535959,
          2.9886233717635919
        ],
        [
          -1.3153199920193448,
          0.93086491353588841,
          -0.93030663131074809,
          1.0818810510254493,
          -1.159070226752223,
          0.054732225290185607,
          -0.65566911935912764,
          0.33491139159522315,
          -0.19538907273719763,
          -1.3841554641037435,
          -0.44320108077305914,
          -1.3287324646551577,
          -0.83381169341466044,
          -0.51191537701341627,
          2.4429719112094221
        ],
        [
          -0.26270703233160952,
          0.43500650195142493,
          -0.60049202337081908,
          0.41793549371077732,
          1.0740378940527029,
          -1.0747783584531143,
          -0.3478734401366308,
          0.13349144724696596,
          0.34621845171101095,
          -0.60383051439965074,
          0.26803842930900934,
          -1.7562932786151506,
          -0.20517353911279498,
          -0.098790621171906623,
          2.1311174286926251
        ],
        [
          -0.36444059395131784,
          -0.66768297448122227,
          -0.71099673112739159,
          0.05096123841115998,
          1.0212622236881135,
          0.90199187981959561,
          1.526881693834905,
          -0.070924629695363825,
          -0.084543935379977592,
          -0.22319638213612,
          -0.26538264947330847,
          -0.53125267666565767,
          -0.25656195067969162,
          -1.5313777636463952,
          1.0314916558746556
        ],
        [
          0.20619918163998349,
          -0.63678670660472392,
          0.323634708232646,
          -0.53015011852395033,
          2.0324156116918455,
          0.82794502742644294,
          -0.28086505878052004,
          1.1127960045812304,
          -1.19204755368924,
          -1.349925059769665,
          0.83861097669399387,
          -0.17916302413889576,
          -0.60890367329359663,
          -0.40942360564926344,
          0.48199325091372558
        ],
        [
          -0.63816519756127454,
          -0.4691022283838101,
          -1.3948858777556281,
          -0.77008608254266009,
          2.2477043019663339,
          0.32688649126497621,
          -0.040486871513393446,
          0.32016936757336978,
          -0.24916577867099443,
          -0.41189422954924737,
          -0.11303267641282605,
          -0.50448507724455072,
          0.23771410788011385,
          -0.86407716594045036,
          1.1765142201350967
        ],
        [
          -0.65868801004810351,
          0.12259344292140587,
          -0.92890851290152954,
          -0.523978762547885,
          2.2782495206512623,
          -0.40425516906985803,
          -0.017683646436811237,
          0.77711317094368337,
          -0.10727151454860966,
          -0.1502526924773816,
          0.26158831222116508,
          0.85914946770846168,
          0.39488001286238278,
          -1.1828004625927331,
          1.1225622718270909
        ],
        [
          0.71651546013619538,
          0.16494821151271671,
          0.92228189798604532,
          -0.60063397914150052,
          1.9442244250317595,
          -0.18596349118889027,
          -0.52352635881670551,
          0.5999940346509518,
          -0.27608065209901222,
          0.54768046062662157,
          -0.21595939222305391,
          -0.0863917494375258,
          0.21875212375448758,
          -0.37162288661853393,
          1.5098856657346154
        ],
        [
          -0.10441271371724754,
          0.18939530723427253,
          -0.21718799062279726,
          -0.48061619900399838,
          0.86878881520528373,
          0.30807000852332761,
          0.643957103485808,
          0.088115821273301864,
          0.68759152191181749,
          -1.2519458412041391,
          0.28079115395422055,
          -0.29075879002266697,
          -0.46477220188372081,
          0.022290773903438664,
          -0.7237001063659404
        ],
        [
          0.77435518127397585,
          -0.020338102842154069,
          -0.44715529716262331,
          -0.69283606463360847,
          1.0139186069583237,
          -0.70326387021425019,
          -0.43993287790296148,
          -0.40504544121984504,
          0.82444663839603782,
          -0.70704362035593837,
          -0.29037158178860811,
          0.93507832689486226,
          -0.46433738179823608,
          -1.3490865700997221,
          0.13742410173767916
        ],
        [
          -0.24548144322855522,
          0.33622048033237789,
          0.28620834766767128,
          -0.65130770878442534,
          1.0318405464104143,
          0.91733665468985792,
          -0.15329386843604703,
          -0.007926041059457805,
          0.70644543184055508,
          -0.54634634443437635,
          -0.58144768142345338,
          -1.004759048790502,
          0.0542936639050691,
          0.1291384150120016,
          -0.980173392726795
        ],
        [
          0.084502878304019008,
          -0.30728385704801681,
          -0.39068708802290386,
          -0.93627687958206418,
          -0.61466104173253211,
          -0.276978832641314,
          -0.29683407190727124,
          0.051960426542086581,
          0.3417481154312958,
          -0.29596740042219127,
          0.79272696898690542,
          -0.969836777794682,
          -0.14377957907178376,
          0.98657034654639686,
          -0.660348958342312
        ],
        [
          -0.711000801559905,
          0.78540867342597009,
          -0.25957340276231544,
          -0.97300093307689739,
          -0.66604246408729773,
          -0.35889479438271438,
          0.89758800780607417,
          -0.61046029253674683,
          -0.67120392805258711,
          0.022448838153090546,
          0.47621598348522709,
          -0.59300461515527958,
          -0.29412568673775336,
          0.71879524392687066,
          0.10653000166021187
        ],
        [
          0.068849034344228649,
          -0.05049687173245,
          0.16903672512244874,
          -0.54379573826276673,
          0.21533519704778995,
          0.21128880801186689,
          0.94491989650039032,
          -0.65990066527200875,
          -0.80863696381743033,
          0.30702503018569727,
          -0.2217497553440847,
          0.1340867843318849,
          0.022561051777484405,
          0.04279463533000482,
          -0.20731488704369161
        ],
        [
          0.94111729805898781,
          -0.41942251823140936,
          0.89949216419472333,
          0.63070434134953723,
          0.22281581636505662,
          0.88709216308855032,
          0.52474638070195045,
          0.77999421559243154,
          0.92889418259082168,
          0.35635944954261561,
          -0.27833294770981493,
          -0.35241051909657856,
          0.32439752424725637,
          -0.6216608667702398,
          0.95189687439107
        ],
        [
          0.76622702636704643,
          -0.32969835845335926,
          0.42016131552497471,
          -0.27922081662666742,
          0.29748512096602436,
          0.16129783560511557,
          0.39108317250887931,
          -0.859536798801946,
          0.87592756917903836,
          -0.23690751156539686,
          -0.28580707825254864,
          0.79140080707992488,
          0.013596870663341495,
          0.76007035397559763,
          -0.44134406234895657
        ],
        [
          -0.10398719448283725,
          -0.57524789653272546,
          -0.85624289849071822,
          -0.70362984060424372,
          0.79335880349112109,
          -0.62179522311707347,
          0.26629537263312308,
          -0.230117087150685,
          -0.19464967105336584,
          0.78675920881371031,
          0.59907698412622545,
          0.8855391379222578,
          -0.53026172552285278,
          -0.087847203292433479,
          0.67828230328949579
        ],
        [
          0.0726879906145403,
          -0.62629950473947882,
          1.0501434351535559,
          -0.29569624218766227,
          0.019366417471291961,
          0.869230379777738,
          0.87859181847678669,
          -0.36241613859985911,
          -0.2765312095962727,
          0.72015641638007755,
          0.95771887439952752,
          0.45681569275066253,
          0.85195112551118735,
          -0.29854629702612545,
          0.14478537402204386
        ],
        [
          0.506102187183972,
          0.83886747930904093,
          -0.13438345092348658,
          -0.073413623263971411,
          -0.64483249382716457,
          -0.098283094021389336,
          1.7089215991664912,
          -0.43289862565345955,
          -0.028191905595588714,
          -0.32351359777734812,
          0.31751309741654143,
          0.48439757977477277,
          -0.98212831126379574,
          0.76250979965039822,
          -0.57062725492465516
        ],
        [
          -0.62692097847207606,
          0.73304071124100367,
          -0.10369170187847962,
          -0.0071327689041156411,
          0.51112322736103988,
          1.0552430052410582,
          0.1631669391305571,
          -0.36902965658519626,
          0.36174035263811277,
          -0.81302170269039176,
          0.25793659629097043,
          -0.14203862896961206,
          0.62148745333967625,
          -0.62771407923710709,
          0.27712299612215174
        ],
        [
          0.53247083580274213,
          0.0057017220795415957,
          -0.34776283339660369,
          0.31879936612258025,
          -0.28967518485226146,
          -0.58088465372529929,
          0.56432042785313485,
          0.42698731936675544,
          0.52083330511715142,
          -1.5123718614990065,
          -0.063731457314840936,
          -1.5571137729048483,
          -0.94822594485707168,
          0.62143355653355326,
          2.0486698881497958
        ],
        [
          -0.93675485368332112,
          -0.19985373276539714,
          0.46327188015362303,
          1.6537343181325142,
          -2.2132459488574194,
          0.84325927598183292,
          0.15672712718632115,
          -0.78920429663487279,
          1.5456307566225913,
          -0.308169719390408,
          0.59672285636629763,
          -0.038803457499464393,
          -1.1169135534316093,
          -0.97919931681511552,
          2.6412445795663921
        ],
        [
          0.38986806910787369,
          0.34137113638618316,
          -0.60221606360089408,
          2.2448280978403949,
          -0.32731412190700437,
          0.26638492157091487,
          0.53789243005612242,
          -0.41667046465938856,
          1.1414626288777798,
          -1.1968489035627419,
          -0.21282227660275804,
          0.19169990885614754,
          -1.3292914621392924,
          0.1189176990487701,
          3.5643905537018661
        ],
        [
          -1.4023416483687685,
          -0.60298398128878083,
          -0.28606667533296432,
          2.71661311800468,
          -0.76516059853553109,
          0.060052430512507422,
          -1.199080481533948,
          -0.49389218835590515,
          1.9544959036648852,
          -1.4894694306919196,
          0.43925827046135663,
          -0.82333611011535579,
          -0.842632392694657,
          -0.22769028678753339,
          3.234348581661914
        ],
        [
          -1.5227641620959143,
          0.25785138237320993,
          -1.802133735837254,
          0.39128900274714873,
          -1.0455251515500847,
          0.24740634568394543,
          0.99122990874948291,
          -1.8327509992007522,
          2.0329130551553947,
          -1.9501996917096043,
          -0.30562024439072338,
          -0.55862655748418977,
          -1.9630039548291398,
          -0.044340524830994418,
          2.7085379482396541
        ],
        [
          -1.543010497985668,
          0.42236232123493078,
          -1.3403868168603459,
          1.0630968983348479,
          -0.97622840709572956,
          0.45669995611740039,
          0.87215191507644452,
          -1.3081387945753218,
          0.87447716305900025,
          -1.9075173866116706,
          -0.80251102257945661,
          -0.046102456267999456,
          -1.1245318059027645,
          -0.95097624498383915,
          0.93389947993051525
        ],
        [
          -1.1501675544861407,
          1.415580527443457,
          -1.4565021875243338,
          1.60275029779288,
          0.24732935685852098,
          -0.095942121102508382,
          -0.39874949755769468,
          0.11595026089347561,
          -0.1193003471526478,
          -2.3366342934241535,
          0.76738538886805774,
          -1.2467648294527243,
          -0.9839464167294194,
          -0.71885834663500348,
          1.8323013864627009
        ],
        [
          0.62576698479134818,
          -0.077997290668325267,
          -2.3355968695679614,
          1.5485604508224768,
          -0.33871558895923942,
          -0.85809191862261613,
          0.1593185744851961,
          -1.0271129157329579,
          0.590840732617552,
          -2.5339062931261882,
          0.65743478837339642,
          -2.1993427228328319,
          -0.12208673053730158,
          -0.27483047790177284,
          0.24131895082138877
        ],
        [
          0.89510060339174535,
          1.5260084633369238,
          -2.5327121983903154,
          1.3851648226670645,
          0.60878764650426676,
          -0.44442781361493311,
          1.1838932202497841,
          -1.0372606636527575,
          0.56352900422081742,
          -1.1078030044977625,
          -0.0674751064038994,
          -3.191532073004645,
          0.017393314592612966,
          -1.160020212945752,
          -1.5535721207534525
        ],
        [
          0.52353639524604545,
          0.84614048979819345,
          -1.3688779089640837,
          0.33919081653534561,
          0.35731998690520822,
          -1.6144678833245,
          1.1527656704981033,
          -1.1399997800194897,
          -0.6184849753728543,
          -0.93681228526820148,
          0.62854259085721786,
          -2.2950885620019235,
          -0.20221734597060523,
          -1.6922210785096941,
          -1.1469875885672023
        ],
        [
          -0.13140318789648134,
          1.4359150825465399,
          -1.7623138848588584,
          0.3288163431963127,
          1.1258927158737702,
          0.071968914222934832,
          -0.28381539876585071,
          -1.3920219596236785,
          0.07445906878813574,
          -1.3576378323877076,
          0.47858044693003204,
          -1.8587635807798877,
          -1.9851904482250793,
          -0.37346629337403819,
          0.099633659074312861
        ],
        [
          -0.87426882423781338,
          0.589677741884293,
          -1.4988241861880778,
          1.1547760163453,
          0.11609469727170588,
          -0.027258892292635492,
          1.7175508646669413,
          -0.82098217551553554,
          -0.67138719120936385,
          -1.0242912719298021,
          -0.60938559193815722,
          -1.4087665766206623,
          -1.0897514273403137,
          -0.86254078592124772,
          1.8603886776558511
        ],
        [
          0.0013935576141385388,
          0.30035650056702629,
          -0.96165701426298489,
          -0.02496734598265269,
          -0.073971015769883963,
          0.56259130976464622,
          0.662980646602425,
          -0.67917808156276449,
          -2.1655132546505884,
          0.68474331122540077,
          -0.49841840512302071,
          -1.9817448594361242,
          -0.9043624541739258,
          -1.578656468909982,
          0.69804555323738549
        ],
        [
          0.780633951655469,
          -0.66763666649537978,
          0.43577472253864147,
          0.02468585958823806,
          -0.25195418367966371,
          0.34298675071962986,
          1.0381816530859267,
          1.3471136604881657,
          -1.7489228462753463,
          -0.362000042596759,
          0.68462600254980066,
          -1.5208253905852787,
          0.5371870241577027,
          -0.95640398562597662,
          -0.21623233467239814
        ],
        [
          -0.31014101382825632,
          0.28960512390631088,
          -0.17443968846138855,
          -0.84812567439588815,
          1.2603438480730596,
          0.78421114800251579,
          0.36170359628478876,
          0.86939193387679148,
          -0.50017492259861618,
          1.8300915845784731,
          0.41485921366527084,
          -0.35620389214651393,
          -0.39205439808875508,
          -1.785628539413489,
          1.0367209203290058
        ],
        [
          -0.35261317180730595,
          0.48148994887380531,
          0.80536765664536369,
          -3.0531796770683615,
          1.2295187613490155,
          0.44892564996198842,
          -0.17647730685837823,
          1.9311091209746294,
          -0.33546749920463653,
          1.209351838815091,
          0.96274857909750866,
          0.31363680472661448,
          0.31262648969800444,
          -1.752805187688512,
          -0.92439304406663492
        ],
        [
          0.27220225962863692,
          0.51475831054774046,
          -0.61685499669588872,
          -2.5249247015203529,
          1.6528215932920114,
          0.25353185862421029,
          -1.6425341227612187,
          0.52568753933151224,
          -1.1316943126593497,
          0.7105658806941958,
          -0.08234994231960116,
          -0.135670539984388,
          0.36702632031191534,
          -0.78215008896503535,
          -1.0257372075230558
        ],
        [
          -0.25861329458714649,
          0.82040169283221842,
          0.58015662851298166,
          -0.071391266457857067,
          0.92550276764692363,
          0.45774983689465731,
          -0.44516309731634141,
          -1.0409003356994087,
          -0.58910512594813946,
          0.27573903724082904,
          0.67350852823001,
          0.68954754111502481,
          -0.5313375886948084,
          -0.65624359691576017,
          -1.468918899620195
        ],
        [
          -0.3517894610382406,
          0.29376285001820279,
          0.77103015553395782,
          -0.15889989741779889,
          -0.792807631948518,
          -0.12524419967050529,
          0.27130259705578247,
          -0.7052288369896289,
          -0.66024913482980607,
          -0.57757947612144167,
          0.37018359520597061,
          -0.58190306166861239,
          -0.676230958997111,
          -0.47786663630715953,
          0.24938749797667825
        ],
        [
          0.81151731337869715,
          -0.35543980523877422,
          0.8703819387941385,
          -0.726745494181675,
          -0.49643119329096791,
          0.39670140483775407,
          -0.92881284021394894,
          -0.21434422381287083,
          -0.13320860982515206,
          -0.22724286673743965,
          0.41938036375007709,
          -0.79014718829694508,
          -1.1426063290449076,
          -0.13403606612982777,
          -0.40541923574331451
        ],
        [
          0.89288428622608085,
          -0.031897859398073616,
          0.97979777990559325,
          -0.44726199567996378,
          -0.238547474392828,
          0.090851343275705473,
          0.47278389894752254,
          0.075091517782971934,
          0.21761312690312482,
          0.4470779917028827,
          -0.30959654450245278,
          0.041266115992758361,
          0.5990851293432996,
          -0.20380886758637024,
          0.21473263113503244
        ],
        [
          0.61219836628772839,
          0.011291900733203013,
          0.42346235858845038,
          0.28693417656615361,
          0.35967202624257005,
          -0.53478389037286489,
          0.84449813184535161,
          -0.74847160814141866,
          0.77826989094433408,
          -0.7736224032235951,
          -0.99149644423696037,
          -0.026194664060276207,
          -0.15168528176198184,
          0.11710810898491025,
          0.37174887516852673
        ],
        [
          0.772796671574568,
          0.4613789555986762,
          0.0031111531945461012,
          0.41268329006999716,
          0.28386709536376692,
          0.21709737401031681,
          -0.91477065328301832,
          0.013534232519567667,
          -0.70439415283794482,
          0.70140950258395962,
          -0.60861485267477866,
          -0.031662773450049093,
          -0.23858922101842642,
          -0.46431840183529166,
          -0.41414644169304315
        ],
        [
          -0.1867317264352206,
          0.50476695516533332,
          0.40745203723825546,
          -0.83161013548800289,
          -0.80163872684761261,
          0.92864967096843565,
          -0.664007795609046,
          0.29387771079373,
          -0.80607096761217933,
          0.3580143467212441,
          0.47238130135114703,
          -0.099777879644758385,
          -0.88375454687435029,
          -0.056442048603222994,
          0.88446860244561165
        ],
        [
          -0.3774255875794521,
          0.53509257861651294,
          -0.90004051770570992,
          0.081664372242023955,
          -0.59689993921811568,
          -0.32937307075086625,
          -0.60353627344616212,
          0.69689938272416285,
          0.15718147542457633,
          -0.33187200587029853,
          -0.64237115139727508,
          0.0660074028801902,
          -0.15232236110647876,
          -0.70168698328338974,
          0.64132189740653489
        ],
        [
          -0.57883984990879667,
          0.534474897193566,
          -0.18935593825157648,
          -0.35155654149333221,
          0.32667896399752688,
          -0.47764821658761963,
          1.2638261692769357,
          -0.50258491168824193,
          0.39695837641449866,
          -1.0713390788149788,
          -0.71899308356384428,
          0.49420303322167852,
          0.10693615786971931,
          -0.49814730534814539,
          0.77711600816524773
        ],
        [
          -0.48196621523877325,
          0.27489546876080728,
          -0.40953241317479377,
          1.2314232472246223,
          -1.561482079535121,
          -0.16905901712171059,
          1.0837567918530564,
          -0.42487892329075128,
          -0.15447838922585286,
          -1.2429606973287897,
          -0.59833700126042111,
          -0.753210973555617,
          -0.58922980139215719,
          0.32295949968626658,
          -0.14262777684906106
        ],
        [
          0.9633137040783335,
          0.71569243271185512,
          -0.64267016630487,
          0.40631447954079108,
          -1.0161959522560273,
          -0.2653389695480774,
          0.52695238258325516,
          0.099638940588421876,
          -0.69404042016584266,
          -1.6568721996557692,
          0.48129834518475867,
          -1.2116237749758414,
          -0.98610806677590346,
          -0.12042336316400364,
          1.0616900876992821
        ],
        [
          0.28782232419599019,
          0.31236412886394754,
          -0.44116997725657459,
          1.4456771708709011,
          -2.5099696323268597,
          -0.7426594289408307,
          0.96590269479411894,
          -1.0563360409024265,
          -0.7049272337197704,
          -1.1148652994380828,
          -0.707979383084644,
          0.05918865096637918,
          0.10345241174602667,
          -0.52532479694288858,
          2.1759240479980715
        ],
        [
          0.11752364957997681,
          0.36263725176121725,
          0.24172416186039439,
          0.295965946159455,
          -0.78004147526037415,
          -0.0848495057566122,
          0.13031164962149902,
          -1.1683134073075241,
          1.0615900758530765,
          -0.19595227363803894,
          0.8428345274338428,
          1.1878490855945592,
          -2.8213535223854471,
          -1.0366778471980895,
          0.521017264917932
        ],
        [
          -0.34785537421743695,
          -0.29119406653326718,
          0.148232968680571,
          0.40678355180722714,
          -1.1220241871460706,
          -0.80726020223835671,
          0.55173402043825559,
          -0.2264248490054972,
          1.7440034096258781,
          0.068887955029347039,
          -0.025822884366234557,
          1.7578837802866278,
          -3.0247144661363148,
          -1.0821665240390743,
          1.4110884863292224
        ],
        [
          -0.42664837590279314,
          1.6008957886719955,
          -0.80664996764934116,
          2.7851119157429984,
          0.36314604853977545,
          -0.44257171319020577,
          -0.93037158927071,
          -1.2922897920703333,
          0.74844817188641166,
          0.041523739331497965,
          0.032273777035435706,
          0.30758593727194145,
          -1.3291992791382195,
          -1.1441701223290439,
          1.4115384455470961
        ],
        [
          -0.52726820725372214,
          2.5415365584782985,
          -2.2957221589615031,
          0.15013114152063445,
          -0.52092751734166554,
          0.20761353169266777,
          0.77177628090013262,
          -1.2173231616842164,
          1.9896669431718073,
          -0.49220733727991645,
          -0.88574555945672973,
          0.52256677183801059,
          -1.7052582782032342,
          -0.93188374482418812,
          0.28814295777031512
        ],
        [
          1.3424239256270321,
          0.4635335628578936,
          -1.8628898063148813,
          0.13350209921985079,
          -1.0825883136571008,
          0.62573067099671353,
          -0.14142793022990205,
          -0.64104829612720793,
          0.73038039447586722,
          0.39679839739202272,
          0.72274865157195678,
          0.25105513304172938,
          -1.9777750425313472,
          -0.91302818220034554,
          -0.99425159720611422
        ],
        [
          1.6928308559668879,
          0.14809187508034269,
          -1.2167704654877298,
          0.82277862009639291,
          -0.86505117284110389,
          -0.094875066951179463,
          -0.761564310289819,
          0.19615413430214515,
          1.8481473810463562,
          -0.031841329671484814,
          0.42918344992222607,
          -1.6323945649899361,
          -2.102340730269054,
          -2.0146461169810319,
          0.42776517379437862
        ],
        [
          0.3672364667275449,
          -0.42588993864320762,
          -2.7012481069524408,
          -0.43300301080437259,
          -0.23097897894544003,
          0.6337107511259148,
          -1.1920247553649224,
          1.1508284745243704,
          0.059259982694552661,
          -0.45066096368802877,
          -0.067303549271645072,
          0.45461378572856942,
          -0.91800178405586808,
          -0.688574692360145,
          0.51914706317617221
        ],
        [
          0.76614368426910218,
          -1.1341259470089624,
          -1.7101779456379607,
          1.6290546103962769,
          -0.25638303042119526,
          -0.56458503319903452,
          -1.5945223987086219,
          0.3597411257037223,
          0.99716089211669945,
          -1.1746324798233572,
          0.049634101885483561,
          1.6093810639126449,
          -0.418367119961153,
          -1.8151834961028546,
          0.321231931237053
        ],
        [
          -0.065514634288337675,
          1.1825057938459067,
          -2.6263469742742482,
          0.7770093406727071,
          0.071619125093719913,
          -1.5527162234765435,
          0.9499770524161476,
          0.71222690330563221,
          0.80194137115731567,
          -1.0569439897180906,
          0.47330305506013354,
          3.3046066150142281,
          -0.81057533183549157,
          0.05446315026028474,
          -0.86211244145677379
        ],
        [
          -0.46348935219180604,
          1.4193163226048529,
          -1.8646179793537629,
          -0.19100405979269083,
          1.0263626496693441,
          -1.1821408782723786,
          -0.86320439978144081,
          0.20957365378800832,
          -0.726666427075361,
          -0.22863076178961775,
          1.0677053641074936,
          1.7365004444639147,
          -2.155128892614167,
          -0.2586960315968318,
          -1.4133370084277581
        ],
        [
          0.6478611010342803,
          0.52494097710173382,
          -1.1870794674640672,
          0.88361912827646893,
          0.52851450086658192,
          -0.67651427349585913,
          -0.70336844780569641,
          -0.32519712744319712,
          1.0456543758678227,
          -0.80302764589589537,
          -0.7381341872502003,
          -0.15235550656435462,
          -0.47808876799997391,
          -1.5303770849454796,
          -0.46731552659887249
        ],
        [
          0.1062423194285128,
          -0.0902740708777197,
          -2.2217312347705658,
          1.0582194377968892,
          0.54579124397230483,
          -0.17058373661907614,
          0.23499969327918865,
          0.5380789982233154,
          0.20341930143866102,
          0.72767898765852279,
          -0.93949888250817759,
          -0.1040332367112722,
          -1.4761044952085032,
          -2.2534149645798585,
          -0.17068906010388266
        ],
        [
          -0.3091097722228392,
          0.43112152430927314,
          -2.9218535469160378,
          -0.23293234513034522,
          0.4425476699393604,
          1.555507757493402,
          1.0437072185359368,
          0.13413469914691231,
          -0.732535173431697,
          0.32597559977390655,
          0.2656441792773353,
          0.75868879252616561,
          0.7025590407024912,
          -2.1241883154477281,
          -0.17936910224586902
        ],
        [
          1.2041773046826589,
          0.28856511165668658,
          -1.6742544481416442,
          -1.9832750431761155,
          0.63199192598158049,
          1.7509156806715527,
          -0.20505102680685475,
          -1.3225511628789579,
          -0.4688537627232276,
          -0.37608397469084537,
          -0.52375265216429112,
          0.329547448498198,
          0.025137354954878476,
          -1.9062647903176608,
          -2.0028101996264596
        ],
        [
          0.17153013500582889,
          0.65701465081658306,
          -0.016744936913778524,
          -0.480100478967901,
          1.7321134571507635,
          0.85429934026580856,
          1.5588374419434496,
          -0.527364421627278,
          0.71319992680525168,
          1.4989589461607433,
          0.828245407142266,
          0.670623767189699,
          1.1516491235049542,
          -0.99964108061287782,
          -2.0106066585244267
        ],
        [
          0.37674093959755578,
          0.32315269309846123,
          1.8645582081604248,
          -1.49210685765565,
          0.95625267734101327,
          0.37214396045773135,
          0.37602598711034435,
          -0.810700617642012,
          -1.71084136430058,
          2.2026735887764159,
          0.83464688723953306,
          0.79144573951366315,
          0.30423876567265351,
          -0.44134661493745581,
          -1.7311246359972281
        ],
        [
          0.21381797207406761,
          0.84045214743896335,
          1.0667230834980643,
          -1.3757557960617495,
          0.22120258548244459,
          -1.1940692268271296,
          0.082565982249507147,
          -0.256296673927075,
          -0.43850115977084475,
          1.165097218134977,
          -0.72370327906738174,
          0.662426097208701,
          -0.05392828699364912,
          -0.5889406120999191,
          -1.5583466400299204
        ],
        [
          0.0007840848539386057,
          1.3035139283953316,
          0.29000938173747404,
          -0.11176723350821717,
          0.58413448152649383,
          -0.66060754854343651,
          0.56710615054335611,
          -1.5868559111705707,
          -0.61695712744922349,
          0.09925474663318834,
          0.23736524415087121,
          -0.025858566727859539,
          -0.60287821901230165,
          -0.67450894566863606,
          -1.2066798717131919
        ],
        [
          0.61507747248256184,
          -0.25060796877348834,
          0.095583935914000231,
          -0.91611053911471929,
          0.68705088155104743,
          0.64932212374498488,
          0.471477282244616,
          -0.84958445123153914,
          0.78375050073556818,
          0.70850487538652507,
          0.99869654536945307,
          0.77696012924188718,
          0.63081151732159413,
          0.77668554298433268,
          -0.35587934063871524
        ],
        [
          -0.084949348150728438,
          0.80914848181520971,
          -0.73697237990950948,
          0.673562315432242,
          0.99836503413786226,
          -0.66224557851845745,
          -0.26916700743768807,
          -0.72436686460906075,
          0.065978309856704428,
          0.69784838676253946,
          0.90889781829144334,
          0.81305769621959822,
          -0.42663409997644253,
          0.81088399958002177,
          0.69589830726864355
        ],
        [
          0.43476876613453441,
          -0.7575468871837282,
          -0.391353220160953,
          -0.50681435725250346,
          -0.37159986887176238,
          -0.91149340676588564,
          -0.70417857989462063,
          0.54013802647778753,
          0.559660517393472,
          0.67485505940898649,
          -0.31489036327658071,
          0.36115352542397416,
          -0.061088867358008572,
          0.85952583611622735,
          -0.62203741185979178
        ],
        [
          0.20693668811621874,
          -0.37810843236757458,
          -0.54771303390951742,
          -0.47196727132334459,
          0.92197902486719441,
          -0.40542719464438048,
          -0.61796495395165307,
          0.11254648534648543,
          -0.59395965826739727,
          -0.78139759067785142,
          0.095192709359304781,
          0.80531879927022865,
          -0.90097388699278025,
          -0.262260525453954,
          0.089193420176068017
        ],
        [
          -1.0821670574756073,
          0.057748458147480426,
          -0.19974538026341515,
          -0.46576593760809426,
          -0.086500550697308359,
          -0.83492695334431188,
          -0.33113042198391124,
          0.30978147548650486,
          0.0085148327801075428,
          -0.56543699595295427,
          0.88230574550089569,
          -0.8593923750220942,
          0.77925004970376055,
          -0.69043024942751241,
          -0.0044510067380728671
        ],
        [
          -0.56747209709863144,
          0.95784361238751436,
          -1.078041434403594,
          0.57758724695018115,
          -0.64651100218566493,
          -0.38379060873148352,
          0.39044121774273555,
          0.33661623377066863,
          0.71510434238896425,
          -1.0382372101592388,
          -0.83435393549673931,
          -0.54027944256848992,
          0.17582673694478593,
          0.63325109254977274,
          -0.75440054513496058
        ],
        [
          0.78491290658501456,
          0.48637776337468053,
          0.49168292426551685,
          2.2636905199173682,
          0.11262322596675542,
          -0.47127779756382066,
          1.3650843292055628,
          -0.062530434720118336,
          -1.2476659249451307,
          -0.10566602127232991,
          -0.63463172069287366,
          1.4136251579312003,
          -0.37747221866351094,
          0.17194563374169603,
          0.196570716183516
        ],
        [
          -0.052432494680346345,
          1.03144617842444,
          0.40333213540758395,
          1.9895210265789836,
          -1.0059059428674966,
          -0.26311313292712951,
          2.013062294573627,
          -0.69977392280438766,
          -0.70872947672104936,
          0.26673191463796769,
          -0.31102804367280373,
          1.42317786993331,
          -0.0659942712380563,
          -0.44734905557189653,
          0.4866317987753373
        ],
        [
          1.8077947847682288,
          0.090838334049778841,
          0.77903804158993983,
          1.5810572734155541,
          -1.1670070605376148,
          -0.48313596783361989,
          0.54474738589070815,
          -0.64789146951276122,
          -1.2043930956542912,
          -0.59310591297141624,
          0.18942792280662035,
          0.18768846000103093,
          -0.44618874820521637,
          0.36807396664634284,
          2.2653528325650494
        ],
        [
          0.9141091781544195,
          -0.41698396495296319,
          0.579400246507682,
          -0.030970041012765504,
          0.036574868868538682,
          -1.4505755720611238,
          -0.036607481519316948,
          -0.36600377071166013,
          -1.8086523156431937,
          -1.5014831318225033,
          -0.14773690529201042,
          0.37351190595931155,
          -1.1596636218238872,
          -0.11293521094854998,
          1.3022074456826185
        ],
        [
          0.649406666523318,
          0.56338104283524792,
          0.4058050120313596,
          0.67146733275717563,
          -0.894214089901745,
          -2.3445800654547408,
          -0.54408068737065518,
          -1.0807771781919262,
          1.1910022761321548,
          -0.12499647874893576,
          0.76812562955868557,
          -0.42391441185597384,
          -2.3520099525640665,
          -0.59491697235303764,
          0.9933013895561934
        ],
        [
          0.28114264049284643,
          0.46621831727031088,
          0.6850710505090819,
          0.4793085844135585,
          0.18691856565754475,
          -0.80875448659852656,
          1.174860548690835,
          -1.9242754157501987,
          0.72774404543738724,
          -0.3052945156793932,
          0.45199824220183465,
          0.41995828212036151,
          -2.8471681456146007,
          -1.0930909297733791,
          1.3014445337634608
        ],
        [
          -0.38215112704862847,
          -0.54548323839481949,
          0.705586066542136,
          3.4499137812822744,
          -0.025887411298387879,
          -1.0464074262916283,
          -0.70727642445636485,
          -1.1199073675871543,
          1.760386199097556,
          0.55329440952785736,
          0.47954592801530743,
          0.76719339248122942,
          -2.3086770758036508,
          -0.74667111574345635,
          0.80821623489713224
        ],
        [
          -0.77094936329467312,
          -0.21690645448262549,
          -0.23267617229585977,
          0.14107289080979305,
          -0.46629518843127354,
          -0.0044104685668362462,
          1.9081557966841096,
          -1.5469137025473703,
          1.8316797043886008,
          -0.64066430271708785,
          0.78789635793444124,
          -2.1169588955443781,
          -0.41602535068092583,
          -0.60652378379754468,
          2.3014272759822161
        ],
        [
          -0.12620282062034369,
          -0.012101840385667587,
          0.66560428455551157,
          0.35345692398274869,
          0.14654677965885093,
          -0.28030176063957468,
          0.89529210775100221,
          0.17534442581097909,
          1.1742906480001936,
          -0.15196008820818807,
          0.40881783127999904,
          -2.1928754132876476,
          -2.6960714756253115,
          -1.5066181509585035,
          3.6133156777336044
        ],
        [
          -1.3884139983074844,
          1.2418172277689614,
          -1.1852973529832658,
          1.0108312889780895,
          -1.8867239285513142,
          0.85717278796586638,
          -0.22324282537294607,
          -1.1067876149950775,
          2.2937751196696872,
          0.15479324603885025,
          -0.731410424079282,
          -0.16094607776353315,
          -3.1601572351511891,
          -0.069260494786775248,
          2.1340307596948493
        ],
        [
          -0.46626983040025194,
          -0.0881529018073836,
          -1.598172621355316,
          1.3566871321804699,
          0.48708897957798675,
          2.1306254130226132,
          -0.35467655370657419,
          -0.3095150391050025,
          2.5558512868742205,
          0.093197967489298428,
          -0.544319851990118,
          -0.544444941249977,
          -1.3589734558528468,
          0.79442501207824234,
          2.0795463454468188
        ],
        [
          0.28575480717817814,
          -0.32402524405144889,
          0.84426795295187129,
          -0.28797978543802916,
          -0.022349350144386746,
          1.0389849879190656,
          -0.39488553288379941,
          -1.0734458525137443,
          3.1167069202979447,
          -1.0801363649302165,
          0.048198813362512881,
          -0.62768654029651,
          -1.9597592608358367,
          -0.29730541229586466,
          3.671838435733342
        ],
        [
          0.003334060556938512,
          0.97638822658119218,
          0.6419047251418778,
          1.1033534867775365,
          -0.28956409231414831,
          1.4108115479955026,
          -1.0609239247523294,
          0.37392119494274684,
          2.1051980170871518,
          -0.20817995931496458,
          0.23561132917753064,
          -2.1510115765169977,
          -1.9945730150548251,
          -1.1610680371799189,
          2.0533758474762589
        ],
        [
          -0.24565328376088128,
          0.30313379033782473,
          1.4357451647587149,
          -0.46723108490349557,
          -0.17768069268696787,
          0.55203843577736467,
          1.0414453842403673,
          -0.79467309975418432,
          0.86439461609512391,
          0.77669617520082479,
          0.966605335074853,
          -1.6920861225890189,
          -1.7386073198623335,
          -2.1193203876723841,
          2.288102867647257
        ],
        [
          -0.51441338884055854,
          2.5141200887126445,
          -0.41125837991713959,
          0.15073962099435845,
          0.16061163059806166,
          0.69266617934818975,
          0.026754012854349914,
          0.18016880694448414,
          2.2266676529242488,
          0.29845829105418209,
          0.81670636383167827,
          -0.89148414623352712,
          -1.225885130873674,
          -0.59304187803723474,
          0.94320641990514231
        ],
        [
          0.85710491252773624,
          0.52643754155079514,
          -1.0980728455160849,
          -1.3077139026857581,
          1.2373807643879222,
          0.70404296336823236,
          0.68121106362488792,
          0.91338431993260338,
          2.039836498348679,
          0.74945175404151054,
          0.12322645251062167,
          0.98583228338708051,
          -0.45682548274966467,
          -0.064399149163432548,
          -0.11368740269314002
        ],
        [
          -1.1905598603421717,
          2.1147334546440262,
          -0.88526723628426629,
          0.19936310561056808,
          0.67303415092078867,
          1.3200218313017,
          0.27655557569428646,
          0.066872730724168716,
          0.765935924972689,
          -0.89492086190025466,
          0.8801597920087384,
          -0.90657224928715074,
          -0.36618121545750182,
          -1.0112667431321991,
          0.23422345241103823
        ],
        [
          -0.49141582204308415,
          1.1159353757932409,
          0.67658808025435158,
          -0.7644723492542369,
          0.024475685892707651,
          -0.20720110398325889,
          -0.35178128903851674,
          0.27527101849712682,
          0.32798133266008772,
          1.0824384722062606,
          0.047032538858813304,
          -0.76869693283025575,
          -0.19353385493020225,
          -0.41927681268931438,
          -2.1238318112480261
        ],
        [
          -1.1145980959059685,
          2.5930102128381143,
          -0.9622255065426002,
          -0.98021631949960863,
          0.76772297261307387,
          1.235581387270646,
          1.5169285480435348,
          -0.025285805033950396,
          0.081426580358271258,
          1.8403846383320279,
          0.15586858099360942,
          1.5444823860710477,
          0.12361980733183677,
          -0.0016157109114626469,
          -4.1543459091440678
        ],
        [
          0.64049574523066366,
          1.1817257808054762,
          0.97678092476739609,
          -1.1813650772948634,
          1.4558153540134182,
          0.532227657277972,
          1.824615005202781,
          -0.73213432653954813,
          -0.26955924856576274,
          1.7504306169224546,
          -0.73694122748854163,
          1.7669451885889194,
          0.87159740932760044,
          1.1181449405259321,
          -3.7790619629553457
        ],
        [
          -0.14771533221221705,
          2.715360315970373,
          0.30128689288595245,
          -1.2582398339972565,
          0.55027419137862921,
          0.28131725520215806,
          0.76562518240409028,
          -2.0203308802045652,
          1.1582783502020726,
          1.3481435217951576,
          -0.76557889543855218,
          1.7567746050292334,
          0.24518717832570297,
          -0.16993665483235268,
          -2.222461434673412
        ],
        [
          -0.19225600338448684,
          1.9953799896037436,
          -0.28578889446796135,
          -0.971249647133781,
          0.87051968057697948,
          -0.045201348352117768,
          -0.0048352808775676635,
          -0.90701670395302625,
          0.61184528010220451,
          -0.093843796328336018,
          -0.479370070818113,
          -0.2346631312565691,
          -2.01263111391336,
          -0.56954137696954132,
          -1.498823531736043
        ],
        [
          1.0196281676368191,
          -0.50973556627266692,
          -0.26353315769539326,
          0.45431613758924094,
          -0.28733029313743907,
          0.6229312151982872,
          1.2508751276055392,
          -0.55034607323975926,
          0.50526777703431291,
          -0.74329935348828413,
          -0.43727556689615005,
          0.7587317489307,
          -0.39937338807765232,
          -0.23870010778625095,
          0.26857624714552075
        ],
        [
          0.46945537738667042,
          -0.069174203381096089,
          0.062168792674171851,
          0.19767374784868713,
          -0.67178903287865754,
          -0.96297266598851761,
          -0.61216898566978151,
          0.67904153770562514,
          0.41672211851496677,
          0.67295158052692572,
          -0.94000433585822629,
          0.35067444092082661,
          0.27438700247500242,
          -0.831570161862244,
          -0.94612655455540862
        ],
        [
          0.85005245091133175,
          -0.14225031776478012,
          -0.068311903822483422,
          0.49116696960975403,
          0.033605950838906946,
          0.25831832514661862,
          -0.25270760646394069,
          -0.63855736985476119,
          0.43783519076496646,
          0.55440788430225985,
          0.40575247192983882,
          -0.42074267210308558,
          0.41537522594869586,
          -0.13038286798202523,
          0.49528217049212736
        ],
        [
          -0.67711600811779915,
          0.452830401135115,
          0.033302697489015709,
          -0.64868152935175039,
          -0.20736606010879413,
          -0.25105381003678889,
          0.73511705713463749,
          0.61049669955232644,
          -0.081672178367099571,
          -0.31267797068888087,
          0.49864581886993886,
          -0.7375896038527705,
          0.33997812235581693,
          0.7400144771524283,
          0.608778053338851
        ],
        [
          -0.47889816331740143,
          -0.40731405365036061,
          0.61119837007368127,
          -0.17727984819887924,
          0.48838401703707818,
          -0.21034513391975562,
          0.44901199940158248,
          -0.92491322393488506,
          -0.77523682365006774,
          -0.034110210834362331,
          -0.24634627727508335,
          -0.57712520504038367,
          0.45896234385062845,
          -0.76853346000194012,
          0.57625865286856182
        ],
        [
          -0.15037795713954721,
          1.3524654224175428,
          1.0339962822808015,
          1.2243532404308544,
          -1.3144560863792105,
          -1.0106822764398336,
          0.57245691748500238,
          0.10114541309303106,
          0.65995033976872275,
          0.011326977521428725,
          0.77564085656217574,
          -0.13031868050872961,
          -0.486863158304595,
          0.68188965816418023,
          0.91395473919911574
        ],
        [
          -0.057108519366686469,
          -0.45017070092548694,
          0.28765231308331507,
          2.9760437486335678,
          -1.4324714929739995,
          -0.98907260498608041,
          1.2757200191312637,
          0.586907531939344,
          -1.3202531086531109,
          -0.5756475316696994,
          -0.70301462047416552,
          0.90487865680061585,
          -0.44633018677972375,
          -0.17641077857816023,
          -0.43691957339920551
        ],
        [
          0.55646750216529128,
          0.2442968535231487,
          1.0632447172541624,
          1.9973618015726826,
          -1.5151684944812296,
          -2.0603472769891753,
          0.56500000942146478,
          -1.259431449447735,
          -1.3982192944585898,
          1.0388676121786442,
          -0.0882189016391002,
          0.83286029310955323,
          -0.24716922727991603,
          -0.84953608380831214,
          0.047941627207655178
        ],
        [
          1.5082575530826787,
          0.50629376933081272,
          0.44641285702412209,
          0.76860898026652458,
          -0.087026320814800426,
          -2.3204416365812008,
          -0.72425771853156362,
          -0.9354264841998593,
          -0.23014159974559625,
          -0.068788182576185353,
          0.62416041132509181,
          1.2311649210475617,
          -1.8920369685263538,
          -0.55172999957215141,
          0.808326141243021
        ],
        [
          -0.25200893434760152,
          -0.8897675928401847,
          0.35737838598672078,
          1.0441046202613387,
          0.039198456858426337,
          -2.3965004115223612,
          -0.34292087686087613,
          -1.8445390449592465,
          -0.83212802350191173,
